version: 100
cost-factor: 1
maxid: 40052
xsize: 2

0
1
10
2
3
4
5
6
7
7-B
7-I
8
9
B-2
B-3
B-7
I-2
I-3
I-7

U01:%x[-1,0]
U02:%x[0,0]
U03:%x[1,0]
U04:%x[-1,0]/%x[0,0]
U05:%x[0,0]/%x[1,0]
U11:%x[-1,1]
U12:%x[0,1]
U13:%x[1,1]
U14:%x[-1,1]/%x[0,1]
U15:%x[0,1]/%x[1,1]
U31:%x[-1,0]/%x[-1,1]
U32:%x[0,0]/%x[0,1]
U33:%x[1,0]/%x[1,1]
B

1235 B
33972 U01:1
26752 U01:10
1919 U01:2
31179 U01:203
23009 U01:30
21774 U01:390
9139 U01:5
26980 U01:90
35701 U01:940
14991 U01:A
30153 U01:A205
15599 U01:A505
16264 U01:B
0 U01:_B-1
7429 U01:c404
14174 U01:一
29545 U01:一点
12939 U01:一直
6821 U01:一路
20178 U01:丁字路口
6232 U01:上
32813 U01:下
35397 U01:东
10127 U01:两
13357 U01:个
4199 U01:之后
17898 U01:书柜
24510 U01:了
988 U01:五
2755 U01:从
22705 U01:传达室
8664 U01:你
31483 U01:倒
30381 U01:停
17404 U01:先
18316 U01:再
2489 U01:几
19760 U01:出
16777 U01:出去
3116 U01:出发
3363 U01:到
7258 U01:到达
494 U01:前
23427 U01:前方
2337 U01:前进
30647 U01:前面
39957 U01:十
24985 U01:十字路口
7068 U01:南
20691 U01:厕所
10811 U01:原地
29963 U01:去
5111 U01:右
24662 U01:右拐
11704 U01:右转
7885 U01:后
10013 U01:后退
4351 U01:向
1710 U01:向前
39026 U01:向着
6384 U01:四
22021 U01:回到
10659 U01:在
38475 U01:地方
28082 U01:墙角
18012 U01:处
27569 U01:多
36575 U01:大街
11913 U01:大路
3990 U01:大门
18772 U01:大门口
13927 U01:天桥
14364 U01:小
4940 U01:尽头
10963 U01:左
24168 U01:左转
38665 U01:左边
5662 U01:并
33307 U01:床
16340 U01:座
33744 U01:弯
247 U01:往
37145 U01:快
29849 U01:快点
29678 U01:快速
29032 U01:慢
28766 U01:慢慢
7695 U01:房间
23978 U01:打印机
18886 U01:拐
37696 U01:拐弯
26049 U01:收费站
27227 U01:斜
15922 U01:方向
8360 U01:旁边
36461 U01:朝着
19190 U01:机电
25403 U01:机电楼
3800 U01:机电院
34352 U01:条
12103 U01:柜子
2964 U01:桌子
19323 U01:楼
5928 U01:楼梯
5453 U01:楼梯处
4655 U01:楼道
15238 U01:楼道口
21242 U01:正北
14497 U01:段
36955 U01:民权
21432 U01:沿
4541 U01:沿着
36233 U01:湖北
29165 U01:点
9386 U01:然后
6080 U01:爬
17138 U01:玉带河
25631 U01:玉带路
10355 U01:现在
39254 U01:电梯
11476 U01:的
15466 U01:直到
8056 U01:直接
36727 U01:直行
27968 U01:着
28253 U01:移动
22211 U01:稍
29374 U01:稍微
20387 U01:穿过
35967 U01:第3
13186 U01:第一
32642 U01:第二
2052 U01:米
22876 U01:约
16150 U01:经过
27816 U01:绕
13737 U01:继续
21660 U01:行驶
25821 U01:西
741 U01:走
17024 U01:走向
33117 U01:走廊
18468 U01:走过
32148 U01:走近
8892 U01:赶紧
21033 U01:起点
24092 U01:跟前
23750 U01:路
30856 U01:路口
12293 U01:转
19950 U01:转弯
11096 U01:转身
17670 U01:边沿
22553 U01:过
32015 U01:近
34219 U01:这
9671 U01:这里
3629 U01:进入
26562 U01:退
37449 U01:退后
32395 U01:那个
25137 U01:那儿
35511 U01:长安街
27455 U01:门
12521 U01:门口
31882 U01:门把手
31711 U01:靠
6574 U01:顺着
18582 U01:饮水机
37962 U02:0201
33896 U02:1
26676 U02:10
1843 U02:2
31084 U02:203
22895 U02:30
21679 U02:390
9063 U02:5
26866 U02:90
35625 U02:940
14877 U02:A
30077 U02:A205
9804 U02:A501
15485 U02:A505
16169 U02:B
7277 U02:c404
14041 U02:一
28576 U02:一点
12825 U02:一直
6707 U02:一路
20064 U02:丁字路口
6099 U02:上
32737 U02:下
30400 U02:下来
35283 U02:东
10032 U02:两
13205 U02:个
4009 U02:之后
17784 U02:书柜
24415 U02:了
760 U02:五
13376 U02:交叉口
2603 U02:从
22572 U02:传达室
26315 U02:体育馆
8474 U02:你
31407 U02:倒
30267 U02:停
17328 U02:先
18202 U02:再
2356 U02:几
19684 U02:出
12540 U02:出去
2983 U02:出发
3230 U02:到
7087 U02:到达
266 U02:前
23351 U02:前方
2223 U02:前进
30552 U02:前面
39881 U02:十
24814 U02:十字路口
6954 U02:南
8379 U02:即可
20615 U02:厕所
10678 U02:原地
22040 U02:原处
29868 U02:去
4959 U02:右
16473 U02:右拐
11609 U02:右转
7714 U02:后
9899 U02:后退
4218 U02:向
1596 U02:向前
38950 U02:向着
6251 U02:四
21907 U02:回到
35074 U02:回头
10526 U02:在
38399 U02:地方
27987 U02:墙角
17917 U02:处
27474 U02:多
22363 U02:大厅
36480 U02:大街
11837 U02:大路
3819 U02:大门
18696 U02:大门口
13851 U02:天桥
14193 U02:小
4788 U02:尽头
10830 U02:左
2071 U02:左转
38589 U02:左边
5472 U02:并
33231 U02:床
28443 U02:底端
26999 U02:度
15010 U02:座
33668 U02:弯
19 U02:往
37069 U02:快
29735 U02:快点
29602 U02:快速
28918 U02:慢
28671 U02:慢慢
7581 U02:房间
23864 U02:打印机
18126 U02:拐
37620 U02:拐弯
25954 U02:收费站
27094 U02:斜
15846 U02:方向
8246 U02:旁边
36347 U02:朝着
19038 U02:机电
25327 U02:机电楼
3648 U02:机电院
34238 U02:条
12027 U02:柜子
2774 U02:桌子
6403 U02:楼
5814 U02:楼梯
5301 U02:楼梯处
4560 U02:楼道
15162 U02:楼道口
21166 U02:正北
2508 U02:步
14383 U02:段
36841 U02:民权
17252 U02:河边
21356 U02:沿
4427 U02:沿着
36157 U02:湖北
29051 U02:点
9272 U02:然后
5947 U02:爬
17043 U02:玉带河
25555 U02:玉带路
10184 U02:现在
39178 U02:电梯
11343 U02:的
15352 U02:直到
7904 U02:直接
23199 U02:直行
27835 U02:着
28177 U02:移动
22135 U02:稍
29241 U02:稍微
20311 U02:穿过
35853 U02:第3
13072 U02:第一
32547 U02:第二
1007 U02:米
22724 U02:约
16036 U02:经过
27702 U02:绕
13623 U02:继续
21546 U02:行驶
25745 U02:西
34903 U02:调头
513 U02:走
16910 U02:走向
33041 U02:走廊
18335 U02:走过
32072 U02:走近
8683 U02:赶紧
20938 U02:起点
23997 U02:跟前
23674 U02:路
30780 U02:路口
5130 U02:转
34523 U02:转头
19874 U02:转弯
10982 U02:转身
17594 U02:边沿
22439 U02:过
38874 U02:过去
31901 U02:近
34086 U02:这
9557 U02:这里
3515 U02:进入
26486 U02:退
37373 U02:退后
32281 U02:那个
25004 U02:那儿
35416 U02:长安街
27341 U02:门
3382 U02:门口
31730 U02:门把手
36974 U02:门桥
31597 U02:靠
6498 U02:顺着
18487 U02:饮水机
37886 U03:0201
33820 U03:1
26619 U03:10
1729 U03:2
31008 U03:203
22743 U03:30
21565 U03:390
9006 U03:5
26809 U03:90
35530 U03:940
14801 U03:A
30020 U03:A205
9747 U03:A501
15371 U03:A505
16055 U03:B
1026 U03:_B+1
7106 U03:c404
13984 U03:一
28519 U03:一点
12749 U03:一直
6593 U03:一路
20007 U03:丁字路口
5966 U03:上
30286 U03:下来
35226 U03:东
9918 U03:两
13091 U03:个
3838 U03:之后
17727 U03:书柜
24320 U03:了
532 U03:五
13224 U03:交叉口
12312 U03:从
22458 U03:传达室
26258 U03:体育馆
10203 U03:你
31331 U03:倒
30172 U03:停
20083 U03:再
2242 U03:几
19608 U03:出
12445 U03:出去
2793 U03:出发
3135 U03:到
6973 U03:到达
38 U03:前
23275 U03:前方
26125 U03:前进
30495 U03:前面
39805 U03:十
24719 U03:十字路口
6840 U03:南
8265 U03:即可
20558 U03:厕所
10545 U03:原地
21926 U03:原处
29754 U03:去
4807 U03:右
16359 U03:右拐
12635 U03:右转
7600 U03:后
4028 U03:向
16568 U03:向前
6118 U03:四
21850 U03:回到
35017 U03:回头
10374 U03:在
38323 U03:地方
27854 U03:墙角
17803 U03:处
27360 U03:多
22306 U03:大厅
36366 U03:大街
11723 U03:大路
3667 U03:大门
18601 U03:大门口
13756 U03:天桥
14060 U03:小
4712 U03:尽头
10697 U03:左
1938 U03:左转
38532 U03:左边
5320 U03:并
33174 U03:床
28367 U03:底端
26885 U03:度
14896 U03:座
33573 U03:弯
8702 U03:往
38038 U03:快
29260 U03:慢
7524 U03:房间
23807 U03:打印机
18031 U03:拐
37544 U03:拐弯
25878 U03:收费站
15770 U03:方向
8170 U03:旁边
18905 U03:机电
25270 U03:机电楼
3534 U03:机电院
34105 U03:条
11970 U03:柜子
2622 U03:桌子
6270 U03:楼
5681 U03:楼梯
5244 U03:楼梯处
4446 U03:楼道
15105 U03:楼道口
21052 U03:正北
2375 U03:步
14212 U03:段
36746 U03:民权
17157 U03:河边
5491 U03:沿着
36100 U03:湖北
28937 U03:点
9158 U03:然后
5833 U03:爬
16929 U03:玉带河
25479 U03:玉带路
39121 U03:电梯
11248 U03:的
15257 U03:直到
7733 U03:直接
23104 U03:直行
27721 U03:着
27113 U03:穿过
35758 U03:第3
13015 U03:第一
32471 U03:第二
779 U03:米
22591 U03:约
15941 U03:经过
13547 U03:继续
21451 U03:行驶
25650 U03:西
34846 U03:调头
285 U03:走
16853 U03:走向
32984 U03:走廊
18221 U03:走过
8493 U03:赶紧
20881 U03:起点
23883 U03:跟前
23617 U03:路
30666 U03:路口
4978 U03:转
34751 U03:转头
19817 U03:转弯
10849 U03:转身
17537 U03:边沿
38817 U03:过去
31749 U03:近
34029 U03:这
9462 U03:这里
14706 U03:进入
26410 U03:退
32205 U03:那个
24833 U03:那儿
35302 U03:长安街
27246 U03:门
3249 U03:门口
31616 U03:门把手
36860 U03:门桥
31540 U03:靠
13642 U03:顺着
18354 U03:饮水机
33991 U04:1/米
26771 U04:10/米
1957 U04:2/米
31198 U04:203/房间
23028 U04:30/米
21793 U04:390/米
9177 U04:5/米
27018 U04:90/度
35720 U04:940/米
15029 U04:A/座
30191 U04:A205/门口
15618 U04:A505/的
16283 U04:B/座
16587 U04:_B-1/一直
14573 U04:_B-1/上
32756 U04:_B-1/下
2641 U04:_B-1/从
8512 U04:_B-1/你
17347 U04:_B-1/先
18240 U04:_B-1/再
24339 U04:_B-1/出
31027 U04:_B-1/到
25897 U04:_B-1/到达
38266 U04:_B-1/前方
2261 U04:_B-1/前进
37905 U04:_B-1/去
23294 U04:_B-1/右
11628 U04:_B-1/右转
13490 U04:_B-1/后
9937 U04:_B-1/后退
12179 U04:_B-1/向
1615 U04:_B-1/向前
38969 U04:_B-1/向着
37506 U04:_B-1/在
19380 U04:_B-1/左
57 U04:_B-1/往
37088 U04:_B-1/快
29773 U04:_B-1/快点
29621 U04:_B-1/快速
28956 U04:_B-1/慢
28690 U04:_B-1/慢慢
27132 U04:_B-1/斜
36385 U04:_B-1/朝着
21375 U04:_B-1/沿
4465 U04:_B-1/沿着
12654 U04:_B-1/然后
10222 U04:_B-1/现在
28196 U04:_B-1/移动
22154 U04:_B-1/稍
29279 U04:_B-1/稍微
20330 U04:_B-1/穿过
27740 U04:_B-1/绕
5225 U04:_B-1/走
32091 U04:_B-1/走近
34542 U04:_B-1/转头
21831 U04:_B-1/转身
22477 U04:_B-1/过
3553 U04:_B-1/进入
37392 U04:_B-1/退后
6517 U04:_B-1/顺着
7448 U04:c404/门口
14231 U04:一/小
37259 U04:一/点
27683 U04:一/米
29564 U04:一点/前进
35169 U04:一点/走
16663 U04:一直/向前
12958 U04:一直/走
14820 U04:一直/进入
6859 U04:一路/向
20520 U04:一路/向前
20197 U04:丁字路口/再
6289 U04:上/四
14611 U04:上/楼梯
32832 U04:下/楼梯
35435 U04:东/长安街
10146 U04:两/步
13395 U04:个/交叉口
33687 U04:个/弯
32718 U04:个/桌子
36043 U04:个/路口
14725 U04:之后/一直
4237 U04:之后/向
17936 U04:书柜/处
24529 U04:了/大门
1045 U04:五/米
25346 U04:从/机电楼
2812 U04:从/桌子
20957 U04:从/起点
9576 U04:从/这里
12464 U04:从/门口
22762 U04:传达室/约
10564 U04:你/在
8721 U04:你/赶紧
31502 U04:倒/5
30419 U04:停/下来
17423 U04:先/走
20273 U04:再/右
39729 U04:再/往
33839 U04:再/走
18373 U04:再/走过
31635 U04:再/靠
2527 U04:几/步
24434 U04:出/了
19779 U04:出/大门
19057 U04:出去/机电
16796 U04:出去/机电院
25498 U04:出发/沿着
3154 U04:出发/走
31103 U04:到/203
30096 U04:到/A205
9823 U04:到/A501
14079 U04:到/一
20102 U04:到/丁字路口
17822 U04:到/书柜
26334 U04:到/体育馆
34637 U04:到/前方
30571 U04:到/前面
24852 U04:到/十字路口
20634 U04:到/厕所
19494 U04:到/大门
18715 U04:到/大门口
4826 U04:到/尽头
38608 U04:到/左边
33250 U04:到/床
23902 U04:到/打印机
12046 U04:到/柜子
8189 U04:到/桌子
28329 U04:到/楼梯
5339 U04:到/楼梯处
15181 U04:到/楼道口
35872 U04:到/第3
13110 U04:到/第一
33060 U04:到/走廊
3401 U04:到/门口
7296 U04:到达/c404
25973 U04:到达/收费站
551 U04:前/走
34694 U04:前方/5
23446 U04:前方/转弯
9082 U04:前进/5
37221 U04:前进/一
2394 U04:前进/几
37639 U04:前面/拐弯
30685 U04:前面/的
39824 U04:前面/走
39425 U04:前面/那个
39976 U04:十/米
25023 U04:十字路口/那儿
7125 U04:南/到达
35093 U04:厕所/回头
20710 U04:厕所/旁边
35207 U04:厕所/调头
10868 U04:原地/左
37981 U04:去/0201
29982 U04:去/门口
23370 U04:右/前方
18848 U04:右/拐
5149 U04:右/转
24681 U04:右拐/一直
11742 U04:右转/沿着
15390 U04:右转/直到
31426 U04:后/倒
16492 U04:后/右拐
32927 U04:后/往
7923 U04:后/直接
23218 U04:后/直行
13566 U04:后/转
26505 U04:后/退
37316 U04:后退/一点
10051 U04:后退/两
37354 U04:后退/几
6992 U04:向/南
20767 U04:向/右
26429 U04:向/后
15789 U04:向/大门
12217 U04:向/左
4370 U04:向/左转
21185 U04:向/正北
1748 U04:向前/走
39045 U04:向着/门口
6422 U04:四/楼
22059 U04:回到/原处
37563 U04:在/前面
10716 U04:在/原地
37810 U04:在/拐弯
38494 U04:地方/停
28101 U04:墙角/右
37772 U04:处/停
18050 U04:处/左
19570 U04:处/并
30951 U04:处/往
34922 U04:处/调头
34827 U04:处/转头
27588 U04:多/走
36594 U04:大街/方向
21584 U04:大路/行驶
11932 U04:大路/走
20463 U04:大门/一路
4047 U04:大门/之后
19532 U04:大门/处
24586 U04:大门/往
15865 U04:大门/方向
18791 U04:大门口/右
13946 U04:天桥/走
14402 U04:小/段
4997 U04:尽头/右
18145 U04:左/拐
12255 U04:左/转
19893 U04:左/转弯
11001 U04:左/转身
26904 U04:左转/90
24187 U04:左转/直到
38684 U04:左边/转弯
12407 U04:并/从
16739 U04:并/出去
5700 U04:并/沿着
19627 U04:并/走
33326 U04:床/的
16378 U04:座/后
33763 U04:弯/再
304 U04:往/前
39767 U04:往/前面
24624 U04:往/右拐
31350 U04:往/后
32965 U04:往/左
25764 U04:往/西
37164 U04:快/一点
38171 U04:快/点
29887 U04:快点/去
38228 U04:快点/走
34998 U04:快速/到
29697 U04:快速/前进
34466 U04:快速/走
29488 U04:慢/一点
29070 U04:慢/点
28785 U04:慢慢/的
31274 U04:房间/去
7752 U04:房间/后
24016 U04:打印机/跟前
18924 U04:拐/出去
37715 U04:拐弯/处
26068 U04:收费站/那儿
27265 U04:斜/穿过
21318 U04:方向/出发
36670 U04:方向/直行
15960 U04:方向/走
8398 U04:旁边/即可
23598 U04:旁边/右
17480 U04:旁边/右拐
36499 U04:朝着/大街
39197 U04:朝着/电梯
38760 U04:朝着/门口
19209 U04:机电/楼
25422 U04:机电楼/出发
3857 U04:机电院/大门
34371 U04:条/路
12122 U04:柜子/旁边
3002 U04:桌子/出发
8284 U04:桌子/旁边
11362 U04:桌子/的
22382 U04:楼/大厅
19342 U04:楼/大门
14649 U04:楼梯/之后
32889 U04:楼梯/后
39615 U04:楼梯/左
5985 U04:楼梯/爬
28386 U04:楼梯/的
5510 U04:楼梯处/并
12844 U04:楼道/一直
6726 U04:楼道/一路
4674 U04:楼道/走
15276 U04:楼道口/右转
21261 U04:正北/方向
14516 U04:段/楼梯
36993 U04:民权/门桥
35321 U04:沿/东
21470 U04:沿/大路
11856 U04:沿着/大路
17518 U04:沿着/桌子
5852 U04:沿着/楼梯
4579 U04:沿着/楼道
25574 U04:沿着/玉带路
23693 U04:沿着/路
34124 U04:沿着/这
36252 U04:湖北/西
29184 U04:点/往
9405 U04:然后/右
12730 U04:然后/右转
19456 U04:然后/向前
21945 U04:然后/回到
11210 U04:然后/走
16948 U04:然后/走向
6137 U04:爬/上
17176 U04:玉带河/的
25669 U04:玉带路/往
10393 U04:现在/你
23541 U04:现在/出发
39273 U04:电梯/的
38418 U04:的/地方
11495 U04:的/尽头
28462 U04:的/底端
28880 U04:的/往
39330 U04:的/方向
17271 U04:的/河边
32566 U04:的/第二
33383 U04:的/跟前
30799 U04:的/路口
17613 U04:的/边沿
32300 U04:的/那个
15713 U04:的/门口
15504 U04:直到/A505
24244 U04:直到/门口
8075 U04:直接/走
36765 U04:直行/进入
28006 U04:着/墙角
28272 U04:移动/到
22230 U04:稍/向
29393 U04:稍微/慢
39368 U04:穿过/前面
20406 U04:穿过/大门
27379 U04:穿过/门
35986 U04:第3/个
13243 U04:第一/个
32661 U04:第二/个
40033 U04:米/右
23123 U04:米/后
34770 U04:米/处
33516 U04:米/左
2090 U04:米/左转
9291 U04:米/然后
22914 U04:约/30
16188 U04:经过/B
27873 U04:绕/着
26182 U04:继续/前进
25232 U04:继续/右拐
13775 U04:继续/顺着
21698 U04:行驶/390
35644 U04:行驶/940
25840 U04:西/走
36309 U04:西/路
33915 U04:走/1
26695 U04:走/10
1862 U04:走/2
33478 U04:走/5
27645 U04:走/一
28595 U04:走/一点
798 U04:走/五
19703 U04:走/出
3268 U04:走/到
39900 U04:走/十
38114 U04:走/快
16074 U04:走/经过
38893 U04:走/过去
17062 U04:走向/玉带河
33136 U04:走廊/尽头
18506 U04:走过/饮水机
32167 U04:走近/前面
8911 U04:赶紧/往
21071 U04:起点/向
33421 U04:跟前/右转
24111 U04:跟前/向
26239 U04:路/一直
34428 U04:路/往
23769 U04:路/走
30875 U04:路口/处
36081 U04:路口/左
28158 U04:转/90
33592 U04:转/个
39672 U04:转/再
12331 U04:转/并
19418 U04:转/然后
13661 U04:转/继续
20805 U04:转/进入
38342 U04:转弯/的
19969 U04:转弯/走
11115 U04:转身/然后
17689 U04:边沿/走
22610 U04:过/传达室
32034 U04:近/一点
34257 U04:这/条
9690 U04:这里/走
14915 U04:进入/A
20843 U04:进入/厕所
7619 U04:进入/房间
22287 U04:进入/机电
3686 U04:进入/机电院
36879 U04:进入/民权
36176 U04:进入/湖北
26581 U04:退/几
37468 U04:退后/一点
32414 U04:那个/桌子
39482 U04:那个/门
25156 U04:那儿/继续
35549 U04:长安街/行驶
39539 U04:门/上
27493 U04:门/多
30305 U04:门口/停
12559 U04:门口/出去
24282 U04:门口/处
34504 U04:门口/左
16701 U04:门口/并
38798 U04:门口/方向
39102 U04:门口/走
31920 U04:门把手/近
31768 U04:靠/门把手
13870 U04:顺着/天桥
6612 U04:顺着/楼道
18620 U04:饮水机/到
38000 U05:0201/_B+1
33934 U05:1/米
26714 U05:10/米
1881 U05:2/米
31122 U05:203/房间
22933 U05:30/米
21717 U05:390/米
9101 U05:5/米
26923 U05:90/度
35663 U05:940/米
14934 U05:A/座
30115 U05:A205/门口
9842 U05:A501/_B+1
15523 U05:A505/的
16207 U05:B/座
7315 U05:c404/门口
14098 U05:一/小
37240 U05:一/点
27664 U05:一/米
28614 U05:一点/_B+1
29507 U05:一点/前进
35150 U05:一点/走
16606 U05:一直/向前
12863 U05:一直/走
14744 U05:一直/进入
6745 U05:一路/向
20482 U05:一路/向前
20121 U05:丁字路口/再
6156 U05:上/四
14592 U05:上/楼梯
32775 U05:下/楼梯
30438 U05:下来/_B+1
35340 U05:东/长安街
10070 U05:两/步
13262 U05:个/交叉口
33611 U05:个/弯
32680 U05:个/桌子
36005 U05:个/路口
14668 U05:之后/一直
4066 U05:之后/向
17841 U05:书柜/处
24453 U05:了/大门
817 U05:五/米
13414 U05:交叉口/_B+1
25289 U05:从/机电楼
2660 U05:从/桌子
20900 U05:从/起点
9481 U05:从/这里
12426 U05:从/门口
22629 U05:传达室/约
26353 U05:体育馆/_B+1
10412 U05:你/在
8531 U05:你/赶紧
31445 U05:倒/5
38722 U05:停/_B+1
30324 U05:停/下来
17366 U05:先/走
20216 U05:再/右
39691 U05:再/往
33782 U05:再/走
18259 U05:再/走过
31559 U05:再/靠
2413 U05:几/步
24358 U05:出/了
19722 U05:出/大门
12578 U05:出去/_B+1
18943 U05:出去/机电
16758 U05:出去/机电院
21337 U05:出发/_B+1
25441 U05:出发/沿着
3021 U05:出发/走
31046 U05:到/203
30039 U05:到/A205
9766 U05:到/A501
14003 U05:到/一
20026 U05:到/丁字路口
17746 U05:到/书柜
26277 U05:到/体育馆
34599 U05:到/前方
30514 U05:到/前面
24738 U05:到/十字路口
20577 U05:到/厕所
19475 U05:到/大门
18639 U05:到/大门口
4731 U05:到/尽头
38551 U05:到/左边
33193 U05:到/床
23826 U05:到/打印机
11989 U05:到/柜子
8151 U05:到/桌子
28291 U05:到/楼梯
5263 U05:到/楼梯处
15124 U05:到/楼道口
35777 U05:到/第3
13034 U05:到/第一
33003 U05:到/走廊
3287 U05:到/门口
7144 U05:到达/c404
25916 U05:到达/收费站
323 U05:前/走
34656 U05:前方/5
23389 U05:前方/转弯
9025 U05:前进/5
26201 U05:前进/_B+1
37202 U05:前进/一
2280 U05:前进/几
37582 U05:前面/拐弯
30590 U05:前面/的
39786 U05:前面/走
39387 U05:前面/那个
39919 U05:十/米
24871 U05:十字路口/那儿
7011 U05:南/到达
8417 U05:即可/_B+1
20862 U05:厕所/_B+1
35036 U05:厕所/回头
20653 U05:厕所/旁边
35188 U05:厕所/调头
10735 U05:原地/左
22078 U05:原处/_B+1
37924 U05:去/0201
31293 U05:去/_B+1
29906 U05:去/门口
23313 U05:右/前方
18810 U05:右/拐
5016 U05:右/转
16511 U05:右拐/_B+1
24643 U05:右拐/一直
33440 U05:右转/_B+1
11647 U05:右转/沿着
15295 U05:右转/直到
31369 U05:后/倒
16397 U05:后/右拐
32908 U05:后/往
7771 U05:后/直接
23142 U05:后/直行
13509 U05:后/转
26448 U05:后/退
37297 U05:后退/一点
9956 U05:后退/两
37335 U05:后退/几
6878 U05:向/南
20748 U05:向/右
26391 U05:向/后
15751 U05:向/大门
12198 U05:向/左
4256 U05:向/左转
21090 U05:向/正北
1634 U05:向前/走
38988 U05:向着/门口
6308 U05:四/楼
21964 U05:回到/原处
35112 U05:回头/_B+1
37525 U05:在/前面
10583 U05:在/原地
37791 U05:在/拐弯
38437 U05:地方/停
28025 U05:墙角/右
24301 U05:处/_B+1
37734 U05:处/停
17955 U05:处/左
19551 U05:处/并
30894 U05:处/往
34865 U05:处/调头
34789 U05:处/转头
27512 U05:多/走
22401 U05:大厅/_B+1
36518 U05:大街/方向
21489 U05:大路/行驶
11875 U05:大路/走
16834 U05:大门/_B+1
20425 U05:大门/一路
3876 U05:大门/之后
19513 U05:大门/处
24548 U05:大门/往
15808 U05:大门/方向
18734 U05:大门口/右
13889 U05:天桥/走
14250 U05:小/段
11514 U05:尽头/_B+1
4845 U05:尽头/右
18069 U05:左/拐
12236 U05:左/转
19836 U05:左/转弯
10887 U05:左/转身
26828 U05:左转/90
2109 U05:左转/_B+1
24149 U05:左转/直到
38627 U05:左边/转弯
12350 U05:并/从
16720 U05:并/出去
5529 U05:并/沿着
19589 U05:并/走
33269 U05:床/的
28481 U05:底端/_B+1
27037 U05:度/_B+1
15048 U05:座/_B+1
16302 U05:座/后
33706 U05:弯/再
76 U05:往/前
39748 U05:往/前面
24605 U05:往/右拐
31312 U05:往/后
32946 U05:往/左
25688 U05:往/西
37107 U05:快/一点
38133 U05:快/点
29792 U05:快点/去
38190 U05:快点/走
34979 U05:快速/到
29640 U05:快速/前进
34447 U05:快速/走
29412 U05:慢/一点
28975 U05:慢/点
28709 U05:慢慢/的
31217 U05:房间/去
7638 U05:房间/后
23921 U05:打印机/跟前
18164 U05:拐/_B+1
18867 U05:拐/出去
37658 U05:拐弯/处
25992 U05:收费站/那儿
27151 U05:斜/穿过
21280 U05:方向/出发
36613 U05:方向/直行
15884 U05:方向/走
12141 U05:旁边/_B+1
8303 U05:旁边/即可
23579 U05:旁边/右
17461 U05:旁边/右拐
36404 U05:朝着/大街
39140 U05:朝着/电梯
38741 U05:朝着/门口
19076 U05:机电/楼
25365 U05:机电楼/出发
3705 U05:机电院/大门
34276 U05:条/路
12065 U05:柜子/旁边
2831 U05:桌子/出发
8208 U05:桌子/旁边
11267 U05:桌子/的
6441 U05:楼/_B+1
22325 U05:楼/大厅
19228 U05:楼/大门
14535 U05:楼梯/_B+1
14630 U05:楼梯/之后
32851 U05:楼梯/后
39577 U05:楼梯/左
5871 U05:楼梯/爬
28348 U05:楼梯/的
5358 U05:楼梯处/并
12768 U05:楼道/一直
6631 U05:楼道/一路
4598 U05:楼道/走
15200 U05:楼道口/右转
21204 U05:正北/方向
2546 U05:步/_B+1
14421 U05:段/楼梯
36898 U05:民权/门桥
17290 U05:河边/_B+1
35245 U05:沿/东
21394 U05:沿/大路
11761 U05:沿着/大路
17499 U05:沿着/桌子
5719 U05:沿着/楼梯
4484 U05:沿着/楼道
25517 U05:沿着/玉带路
23636 U05:沿着/路
34048 U05:沿着/这
36195 U05:湖北/西
37278 U05:点/_B+1
29089 U05:点/往
9310 U05:然后/右
12673 U05:然后/右转
19437 U05:然后/向前
21869 U05:然后/回到
11134 U05:然后/走
16872 U05:然后/走向
6004 U05:爬/上
17081 U05:玉带河/的
25593 U05:玉带路/往
10241 U05:现在/你
23503 U05:现在/出发
39216 U05:电梯/的
38361 U05:的/地方
11381 U05:的/尽头
28405 U05:的/底端
28804 U05:的/往
39292 U05:的/方向
17195 U05:的/河边
32490 U05:的/第二
33345 U05:的/跟前
30704 U05:的/路口
17556 U05:的/边沿
32224 U05:的/那个
15637 U05:的/门口
15409 U05:直到/A505
24206 U05:直到/门口
7942 U05:直接/走
23237 U05:直行/_B+1
36689 U05:直行/进入
27892 U05:着/墙角
28215 U05:移动/到
22173 U05:稍/向
29298 U05:稍微/慢
39349 U05:穿过/前面
20349 U05:穿过/大门
27284 U05:穿过/门
35891 U05:第3/个
13129 U05:第一/个
32585 U05:第二/个
1064 U05:米/_B+1
39995 U05:米/右
23047 U05:米/后
34732 U05:米/处
33497 U05:米/左
1976 U05:米/左转
9196 U05:米/然后
22781 U05:约/30
16093 U05:经过/B
27759 U05:绕/着
26144 U05:继续/前进
25175 U05:继续/右拐
13680 U05:继续/顺着
21603 U05:行驶/390
35568 U05:行驶/940
25783 U05:西/走
36271 U05:西/路
34941 U05:调头/_B+1
33858 U05:走/1
26638 U05:走/10
1767 U05:走/2
33459 U05:走/5
8987 U05:走/_B+1
27607 U05:走/一
28538 U05:走/一点
570 U05:走/五
19646 U05:走/出
3173 U05:走/到
39843 U05:走/十
38057 U05:走/快
15979 U05:走/经过
38836 U05:走/过去
16967 U05:走向/玉带河
33079 U05:走廊/尽头
18392 U05:走过/饮水机
32110 U05:走近/前面
8740 U05:赶紧/往
20976 U05:起点/向
33402 U05:跟前/右转
24035 U05:跟前/向
36328 U05:路/_B+1
26220 U05:路/一直
34390 U05:路/往
23712 U05:路/走
30818 U05:路口/处
36062 U05:路口/左
28139 U05:转/90
5168 U05:转/_B+1
33535 U05:转/个
39634 U05:转/再
12274 U05:转/并
19399 U05:转/然后
13585 U05:转/继续
20786 U05:转/进入
34561 U05:转头/_B+1
23465 U05:转弯/_B+1
38304 U05:转弯/的
19912 U05:转弯/走
11020 U05:转身/然后
17632 U05:边沿/走
22496 U05:过/传达室
38912 U05:过去/_B+1
31939 U05:近/一点
34143 U05:这/条
9595 U05:这里/走
14839 U05:进入/A
20824 U05:进入/厕所
7543 U05:进入/房间
22268 U05:进入/机电
3572 U05:进入/机电院
36784 U05:进入/民权
36119 U05:进入/湖北
26524 U05:退/几
37411 U05:退后/一点
32319 U05:那个/桌子
39444 U05:那个/门
25042 U05:那儿/继续
35454 U05:长安街/行驶
39501 U05:门/上
27398 U05:门/多
3420 U05:门口/_B+1
30210 U05:门口/停
12483 U05:门口/出去
24263 U05:门口/处
34485 U05:门口/左
16682 U05:门口/并
38779 U05:门口/方向
39064 U05:门口/走
31787 U05:门把手/近
37012 U05:门桥/_B+1
31654 U05:靠/门把手
13794 U05:顺着/天桥
6536 U05:顺着/楼道
18525 U05:饮水机/到
95 U11:_B-1
8094 U11:a
19247 U11:b
5738 U11:c
8930 U11:d
25061 U11:i
1083 U11:m
3040 U11:n
589 U11:nd
10431 U11:nm
342 U11:p
2128 U11:q
8759 U11:r
11533 U11:u
836 U11:v
7467 U11:ws
7961 U12:a
19095 U12:b
5548 U12:c
8778 U12:d
24890 U12:i
855 U12:m
2850 U12:n
361 U12:nd
10260 U12:nm
114 U12:p
1102 U12:q
8550 U12:r
11400 U12:u
608 U12:v
7334 U12:ws
1121 U13:_B+1
7790 U13:a
18962 U13:b
5377 U13:c
8569 U13:d
24757 U13:i
627 U13:m
2679 U13:n
133 U13:nd
4085 U13:p
874 U13:q
9500 U13:r
11286 U13:u
380 U13:v
7163 U13:ws
27170 U14:_B-1/a
12692 U14:_B-1/c
16625 U14:_B-1/d
38285 U14:_B-1/n
13528 U14:_B-1/nd
10279 U14:_B-1/nm
152 U14:_B-1/p
8588 U14:_B-1/r
1653 U14:_B-1/v
29526 U14:a/m
14440 U14:a/q
8113 U14:a/v
19266 U14:b/n
9424 U14:c/nd
5757 U14:c/p
11229 U14:c/v
29431 U14:d/a
22952 U14:d/m
20292 U14:d/nd
8949 U14:d/p
28823 U14:d/u
12977 U14:d/v
25080 U14:i/r
14269 U14:m/a
31236 U14:m/n
6897 U14:m/p
1140 U14:m/q
20539 U14:m/v
31958 U14:n/a
5567 U14:n/c
12882 U14:n/d
6764 U14:n/m
3895 U14:n/n
4104 U14:n/nd
21109 U14:n/p
26087 U14:n/r
11419 U14:n/u
3059 U14:n/v
7980 U14:nd/a
14763 U14:nd/d
16530 U14:nd/n
5035 U14:nd/nd
4275 U14:nd/p
39463 U14:nd/r
30723 U14:nd/u
646 U14:nd/v
10450 U14:nm/r
23560 U14:nm/v
35910 U14:p/m
2869 U14:p/n
399 U14:p/nd
9614 U14:p/r
4389 U14:p/v
9329 U14:q/c
13433 U14:q/n
23161 U14:q/nd
29203 U14:q/p
2147 U14:q/v
8797 U14:r/d
32433 U14:r/n
10602 U14:r/p
34295 U14:r/q
9709 U14:r/v
32604 U14:u/m
15732 U14:u/n
11552 U14:u/nd
28899 U14:u/p
32338 U14:u/r
38152 U14:v/a
19114 U14:v/b
11153 U14:v/c
39710 U14:v/d
24909 U14:v/i
893 U14:v/m
3439 U14:v/n
4864 U14:v/nd
11780 U14:v/p
33630 U14:v/q
24472 U14:v/u
1786 U14:v/v
7353 U14:v/ws
7486 U14:ws/n
15656 U14:ws/u
29450 U15:a/m
14288 U15:a/q
7999 U15:a/v
19133 U15:b/n
9348 U15:c/nd
5586 U15:c/p
11172 U15:c/v
29317 U15:d/a
22800 U15:d/m
20235 U15:d/nd
8816 U15:d/p
28728 U15:d/u
12901 U15:d/v
24928 U15:i/r
28633 U15:m/_B+1
14117 U15:m/a
31141 U15:m/n
6783 U15:m/p
912 U15:m/q
20501 U15:m/v
3458 U15:n/_B+1
31806 U15:n/a
5396 U15:n/c
12787 U15:n/d
6650 U15:n/m
3724 U15:n/n
3914 U15:n/nd
20995 U15:n/p
26011 U15:n/r
11305 U15:n/u
2888 U15:n/v
11571 U15:nd/_B+1
7809 U15:nd/a
14687 U15:nd/d
16416 U15:nd/n
4883 U15:nd/nd
4123 U15:nd/p
39406 U15:nd/r
30609 U15:nd/u
418 U15:nd/v
10298 U15:nm/r
23522 U15:nm/v
35796 U15:p/m
2698 U15:p/n
171 U15:p/nd
9519 U15:p/r
4294 U15:p/v
1159 U15:q/_B+1
9215 U15:q/c
13281 U15:q/n
23066 U15:q/nd
29108 U15:q/p
1995 U15:q/v
8607 U15:r/d
32357 U15:r/n
10469 U15:r/p
34162 U15:r/q
9633 U15:r/v
32509 U15:u/m
15675 U15:u/n
11438 U15:u/nd
28842 U15:u/p
32243 U15:u/r
2166 U15:v/_B+1
38076 U15:v/a
18981 U15:v/b
11039 U15:v/c
39653 U15:v/d
24776 U15:v/i
665 U15:v/m
3306 U15:v/n
4750 U15:v/nd
11666 U15:v/p
33554 U15:v/q
24377 U15:v/u
1672 U15:v/v
7182 U15:v/ws
9861 U15:ws/_B+1
7372 U15:ws/n
15542 U15:ws/u
34010 U31:1/m
26790 U31:10/m
2014 U31:2/m
31255 U31:203/m
23085 U31:30/m
21812 U31:390/m
9234 U31:5/m
27056 U31:90/m
35739 U31:940/m
15067 U31:A/ws
30229 U31:A205/ws
15694 U31:A505/ws
16321 U31:B/ws
190 U31:_B-1/_B-1
7505 U31:c404/ws
14307 U31:一/m
29583 U31:一点/m
12996 U31:一直/d
6916 U31:一路/m
20254 U31:丁字路口/n
39596 U31:上/nd
6327 U31:上/v
32870 U31:下/v
35473 U31:东/nd
10165 U31:两/m
13452 U31:个/q
4313 U31:之后/nd
17974 U31:书柜/n
24567 U31:了/u
1178 U31:五/m
2907 U31:从/p
22819 U31:传达室/n
8835 U31:你/r
31521 U31:倒/v
30457 U31:停/v
17442 U31:先/d
18411 U31:再/d
2565 U31:几/m
19798 U31:出/v
16815 U31:出去/v
3192 U31:出发/v
35929 U31:到/p
3477 U31:到/v
7391 U31:到达/v
684 U31:前/nd
34713 U31:前方/n
23484 U31:前方/nd
2432 U31:前进/v
30742 U31:前面/nd
40014 U31:十/m
25099 U31:十字路口/i
7201 U31:南/nd
20729 U31:厕所/n
10906 U31:原地/n
30001 U31:去/v
5187 U31:右/nd
24700 U31:右拐/n
11799 U31:右转/v
8018 U31:后/nd
10089 U31:后退/v
4408 U31:向/p
1805 U31:向前/v
39083 U31:向着/p
6460 U31:四/m
22097 U31:回到/v
10754 U31:在/p
38513 U31:地方/n
28120 U31:墙角/n
18088 U31:处/n
37867 U31:处/v
27626 U31:多/d
36632 U31:大街/n
11951 U31:大路/n
4142 U31:大门/n
18829 U31:大门口/n
13965 U31:天桥/n
14459 U31:小/a
5054 U31:尽头/nd
11058 U31:左/nd
24225 U31:左转/v
38703 U31:左边/nd
5776 U31:并/c
33364 U31:床/n
16435 U31:座/n
33801 U31:弯/n
437 U31:往/p
30989 U31:往/v
37183 U31:快/a
38247 U31:快点/d
29925 U31:快点/v
29716 U31:快速/d
29127 U31:慢/a
28861 U31:慢慢/d
7828 U31:房间/n
24054 U31:打印机/n
19000 U31:拐/v
37753 U31:拐弯/v
26106 U31:收费站/n
27303 U31:斜/a
15998 U31:方向/n
8436 U31:旁边/nd
36537 U31:朝着/p
19285 U31:机电/b
25460 U31:机电楼/n
3933 U31:机电院/n
34409 U31:条/q
12160 U31:柜子/n
3078 U31:桌子/n
19361 U31:楼/n
6023 U31:楼梯/n
5605 U31:楼梯处/n
4693 U31:楼道/n
15314 U31:楼道口/n
21299 U31:正北/nd
14554 U31:段/q
37031 U31:民权/n
21508 U31:沿/p
4617 U31:沿着/p
36290 U31:湖北/n
29222 U31:点/q
9443 U31:然后/c
6175 U31:爬/v
17214 U31:玉带河/n
25707 U31:玉带路/n
10488 U31:现在/nm
39311 U31:电梯/n
11590 U31:的/u
15561 U31:直到/v
8132 U31:直接/a
36803 U31:直行/v
28044 U31:着/u
28310 U31:移动/v
22249 U31:稍/d
29469 U31:稍微/d
20444 U31:穿过/v
36024 U31:第3/m
13300 U31:第一/m
32699 U31:第二/m
2185 U31:米/q
22971 U31:约/d
16226 U31:经过/v
27911 U31:绕/v
13813 U31:继续/v
21736 U31:行驶/v
25859 U31:西/nd
931 U31:走/v
17100 U31:走向/v
33155 U31:走廊/n
18544 U31:走过/v
32186 U31:走近/v
8968 U31:赶紧/d
21128 U31:起点/n
24130 U31:跟前/nd
23788 U31:路/n
30913 U31:路口/n
12369 U31:转/v
19988 U31:转弯/v
11191 U31:转身/v
17708 U31:边沿/nd
22648 U31:过/v
32053 U31:近/a
34314 U31:这/r
9728 U31:这里/r
3743 U31:进入/v
26600 U31:退/v
37487 U31:退后/v
32452 U31:那个/r
25194 U31:那儿/r
35587 U31:长安街/n
27531 U31:门/n
12597 U31:门口/n
31977 U31:门把手/n
31825 U31:靠/v
6669 U31:顺着/p
18658 U31:饮水机/n
38019 U32:0201/m
33953 U32:1/m
26733 U32:10/m
1900 U32:2/m
31160 U32:203/m
22990 U32:30/m
21755 U32:390/m
9120 U32:5/m
26942 U32:90/m
35682 U32:940/m
14953 U32:A/ws
30134 U32:A205/ws
9880 U32:A501/ws
15580 U32:A505/ws
16245 U32:B/ws
7410 U32:c404/ws
14136 U32:一/m
28652 U32:一点/m
12920 U32:一直/d
6802 U32:一路/m
20140 U32:丁字路口/n
39558 U32:上/nd
6194 U32:上/v
32794 U32:下/v
30476 U32:下来/v
35359 U32:东/nd
10108 U32:两/m
13319 U32:个/q
4161 U32:之后/nd
17860 U32:书柜/n
24491 U32:了/u
950 U32:五/m
13471 U32:交叉口/n
2717 U32:从/p
22667 U32:传达室/n
26372 U32:体育馆/n
8626 U32:你/r
31464 U32:倒/v
30343 U32:停/v
17385 U32:先/d
18278 U32:再/d
2451 U32:几/m
19741 U32:出/v
12616 U32:出去/v
3097 U32:出发/v
35815 U32:到/p
3325 U32:到/v
7220 U32:到达/v
456 U32:前/nd
34675 U32:前方/n
23408 U32:前方/nd
2299 U32:前进/v
30628 U32:前面/nd
39938 U32:十/m
24947 U32:十字路口/i
7030 U32:南/nd
8455 U32:即可/v
20672 U32:厕所/n
10773 U32:原地/n
22116 U32:原处/n
29944 U32:去/v
5073 U32:右/nd
16549 U32:右拐/n
25251 U32:右拐/v
11685 U32:右转/v
7847 U32:后/nd
9975 U32:后退/v
4332 U32:向/p
1691 U32:向前/v
39007 U32:向着/p
6346 U32:四/m
21983 U32:回到/v
35131 U32:回头/v
10621 U32:在/p
38456 U32:地方/n
28063 U32:墙角/n
17993 U32:处/n
37848 U32:处/v
27550 U32:多/d
22420 U32:大厅/n
36556 U32:大街/n
11894 U32:大路/n
3952 U32:大门/n
18753 U32:大门口/n
13908 U32:天桥/n
14326 U32:小/a
4902 U32:尽头/nd
10925 U32:左/nd
2204 U32:左转/v
38646 U32:左边/nd
5624 U32:并/c
33288 U32:床/n
28500 U32:底端/n
27075 U32:度/q
15086 U32:座/n
33725 U32:弯/n
209 U32:往/p
30970 U32:往/v
37126 U32:快/a
38209 U32:快点/d
29811 U32:快点/v
29659 U32:快速/d
28994 U32:慢/a
28747 U32:慢慢/d
7657 U32:房间/n
23940 U32:打印机/n
18183 U32:拐/v
37677 U32:拐弯/v
26030 U32:收费站/n
27189 U32:斜/a
15903 U32:方向/n
8322 U32:旁边/nd
36423 U32:朝着/p
19152 U32:机电/b
25384 U32:机电楼/n
3762 U32:机电院/n
34333 U32:条/q
12084 U32:柜子/n
2926 U32:桌子/n
19304 U32:楼/n
6479 U32:楼/q
5890 U32:楼梯/n
5415 U32:楼梯处/n
4636 U32:楼道/n
15219 U32:楼道口/n
21223 U32:正北/nd
2584 U32:步/q
14478 U32:段/q
36917 U32:民权/n
17309 U32:河边/n
21413 U32:沿/p
4503 U32:沿着/p
36214 U32:湖北/n
29146 U32:点/q
9367 U32:然后/c
6042 U32:爬/v
17119 U32:玉带河/n
25612 U32:玉带路/n
10317 U32:现在/nm
39235 U32:电梯/n
11457 U32:的/u
15428 U32:直到/v
8037 U32:直接/a
23256 U32:直行/n
36708 U32:直行/v
27930 U32:着/u
28234 U32:移动/v
22192 U32:稍/d
29336 U32:稍微/d
20368 U32:穿过/v
35948 U32:第3/m
13148 U32:第一/m
32623 U32:第二/m
1197 U32:米/q
22838 U32:约/d
16112 U32:经过/v
27778 U32:绕/v
13699 U32:继续/v
21622 U32:行驶/v
25802 U32:西/nd
34960 U32:调头/v
703 U32:走/v
16986 U32:走向/v
33098 U32:走廊/n
18430 U32:走过/v
32129 U32:走近/v
8854 U32:赶紧/d
21014 U32:起点/n
24073 U32:跟前/nd
23731 U32:路/n
30837 U32:路口/n
5206 U32:转/v
34580 U32:转头/v
19931 U32:转弯/v
11077 U32:转身/v
17651 U32:边沿/nd
22515 U32:过/v
38931 U32:过去/v
31996 U32:近/a
34181 U32:这/r
9652 U32:这里/r
3591 U32:进入/v
26543 U32:退/v
37430 U32:退后/v
32376 U32:那个/r
25118 U32:那儿/r
35492 U32:长安街/n
27417 U32:门/n
3496 U32:门口/n
31844 U32:门把手/n
37050 U32:门桥/n
31673 U32:靠/v
6555 U32:顺着/p
18563 U32:饮水机/n
37943 U33:0201/m
33877 U33:1/m
26657 U33:10/m
1824 U33:2/m
31065 U33:203/m
22857 U33:30/m
21641 U33:390/m
9044 U33:5/m
26847 U33:90/m
35606 U33:940/m
14858 U33:A/ws
30058 U33:A205/ws
9785 U33:A501/ws
15447 U33:A505/ws
16131 U33:B/ws
1216 U33:_B+1/_B+1
7239 U33:c404/ws
14022 U33:一/m
28557 U33:一点/m
12806 U33:一直/d
6688 U33:一路/m
20045 U33:丁字路口/n
39520 U33:上/nd
6061 U33:上/v
30362 U33:下来/v
35264 U33:东/nd
9994 U33:两/m
13167 U33:个/q
3971 U33:之后/nd
17765 U33:书柜/n
24396 U33:了/u
722 U33:五/m
13338 U33:交叉口/n
12388 U33:从/p
22534 U33:传达室/n
26296 U33:体育馆/n
10336 U33:你/r
31388 U33:倒/v
30248 U33:停/v
20159 U33:再/d
2318 U33:几/m
19665 U33:出/v
12502 U33:出去/v
2945 U33:出发/v
3211 U33:到/v
7049 U33:到达/v
228 U33:前/nd
34618 U33:前方/n
23332 U33:前方/nd
26163 U33:前进/v
30533 U33:前面/nd
39862 U33:十/m
24795 U33:十字路口/i
6935 U33:南/nd
8341 U33:即可/v
20596 U33:厕所/n
10640 U33:原地/n
22002 U33:原处/n
29830 U33:去/v
4921 U33:右/nd
16454 U33:右拐/n
25213 U33:右拐/v
12711 U33:右转/v
7676 U33:后/nd
4180 U33:向/p
16644 U33:向前/v
6213 U33:四/m
21888 U33:回到/v
35055 U33:回头/v
10507 U33:在/p
38380 U33:地方/n
27949 U33:墙角/n
17879 U33:处/n
37829 U33:处/v
27436 U33:多/d
22344 U33:大厅/n
36442 U33:大街/n
11818 U33:大路/n
3781 U33:大门/n
18677 U33:大门口/n
13832 U33:天桥/n
14155 U33:小/a
4769 U33:尽头/nd
10792 U33:左/nd
2033 U33:左转/v
38570 U33:左边/nd
5434 U33:并/c
33212 U33:床/n
28424 U33:底端/n
26961 U33:度/q
14972 U33:座/n
33649 U33:弯/n
8873 U33:往/p
30932 U33:往/v
38095 U33:快/a
29355 U33:慢/a
7562 U33:房间/n
23845 U33:打印机/n
18107 U33:拐/v
37601 U33:拐弯/v
25935 U33:收费站/n
15827 U33:方向/n
8227 U33:旁边/nd
19019 U33:机电/b
25308 U33:机电楼/n
3610 U33:机电院/n
34200 U33:条/q
12008 U33:柜子/n
2736 U33:桌子/n
19171 U33:楼/n
6365 U33:楼/q
5795 U33:楼梯/n
5282 U33:楼梯处/n
4522 U33:楼道/n
15143 U33:楼道口/n
21147 U33:正北/nd
2470 U33:步/q
14345 U33:段/q
36822 U33:民权/n
17233 U33:河边/n
5643 U33:沿着/p
36138 U33:湖北/n
29013 U33:点/q
9253 U33:然后/c
5909 U33:爬/v
17005 U33:玉带河/n
25536 U33:玉带路/n
39159 U33:电梯/n
11324 U33:的/u
15333 U33:直到/v
7866 U33:直接/a
23180 U33:直行/n
36651 U33:直行/v
27797 U33:着/u
27208 U33:穿过/v
35834 U33:第3/m
13053 U33:第一/m
32528 U33:第二/m
969 U33:米/q
22686 U33:约/d
16017 U33:经过/v
13604 U33:继续/v
21527 U33:行驶/v
25726 U33:西/nd
34884 U33:调头/v
475 U33:走/v
16891 U33:走向/v
33022 U33:走廊/n
18297 U33:走过/v
8645 U33:赶紧/d
20919 U33:起点/n
23959 U33:跟前/nd
23655 U33:路/n
30761 U33:路口/n
5092 U33:转/v
34808 U33:转头/v
19855 U33:转弯/v
10944 U33:转身/v
17575 U33:边沿/nd
38855 U33:过去/v
31863 U33:近/a
34067 U33:这/r
9538 U33:这里/r
14782 U33:进入/v
26467 U33:退/v
32262 U33:那个/r
24966 U33:那儿/r
35378 U33:长安街/n
27322 U33:门/n
3344 U33:门口/n
31692 U33:门把手/n
36936 U33:门桥/n
31578 U33:靠/v
13718 U33:顺着/p
18449 U33:饮水机/n

0.2154486991981219
0.3168479645074873
0.1725014887072162
0.2587632789883559
0.3415044035669246
0.0618391908554776
0.4901056309186988
-0.1364104758279309
-0.2027356354594370
-0.1442135756127897
-0.1478596850680142
-0.1545534962150178
-0.1423468247542113
-0.1449747347889433
-0.0129190608921692
-0.1921825792805737
-0.1652524348300185
-0.2084798349215622
-0.2050823190916135
-0.0435589005114808
0.6896868128473300
-0.0534321895826247
-0.0400223897529623
-0.1604912767916182
-0.0607729414493444
-0.0188464951259887
-0.0174734243635419
-0.0306164459810884
-0.0174194434592338
-0.0185031073049967
-0.0200918178336771
-0.0181941898204556
-0.0168982889350476
-0.0247130222809339
-0.0246170632524353
-0.0223175032736243
-0.0246476403415387
-0.0770706727867224
-0.0118437855126867
0.1738824757954340
-0.0114975363398959
-0.0134422746010495
-0.0105300456763257
-0.0069962032665490
-0.0087146857279885
-0.0070546669143798
-0.0158155633866627
-0.0066706497572709
-0.0073138244748228
-0.0079670305727618
-0.0079949077950799
-0.0059203964573563
-0.0078735892519188
-0.0067933780963152
-0.0082041896711593
-0.0070760983381013
-0.0221736499551069
-0.0036626822574838
0.0441295416956147
-0.0039389912198666
-0.0057928756807932
-0.0051687381565875
-0.0019439990902055
-0.0056413552399276
-0.0013266078229171
-0.0026405025164934
-0.0013786264022177
-0.0013333891764936
-0.0016297200563767
-0.0013759546914713
-0.0012408329795626
-0.0018384310682256
-0.0012910561488458
-0.0011882810265087
-0.0012892941057110
-0.0014482040559263
-0.0118437855126867
0.1738824757954340
-0.0114975363398959
-0.0134422746010495
-0.0105300456763257
-0.0069962032665490
-0.0087146857279885
-0.0070546669143798
-0.0158155633866627
-0.0066706497572709
-0.0073138244748228
-0.0079670305727618
-0.0079949077950799
-0.0059203964573563
-0.0078735892519188
-0.0067933780963152
-0.0082041896711593
-0.0070760983381013
-0.0221736499551069
0.2154486991981219
0.3168479645074873
0.1725014887072162
0.2587632789883559
0.3415044035669246
0.0618391908554776
0.4901056309186988
-0.1364104758279309
-0.2027356354594370
-0.1442135756127897
-0.1478596850680142
-0.1545534962150178
-0.1423468247542113
-0.1449747347889433
-0.0129190608921692
-0.1921825792805737
-0.1652524348300185
-0.2084798349215622
-0.2050823190916135
-0.2041546017558498
1.9447527863828182
-0.1518870717134936
-0.1843038601189852
-0.0949874951791453
-0.0932742308019904
-0.1703376763716153
-0.0781628578651148
-0.1040015195871444
-0.0662948782979702
-0.0716738654224486
-0.0753738722114528
-0.0711119892179960
-0.0683692939387059
-0.0910568530411490
-0.1045070987465958
-0.0728195280095995
-0.1059659112096060
-0.1364701828939489
-0.1993727048045013
0.5447144216843809
0.0616300217523611
-0.0866410108946364
-0.0437404769073316
-0.1597128432010687
-0.1485839674362229
-0.1059802761288196
0.3313954498619823
-0.0955303221205639
-0.1093133727666493
0.0263969796233156
-0.0982114383279552
-0.1053568096291281
-0.1143721728104921
0.2355780623901525
-0.1183667542899093
-0.0755108313050284
0.2609780453100982
-0.0901183698836029
0.8003504003024637
-0.0719613769356476
-0.0997613918438457
0.0311342615906118
-0.0426277972392905
-0.1358133819704669
-0.0279631639294200
-0.0278833402622088
-0.0283095249345388
-0.0306148573179942
-0.0282141032876233
-0.0282665067269784
-0.0298550832446179
-0.0416233606253792
-0.0380223775165751
-0.0286704459430007
-0.0471686187844914
-0.0346109614473900
-0.0560853411729166
0.7869291155546193
-0.0629033393254289
-0.0652009094736002
-0.1234628450352652
-0.0328481379155044
-0.0482318629377851
-0.0260733001438389
-0.0601939182600527
-0.0264053884351423
-0.0261557076779196
-0.0339301984141160
-0.0279419456827567
-0.0238352637808982
-0.0333840202980496
-0.0292183618712694
-0.0270825604634483
-0.0319333337535487
-0.0520426809130919
0.2154486991981219
0.3168479645074873
0.1725014887072162
0.2587632789883559
0.3415044035669246
0.0618391908554776
0.4901056309186988
-0.1364104758279309
-0.2027356354594370
-0.1442135756127897
-0.1478596850680142
-0.1545534962150178
-0.1423468247542113
-0.1449747347889433
-0.0129190608921692
-0.1921825792805737
-0.1652524348300185
-0.2084798349215622
-0.2050823190916135
-0.0310294354958121
0.3740986161828189
-0.0347079104533513
-0.0313858839804673
-0.0306707949385030
-0.0184075389759640
-0.0161701442044624
-0.0138920382733153
-0.0292866657051913
-0.0138297129534182
-0.0142970597808580
-0.0162810134625939
-0.0150010409409826
-0.0125145916818009
-0.0171638618271470
-0.0146177967436774
-0.0156162111891930
-0.0146243089817857
-0.0346026065942833
-0.0118437855126867
0.1738824757954340
-0.0114975363398959
-0.0134422746010495
-0.0105300456763257
-0.0069962032665490
-0.0087146857279885
-0.0070546669143798
-0.0158155633866627
-0.0066706497572709
-0.0073138244748228
-0.0079670305727618
-0.0079949077950799
-0.0059203964573563
-0.0078735892519188
-0.0067933780963152
-0.0082041896711593
-0.0070760983381013
-0.0221736499551069
-0.0263963097805535
-0.0100015264760290
-0.0518534285300482
0.3015496176683886
-0.0114892529982019
0.3768345067457833
-0.0242723645066816
-0.0138166322244592
-0.2932035236287660
-0.0183259265908279
-0.0127815706680894
-0.0185178287432111
-0.0156514387730330
-0.0309105818994834
-0.0114648851345252
-0.0644023370831276
-0.0192488638202214
-0.0131661097810286
-0.0428815437758697
-0.0080182887088946
-0.0024674858367383
-0.0175006420652269
0.1444677480103163
-0.0029483345623000
-0.0157114389508411
-0.0078288185518382
-0.0030192440616043
-0.0290530682502480
-0.0049325040644760
-0.0031194820773852
-0.0031106394498771
-0.0031938575851157
-0.0058273623411505
-0.0028590083206828
-0.0185547843222245
-0.0065756083568896
-0.0029717680572435
-0.0067754124475763
0.0810280671485414
-0.1108874401033453
0.2527951785421102
0.4511624378887866
0.0971647058839675
-0.1701687045027772
0.0912103454068823
-0.0790571551851307
0.1455348390386271
-0.0876507493319543
-0.0755771987870256
-0.0783949688313573
-0.0846960691821197
-0.0965531216351682
-0.2109628140987956
-0.1299365604677554
0.2187433617460716
-0.0758473027246980
-0.1379068508048515
-0.0080182887088946
-0.0024674858367383
-0.0175006420652269
0.1444677480103163
-0.0029483345623000
-0.0157114389508411
-0.0078288185518382
-0.0030192440616043
-0.0290530682502480
-0.0049325040644760
-0.0031194820773852
-0.0031106394498771
-0.0031938575851157
-0.0058273623411505
-0.0028590083206828
-0.0185547843222245
-0.0065756083568896
-0.0029717680572435
-0.0067754124475763
-0.0080182887088946
-0.0024674858367383
-0.0175006420652269
0.1444677480103163
-0.0029483345623000
-0.0157114389508411
-0.0078288185518382
-0.0030192440616043
-0.0290530682502480
-0.0049325040644760
-0.0031194820773852
-0.0031106394498771
-0.0031938575851157
-0.0058273623411505
-0.0028590083206828
-0.0185547843222245
-0.0065756083568896
-0.0029717680572435
-0.0067754124475763
-0.1709422176342501
-0.1001054744495964
-0.1782258085192358
0.1316781982086433
-0.1274227853070988
0.1114676620138728
-0.1267695068318156
-0.1121993053638749
0.6554550403087200
0.1491986013589279
-0.1130600837639076
-0.1021091784700162
-0.0876818153572040
0.3008811448129267
-0.1163603299439204
0.4147363706588895
-0.1641109737462901
-0.0946193890398190
-0.2698101489349706
-0.3260488201706336
-0.2515519994341672
0.4512076602468623
1.0215614508294073
0.0640051483499984
-0.2382486238269913
-0.1559442380424406
-0.1075925717645221
-0.0712847156555771
-0.1113706376143254
-0.1115775123482511
-0.1191996453717895
-0.1101129382225071
-0.1281079585404764
-0.1393147228596562
0.2609628666756248
-0.1559575887072682
-0.1123531202301836
0.3409279666868658
0.6503486031354515
-0.1567181602504754
0.2847955170258673
0.7396791963310337
-0.6433402186589802
0.0604191095114771
-0.0097278607030923
-0.2753567770947545
0.2669191995521309
-0.2767583765309048
-0.2658231965959700
-0.1747127454955101
-0.2717196632966066
-0.3089572701462194
0.4433040585868396
-0.0658849849603984
0.0583318210252647
-0.2946331021189064
0.2398348506837413
-0.0342763515572709
-0.0293607456667145
-0.0879109161218350
0.3620001455066860
-0.0322237779606279
-0.0710847650004953
-0.0313932504469839
-0.0203075990349689
-0.1339892249577301
-0.0332995570000760
-0.0220108052189223
-0.0213105663663401
-0.0210272109283784
-0.0507733266112055
-0.0226150858411077
0.3677404097523347
-0.0308041981034600
-0.0240343924933608
-0.0633187819495619
-0.1361610092326069
-0.0722242812363430
-0.3135646276830229
1.0189742016718535
-0.0451758865622691
-0.1060704670112141
-0.0667304504050571
-0.0355985796326187
-0.1481166455850391
-0.0456042030624704
-0.0372014013477006
-0.0448991494611298
-0.0372905954064832
-0.0476241410824137
-0.0656526999400521
0.2032934900390685
-0.0769081650812889
-0.0336875768908315
0.0902421879096008
-0.0201463470117649
-0.0084183022355186
-0.0500932534053516
0.3105323465369372
-0.0087136507977559
0.1923960472373124
-0.0225067746185644
-0.0095218590336124
-0.1895029276782780
-0.0163653820154932
-0.0107931536696110
-0.0143283042862524
-0.0103285836304471
-0.0280668588787802
-0.0099827695092446
-0.0572952955066835
-0.0171068149086666
-0.0095543713998265
-0.0202037451883889
-0.0080182887088946
-0.0024674858367383
-0.0175006420652269
0.1444677480103163
-0.0029483345623000
-0.0157114389508411
-0.0078288185518382
-0.0030192440616043
-0.0290530682502480
-0.0049325040644760
-0.0031194820773852
-0.0031106394498771
-0.0031938575851157
-0.0058273623411505
-0.0028590083206828
-0.0185547843222245
-0.0065756083568896
-0.0029717680572435
-0.0067754124475763
0.0810280671485414
-0.1108874401033453
0.2527951785421102
0.4511624378887866
0.0971647058839675
-0.1701687045027772
0.0912103454068823
-0.0790571551851307
0.1455348390386271
-0.0876507493319543
-0.0755771987870256
-0.0783949688313573
-0.0846960691821197
-0.0965531216351682
-0.2109628140987956
-0.1299365604677554
0.2187433617460716
-0.0758473027246980
-0.1379068508048515
-0.0288772669917928
-0.0032389931114345
-0.0022182664975066
-0.0059922815993387
0.2790127078516375
-0.1592213406876001
-0.0039743846147477
-0.0046510066298001
-0.0052156378964909
-0.0035494333931963
-0.0034344350557123
-0.0057167515832200
-0.0059505200558068
-0.0034484667275764
-0.0191225000619328
-0.0026458024388718
-0.0027889784335302
-0.0069212006615809
-0.0120454414114933
-0.1517454114991999
-0.0433565299547722
-0.0441042128559780
-0.1181386183468791
0.6145211722221585
-0.4735266216826816
-0.0663383152317715
-0.0341618303109480
-0.0443439491362606
-0.0287451414150925
-0.0280714268088921
-0.0335027341332248
-0.0349372035790699
-0.0276711325733751
0.7244079982323709
-0.0441721567408996
-0.0351186734245941
-0.0641411716896245
-0.0668540410712629
-0.0013840496067304
-0.0003918742065985
-0.0002975982480644
-0.0011327423862271
0.0163161227051441
-0.0050064249189612
-0.0004533873989815
-0.0005204304027310
-0.0003120706199874
-0.0004655738094901
-0.0004588081590819
-0.0004128166823395
-0.0004231438623126
-0.0004573789446107
-0.0024434069367388
-0.0003734921665697
-0.0003793420661053
-0.0008064563208870
-0.0005971259687251
-0.0288772669917928
-0.0032389931114345
-0.0022182664975066
-0.0059922815993387
0.2790127078516375
-0.1592213406876001
-0.0039743846147477
-0.0046510066298001
-0.0052156378964909
-0.0035494333931963
-0.0034344350557123
-0.0057167515832200
-0.0059505200558068
-0.0034484667275764
-0.0191225000619328
-0.0026458024388718
-0.0027889784335302
-0.0069212006615809
-0.0120454414114933
-0.0013840496067304
-0.0003918742065985
-0.0002975982480644
-0.0011327423862271
0.0163161227051441
-0.0050064249189612
-0.0004533873989815
-0.0005204304027310
-0.0003120706199874
-0.0004655738094901
-0.0004588081590819
-0.0004128166823395
-0.0004231438623126
-0.0004573789446107
-0.0024434069367388
-0.0003734921665697
-0.0003793420661053
-0.0008064563208870
-0.0005971259687251
0.3902211927438729
0.1454562777069517
-0.1284665938714621
0.0680723429167254
0.0406994190247573
0.6542725056663861
-0.1117067813188848
-0.0868607878171161
-0.0825214573276118
-0.0792334974887803
-0.0840803524219761
-0.1114112946531947
-0.1004655486547526
-0.0837805146833564
-0.1185991615744020
-0.2751824624032311
-0.1334406928369692
-0.1085361030090378
0.2055635100020486
0.0525279333300622
-0.2877202069924658
-0.5180394819487827
-0.1669953588577915
2.0433218979345136
1.2874992021446112
-0.2798040430516796
-0.3444901616600916
-0.4288709452367544
-0.2377464592972762
-0.2449541676431413
-0.2905109625141880
-0.2975034706583103
-0.2429108719634705
0.3459799164006877
-0.1352931237934575
-0.2868263491589524
0.3216270446160305
-0.2892903916495493
0.2673460612520724
-0.2405077289784530
-0.1357868144816265
0.1343841292261858
0.6631547872978467
-0.0799425631745731
0.1947632357217640
-0.0757568323427927
-0.0125704027419812
-0.0688012037353845
-0.0687436699340930
-0.0677028258488195
-0.0685035538371218
-0.0774802636933190
-0.1361016790755204
-0.1858417144820655
-0.0729432716078832
0.1139697294002179
-0.0829354189644537
0.1703234496460364
-0.0401863726964524
-0.0329828295909814
-0.1394092962330452
0.1231802280187414
0.4172931734089096
-0.0430298358443776
-0.0418935538843326
-0.0480108916637670
-0.0354062068990194
-0.0342874734055845
-0.0485437717237495
-0.0462208256215139
-0.0353498137367252
-0.0646587342844926
-0.1835835990611917
-0.0328208142823198
-0.0660842237846348
0.1816713916384712
-0.1237481073829094
-0.0402229859297079
-0.0380940154480901
-0.0822843965904696
0.5744602524289285
0.0042535030994236
-0.0932119500029914
-0.0306560723849375
-0.0217014550080857
-0.0272142819245283
-0.0278038186947207
-0.0249673516706592
-0.0261449636024071
-0.0265143536200282
-0.0902010812385767
-0.0317961763810043
-0.0248692253084146
0.1675507377774095
-0.0368342581182356
-0.0288772669917928
-0.0032389931114345
-0.0022182664975066
-0.0059922815993387
0.2790127078516375
-0.1592213406876001
-0.0039743846147477
-0.0046510066298001
-0.0052156378964909
-0.0035494333931963
-0.0034344350557123
-0.0057167515832200
-0.0059505200558068
-0.0034484667275764
-0.0191225000619328
-0.0026458024388718
-0.0027889784335302
-0.0069212006615809
-0.0120454414114933
-0.1517454114991999
-0.0433565299547722
-0.0441042128559780
-0.1181386183468791
0.6145211722221585
-0.4735266216826816
-0.0663383152317715
-0.0341618303109480
-0.0443439491362606
-0.0287451414150925
-0.0280714268088921
-0.0335027341332248
-0.0349372035790699
-0.0276711325733751
0.7244079982323709
-0.0441721567408996
-0.0351186734245941
-0.0641411716896245
-0.0668540410712629
-0.0013840496067304
-0.0003918742065985
-0.0002975982480644
-0.0011327423862271
0.0163161227051441
-0.0050064249189612
-0.0004533873989815
-0.0005204304027310
-0.0003120706199874
-0.0004655738094901
-0.0004588081590819
-0.0004128166823395
-0.0004231438623126
-0.0004573789446107
-0.0024434069367388
-0.0003734921665697
-0.0003793420661053
-0.0008064563208870
-0.0005971259687251
-0.1473799285827475
-0.0470031172302307
-0.0323558687734576
-0.0382952266810019
-0.2019233244598161
-0.1256067293246528
0.1974796946067835
0.4871224819626792
-0.1491263921179444
-0.0308873563744876
-0.0289157828288359
-0.0360709984367082
-0.2652008173504265
-0.0286961349719806
-0.0406021828853242
-0.1369984136506944
-0.0272117276685220
0.7041684006219636
-0.0524965758545824
-0.0007179345054623
-0.0004183032014070
-0.0004845255744533
-0.0005328148045566
-0.0003184295731684
-0.0003013261476535
-0.0010850232212785
0.0159995842612601
-0.0016611394972923
-0.0005460321135611
-0.0004325490575326
-0.0003870568740907
-0.0008066420690963
-0.0004261659756481
-0.0005204441245843
-0.0046554336407396
-0.0004196729090818
-0.0018957095170501
-0.0003903814546044
-0.0300643569196775
-0.0168687419347585
-0.0164107767163668
-0.0175168986615475
-0.0184921218872143
-0.0151069567663374
-0.0231033844530706
0.4237271591043192
-0.0320906054075130
-0.0167400075461749
-0.0128895046185640
-0.0118931850040380
-0.0257101871578284
-0.0128870718049580
-0.0161905843012351
-0.0891781655474960
-0.0138829620594711
-0.0232076077595092
-0.0314940405585610
-0.0007179345054623
-0.0004183032014070
-0.0004845255744533
-0.0005328148045566
-0.0003184295731684
-0.0003013261476535
-0.0010850232212785
0.0159995842612601
-0.0016611394972923
-0.0005460321135611
-0.0004325490575326
-0.0003870568740907
-0.0008066420690963
-0.0004261659756481
-0.0005204441245843
-0.0046554336407396
-0.0004196729090818
-0.0018957095170501
-0.0003903814546044
-0.0007179345054623
-0.0004183032014070
-0.0004845255744533
-0.0005328148045566
-0.0003184295731684
-0.0003013261476535
-0.0010850232212785
0.0159995842612601
-0.0016611394972923
-0.0005460321135611
-0.0004325490575326
-0.0003870568740907
-0.0008066420690963
-0.0004261659756481
-0.0005204441245843
-0.0046554336407396
-0.0004196729090818
-0.0018957095170501
-0.0003903814546044
0.1773193599213075
-0.1166454885523236
0.1540854149644156
0.0403355708351306
-0.1584481969237241
-0.2257707385290060
-0.0791230165603639
0.3564963696271475
0.6907303967359559
-0.2266958599191118
-0.2496020106020279
-0.2866721932340107
-0.0172249462596459
-0.2538850427358038
-0.1724252870737775
0.5211421919936867
-0.2662103865251244
0.4126860861251467
-0.3000922232878566
0.4128444215152363
-0.0946780343240648
-0.1623477672592937
-0.1404266721656908
-0.1186862117525291
-0.1563448644725329
-0.1186301175455683
0.7170917793920523
-0.0854276518273063
-0.0860816631007301
-0.0767197091262489
-0.0988112507946326
0.3552202464307322
-0.0745679749520077
-0.0958792162837752
0.1110092555906230
-0.0855121429941781
-0.1223586842409682
-0.0796937420891189
-0.1122747377728332
-0.0617397115745111
-0.0704080202624777
-0.0802953481171901
-0.0958200206253304
0.0058069188478952
0.2448770151275865
0.5546169160243633
-0.2068690431654339
0.2293939448027346
-0.0548895909663450
-0.0577254875780266
-0.0979629622098700
-0.0619719469413225
-0.0605367924588731
-0.0520542758654999
-0.0530779320079839
-0.0865934571343969
0.1175245318775233
-0.2331102419307390
-0.0427088888943488
-0.0527218152758015
-0.0511118339074845
-0.0549040621711648
-0.0761958986783836
-0.0681984867817501
0.6546286624646702
-0.0178013312382338
-0.0465347118685891
-0.0397112439918285
-0.0559817406097610
0.2577205947543420
-0.0393036080197412
-0.0445180692699352
0.1190999629875232
-0.0378628751470466
-0.0909829463168990
-0.0798014661048266
-0.0721013825701105
-0.0369983993247410
-0.0444234048367326
-0.0401367285212448
-0.0381680866365549
-0.0323432191178743
-0.0557335958053947
0.6584159168509276
-0.1064815138227349
-0.0425509697550371
-0.0316288714933448
-0.0287126323629282
-0.0774286115913977
-0.0326793999907581
-0.0373799469502723
0.0555099025281581
-0.0343446577671264
-0.0446713074266596
0.0418569085938288
-0.1473799285827475
-0.0470031172302307
-0.0323558687734576
-0.0382952266810019
-0.2019233244598161
-0.1256067293246528
0.1974796946067835
0.4871224819626792
-0.1491263921179444
-0.0308873563744876
-0.0289157828288359
-0.0360709984367082
-0.2652008173504265
-0.0286961349719806
-0.0406021828853242
-0.1369984136506944
-0.0272117276685220
0.7041684006219636
-0.0524965758545824
-0.0007179345054623
-0.0004183032014070
-0.0004845255744533
-0.0005328148045566
-0.0003184295731684
-0.0003013261476535
-0.0010850232212785
0.0159995842612601
-0.0016611394972923
-0.0005460321135611
-0.0004325490575326
-0.0003870568740907
-0.0008066420690963
-0.0004261659756481
-0.0005204441245843
-0.0046554336407396
-0.0004196729090818
-0.0018957095170501
-0.0003903814546044
-0.0300643569196775
-0.0168687419347585
-0.0164107767163668
-0.0175168986615475
-0.0184921218872143
-0.0151069567663374
-0.0231033844530706
0.4237271591043192
-0.0320906054075130
-0.0167400075461749
-0.0128895046185640
-0.0118931850040380
-0.0257101871578284
-0.0128870718049580
-0.0161905843012351
-0.0891781655474960
-0.0138829620594711
-0.0232076077595092
-0.0314940405585610
-0.0029047727297572
-0.0007105869922904
-0.0007214360080142
-0.0007152581011837
-0.0015887333694552
-0.0034982447496348
-0.0008238388937236
-0.0012396158181464
-0.0019765607741315
-0.0008741236685409
-0.0010222119570242
0.0294722074409324
-0.0020129327002960
-0.0008485916571033
-0.0007295408048316
-0.0004531786657216
-0.0008139035858383
-0.0010527083827737
-0.0074859685824687
-0.0362542209027695
-0.0324731123534633
-0.0256047819363947
-0.0338084885975828
-0.0218498451005800
-0.0330381849638660
-0.0200231627918732
-0.0226569315066145
-0.0387964251789285
-0.0180826411289569
-0.0232401977476168
0.5569829560019618
-0.0233151556685961
-0.0176834628759004
-0.0192924087152258
-0.0249948132240990
-0.0196773145725016
-0.0193894015259294
-0.1268024072110646
0.2797429374911453
-0.1639063191285097
-0.1780122748960565
-0.2095440851448904
0.1099486913560075
0.4959077070806353
-0.1493773002753456
-0.0515636852040997
0.2600381261562272
-0.1374109785806787
-0.1486839224748670
0.1827603548210582
0.1992948971130248
-0.1473624661264701
-0.1933507386825054
-0.3066124082152754
-0.1542807940341650
-0.0525091181796962
0.3649213769244262
-0.0029047727297572
-0.0007105869922904
-0.0007214360080142
-0.0007152581011837
-0.0015887333694552
-0.0034982447496348
-0.0008238388937236
-0.0012396158181464
-0.0019765607741315
-0.0008741236685409
-0.0010222119570242
0.0294722074409324
-0.0020129327002960
-0.0008485916571033
-0.0007295408048316
-0.0004531786657216
-0.0008139035858383
-0.0010527083827737
-0.0074859685824687
-0.0163346671372286
-0.0040204057213536
-0.0040802911958123
-0.0040439236584689
-0.0089509815226480
-0.0196348907171128
-0.0046236682955712
-0.0069530987909750
-0.0110912426147402
-0.0049104431169756
-0.0057376893020697
0.1732684971823684
-0.0112712916122336
-0.0047698910576250
-0.0041246805140133
-0.0025437990171426
-0.0045764464372860
-0.0059309596281602
-0.0496701268429683
-0.1517331647535597
-0.0206012220686949
-0.0645917351089170
0.0704719122456333
0.0416380647382897
-0.1853008348743430
-0.0694078393953158
-0.0740690616626950
-0.1313801170028809
-0.0523656577817086
-0.0658965601881955
0.7775518184234629
-0.0811792023417520
-0.0522268504835959
-0.0503096688337165
-0.1070636255500388
-0.0616910444246334
-0.0682082374065672
0.3463630264692352
0.1238759779010334
-0.1185107305298914
-0.1049835911251594
-0.0819011706613927
-0.1369299097300369
-0.1321973594980853
-0.0667903021566181
0.1456809886330400
-0.1099967562624989
-0.0680366576301585
0.1927405703200403
0.7201490374454680
-0.0942795987146796
-0.0704348866218426
-0.0630672746896453
-0.1624041014504982
-0.0698793335222594
-0.0871791974345828
0.1841442957277817
0.2797429374911453
-0.1639063191285097
-0.1780122748960565
-0.2095440851448904
0.1099486913560075
0.4959077070806353
-0.1493773002753456
-0.0515636852040997
0.2600381261562272
-0.1374109785806787
-0.1486839224748670
0.1827603548210582
0.1992948971130248
-0.1473624661264701
-0.1933507386825054
-0.3066124082152754
-0.1542807940341650
-0.0525091181796962
0.3649213769244262
-0.1040270486582525
-0.0636539114900842
-0.0452921102781601
-0.0539095559876860
-0.0715464346301317
-0.0932751242885058
-0.0385365125782801
-0.0586180047551456
-0.0745416601955663
-0.0381016336352752
-0.0525014291499507
0.8218076203817138
-0.0613366738918352
-0.0388822808052753
-0.0369658013420076
-0.0660462301313830
-0.0396927804823658
-0.0499066652671844
0.1650262371853830
0.1244590462849624
-0.0196365239649683
-0.0189552124068387
-0.0186962867177824
-0.0460409677027374
-0.0954562898704737
-0.0212544948915686
-0.0323502871814194
-0.0557946542199968
-0.0226758783296547
-0.0269094682686541
0.4594407776234617
-0.0527168057769700
-0.0220056926624139
-0.0192859318392946
-0.0114309469059202
-0.0211720822005652
-0.0279378815265895
-0.0715804194425831
-0.0029047727297572
-0.0007105869922904
-0.0007214360080142
-0.0007152581011837
-0.0015887333694552
-0.0034982447496348
-0.0008238388937236
-0.0012396158181464
-0.0019765607741315
-0.0008741236685409
-0.0010222119570242
0.0294722074409324
-0.0020129327002960
-0.0008485916571033
-0.0007295408048316
-0.0004531786657216
-0.0008139035858383
-0.0010527083827737
-0.0074859685824687
-0.0362542209027695
-0.0324731123534633
-0.0256047819363947
-0.0338084885975828
-0.0218498451005800
-0.0330381849638660
-0.0200231627918732
-0.0226569315066145
-0.0387964251789285
-0.0180826411289569
-0.0232401977476168
0.5569829560019618
-0.0233151556685961
-0.0176834628759004
-0.0192924087152258
-0.0249948132240990
-0.0196773145725016
-0.0193894015259294
-0.1268024072110646
0.2797429374911453
-0.1639063191285097
-0.1780122748960565
-0.2095440851448904
0.1099486913560075
0.4959077070806353
-0.1493773002753456
-0.0515636852040997
0.2600381261562272
-0.1374109785806787
-0.1486839224748670
0.1827603548210582
0.1992948971130248
-0.1473624661264701
-0.1933507386825054
-0.3066124082152754
-0.1542807940341650
-0.0525091181796962
0.3649213769244262
0.2375073647156026
0.6445493605665935
-0.1528455510149452
0.2867645623813756
0.2438055793077757
0.1853982781712843
0.2846931826772657
0.1111035914295227
0.3985339748251496
-0.0671523873229200
-0.1051461702301642
-0.1377398675104511
0.3397630517431065
-0.0682176162485879
0.2506309007139783
-0.2261971241286165
-0.1081852933833969
-0.1600527702149889
-0.2396994600529693
-0.2600862926760723
-0.2005298338080797
-0.2079111780606806
0.4832112353584141
-0.2517012584173557
0.5418659255901431
-0.1412971994965778
-0.1241200805503974
0.9294338172920403
0.2000901370391073
-0.1257991371801605
-0.1287591606585173
-0.0987917311440027
0.3855859868357957
-0.1920505435280829
0.3051394741563460
-0.1745845857259128
-0.1193205276712735
-0.2990156042898655
0.3379969122976433
0.4539650315140882
-0.1178073989951069
0.1735989415801499
0.5657473068216163
0.3206645094267330
-0.1042438408054146
-0.1146871384902332
-0.2113118855216869
-0.0505890816216949
-0.0648452985864822
-0.0953023989297987
-0.0661520327533263
-0.0566048118097833
0.1569876883073617
-0.1508165712067496
-0.0804966895105110
-0.1126055166534675
-0.1923845047732500
-0.0031376419435057
-0.2053873174831883
-0.1602633835969180
0.5320024006519422
0.8392314631060889
0.7020974682042325
-0.1166757736907650
0.2419614355037413
-0.2131036136174536
-0.0622822414380241
-0.0742877921555558
-0.0963116685286085
-0.0882298737436159
-0.0676830362917590
-0.1659065860046466
0.0958156650100013
-0.2088858237512754
-0.1636070321615674
-0.2858726141204589
0.1410209007384338
-0.2008347826151946
-0.2600001634942638
-0.0174343871401822
-0.1711828344201654
-0.3747406925474395
0.1157248525860197
0.7238696228196432
1.0105237093101829
-0.1082421858886883
-0.1219388537702012
-0.1580444393437331
0.2200876031709279
-0.1332024211482769
0.0824129872591774
1.0887871454875580
-0.1404453387253914
-0.5326844008240180
-0.4432926282090107
0.7031535468314537
0.1379418837628114
0.5595112246257437
-0.1993534196734351
0.3297118503247485
-0.3494905782144603
-0.0850669855410481
0.3050898491836083
-0.2217395006992808
-0.0561154737198050
-0.0810558018401747
-0.0798609093471158
-0.1015844963421191
-0.0580992240269724
-0.1220190987094838
-0.2902826347841794
-0.0842249402463667
-0.3266307996561080
-0.2143610762622162
1.0684442391053413
0.0984402219041200
-0.1019594075166756
-0.1928579946314520
0.4848370048744871
-0.1789694649916976
-0.1150696166821977
-0.1147128414653099
-0.1471062150525994
-0.0413029288039011
-0.0611733010502052
-0.0973398093129626
-0.1895151162612238
-0.0450424553895447
-0.0506070504691098
-0.1720537279889403
-0.0551290970583776
-0.1139988283130703
-0.1288799291522045
-0.1932896751585538
-0.1499396645573229
-0.0825972844132559
-0.1411587886529160
-0.1343482404545917
-0.1550464228086988
-0.0466068546129176
-0.0776295956651913
-0.1821919043724826
-0.0379444152383515
-0.0668651081004541
1.7007993064167106
-0.0642805684181994
-0.0404357734708176
-0.0963155274835662
-0.1444584087833035
-0.0534882800487073
-0.0557921391040220
-0.2651909476859292
0.3989628739180122
0.1423687061114507
0.6329812119925715
0.3530625104368411
0.1875833450038286
-0.0045869786717721
-0.1353883605150168
-0.2441683068385878
-0.2145523670879470
-0.0857155646009206
-0.1375617440856115
-0.1608077456868358
-0.1016682709760873
-0.0847512486547994
0.4149186112613787
-0.2202342469143800
-0.2339347783790546
-0.1334588816071138
-0.4961340820377465
-0.0975073862174301
-0.1030274220978219
-0.0439219914327140
-0.0950248466865367
-0.1044822881501455
-0.0795964101906377
-0.0210280415805970
-0.0469886049324690
-0.0622995531153135
-0.0157565453278929
0.4282356578529068
-0.0471402404127796
-0.0213577322755319
-0.0168315552212690
-0.0797173724901789
-0.0741556168788385
-0.0309333137062072
-0.0287742816660075
-0.0831740719969060
-0.1109615329181895
0.1696478098053424
-0.0646929708551526
-0.1035099106267106
-0.0980865907681591
-0.0966430119966744
-0.0217113262992169
-0.0431456953318606
-0.1071281293150541
-0.0138012600862874
0.4473185252409449
-0.0408758306332359
-0.0211737702577782
-0.0175030642212887
-0.0683137990757137
-0.0762462208938307
-0.0313351586435809
-0.0264640062259804
-0.0901124763182794
0.1918015787782157
-0.1319058919829715
0.5493588964014385
-0.0236429199367839
-0.2031636109024618
0.2102766783873445
-0.0425514744547590
-0.0579948859201646
-0.1163863916167924
-0.0324974570934705
-0.0624025716968962
-0.0706914776781139
-0.0410625708385017
-0.0357708832730475
-0.0956094461363148
-0.1355497839276600
-0.0635669081666583
-0.0523818813237854
-0.1856040948706204
-0.0779602123844859
-0.0918855110390365
-0.0389393602616859
-0.0888253616774842
-0.0955660708692357
-0.0742584665395933
-0.0153596399831857
-0.0361618852162537
-0.0662452589323613
-0.0082525915922771
-0.0191528838927095
-0.0615184946880675
-0.0158668063101858
-0.0095560732012008
-0.0732367997253087
-0.0627773270785245
-0.0194745294645894
-0.0215434583390598
-0.0707566569318760
-0.1442941731170530
-0.1176164852919404
-0.0760865914509805
-0.2188327199581302
-0.1314876290457805
-0.0951747927883397
-0.0247772567790202
-0.0466915293927017
-0.1064581177960347
-0.0167334137360648
-0.0365561269873133
-0.0399915802734255
-0.0239201420257244
-0.0315197864588829
-0.0933526281616033
-0.0821986552917725
0.9360545252559748
-0.0298608465033704
-0.1521512400061013
-0.1779027532673713
-0.1417465896326194
-0.0605500889404840
-0.1233688878134960
-0.6174874120948461
-0.2186194729018590
-0.0534955182976764
-0.1268023249536998
-0.1027629695177124
-0.0213833095982874
-0.0315923162873662
-0.0461172564239327
-0.0331421106980574
-0.0236548783715766
-0.2022339208885677
-0.1304046671187759
-0.0317174523010876
1.8208242839729765
-0.0937368481364152
-0.2430338199533382
-0.1551378607883916
-0.2849713759706903
-0.3496726528586730
-0.2634082009581691
-0.2792870322141746
-0.0655604224734389
-0.1296289814317987
-0.2390430341948167
-0.0451733450347232
-0.0663813084175800
-0.1701636370749051
-0.0578313765797702
-0.0513631541775082
-0.1301804665906872
-0.2769077834446208
-0.1143472633371096
-0.0752512489893113
3.2425818345155033
-0.1128418895551486
-0.1156202746791401
-0.0665196484004457
-0.1830835178422248
-0.0026930989853778
0.1482576449168871
-0.0281456156050304
-0.0448338828955717
-0.1178258946368694
-0.0146891120701896
-0.0268428162870266
-0.0379141953171477
-0.0248172164043159
-0.0169583201118764
0.0888420398664519
-0.0809538824613392
0.4255625080170529
-0.0354348941151231
-0.1365631481251006
-0.1734366694420775
-0.1461979059167248
-0.1040228100102990
0.0566354591384063
-0.1484432823053813
-0.1891046547838660
-0.0574505761690380
-0.2175277263165423
0.5465827013006870
-0.0463695372644010
-0.0618450286243025
-0.0972419379382067
-0.0820512363621303
-0.0567225805896776
-0.1024773028210906
0.7095882532214268
-0.0693031592726812
-0.1021862013722766
-0.2417632923058107
0.2973724749661629
0.1535216856569023
0.3218373280813531
-0.1173430322336817
0.0599619489675729
0.1865494058433747
-0.1194687817269554
-0.1588645215244829
-0.4372309229677729
-0.0927683060954671
-0.1476705807292061
-0.1970099018747911
-0.1341012697833499
-0.1057060253147171
-0.1180978563851768
0.0547151541173139
-0.2336679954478028
-0.1581433403245684
1.7482290882409615
-0.0768011727985392
-0.0190460809774869
-0.0365528099851497
0.7265890332035840
-0.1644008406024021
-0.1265415967365506
-0.0586822049528264
-0.0102232620122856
-0.0356153564436364
-0.0103188970132679
-0.0103084967779564
-0.0141098511933284
-0.0116420360514606
-0.0096643334461398
-0.0733517623171933
-0.0125410301129217
-0.0254214903651876
-0.0147423031844824
-0.0166255082327575
-0.0205198205608567
-0.0050004487735161
-0.0153868177038420
0.2161193945718540
-0.0564389416163323
-0.0453090649553227
-0.0374233137174332
-0.0015752506838004
-0.0035574925796387
-0.0017133193564701
-0.0017362459015414
-0.0016072651932841
-0.0016522238705897
-0.0015937222986419
-0.0124462208061362
-0.0019145963221461
-0.0037825227444129
-0.0021264733566074
-0.0023356541312778
-0.0768011727985392
-0.0190460809774869
-0.0365528099851497
0.7265890332035840
-0.1644008406024021
-0.1265415967365506
-0.0586822049528264
-0.0102232620122856
-0.0356153564436364
-0.0103188970132679
-0.0103084967779564
-0.0141098511933284
-0.0116420360514606
-0.0096643334461398
-0.0733517623171933
-0.0125410301129217
-0.0254214903651876
-0.0147423031844824
-0.0166255082327575
-0.2322982637999842
-0.1990624981306249
-0.1041418443877218
-0.0079952599039033
0.5973617653882684
0.2932848813318423
0.0018917171931578
-0.0355886216949680
-0.0400582101660497
-0.0390838905843769
-0.0410582998272516
-0.0424207930312797
-0.0396077093449156
-0.0401316444907835
0.1710728639752771
-0.0528567248839672
-0.0398852252802635
-0.0981867049989538
-0.0512355373634926
-0.0952370679077129
-0.1261107585298084
-0.2232369334792799
0.1798639581981388
-0.3538887824566623
0.5701873117637284
0.1224132730608885
-0.0713031119901766
-0.1646595395748470
-0.0724971563673729
-0.0700243640736254
-0.0739986730700638
-0.0703318989470142
-0.0699258100529920
0.7799255084358843
0.0654823381967330
-0.1250411590396995
-0.1297948520844049
-0.0718222820817265
-0.0768011727985392
-0.0190460809774869
-0.0365528099851497
0.7265890332035840
-0.1644008406024021
-0.1265415967365506
-0.0586822049528264
-0.0102232620122856
-0.0356153564436364
-0.0103188970132679
-0.0103084967779564
-0.0141098511933284
-0.0116420360514606
-0.0096643334461398
-0.0733517623171933
-0.0125410301129217
-0.0254214903651876
-0.0147423031844824
-0.0166255082327575
-0.0134687110133420
-0.0025236510581453
-0.0033408051630101
-0.0118215261481877
0.0476840647061118
-0.0156592193561301
-0.0045220546771118
-0.0057677591770665
-0.0067965641937124
-0.0031108716302878
-0.0030162050619765
-0.0027742246458500
-0.0035037348319060
-0.0029711981324872
0.0669027880779819
-0.0078937571874089
-0.0028748809810537
-0.0214759612747964
-0.0030657282516035
-0.0035213749894376
-0.0006505883538010
-0.0007624712390840
-0.0024347113548702
0.0378606886314892
-0.0039870528101365
-0.0010219852817995
-0.0016623112822867
-0.0014180364917570
-0.0008747257678721
-0.0008437182909055
-0.0007516703691724
-0.0009948754605095
-0.0008426084936886
-0.0076880146494603
-0.0018590051817329
-0.0007182453079007
-0.0071696396488164
-0.0006596536582565
-0.0134687110133420
-0.0025236510581453
-0.0033408051630101
-0.0118215261481877
0.0476840647061118
-0.0156592193561301
-0.0045220546771118
-0.0057677591770665
-0.0067965641937124
-0.0031108716302878
-0.0030162050619765
-0.0027742246458500
-0.0035037348319060
-0.0029711981324872
0.0669027880779819
-0.0078937571874089
-0.0028748809810537
-0.0214759612747964
-0.0030657282516035
-0.0035213749894376
-0.0006505883538010
-0.0007624712390840
-0.0024347113548702
0.0378606886314892
-0.0039870528101365
-0.0010219852817995
-0.0016623112822867
-0.0014180364917570
-0.0008747257678721
-0.0008437182909055
-0.0007516703691724
-0.0009948754605095
-0.0008426084936886
-0.0076880146494603
-0.0018590051817329
-0.0007182453079007
-0.0071696396488164
-0.0006596536582565
0.3663526043989572
-0.1164748922451471
-0.1080956193761010
-0.1047344407559483
0.1505509106547260
-0.0962570896673777
-0.0783036580315289
-0.1638437974389061
-0.1534257512020784
-0.0545635196937010
-0.0567669179899495
-0.0636203467906945
-0.0808276277158144
-0.0550184335247791
0.0194336840353361
-0.1544141639634903
-0.0528123098365985
0.7528971571243964
0.0499242120187239
-0.0134687110133420
-0.0025236510581453
-0.0033408051630101
-0.0118215261481877
0.0476840647061118
-0.0156592193561301
-0.0045220546771118
-0.0057677591770665
-0.0067965641937124
-0.0031108716302878
-0.0030162050619765
-0.0027742246458500
-0.0035037348319060
-0.0029711981324872
0.0669027880779819
-0.0078937571874089
-0.0028748809810537
-0.0214759612747964
-0.0030657282516035
-0.0035213749894376
-0.0006505883538010
-0.0007624712390840
-0.0024347113548702
0.0378606886314892
-0.0039870528101365
-0.0010219852817995
-0.0016623112822867
-0.0014180364917570
-0.0008747257678721
-0.0008437182909055
-0.0007516703691724
-0.0009948754605095
-0.0008426084936886
-0.0076880146494603
-0.0018590051817329
-0.0007182453079007
-0.0071696396488164
-0.0006596536582565
-0.0008139757515521
-0.0004700129960546
-0.0005445075256137
-0.0005921892425871
-0.0003541617382979
-0.0003362541156859
-0.0012098624979398
0.0177277129693073
-0.0018864440812304
-0.0006029710281348
-0.0004775606224476
-0.0004321137599115
-0.0008835104504203
-0.0004710070187829
-0.0005714406045669
-0.0048163845968181
-0.0004606155061377
-0.0023350045282007
-0.0004696969049213
-0.0008139757515521
-0.0004700129960546
-0.0005445075256137
-0.0005921892425871
-0.0003541617382979
-0.0003362541156859
-0.0012098624979398
0.0177277129693073
-0.0018864440812304
-0.0006029710281348
-0.0004775606224476
-0.0004321137599115
-0.0008835104504203
-0.0004710070187829
-0.0005714406045669
-0.0048163845968181
-0.0004606155061377
-0.0023350045282007
-0.0004696969049213
-0.0008139757515521
-0.0004700129960546
-0.0005445075256137
-0.0005921892425871
-0.0003541617382979
-0.0003362541156859
-0.0012098624979398
0.0177277129693073
-0.0018864440812304
-0.0006029710281348
-0.0004775606224476
-0.0004321137599115
-0.0008835104504203
-0.0004710070187829
-0.0005714406045669
-0.0048163845968181
-0.0004606155061377
-0.0023350045282007
-0.0004696969049213
-0.0008139757515521
-0.0004700129960546
-0.0005445075256137
-0.0005921892425871
-0.0003541617382979
-0.0003362541156859
-0.0012098624979398
0.0177277129693073
-0.0018864440812304
-0.0006029710281348
-0.0004775606224476
-0.0004321137599115
-0.0008835104504203
-0.0004710070187829
-0.0005714406045669
-0.0048163845968181
-0.0004606155061377
-0.0023350045282007
-0.0004696969049213
-0.0046631598750211
-0.0043187322556930
-0.0038634032826688
-0.0085581755287023
-0.0009379247173759
-0.0014241148737446
-0.0021773287397796
-0.0019101994011104
-0.0024194235392657
-0.0017567709094484
-0.0021281784010544
0.0538384482974276
-0.0016075147619296
-0.0016729671074429
-0.0030097556491215
-0.0016247859271681
-0.0028650262092060
-0.0014872218260506
-0.0074137652926403
-0.0417406121541332
0.1988488119939849
-0.0209781499319371
-0.0444981801437292
-0.0067214938475491
-0.0197367273997696
-0.0103311602775860
-0.0089333635525258
-0.0129674555930982
-0.0090654909846096
-0.0096366276593001
0.1011190742264636
-0.0085857772326943
-0.0086046435343666
-0.0159230867583590
-0.0089266450346171
-0.0137947385581610
-0.0076038571941792
-0.0519198763638236
-0.0046631598750211
-0.0043187322556930
-0.0038634032826688
-0.0085581755287023
-0.0009379247173759
-0.0014241148737446
-0.0021773287397796
-0.0019101994011104
-0.0024194235392657
-0.0017567709094484
-0.0021281784010544
0.0538384482974276
-0.0016075147619296
-0.0016729671074429
-0.0030097556491215
-0.0016247859271681
-0.0028650262092060
-0.0014872218260506
-0.0074137652926403
-0.0095070848660426
-0.0084560065537562
-0.0079421930505904
-0.0173623302480897
-0.0019549341383832
-0.0030499901218626
-0.0046298780511477
-0.0039189975880148
-0.0050016589523114
-0.0035863071680881
-0.0043534653314460
0.1097120898060159
-0.0032775515716356
-0.0034175101870257
-0.0061951588416808
-0.0032926455534086
-0.0057784842775069
-0.0030557122374308
-0.0149321810675835
-0.0095070848660426
-0.0084560065537562
-0.0079421930505904
-0.0173623302480897
-0.0019549341383832
-0.0030499901218626
-0.0046298780511477
-0.0039189975880148
-0.0050016589523114
-0.0035863071680881
-0.0043534653314460
0.1097120898060159
-0.0032775515716356
-0.0034175101870257
-0.0061951588416808
-0.0032926455534086
-0.0057784842775069
-0.0030557122374308
-0.0149321810675835
-0.0046631598750211
-0.0043187322556930
-0.0038634032826688
-0.0085581755287023
-0.0009379247173759
-0.0014241148737446
-0.0021773287397796
-0.0019101994011104
-0.0024194235392657
-0.0017567709094484
-0.0021281784010544
0.0538384482974276
-0.0016075147619296
-0.0016729671074429
-0.0030097556491215
-0.0016247859271681
-0.0028650262092060
-0.0014872218260506
-0.0074137652926403
-0.0417406121541332
0.1988488119939849
-0.0209781499319371
-0.0444981801437292
-0.0067214938475491
-0.0197367273997696
-0.0103311602775860
-0.0089333635525258
-0.0129674555930982
-0.0090654909846096
-0.0096366276593001
0.1011190742264636
-0.0085857772326943
-0.0086046435343666
-0.0159230867583590
-0.0089266450346171
-0.0137947385581610
-0.0076038571941792
-0.0519198763638236
0.2701822584614528
-0.0457680425240500
0.2477252425945840
-0.0045916031246066
-0.1253503826783231
0.2284333393521800
-0.0253328775651227
-0.0243407531024486
-0.0614259752995737
-0.0255474233098786
-0.0392354268954856
-0.0425914251124977
-0.0266860644002199
-0.0276392164201912
-0.0310201456628596
-0.0503503796248595
-0.0436622302605456
-0.0335298911867492
-0.1392690032407973
-0.0575332881138268
-0.0070511366878454
-0.0182707312738505
-0.0762453654238746
-0.1370221734045307
0.4813694356326353
-0.0120620805247707
-0.0085510423264430
-0.0274583673428336
-0.0109862717161660
-0.0104534842222908
-0.0132351802083712
-0.0123873248561798
-0.0114050532628654
-0.0219060074877670
-0.0145612309077717
-0.0084542230187752
-0.0195880903432252
-0.0141983845112433
-0.0443490079173006
-0.0042741455414305
-0.0142309777962126
-0.0079932032511244
-0.1095840762958782
0.2707942207957086
-0.0063347393485810
-0.0054620607538607
-0.0045826024035665
-0.0058776482690343
-0.0073803520393455
-0.0085241382288101
-0.0074426258768783
-0.0056810293711577
-0.0081028706629452
-0.0050683868873557
-0.0051051096875728
-0.0133164887767065
-0.0074847576879384
-0.0300246204509211
-0.0021579046475044
-0.0039715187747696
-0.0059211426131017
-0.0372404962023036
0.1432173190058929
-0.0023617415497156
-0.0029067264896955
-0.0136585304201835
-0.0033738572598418
-0.0028347369486671
-0.0065445088575560
-0.0062932053852512
-0.0035872333642305
-0.0033565632007027
-0.0028823426864318
-0.0021586911129932
-0.0066122725909042
-0.0073312264511173
0.1594316588598346
-0.0462678225821507
0.1945879140606398
-0.0491812201703488
-0.1524314502422806
0.1143784510005863
-0.0518054155442749
-0.0498616983114390
-0.2709318261176307
-0.0517150478672441
0.2431458668750850
0.1441057925845451
-0.0596401649315381
-0.0621649295799534
-0.0556213815096852
0.0214573436379223
-0.0773496721800350
-0.0609030252111198
0.1107666272291019
-0.0443490079173006
-0.0042741455414305
-0.0142309777962126
-0.0079932032511244
-0.1095840762958782
0.2707942207957086
-0.0063347393485810
-0.0054620607538607
-0.0045826024035665
-0.0058776482690343
-0.0073803520393455
-0.0085241382288101
-0.0074426258768783
-0.0056810293711577
-0.0081028706629452
-0.0050683868873557
-0.0051051096875728
-0.0133164887767065
-0.0074847576879384
0.4220454413322965
-0.0684365055972549
-0.0573148504829761
-0.0573177568728408
0.3300219838622802
0.4542476590691837
-0.0526436257393930
-0.0799353814079735
-0.1429469453265034
-0.0450440294297228
-0.0416627262207909
-0.1011278559706484
-0.1117025281127687
-0.0433772127499269
-0.1077880169262275
-0.0396706237884274
-0.0427479321636065
0.0989873045087795
-0.3135863979834701
0.2701822584614528
-0.0457680425240500
0.2477252425945840
-0.0045916031246066
-0.1253503826783231
0.2284333393521800
-0.0253328775651227
-0.0243407531024486
-0.0614259752995737
-0.0255474233098786
-0.0392354268954856
-0.0425914251124977
-0.0266860644002199
-0.0276392164201912
-0.0310201456628596
-0.0503503796248595
-0.0436622302605456
-0.0335298911867492
-0.1392690032407973
-0.0575332881138268
-0.0070511366878454
-0.0182707312738505
-0.0762453654238746
-0.1370221734045307
0.4813694356326353
-0.0120620805247707
-0.0085510423264430
-0.0274583673428336
-0.0109862717161660
-0.0104534842222908
-0.0132351802083712
-0.0123873248561798
-0.0114050532628654
-0.0219060074877670
-0.0145612309077717
-0.0084542230187752
-0.0195880903432252
-0.0141983845112433
-0.0780471308498352
-0.0127911686963316
-0.0064274062722298
-0.0168115802785185
0.5053502351022396
-0.1903737523481256
-0.0163119252053044
-0.0104741848370376
-0.0280206498583868
-0.0072054471318508
-0.0067674363602772
-0.0205953229515533
-0.0202262497362170
-0.0069591477840377
-0.0147192309762063
-0.0058946720059112
-0.0063098039830725
-0.0328641027505104
-0.0245510230768366
-0.0133436392826761
-0.0040809554078651
-0.0026003712196757
-0.0093634262759132
0.1464489331218090
-0.0753544298690066
-0.0091935413105582
-0.0025722732771226
-0.0015556312464086
-0.0024972694439258
-0.0024582911248064
-0.0022384320328273
-0.0023165392263563
-0.0024508623809324
-0.0047420406926938
-0.0021049603838163
-0.0021075250616508
-0.0046441019367991
-0.0028246429487770
-0.0050675367168314
-0.0032427029526007
-0.0020497242915192
-0.0086395925402262
0.0582109331382517
-0.0127570665161922
-0.0091173135761707
-0.0012012629162266
-0.0008181666056510
-0.0013252506415210
-0.0013071827838462
-0.0012025227638068
-0.0012529424577261
-0.0013058819227303
-0.0034119905275864
-0.0011062766657651
-0.0012018740709056
-0.0022183370640630
-0.0009853081248846
-0.0015434617604285
-0.0009910801997450
-0.0006291364670252
-0.0020492628039224
0.0170618162059671
-0.0037207602495921
-0.0027693288094097
-0.0003713799842838
-0.0002714815652209
-0.0004089527531568
-0.0004036362064036
-0.0003716928372474
-0.0003871934184529
-0.0004033188719639
-0.0010483895734185
-0.0003509716433017
-0.0003718121114795
-0.0006650236276087
-0.0003049333233064
-0.0780471308498352
-0.0127911686963316
-0.0064274062722298
-0.0168115802785185
0.5053502351022396
-0.1903737523481256
-0.0163119252053044
-0.0104741848370376
-0.0280206498583868
-0.0072054471318508
-0.0067674363602772
-0.0205953229515533
-0.0202262497362170
-0.0069591477840377
-0.0147192309762063
-0.0058946720059112
-0.0063098039830725
-0.0328641027505104
-0.0245510230768366
-0.0133436392826761
-0.0040809554078651
-0.0026003712196757
-0.0093634262759132
0.1464489331218090
-0.0753544298690066
-0.0091935413105582
-0.0025722732771226
-0.0015556312464086
-0.0024972694439258
-0.0024582911248064
-0.0022384320328273
-0.0023165392263563
-0.0024508623809324
-0.0047420406926938
-0.0021049603838163
-0.0021075250616508
-0.0046441019367991
-0.0028246429487770
-0.0070866819914362
-0.0031694261353138
-0.0036875350009807
-0.0041259658592342
-0.0028949172088648
-0.0024862629264327
-0.0087973661919833
0.1416144381933917
-0.0160687009097814
-0.0041417779526916
-0.0031732786068529
-0.0028482391190263
-0.0096343288024791
-0.0031190773656084
-0.0039877214963644
-0.0566486514908741
-0.0030652831356945
-0.0034242117254794
-0.0032550122742941
-0.0074981690398468
-0.0034335380313043
-0.0040508184026288
-0.0043999730750569
-0.0031256738534733
-0.0026172135077668
-0.0059793431907929
0.1352097971553178
-0.0162140785266574
-0.0044313659667265
-0.0033883826995435
-0.0030239273213339
-0.0130999003638580
-0.0033351296988106
-0.0042145626952740
-0.0458835931643029
-0.0032775896180449
-0.0038186283352861
-0.0034179096646118
-0.0108842746310887
-0.0050274824426411
-0.0059108866590513
-0.0064757981017410
-0.0045666386902381
-0.0038174130941757
-0.0088177972411018
0.2048829062768127
-0.0236631489316985
-0.0064988476126739
-0.0049571341509583
-0.0044137611696317
-0.0217336380602013
-0.0048787483913501
-0.0061835359164332
-0.0715994793022131
-0.0047941823426021
-0.0055998623686394
-0.0050602771703745
-0.0020955701778895
-0.0009456244061172
-0.0010909257801517
-0.0012327507481061
-0.0008609021670356
-0.0007339025749113
-0.0016710436030302
0.0371146916607511
-0.0047711705452792
-0.0012341716500144
-0.0009476461321694
-0.0008457842328718
-0.0028073506190339
-0.0009321912035856
-0.0011872264580580
-0.0128689432685606
-0.0009162338402313
-0.0010504452746578
-0.0009228089790475
-0.0074981690398468
-0.0034335380313043
-0.0040508184026288
-0.0043999730750569
-0.0031256738534733
-0.0026172135077668
-0.0059793431907929
0.1352097971553178
-0.0162140785266574
-0.0044313659667265
-0.0033883826995435
-0.0030239273213339
-0.0130999003638580
-0.0033351296988106
-0.0042145626952740
-0.0458835931643029
-0.0032775896180449
-0.0038186283352861
-0.0034179096646118
-0.0070866819914362
-0.0031694261353138
-0.0036875350009807
-0.0041259658592342
-0.0028949172088648
-0.0024862629264327
-0.0087973661919833
0.1416144381933917
-0.0160687009097814
-0.0041417779526916
-0.0031732786068529
-0.0028482391190263
-0.0096343288024791
-0.0031190773656084
-0.0039877214963644
-0.0566486514908741
-0.0030652831356945
-0.0034242117254794
-0.0032550122742941
-0.0074981690398468
-0.0034335380313043
-0.0040508184026288
-0.0043999730750569
-0.0031256738534733
-0.0026172135077668
-0.0059793431907929
0.1352097971553178
-0.0162140785266574
-0.0044313659667265
-0.0033883826995435
-0.0030239273213339
-0.0130999003638580
-0.0033351296988106
-0.0042145626952740
-0.0458835931643029
-0.0032775896180449
-0.0038186283352861
-0.0034179096646118
-0.0108842746310887
-0.0050274824426411
-0.0059108866590513
-0.0064757981017410
-0.0045666386902381
-0.0038174130941757
-0.0088177972411018
0.2048829062768127
-0.0236631489316985
-0.0064988476126739
-0.0049571341509583
-0.0044137611696317
-0.0217336380602013
-0.0048787483913501
-0.0061835359164332
-0.0715994793022131
-0.0047941823426021
-0.0055998623686394
-0.0050602771703745
-0.0133490228320789
-0.0032129126494532
-0.0032170780756730
-0.0032340843178257
-0.0070933818033265
-0.0154203510425448
-0.0036037698541886
-0.0054884726659866
-0.0090251368522574
-0.0038117601344309
-0.0045210368610185
0.1451738461329258
-0.0089191910765634
-0.0036993191251654
-0.0032149095351655
-0.0019469427251863
-0.0035580402575290
-0.0046699209529914
-0.0471885153715381
-0.0194016423596755
-0.0046100292753017
-0.0046132888123734
-0.0046390556405418
-0.0102265721888359
-0.0223446794729423
-0.0051635077392599
-0.0078882482211445
-0.0130427960390713
-0.0054633637731783
-0.0064914695728982
0.2144040413683317
-0.0128657514070361
-0.0053015730505021
-0.0046085132586178
-0.0027766507961506
-0.0050983262913211
-0.0067146491668900
-0.0731539243025886
-0.0133490228320789
-0.0032129126494532
-0.0032170780756730
-0.0032340843178257
-0.0070933818033265
-0.0154203510425448
-0.0036037698541886
-0.0054884726659866
-0.0090251368522574
-0.0038117601344309
-0.0045210368610185
0.1451738461329258
-0.0089191910765634
-0.0036993191251654
-0.0032149095351655
-0.0019469427251863
-0.0035580402575290
-0.0046699209529914
-0.0471885153715381
-0.0194016423596755
-0.0046100292753017
-0.0046132888123734
-0.0046390556405418
-0.0102265721888359
-0.0223446794729423
-0.0051635077392599
-0.0078882482211445
-0.0130427960390713
-0.0054633637731783
-0.0064914695728982
0.2144040413683317
-0.0128657514070361
-0.0053015730505021
-0.0046085132586178
-0.0027766507961506
-0.0050983262913211
-0.0067146491668900
-0.0731539243025886
-0.0133490228320789
-0.0032129126494532
-0.0032170780756730
-0.0032340843178257
-0.0070933818033265
-0.0154203510425448
-0.0036037698541886
-0.0054884726659866
-0.0090251368522574
-0.0038117601344309
-0.0045210368610185
0.1451738461329258
-0.0089191910765634
-0.0036993191251654
-0.0032149095351655
-0.0019469427251863
-0.0035580402575290
-0.0046699209529914
-0.0471885153715381
-0.0194016423596755
-0.0046100292753017
-0.0046132888123734
-0.0046390556405418
-0.0102265721888359
-0.0223446794729423
-0.0051635077392599
-0.0078882482211445
-0.0130427960390713
-0.0054633637731783
-0.0064914695728982
0.2144040413683317
-0.0128657514070361
-0.0053015730505021
-0.0046085132586178
-0.0027766507961506
-0.0050983262913211
-0.0067146491668900
-0.0731539243025886
-0.0189535215237607
0.2067203038467778
-0.0103480866196080
-0.0126095513870273
-0.0595792521614183
-0.0079167883601184
-0.0193627199302057
-0.0056400051327181
-0.0036155973861300
-0.0057714059917862
-0.0064214388581721
-0.0056241751291590
-0.0057079863245956
-0.0065535682050535
-0.0081118096174926
-0.0082476330284961
-0.0060469749325655
-0.0090572388488864
-0.0071525504095830
-0.0157384261384793
0.0263418293927183
-0.0129378005126550
-0.0124906405790860
-0.0813886314996643
-0.0077897288330511
-0.0117452517305891
-0.0161118676037387
-0.0046244245744012
-0.0094154772845236
-0.0135230642235714
-0.0418998228227684
-0.0080512217481819
-0.0106703866777812
-0.0087988881446733
-0.0129762327902736
-0.0129773194103851
0.0354538651205854
0.2193434900605093
-0.0153084370433939
0.1504147556489638
-0.0085331210511916
-0.0101601973709603
-0.0430601914983626
-0.0059071865726806
-0.0179219265138785
-0.0037931161091436
-0.0025586880086050
-0.0038428172915795
-0.0041035226470042
-0.0036612346686522
-0.0038133036200437
-0.0041920611217664
-0.0053173865815408
-0.0049720494966625
-0.0038405534038475
-0.0054296330828359
-0.0039993295668161
-0.0021972004918308
0.0245620256748640
-0.0013528165217983
-0.0015949098249625
-0.0079498586005666
-0.0007765913484445
-0.0024786942078248
-0.0005913859783250
-0.0003295608035871
-0.0005810012225536
-0.0006891534105941
-0.0005235908616903
-0.0005769290606800
-0.0007047481415045
-0.0007721773100234
-0.0007084270631691
-0.0006380769013575
-0.0010548012975500
-0.0010421026284011
0.0062749027524426
0.5972747206978225
0.0291321844566650
-0.0314981720546684
0.4659420784160324
-0.3276330907172958
-0.2247956736174691
-0.0681487591896309
-0.5835536741729090
-0.1840767633461753
0.0657108706679549
-0.1641217623130823
-0.1859994221197677
0.0727480420476102
-0.2187236636478006
0.1314287943724530
0.0385251021512331
0.0934492771713232
0.4880650084452572
-0.0754089703921271
0.8480456066549196
-0.0488946107857204
-0.0479734470936393
-0.2060442412394516
-0.0249324221631593
-0.0552519745797342
-0.0364998160752177
-0.0263911739836804
-0.0233730922716318
-0.0294098594991202
-0.0222625456643553
-0.0268049403900096
-0.0285398236485888
-0.0295919490797494
-0.0551052466408780
-0.0266265706147037
-0.0483665332418033
-0.0365683892913343
-0.0189535215237607
0.2067203038467778
-0.0103480866196080
-0.0126095513870273
-0.0595792521614183
-0.0079167883601184
-0.0193627199302057
-0.0056400051327181
-0.0036155973861300
-0.0057714059917862
-0.0064214388581721
-0.0056241751291590
-0.0057079863245956
-0.0065535682050535
-0.0081118096174926
-0.0082476330284961
-0.0060469749325655
-0.0090572388488864
-0.0071525504095830
-0.0157384261384793
0.0263418293927183
-0.0129378005126550
-0.0124906405790860
-0.0813886314996643
-0.0077897288330511
-0.0117452517305891
-0.0161118676037387
-0.0046244245744012
-0.0094154772845236
-0.0135230642235714
-0.0418998228227684
-0.0080512217481819
-0.0106703866777812
-0.0087988881446733
-0.0129762327902736
-0.0129773194103851
0.0354538651205854
0.2193434900605093
-0.0399572439212773
-0.0083913648024312
-0.0240125055548637
-0.1197741307654233
-0.0076356498342067
-0.0366081861648817
-0.0164909228907570
-0.0090673094853650
0.4550769270190442
-0.0204174367294470
-0.0136331527016158
-0.0107227537901468
-0.0097451390115669
-0.0348324026544729
-0.0112456792091491
-0.0323729622510999
-0.0230265330537357
-0.0092360408099827
-0.0279075133886215
-0.0100384641942144
-0.0070945407963615
-0.0070329715070187
-0.0406360838836360
-0.0044448880382975
-0.0130513574870045
-0.0066619667840326
-0.0050315907990663
-0.0371115412532549
-0.0086131991189014
-0.0077718945553914
-0.0075908935442700
-0.0054325040126804
-0.0239560873970178
-0.0055676399645639
0.3997246149657955
-0.0088494793482634
-0.0055802620980311
-0.1952592501837930
0.1715813950724422
-0.0197118981921794
-0.0340321461902141
0.1180363169479118
-0.0157847330335115
-0.0613935236779118
-0.0422627452920187
-0.0102861615510583
0.0952078867991730
-0.0110673973767724
-0.0112306103374662
-0.0106432940862184
-0.0095469215091359
-0.0188253391251293
-0.0149492300297131
-0.0221907857405782
-0.0472883071251757
-0.0083376148961004
-0.0472748906563394
-0.0047878285724974
-0.0010982901116179
-0.0021828671256490
-0.0307697108008753
-0.0007043349202311
-0.0064173640428850
-0.0020478832686207
-0.0011566734185333
0.0808944646300221
-0.0019694804521883
-0.0015111782337533
-0.0014278786688263
-0.0012467436944865
-0.0055603649361514
-0.0015360406487503
-0.0096623168169634
-0.0036000016729449
-0.0011759653714229
-0.0040395418736227
-0.0047878285724974
-0.0010982901116179
-0.0021828671256490
-0.0307697108008753
-0.0007043349202311
-0.0064173640428850
-0.0020478832686207
-0.0011566734185333
0.0808944646300221
-0.0019694804521883
-0.0015111782337533
-0.0014278786688263
-0.0012467436944865
-0.0055603649361514
-0.0015360406487503
-0.0096623168169634
-0.0036000016729449
-0.0011759653714229
-0.0040395418736227
-0.3240461379570471
-0.3096149665733887
-0.4074325578780118
0.4492825236576306
-0.2909993614261539
0.0738530554220020
-0.2941775910191012
-0.2732298232563116
1.1185515309049594
-0.2378174840728604
0.0258776745047153
-0.0974298369092057
-0.2693691374667926
0.1672313242680682
-0.2345691376067537
0.1439965939251695
0.1952031674730078
-0.2368705420012325
0.8015607060112814
-0.0778324505685034
-0.0514669784739767
-0.0601436297511238
-0.0865555752844168
-0.0447464904182099
0.0593892948549113
-0.0639079495867703
-0.0397143212908518
0.7327525854663352
-0.0795637021731782
-0.0672439534154261
-0.0575749616121614
-0.0420686139519209
0.3927476775234776
-0.0409591734679249
-0.1674491387945202
-0.1060512039185120
-0.0453701561003031
-0.1542412590369207
0.1107226677541108
-0.0806217510317063
-0.1882853995831226
-0.0197408748667541
-0.0658728700680184
-0.1718445716957863
-0.1013227408320428
-0.0549521242459771
0.6040331539614489
-0.0600861509571868
-0.0698204971170504
-0.0729373553575004
-0.0505235532661323
-0.1034334117647367
-0.0880807147927339
-0.2252063707197591
0.4415797644213225
-0.0496964980762584
0.2460892982378815
-0.0399572439212773
-0.0083913648024312
-0.0240125055548637
-0.1197741307654233
-0.0076356498342067
-0.0366081861648817
-0.0164909228907570
-0.0090673094853650
0.4550769270190442
-0.0204174367294470
-0.0136331527016158
-0.0107227537901468
-0.0097451390115669
-0.0348324026544729
-0.0112456792091491
-0.0323729622510999
-0.0230265330537357
-0.0092360408099827
-0.0279075133886215
-0.0100384641942144
-0.0070945407963615
-0.0070329715070187
-0.0406360838836360
-0.0044448880382975
-0.0130513574870045
-0.0066619667840326
-0.0050315907990663
-0.0371115412532549
-0.0086131991189014
-0.0077718945553914
-0.0075908935442700
-0.0054325040126804
-0.0239560873970178
-0.0055676399645639
0.3997246149657955
-0.0088494793482634
-0.0055802620980311
-0.1952592501837930
0.1715813950724422
-0.0197118981921794
-0.0340321461902141
0.1180363169479118
-0.0157847330335115
-0.0613935236779118
-0.0422627452920187
-0.0102861615510583
0.0952078867991730
-0.0110673973767724
-0.0112306103374662
-0.0106432940862184
-0.0095469215091359
-0.0188253391251293
-0.0149492300297131
-0.0221907857405782
-0.0472883071251757
-0.0083376148961004
-0.0472748906563394
-0.0397425511780531
-0.0244710858353181
-0.0744639654996005
-0.0767881688479491
0.1554321877762930
-0.0465892411486452
-0.0110127264056990
-0.0089790179373832
-0.0185438251879457
-0.0091102878278411
-0.0089238043325371
-0.0109448629503973
-0.0103446645596674
-0.0086682500850794
-0.0351526891752238
-0.0299110445301400
-0.0234303842002335
-0.0101838822736482
0.2918282641990549
-0.0910126245510065
-0.0166146199040402
-0.0502044350367509
-0.0689703618165158
0.6723582444183318
-0.2090679288017967
-0.0186097226321857
-0.0093150097066815
-0.0257554437590656
-0.0096489294850652
-0.0109838321954833
-0.0099069236020261
-0.0111099129083752
-0.0091271876273949
-0.0618763952096049
-0.0126693415134504
-0.0220893551617623
-0.0147866909600423
-0.0206095295470863
-0.0223879536780900
-0.0044272987295647
-0.0196894599861713
-0.0264500857654452
0.1799363678713488
-0.0339961099466035
-0.0043689320110597
-0.0020166594833331
-0.0052898857547160
-0.0023343981711593
-0.0022690027782403
-0.0021959669829273
-0.0021291261546763
-0.0021576948901617
-0.0271436808803869
-0.0035953552048679
-0.0082508679486667
-0.0032405185219090
-0.0079933709833730
-0.0616206047946487
-0.0101808735532417
-0.0285279728926489
-0.0646133311571035
0.3974009114312541
-0.0611043533723066
-0.0147999390768906
-0.0059091510682802
-0.0217756623756174
-0.0060213086672285
-0.0059243747696678
-0.0059171878996444
-0.0068883803560230
-0.0056511390463036
-0.0502885281174855
-0.0083690154062084
-0.0176282641257497
-0.0091151032196117
-0.0130657215325984
0.3100436162449731
0.1408083292819040
0.5869294850388758
-0.0708228566056893
0.3986729172609380
0.1307846653893912
-0.2862931274318216
-0.0798120657146252
-0.3921503186649105
-0.1770748368074536
-0.1938783775700653
-0.2105863209739958
-0.2032007581726779
-0.1947078545265378
-0.0280271635857815
-0.1290040719167910
0.2719972791929213
-0.2327712846609265
0.3590927442222492
-0.3000896090233572
0.2241562229935872
-0.1750470742269486
-0.1675455754720563
0.4878866441577234
0.4708523903449282
-0.0607743008322554
-0.0437507339909603
-0.0497022109830254
-0.0436147237382344
-0.0440163528538572
-0.0542704462922122
-0.0560410607909198
-0.0445358912274895
0.1824114256811075
0.1549965439241113
-0.0784178869506572
-0.0984419299525410
-0.3040554307669581
-0.0397425511780531
-0.0244710858353181
-0.0744639654996005
-0.0767881688479491
0.1554321877762930
-0.0465892411486452
-0.0110127264056990
-0.0089790179373832
-0.0185438251879457
-0.0091102878278411
-0.0089238043325371
-0.0109448629503973
-0.0103446645596674
-0.0086682500850794
-0.0351526891752238
-0.0299110445301400
-0.0234303842002335
-0.0101838822736482
0.2918282641990549
-0.0910126245510065
-0.0166146199040402
-0.0502044350367509
-0.0689703618165158
0.6723582444183318
-0.2090679288017967
-0.0186097226321857
-0.0093150097066815
-0.0257554437590656
-0.0096489294850652
-0.0109838321954833
-0.0099069236020261
-0.0111099129083752
-0.0091271876273949
-0.0618763952096049
-0.0126693415134504
-0.0220893551617623
-0.0147866909600423
-0.0206095295470863
-0.0099301335204084
0.0753018911636212
-0.0037864941219588
-0.0053425906283005
-0.0137028208808715
-0.0034662600479098
-0.0040290522628885
-0.0092757024205109
-0.0132656383567239
-0.0028374023683952
-0.0031977407191582
-0.0025511047232960
-0.0043065517454839
-0.0031441035484807
0.0393830844399617
-0.0200521908321417
-0.0031626857827426
-0.0092798373731668
-0.0033546662711395
-0.0933456397559166
-0.0280572814390489
-0.0650043445461132
-0.1169776104524740
-0.2532951123574412
-0.1015384715439140
0.0753963115484718
-0.0199852106840508
0.0812984139177208
-0.0148103708001419
-0.0150170450430143
-0.0148074653622933
-0.0162231428534096
-0.0146388132880258
0.7163363842492259
-0.0415375784792218
-0.0208174449471977
-0.0268364445970673
-0.0301391335660910
-0.0042875241956504
-0.0008518810372528
-0.0010298582157464
-0.0026940810159699
-0.0064449753545113
-0.0021830648165649
-0.0017267803612765
-0.0019856275410041
-0.0057214752187901
-0.0007941624752112
-0.0007738808262343
-0.0007367055442104
-0.0011070167200983
-0.0007431491439571
0.0418790182626805
-0.0051563088242450
-0.0009042255490345
-0.0037278000228731
-0.0010105014000521
-0.0437452444479431
-0.0161484677345093
-0.0160423017918148
-0.0486821287372501
-0.2207364368255342
-0.0550417150666237
-0.0343051447068039
-0.0121805604774403
-0.0210284940734124
-0.0099752669491462
-0.0098608143722305
-0.0100059001708091
-0.0106628500720178
-0.0095735595442585
0.5895500628944217
-0.0197801859190791
-0.0116446729093683
-0.0217588817545865
-0.0183774373415933
-0.0099301335204084
0.0753018911636212
-0.0037864941219588
-0.0053425906283005
-0.0137028208808715
-0.0034662600479098
-0.0040290522628885
-0.0092757024205109
-0.0132656383567239
-0.0028374023683952
-0.0031977407191582
-0.0025511047232960
-0.0043065517454839
-0.0031441035484807
0.0393830844399617
-0.0200521908321417
-0.0031626857827426
-0.0092798373731668
-0.0033546662711395
-0.0933456397559166
-0.0280572814390489
-0.0650043445461132
-0.1169776104524740
-0.2532951123574412
-0.1015384715439140
0.0753963115484718
-0.0199852106840508
0.0812984139177208
-0.0148103708001419
-0.0150170450430143
-0.0148074653622933
-0.0162231428534096
-0.0146388132880258
0.7163363842492259
-0.0415375784792218
-0.0208174449471977
-0.0268364445970673
-0.0301391335660910
-0.0561115790715458
-0.1201493424669237
-0.0306691421153470
-0.0453556351665460
0.0648104700183828
-0.0502327697916657
-0.0558967306658698
-0.0406350129896121
-0.0190598929610865
-0.0197943598559104
-0.0211503338916178
-0.0178171121645520
-0.0177806759075063
-0.0213054902160654
-0.0335223459172544
-0.0337369853175536
-0.0202867853738755
0.5693620919189419
-0.0306683680643832
-0.0430599771391840
0.0913644220397099
-0.0185921551134468
-0.0212675418563859
0.1176489033708449
-0.0184949895043190
-0.0207040348879474
-0.0219458676799198
-0.0245381216227888
-0.0118788684860050
-0.0142581562269229
-0.0109756113497893
-0.0129485627135153
-0.0143325407154090
-0.0172066210737105
0.0668676559742175
-0.0153704337938389
-0.0170282749935497
0.0067207757719588
-0.0198055850692890
-0.0231139130457253
-0.0090813484453749
-0.0115527173145591
-0.2945835224882567
-0.0160635356633034
-0.0118900124739804
-0.0296458751428783
-0.0103213521252469
-0.0085055638458506
-0.0092174412129650
-0.0074326923670702
-0.0067173078484510
-0.0092457026403181
-0.0125785503945165
-0.0188405549345744
-0.0086055575003092
0.5212321456260196
-0.0140309131133399
-0.0041983934490518
-0.0114197751529017
-0.0021062508773425
-0.0036446887885298
-0.0051055898956697
-0.0054340370027927
-0.0042330922936917
-0.0035654402992948
-0.0011274428466943
-0.0014876149282185
-0.0017473400826448
-0.0013180639019511
-0.0012772976224161
-0.0017618111084357
-0.0029684364069154
-0.0035466078792410
-0.0015890810947646
0.0592542371556735
-0.0027232735251135
-0.1522652620018738
0.0751026627741041
-0.0677039136041644
-0.0846439830081345
0.6586672936643413
-0.1808101624854167
-0.0597660756520028
-0.0650013637513936
-0.0264843421076706
-0.0379914728468079
-0.0452222505291710
-0.0345285994932477
-0.0359259091435918
-0.0459137432855176
-0.0796471584493760
-0.1462914444330236
-0.0445320302571164
0.3344663361204379
0.0384914184896347
-0.0398580329471040
-0.0591003159570320
-0.0174002589873367
-0.0232566759194828
-0.1764449332097260
-0.0413666756768139
-0.0232044346866417
-0.0348470441761634
-0.0135793212079303
-0.0136126634086256
-0.0150981058976346
-0.0119023624682079
-0.0115632081824406
-0.0152736715543915
-0.0254514268434150
-0.0271808920507929
-0.0146124810850804
0.5881335587069854
-0.0243810544481589
-0.0430599771391840
0.0913644220397099
-0.0185921551134468
-0.0212675418563859
0.1176489033708449
-0.0184949895043190
-0.0207040348879474
-0.0219458676799198
-0.0245381216227888
-0.0118788684860050
-0.0142581562269229
-0.0109756113497893
-0.0129485627135153
-0.0143325407154090
-0.0172066210737105
0.0668676559742175
-0.0153704337938389
-0.0170282749935497
0.0067207757719588
-0.0845339377236260
-0.0579000009650007
-0.0689735487322304
0.0047239580431854
-0.0641784090484556
-0.0906121267728782
-0.0476588105775675
-0.1397257480716876
0.4535162186018391
-0.0445128457650989
-0.0459831510984232
-0.0590197838947734
-0.0672528487343339
-0.0551397950514371
-0.0434452981651531
0.7075886148668441
-0.0540198174451841
-0.0709007845971143
-0.1719718848689083
-0.0294801202932327
-0.0188954745154180
-0.0172127905561213
-0.1070178452696265
-0.0174864427462325
-0.0623168747232009
-0.0149487410036299
-0.0192716792695971
0.2191645599778463
-0.0166834487271264
-0.0177283467238268
-0.0222856830507932
-0.0209494191921434
0.1593164693011477
-0.0141010074643483
-0.0121383132278336
-0.0354331975409131
-0.0185916084087031
0.0660599634337393
-0.0058127946988970
-0.0048336584834677
-0.0039981320423389
-0.0161691400853143
-0.0039110239512541
-0.0137680625086049
-0.0035756149760105
-0.0049986089357016
0.1607100027437251
-0.0034486424771785
-0.0042118023527043
-0.0058234028502292
-0.0054862684137907
-0.0068707496514589
-0.0032971328580709
-0.0362935451533288
-0.0044282200420411
-0.0060704565016374
-0.0277127467616910
-0.0125155439193278
-0.0036065140085663
-0.0035084512892905
-0.0080822828025953
-0.0070753509788820
-0.0391414689035888
-0.0039820490911590
-0.0071242264830187
0.0904509715990597
-0.0039067144192230
-0.0046037804132277
-0.0101550936660048
-0.0107526850397235
-0.0074205075596640
-0.0035218074208133
-0.0264503648077951
-0.0068156946849227
-0.0061018614191395
0.0743134253078710
-0.1455809166408419
-0.0656389916722295
-0.0757605690796631
0.3516617927017008
-0.0775961461209379
0.0209797013780622
-0.0854682175671812
-0.1276024267699525
0.7179500524761954
-0.0540362168987722
-0.0662180098156411
-0.0897408229253924
-0.0922746339640845
-0.0822605405161755
-0.0694228605967596
0.3592063658240851
-0.0854226852661211
-0.0848302977884007
-0.2479445767578959
-0.1726594649817917
-0.0375376563495600
-0.0356270611533152
-0.0816217071093093
-0.0818072611025514
0.3080422458486041
-0.0310008499989256
-0.0548586530458259
0.1916559416190880
-0.0331025129046603
-0.0455341966539071
-0.0966655042371922
-0.0879493892894101
-0.0470880244764875
-0.0296307273673120
-0.1173538058837679
-0.0542842408630727
-0.0470280157550094
0.5540508837043950
-0.0790734522081919
-0.0544495554490704
-0.0645074021321743
0.1313519016289625
-0.0603698536726882
-0.0845651200758737
-0.0430465301127385
-0.1125518979169615
0.4799220487704854
-0.0382481380037934
-0.0423674006798415
-0.0555122993808759
-0.0621837762666124
-0.0487349535165027
-0.0385905496272062
0.4466823541096955
-0.0503866556521311
-0.0672168877836515
-0.1561518320308354
-0.0294801202932327
-0.0188954745154180
-0.0172127905561213
-0.1070178452696265
-0.0174864427462325
-0.0623168747232009
-0.0149487410036299
-0.0192716792695971
0.2191645599778463
-0.0166834487271264
-0.0177283467238268
-0.0222856830507932
-0.0209494191921434
0.1593164693011477
-0.0141010074643483
-0.0121383132278336
-0.0354331975409131
-0.0185916084087031
0.0660599634337393
-0.0417531519399619
-0.0366945157668052
-0.0206174834063751
