svm_type c_svc
kernel_type rbf
gamma 0.1
nr_class 2
total_sv 10
rho -0.149492
label 1 -1
nr_sv 4 6
SV
1.624259058170078 1:1 2:1 3:1 4:1 6:1 9:1 
2.8871809374589 1:1 2:1 9:1 10:1 
0.880752207355895 1:1 2:1 4:1 7:1 9:1 10:1 
0.682730636797783 1:1 2:1 4:1 5:1 8:1 9:1 10:1 
-1.490544825517606 1:1 3:1 10:1 
-0.4691213922283515 1:1 3:1 
-0.8793874491462472 
-2.636945344823218 1:1 4:1 10:1 
-0.1641612817072573 1:1 3:1 4:1 
-0.4347625463599754 1:1 4:1 
