version: 100
cost-factor: 1
maxid: 2946
xsize: 3

f
o
s

U00:%x[-1,0]
U01:%x[0,2]
U02:%x[1,0]
U03:%x[-1,0]/%x[0,2]
U04:%x[0,2]/%x[1,0]
U05:%x[-1,0]/%x[0,2]/%x[1,0]
B

90 B
2184 U00:10
120 U00:2
2577 U00:203房间
1839 U00:30
1722 U00:390
681 U00:5
2214 U00:90
2514 U00:A205门口
1224 U00:B座
0 U00:_B-1
1152 U00:v
420 U00:并
2829 U00:厕所
2796 U00:朝
2880 U00:朝着
1953 U00:出
228 U00:出发
1278 U00:出去
1584 U00:穿过
1815 U00:传达室
2745 U00:床的跟前
195 U00:从
1917 U00:打印机跟前
894 U00:大路
1593 U00:大门
1494 U00:大门处
1188 U00:大门方向
1446 U00:大门口
2910 U00:大厅
2598 U00:倒
1437 U00:到
537 U00:到达
2385 U00:的
2412 U00:点
2868 U00:电梯口
1566 U00:丁字路口
2268 U00:多
564 U00:房间
654 U00:赶紧
1461 U00:拐
1800 U00:过
579 U00:后
750 U00:后退
1752 U00:回到
2046 U00:机电楼
279 U00:机电院大门
177 U00:几
1038 U00:继续
264 U00:进入
2655 U00:近
363 U00:尽头
1215 U00:经过
2319 U00:径直
2628 U00:靠
2478 U00:快点
2460 U00:快速
2937 U00:离开到
759 U00:两
1965 U00:了
339 U00:楼道
1137 U00:楼道口
444 U00:楼梯
405 U00:楼梯处
1899 U00:路
2403 U00:慢
2376 U00:慢慢
2256 U00:门
2643 U00:门把手
954 U00:门口
135 U00:米
522 U00:南
639 U00:你
459 U00:爬上
1656 U00:起点
36 U00:前
2760 U00:前方十字路口
162 U00:前进
2550 U00:前面的路口处
2310 U00:桥的中线
2487 U00:去
705 U00:然后
1077 U00:上
1773 U00:稍
2430 U00:稍微
2019 U00:十字路口那儿
2109 U00:收费站那儿
1365 U00:书柜处
468 U00:顺着
1056 U00:天桥
2529 U00:停
2166 U00:退
18 U00:往
2805 U00:卧室
72 U00:五
2088 U00:西
2697 U00:下
1317 U00:先
777 U00:现在
309 U00:向
105 U00:向前
2838 U00:向着
2232 U00:斜
1713 U00:行驶
1689 U00:沿
327 U00:沿着
2283 U00:一
2445 U00:一点
495 U00:一路
996 U00:一直
2343 U00:移动到
1422 U00:饮水机
378 U00:右
1995 U00:右拐
1860 U00:右前方
879 U00:右转
2073 U00:玉带路
819 U00:原地
1830 U00:约
1392 U00:再
804 U00:在
726 U00:这里
1677 U00:正北方向
297 U00:之后
1167 U00:直到
591 U00:直接
924 U00:转
846 U00:转身
1542 U00:转弯
213 U00:桌子
1347 U00:桌子的边沿
615 U00:桌子旁边
54 U00:走
1518 U00:走出
243 U00:走到
1407 U00:走过
2679 U00:走近
1305 U00:走向
834 U00:左
2778 U00:左边拐弯的地方
1929 U00:左转
483 U01:0
3 U01:1
282 U01:10
21 U01:2
39 U01:3
138 U01:4
1761 U01:5
57 U01:6
198 U01:7
75 U01:8
2658 U01:9
2175 U02:10
108 U02:2
2562 U02:203房间
1818 U02:30
1704 U02:390
669 U02:5
2193 U02:90
2496 U02:A205门口
729 U02:A501
1155 U02:A505的门口
1107 U02:A座
1203 U02:B座
78 U02:_B+1
525 U02:c404门口
1128 U02:v
396 U02:并
165 U02:步
1629 U02:厕所
1608 U02:厕所旁边
201 U02:出发
945 U02:出去
2223 U02:穿过
1791 U02:传达室
2928 U02:窗户旁边
2730 U02:床的跟前
927 U02:从
1902 U02:打印机跟前
882 U02:大路
1509 U02:大门
1485 U02:大门处
1176 U02:大门方向
1425 U02:大门口
2895 U02:大厅
2586 U02:倒
1410 U02:到
510 U02:到达
2367 U02:的
999 U02:第一个交叉口
2394 U02:点
2850 U02:电梯口
1545 U02:丁字路口
2202 U02:度
2322 U02:对面
2247 U02:多
546 U02:房间
627 U02:赶紧
1368 U02:拐
897 U02:柜子旁边
555 U02:后
1734 U02:回到
2037 U02:机电楼
1464 U02:机电楼大门
1782 U02:机电楼大厅
255 U02:机电院大门
606 U02:即可
150 U02:几
1014 U02:继续
1095 U02:进入
2631 U02:近
342 U02:尽头
1191 U02:经过
2301 U02:径直
2610 U02:靠
2919 U02:离开到
741 U02:两
1944 U02:了
318 U02:楼道
1119 U02:楼道口
423 U02:楼梯
387 U02:楼梯处
2334 U02:楼梯的底端
1890 U02:路
2421 U02:慢
2235 U02:门
2619 U02:门把手
231 U02:门口
1932 U02:门口处
60 U02:米
498 U02:南
768 U02:你
435 U02:爬上
1641 U02:起点
6 U02:前
2112 U02:前进
2688 U02:前面的第二个桌子旁边
2538 U02:前面的路口处
2670 U02:前面的那个桌子旁边
2292 U02:桥的中线
2469 U02:去
684 U02:然后
2004 U02:十字路口那儿
2097 U02:收费站那儿
1350 U02:书柜处
1026 U02:顺着
447 U02:四楼
2136 U02:体育馆
1041 U02:天桥
2505 U02:停
2151 U02:退
642 U02:往
2787 U02:卧室
42 U02:五
2076 U02:西
2517 U02:下来
285 U02:向
1242 U02:向前
2820 U02:向着
1692 U02:行驶
408 U02:沿着
2271 U02:一
2352 U02:一点
471 U02:一路
1059 U02:一小段楼梯
984 U02:一直
1395 U02:饮水机
354 U02:右
1227 U02:右拐
963 U02:右转
1296 U02:玉带河的河边
2058 U02:玉带路
1743 U02:原处
792 U02:原地
1803 U02:约
1557 U02:再
780 U02:在
714 U02:这里
1659 U02:正北方向
267 U02:之后
1140 U02:直到
567 U02:直接
1851 U02:直行
366 U02:转
822 U02:转身
1527 U02:转弯
186 U02:桌子
1338 U02:桌子的边沿
858 U02:桌子的尽头
594 U02:桌子旁边
24 U02:走
1497 U02:走出
216 U02:走到
1383 U02:走过
2859 U02:走过去
2721 U02:走廊尽头
1287 U02:走向
807 U02:左
2769 U02:左边拐弯的地方
123 U02:左转
2187 U03:10/8
126 U03:2/8
2580 U03:203房间/3
1842 U03:30/8
1725 U03:390/8
687 U03:5/8
2217 U03:90/8
2520 U03:A205门口/4
1230 U03:B座/10
630 U03:_B-1/0
9 U03:_B-1/1
966 U03:_B-1/10
99 U03:_B-1/2
153 U03:_B-1/3
870 U03:_B-1/4
1764 U03:_B-1/5
2754 U03:_B-1/7
1158 U03:v/3
426 U03:并/1
1272 U03:并/3
2832 U03:厕所/1
2889 U03:厕所/3
2799 U03:朝/7
2883 U03:朝着/7
1956 U03:出/0
2061 U03:出发/1
234 U03:出发/3
1281 U03:出去/7
1587 U03:穿过/7
1821 U03:传达室/0
2748 U03:床的跟前/4
204 U03:从/7
1920 U03:打印机跟前/1
900 U03:大路/3
1596 U03:大门/0
1977 U03:大门/1
1500 U03:大门处/10
1194 U03:大门方向/3
1449 U03:大门口/2
2913 U03:大厅/3
2601 U03:倒/6
1440 U03:到/7
540 U03:到达/7
2388 U03:的/1
2415 U03:点/1
2871 U03:电梯口/3
1569 U03:丁字路口/10
2274 U03:多/3
570 U03:房间/10
657 U03:赶紧/1
1467 U03:拐/3
1806 U03:过/7
582 U03:后/0
2712 U03:后/1
2160 U03:后/3
1017 U03:后/4
753 U03:后退/6
1755 U03:回到/7
2049 U03:机电楼/3
288 U03:机电院大门/10
180 U03:几/8
1044 U03:继续/1
2124 U03:继续/3
2031 U03:继续/4
270 U03:进入/7
2661 U03:近/9
369 U03:尽头/2
1218 U03:经过/7
2325 U03:径直/3
2634 U03:靠/2
2481 U03:快点/3
2463 U03:快速/3
2940 U03:离开到/7
762 U03:两/8
1968 U03:了/7
486 U03:楼道/0
345 U03:楼道/3
1143 U03:楼道口/4
1086 U03:楼梯/10
450 U03:楼梯/3
411 U03:楼梯处/10
2130 U03:路/0
1905 U03:路/3
2406 U03:慢/0
2379 U03:慢慢/0
2259 U03:门/10
2646 U03:门把手/0
1263 U03:门口/10
957 U03:门口/3
696 U03:米/10
141 U03:米/4
528 U03:南/3
645 U03:你/0
795 U03:你/1
462 U03:爬上/7
1662 U03:起点/1
45 U03:前/3
2763 U03:前方十字路口/2
168 U03:前进/6
2553 U03:前面的路口处/1
2313 U03:桥的中线/0
2490 U03:去/7
708 U03:然后/2
861 U03:然后/3
975 U03:然后/4
1080 U03:上/7
1776 U03:稍/1
2433 U03:稍微/5
2022 U03:十字路口那儿/0
2115 U03:收费站那儿/0
1371 U03:书柜处/2
474 U03:顺着/7
1062 U03:天桥/3
2532 U03:停/0
2169 U03:退/6
27 U03:往/2
1986 U03:往/4
2808 U03:卧室/1
81 U03:五/8
2091 U03:西/3
2700 U03:下/7
1320 U03:先/3
783 U03:现在/0
1875 U03:现在/3
513 U03:向/2
312 U03:向/4
111 U03:向前/3
2841 U03:向着/7
2238 U03:斜/3
1716 U03:行驶/6
1695 U03:沿/7
330 U03:沿着/7
2286 U03:一/8
2448 U03:一点/3
501 U03:一路/1
1602 U03:一路/2
1251 U03:一直/2
1002 U03:一直/3
2346 U03:移动到/7
1428 U03:饮水机/3
381 U03:右/4
1998 U03:右拐/0
1863 U03:右前方/4
885 U03:右转/1
2079 U03:玉带路/1
825 U03:原地/2
1833 U03:约/6
1575 U03:再/2
1398 U03:再/3
810 U03:在/7
732 U03:这里/3
1680 U03:正北方向/3
1098 U03:之后/0
300 U03:之后/1
1170 U03:直到/7
597 U03:直接/3
1029 U03:转/0
930 U03:转/10
1632 U03:转/3
849 U03:转身/10
1548 U03:转弯/3
219 U03:桌子/3
1353 U03:桌子的边沿/3
618 U03:桌子旁边/0
1884 U03:桌子旁边/2
1332 U03:桌子旁边/4
1206 U03:走/3
63 U03:走/6
1521 U03:走出/7
246 U03:走到/7
1413 U03:走过/7
2682 U03:走近/7
1308 U03:走向/7
837 U03:左/4
2781 U03:左边拐弯的地方/2
1935 U03:左转/3
2205 U03:左转/6
1824 U04:0/30
621 U04:0/_B+1
1869 U04:0/出发
1959 U04:0/大门
633 U04:0/赶紧
1101 U04:0/进入
2424 U04:0/慢
771 U04:0/你
2118 U04:0/前进
1032 U04:0/顺着
648 U04:0/往
489 U04:0/向
1245 U04:0/向前
2649 U04:0/一点
2025 U04:0/右拐
786 U04:0/在
585 U04:0/走到
2814 U04:1/厕所
1794 U04:1/传达室
888 U04:1/大路
1179 U04:1/大门方向
2898 U04:1/大厅
2853 U04:1/电梯口
2145 U04:1/后
2040 U04:1/机电楼
321 U04:1/楼道
429 U04:1/楼梯
1893 U04:1/路
939 U04:1/门口
504 U04:1/南
1644 U04:1/起点
12 U04:1/前
2295 U04:1/桥的中线
1047 U04:1/天桥
2790 U04:1/卧室
2082 U04:1/西
1617 U04:1/右
1980 U04:1/右拐
2064 U04:1/玉带路
798 U04:1/原地
717 U04:1/这里
1665 U04:1/正北方向
189 U04:1/桌子
1341 U04:1/桌子的边沿
909 U04:1/左
2772 U04:1/左边拐弯的地方
303 U04:1/左转
1266 U04:10/出去
933 U04:10/从
1737 U04:10/回到
2613 U04:10/靠
2706 U04:10/往
291 U04:10/向
1476 U04:10/向前
414 U04:10/沿着
1089 U04:10/一直
699 U04:10/右
1233 U04:10/右拐
969 U04:10/右转
573 U04:10/直接
1854 U04:10/直行
2262 U04:10/走
1503 U04:10/走出
852 U04:10/走到
1386 U04:10/走过
1290 U04:10/走向
1671 U04:2/出发
2226 U04:2/穿过
2589 U04:2/倒
516 U04:2/到达
1374 U04:2/拐
2637 U04:2/近
2154 U04:2/退
372 U04:2/转
828 U04:2/转身
1530 U04:2/转弯
30 U04:2/走
1254 U04:2/走到
2178 U04:3/10
114 U04:3/2
2565 U04:3/203房间
1707 U04:3/390
672 U04:3/5
2499 U04:3/A205门口
735 U04:3/A501
1161 U04:3/A505的门口
1110 U04:3/A座
1209 U04:3/B座
663 U04:3/_B+1
531 U04:3/c404门口
1635 U04:3/厕所
1611 U04:3/厕所旁边
2931 U04:3/窗户旁边
2733 U04:3/床的跟前
1908 U04:3/打印机跟前
1512 U04:3/大门
1488 U04:3/大门处
1431 U04:3/大门口
1005 U04:3/第一个交叉口
1551 U04:3/丁字路口
2328 U04:3/对面
549 U04:3/房间
903 U04:3/柜子旁边
1470 U04:3/机电楼大门
1785 U04:3/机电楼大厅
258 U04:3/机电院大门
156 U04:3/几
348 U04:3/尽头
1197 U04:3/经过
744 U04:3/两
1947 U04:3/了
1122 U04:3/楼道口
1071 U04:3/楼梯
390 U04:3/楼梯处
2337 U04:3/楼梯的底端
2241 U04:3/门
2622 U04:3/门把手
237 U04:3/门口
1938 U04:3/门口处
2691 U04:3/前面的第二个桌子旁边
2541 U04:3/前面的路口处
2673 U04:3/前面的那个桌子旁边
2007 U04:3/十字路口那儿
2100 U04:3/收费站那儿
1356 U04:3/书柜处
453 U04:3/四楼
2139 U04:3/体育馆
48 U04:3/五
2052 U04:3/沿着
2277 U04:3/一
2355 U04:3/一点
1065 U04:3/一小段楼梯
1401 U04:3/饮水机
1299 U04:3/玉带河的河边
1746 U04:3/原处
864 U04:3/桌子的尽头
600 U04:3/桌子旁边
222 U04:3/走到
2724 U04:3/走廊尽头
2196 U04:4/90
144 U04:4/_B+1
918 U04:4/并
1455 U04:4/出去
1020 U04:4/继续
1623 U04:4/进入
840 U04:4/然后
2523 U04:4/下来
873 U04:4/沿着
1989 U04:4/一直
1146 U04:4/直到
1536 U04:4/走到
2370 U04:5/的
2397 U04:5/点
2454 U04:5/前进
2472 U04:5/去
1767 U04:5/向
2436 U04:5/一点
2361 U04:6/_B+1
171 U04:6/步
2208 U04:6/度
66 U04:6/米
249 U04:7/_B+1
1131 U04:7/v
399 U04:7/并
207 U04:7/出发
948 U04:7/出去
1416 U04:7/到
2250 U04:7/多
558 U04:7/后
609 U04:7/即可
2013 U04:7/继续
2304 U04:7/径直
2922 U04:7/离开到
438 U04:7/爬上
2904 U04:7/前进
2571 U04:7/去
2508 U04:7/停
1971 U04:7/往
1650 U04:7/向
2823 U04:7/向着
1698 U04:7/行驶
477 U04:7/一路
987 U04:7/一直
357 U04:7/右
1326 U04:7/右拐
2739 U04:7/右转
1809 U04:7/约
1560 U04:7/再
273 U04:7/之后
2844 U04:7/走
333 U04:7/走到
2862 U04:7/走过去
813 U04:7/左
84 U04:8/_B+1
1845 U04:8/后
690 U04:8/然后
129 U04:8/左转
2664 U04:9/_B+1
2190 U05:10/8/左转
132 U05:2/8/左转
2583 U05:203房间/3/_B+1
1848 U05:30/8/后
1728 U05:390/8/_B+1
2607 U05:5/8/_B+1
693 U05:5/8/然后
2220 U05:90/8/_B+1
2526 U05:A205门口/4/下来
1236 U05:B座/10/右拐
1872 U05:_B-1/0/出发
636 U05:_B-1/0/赶紧
2427 U05:_B-1/0/慢
774 U05:_B-1/0/你
1248 U05:_B-1/0/向前
2817 U05:_B-1/1/厕所
1797 U05:_B-1/1/传达室
1686 U05:_B-1/1/大路
1182 U05:_B-1/1/大门方向
2901 U05:_B-1/1/大厅
2856 U05:_B-1/1/电梯口
2148 U05:_B-1/1/后
2043 U05:_B-1/1/机电楼
324 U05:_B-1/1/楼道
1896 U05:_B-1/1/路
2877 U05:_B-1/1/门口
1647 U05:_B-1/1/起点
15 U05:_B-1/1/前
2298 U05:_B-1/1/桥的中线
2793 U05:_B-1/1/卧室
1620 U05:_B-1/1/右
720 U05:_B-1/1/这里
192 U05:_B-1/1/桌子
1344 U05:_B-1/1/桌子的边沿
912 U05:_B-1/1/左
2775 U05:_B-1/1/左边拐弯的地方
2616 U05:_B-1/10/靠
972 U05:_B-1/10/右转
1314 U05:_B-1/10/走到
1389 U05:_B-1/10/走过
1293 U05:_B-1/10/走向
2229 U05:_B-1/2/穿过
1011 U05:_B-1/2/转
1533 U05:_B-1/2/转弯
102 U05:_B-1/2/走
2568 U05:_B-1/3/203房间
675 U05:_B-1/3/5
2502 U05:_B-1/3/A205门口
2736 U05:_B-1/3/床的跟前
1581 U05:_B-1/3/大门
552 U05:_B-1/3/房间
261 U05:_B-1/3/机电院大门
159 U05:_B-1/3/几
747 U05:_B-1/3/两
1950 U05:_B-1/3/了
1125 U05:_B-1/3/楼道口
1074 U05:_B-1/3/楼梯
393 U05:_B-1/3/楼梯处
2340 U05:_B-1/3/楼梯的底端
2694 U05:_B-1/3/前面的第二个桌子旁边
2544 U05:_B-1/3/前面的路口处
2676 U05:_B-1/3/前面的那个桌子旁边
2103 U05:_B-1/3/收费站那儿
2727 U05:_B-1/3/走廊尽头
1731 U05:_B-1/4/然后
876 U05:_B-1/4/沿着
2373 U05:_B-1/5/的
2400 U05:_B-1/5/点
2457 U05:_B-1/5/前进
2475 U05:_B-1/5/去
1770 U05:_B-1/5/向
2757 U05:_B-1/7/左
1164 U05:v/3/A505的门口
432 U05:并/1/楼梯
942 U05:并/1/门口
1515 U05:并/3/大门
1275 U05:并/3/机电院大门
2835 U05:厕所/1/门口
2892 U05:厕所/3/_B+1
2802 U05:朝/7/往
2886 U05:朝着/7/走过去
1962 U05:出/0/大门
2067 U05:出发/1/玉带路
240 U05:出发/3/门口
1881 U05:出发/3/桌子旁边
1284 U05:出去/7/_B+1
2253 U05:穿过/7/多
1590 U05:穿过/7/一路
1827 U05:传达室/0/30
2751 U05:床的跟前/4/_B+1
210 U05:从/7/出发
951 U05:从/7/出去
2925 U05:从/7/离开到
1653 U05:从/7/向
2826 U05:从/7/向着
723 U05:从/7/走到
1923 U05:打印机跟前/1/左转
1710 U05:大路/3/390
906 U05:大路/3/柜子旁边
1599 U05:大门/0/向前
1983 U05:大门/1/右拐
1506 U05:大门处/10/走出
1200 U05:大门方向/3/经过
1452 U05:大门口/2/拐
2916 U05:大厅/3/_B+1
2604 U05:倒/6/米
2574 U05:到/7/去
1443 U05:到/7/右
543 U05:到达/7/_B+1
2106 U05:到达/7/继续
2391 U05:的/1/前
2418 U05:点/1/前
2874 U05:电梯口/3/_B+1
1572 U05:丁字路口/10/右
2280 U05:多/3/一
576 U05:房间/10/直接
660 U05:赶紧/1/前
1473 U05:拐/3/机电楼大门
1812 U05:过/7/约
588 U05:后/0/走到
2715 U05:后/1/左
2595 U05:后/3/5
2163 U05:后/3/几
1239 U05:后/4/_B+1
1023 U05:后/4/继续
756 U05:后退/6/步
1758 U05:回到/7/_B+1
2055 U05:机电楼/3/沿着
294 U05:机电院大门/10/向
183 U05:几/8/_B+1
1050 U05:继续/1/天桥
2127 U05:继续/3/_B+1
2034 U05:继续/4/_B+1
1116 U05:进入/7/_B+1
561 U05:进入/7/后
276 U05:进入/7/之后
2667 U05:近/9/_B+1
375 U05:尽头/2/转
1221 U05:经过/7/后
2331 U05:径直/3/对面
2640 U05:靠/2/近
2484 U05:快点/3/门口
2466 U05:快速/3/_B+1
2943 U05:离开到/7/_B+1
765 U05:两/8/_B+1
1974 U05:了/7/往
492 U05:楼道/0/向
993 U05:楼道/0/走到
351 U05:楼道/3/尽头
1149 U05:楼道口/4/直到
2709 U05:楼梯/10/往
1092 U05:楼梯/10/一直
456 U05:楼梯/3/四楼
417 U05:楼梯处/10/沿着
2133 U05:路/0/走到
1911 U05:路/3/打印机跟前
2442 U05:慢/0/前进
2409 U05:慢/0/往
2382 U05:慢慢/0/往
2265 U05:门/10/走
2652 U05:门把手/0/一点
1269 U05:门口/10/出去
960 U05:门口/3/_B+1
2934 U05:门口/3/窗户旁边
702 U05:米/10/右
1857 U05:米/10/直行
2199 U05:米/4/90
147 U05:米/4/_B+1
534 U05:南/3/c404门口
651 U05:你/0/往
801 U05:你/1/原地
465 U05:爬上/7/_B+1
1668 U05:起点/1/正北方向
666 U05:前/3/_B+1
51 U05:前/3/五
2358 U05:前/3/一点
2766 U05:前方十字路口/2/转
174 U05:前进/6/步
678 U05:前进/6/米
2556 U05:前面的路口处/1/右拐
2316 U05:桥的中线/0/走到
2493 U05:去/7/_B+1
711 U05:然后/2/转
1482 U05:然后/2/走到
1302 U05:然后/3/玉带河的河边
1749 U05:然后/3/原处
867 U05:然后/3/桌子的尽头
978 U05:然后/4/沿着
1083 U05:上/7/之后
1779 U05:稍/1/右
2439 U05:稍微/5/一点
2028 U05:十字路口那儿/0/右拐
2121 U05:收费站那儿/0/前进
1377 U05:书柜处/2/拐
480 U05:顺着/7/一路
1053 U05:顺着/7/走到
1068 U05:天桥/3/一小段楼梯
2535 U05:停/0/_B+1
2172 U05:退/6/步
2592 U05:往/2/倒
2718 U05:往/2/拐
33 U05:往/2/走
2559 U05:往/4/_B+1
1992 U05:往/4/一直
2811 U05:卧室/1/前
87 U05:五/8/_B+1
2094 U05:西/3/_B+1
2703 U05:下/7/后
1323 U05:先/3/桌子旁边
789 U05:现在/0/在
1878 U05:现在/3/走到
1674 U05:向/2/出发
519 U05:向/2/到达
2157 U05:向/2/退
915 U05:向/2/转
1185 U05:向/2/走
315 U05:向/4/_B+1
1926 U05:向/4/直到
2181 U05:向前/3/10
117 U05:向前/3/2
1614 U05:向前/3/厕所旁边
1491 U05:向前/3/大门处
1260 U05:向前/3/门口
2907 U05:向着/7/前进
2847 U05:向着/7/走
2865 U05:向着/7/走过去
2244 U05:斜/3/门
1719 U05:行驶/6/米
1701 U05:沿/7/行驶
2307 U05:沿着/7/径直
441 U05:沿着/7/爬上
2070 U05:沿着/7/往
990 U05:沿着/7/一直
336 U05:沿着/7/走到
2289 U05:一/8/_B+1
2451 U05:一点/3/_B+1
507 U05:一路/1/南
1605 U05:一路/2/走到
1257 U05:一直/2/走到
1113 U05:一直/3/A座
1008 U05:一直/3/第一个交叉口
2010 U05:一直/3/十字路口那儿
2142 U05:一直/3/体育馆
2349 U05:移动到/7/_B+1
1434 U05:饮水机/3/大门口
384 U05:右/4/_B+1
1458 U05:右/4/出去
1626 U05:右/4/进入
2001 U05:右拐/0/走到
1866 U05:右前方/4/_B+1
891 U05:右转/1/大路
981 U05:右转/1/楼道
2085 U05:玉带路/1/西
831 U05:原地/2/转身
1836 U05:约/6/米
1578 U05:再/2/转
2625 U05:再/3/门把手
1404 U05:再/3/饮水机
816 U05:在/7/左
738 U05:这里/3/A501
1683 U05:正北方向/3/_B+1
1104 U05:之后/0/进入
306 U05:之后/1/左转
1173 U05:直到/7/_B+1
603 U05:直接/3/桌子旁边
1035 U05:转/0/顺着
936 U05:转/10/从
1479 U05:转/10/向前
1638 U05:转/3/厕所
1788 U05:转/3/机电楼大厅
1740 U05:转身/10/回到
855 U05:转身/10/走到
1554 U05:转弯/3/丁字路口
225 U05:桌子/3/走到
1359 U05:桌子的边沿/3/书柜处
624 U05:桌子旁边/0/_B+1
1887 U05:桌子旁边/2/转
1335 U05:桌子旁边/4/_B+1
1212 U05:走/3/B座
2364 U05:走/6/_B+1
69 U05:走/6/米
1524 U05:走出/7/_B+1
252 U05:走到/7/_B+1
1134 U05:走到/7/v
402 U05:走到/7/并
612 U05:走到/7/即可
2016 U05:走到/7/继续
2511 U05:走到/7/停
2547 U05:走到/7/往
1914 U05:走到/7/向
360 U05:走到/7/右
1329 U05:走到/7/右拐
2742 U05:走到/7/右转
1563 U05:走到/7/再
1362 U05:走到/7/左
1419 U05:走过/7/到
2685 U05:走近/7/_B+1
1311 U05:走向/7/_B+1
1380 U05:左/4/_B+1
921 U05:左/4/并
843 U05:左/4/然后
1539 U05:左/4/走到
2784 U05:左边拐弯的地方/2/转
1941 U05:左转/3/门口处
2211 U05:左转/6/度

-0.3622935534264610
1.0847971155259366
-0.7225035620994761
-0.4501045338848190
0.9014795823956202
-0.4513750485107851
-0.0415073494765316
0.0909775461129851
-0.0494701966364501
-0.2170695993995981
0.3957510695848158
-0.1786814701852201
-0.0415073494765316
0.0909775461129851
-0.0494701966364501
-0.0086829288060360
0.0166790307505721
-0.0079961019445343
-0.0835570192095459
0.1667157051462750
-0.0831586859367160
-0.3182532296617923
0.6887605802471665
-0.3705073505853597
0.0756276018157181
0.0989715433520732
-0.1745991451677856
-0.0621571797718696
0.1232939374133020
-0.0611367576414223
-0.0726644519655278
0.1352111180570954
-0.0625466660915591
-0.0461513441609498
0.0887579487797420
-0.0426066046187846
-0.0349793118044694
0.0618802944066529
-0.0269009826021770
-0.6416278111891771
1.2668677160395265
-0.6252399048503282
-0.0047176798160658
0.0106637433175341
-0.0059460635014685
-0.0349793118044694
0.0618802944066529
-0.0269009826021770
-0.0047176798160658
0.0106637433175341
-0.0059460635014685
-0.0047176798160658
0.0106637433175341
-0.0059460635014685
-0.0878253780332873
0.1569657173729530
-0.0691403393396740
-0.1896499507199612
0.3805505660311359
-0.1909006153111739
-0.0793277608096652
0.1743612351000534
-0.0950334742903880
-0.0809650189149351
0.1424322332148687
-0.0614672142999427
-0.0793277608096652
0.1743612351000534
-0.0950334742903880
-0.0313103047302711
0.0695767960550147
-0.0382664913247458
-0.0240995817008597
0.0366033536509773
-0.0125037719501196
-0.2471878573432226
0.4225663256710945
-0.1753784683278628
-0.0471797703974190
0.8708099086752719
-0.8236301382778493
-0.0240995817008597
0.0366033536509773
-0.0125037719501196
-0.1857101751351619
0.2827470737552996
-0.0970368986201355
-0.0240995817008597
0.0366033536509773
-0.0125037719501196
-0.8821211233746301
0.1105851530712824
-0.7752150009211327
0.3902579099170005
1.8429387832630029
0.3225994109057849
-0.7397739747378109
0.3882849609008423
-0.6575561190242528
-0.0647345717776822
0.1173640499014913
-0.0526294781238063
-0.0187766500652981
0.0316834581810930
-0.0129068081157938
-0.0302784147733401
0.0647236422638615
-0.0344452274905235
-0.0047625324316751
0.0106408842307675
-0.0058783517990926
-0.0302784147733401
0.0647236422638615
-0.0344452274905235
-0.0047625324316751
0.0106408842307675
-0.0058783517990926
-0.0047625324316751
0.0106408842307675
-0.0058783517990926
-0.0139431273709521
0.0317993571911387
-0.0178562298201879
-0.0471719967093592
0.1083086154551399
-0.0611366187457742
-0.0139431273709521
0.0317993571911387
-0.0178562298201879
-0.0279256757874603
0.0636746315571218
-0.0357489557696583
-0.0139431273709521
0.0317993571911387
-0.0178562298201879
-0.0495871341018181
0.0940167080003503
-0.0444295738985221
-0.3794180270882356
0.7041667115344940
-0.3247486844462565
-0.0240811210280175
0.0444150917338735
-0.0203339707058540
-0.2234034690778941
0.3427255305755779
-0.1193220614976837
-0.0138620877273187
0.0209401537542987
-0.0070780660269818
-0.0087160712683627
0.0182445443494128
-0.0095284730810511
-0.1204705124146345
0.2215769664588065
-0.1011064540441746
-0.0087160712683627
0.0182445443494128
-0.0095284730810511
-0.0041257235942479
0.0079602857177919
-0.0038345621235440
-0.0252143127900312
0.0550851650621936
-0.0298708522721624
-0.0437250577891343
0.0959304885573057
-0.0522054307681698
-0.0252143127900312
0.0550851650621936
-0.0298708522721624
-0.0437250577891343
0.0959304885573057
-0.0522054307681698
-0.0139724347683803
0.0306191418697861
-0.0166467071014066
-0.0423452341702390
0.0649305132366391
-0.0225852790663962
-0.0423452341702390
0.0649305132366391
-0.0225852790663962
-0.0423452341702390
0.0649305132366391
-0.0225852790663962
-0.0097140424189079
0.0175922706014674
-0.0078782281825598
-0.0097140424189079
0.0175922706014674
-0.0078782281825598
-0.0097140424189079
0.0175922706014674
-0.0078782281825598
-0.4052262032236956
-0.2677965309372264
0.6730227341609150
1.4237500592687060
-2.5836028036718108
1.1598527444031221
-0.1199741576855767
-0.0253424167450712
0.1453165744306512
-0.4052262032236956
-0.2677965309372264
0.6730227341609150
-0.1008932852146117
-0.0691318195034146
0.1700251047180252
-0.1008932852146117
-0.0691318195034146
0.1700251047180252
-0.0051831167159165
0.0182410117575404
-0.0130578950416245
-0.3164135784559591
0.0415315485015016
0.2748820299544734
-0.0051831167159165
0.0182410117575404
-0.0130578950416245
-0.0089079475853439
0.0301536168308727
-0.0212456692455307
-0.0051831167159165
0.0182410117575404
-0.0130578950416245
-0.0253638808446868
0.0533063137683296
-0.0279424329236463
-0.0580154531471043
0.1195032443185355
-0.0614877911714391
-0.0136416343300747
0.0285451936720856
-0.0149035593420153
-0.0185901558549232
0.0392427787780959
-0.0206526229231769
-0.0065130524270239
0.0136269314649088
-0.0071138790378877
0.9162665408918842
-0.3870869466949302
-0.5291795941969518
0.9162665408918842
-0.3870869466949302
-0.5291795941969518
0.6616590550303245
-0.2041628816324271
-0.4574961733979051
0.1027129237524717
-0.0518313885880183
-0.0508815351644614
-0.0136649506129735
0.0269773741941341
-0.0133124235811624
-0.0136649506129735
0.0269773741941341
-0.0133124235811624
-0.0063575588285996
0.0115924369310306
-0.0052348781024326
0.1688816942133254
-0.2032944398604292
0.0344127456471089
0.1063994997510470
-0.1412919310581288
0.0348924313070834
0.1688816942133254
-0.2032944398604292
0.0344127456471089
0.1063994997510470
-0.1412919310581288
0.0348924313070834
0.3116084024482331
-0.0613209402222192
-0.2502874622260143
-0.0168715323319741
0.0406957191512885
-0.0238241868193158
-0.2947626720601959
0.6452044909510916
-0.3504418188908853
-0.0485518446103964
0.0338054061915915
0.0147464384188070
-0.0168715323319741
0.0406957191512885
-0.0238241868193158
-0.0168715323319741
0.0406957191512885
-0.0238241868193158
-0.0168715323319741
0.0406957191512885
-0.0238241868193158
-0.0187962703010210
0.0410526141221968
-0.0222563438211737
-0.0076450969717695
0.0168454803716234
-0.0092003833998550
-0.0192463209218989
0.0446339838980181
-0.0253876629761159
-0.0076450969717695
0.0168454803716234
-0.0092003833998550
-0.0723910820780547
0.1490820882811320
-0.0766910062030734
-0.0214697803613358
0.0389384206275064
-0.0174686402661693
-0.0128672515643331
0.0193567087251131
-0.0064894571607815
-0.0297070430130272
0.0571714973329543
-0.0274644543199238
-0.0297070430130272
0.0571714973329543
-0.0274644543199238
-0.0167993051052597
0.0304764186082486
-0.0136771135029880
-0.4832853151863870
0.0348954009801000
0.4483899142062974
-0.4832853151863870
0.0348954009801000
0.4483899142062974
-0.2184606509406820
-0.2621846358804250
0.4806452868211131
-0.1102877315038217
-0.1818176529986249
0.2921053845024519
-0.0325896770488606
0.0838598904835311
-0.0512702134346647
-0.0101748141052065
0.0227365430883357
-0.0125617289831275
-0.0101748141052065
0.0227365430883357
-0.0125617289831275
-0.0101748141052065
0.0227365430883357
-0.0125617289831275
-0.0101748141052065
0.0227365430883357
-0.0125617289831275
0.2375668089103500
-0.0237860563266702
-0.2137807525836797
0.2934858585139654
-0.1243631088809234
-0.1691227496330469
0.0659093425137969
-0.0292809417749058
-0.0366284007388958
-0.0116192350386389
0.0269866395595358
-0.0153674045208965
-0.0888706589556149
0.1938307110195887
-0.1049600520639689
-0.0116192350386389
0.0269866395595358
-0.0153674045208965
-0.0888706589556149
0.1938307110195887
-0.1049600520639689
-0.0116192350386389
0.0269866395595358
-0.0153674045208965
-0.0741883868133734
0.1332984094037227
-0.0591100225903470
-0.0741883868133734
0.1332984094037227
-0.0591100225903470
-0.0513824949383375
0.0785713659570144
-0.0271888710186751
-0.0064896311232007
0.0118484776325202
-0.0053588465093194
-0.0064896311232007
0.0118484776325202
-0.0053588465093194
-0.0064896311232007
0.0118484776325202
-0.0053588465093194
0.1242864325677223
-0.0338309604388254
-0.0904554721289035
0.1345667238726598
-0.0549674463567726
-0.0795992775158881
0.1345667238726598
-0.0549674463567726
-0.0795992775158881
-0.0169471701946681
0.0394615242410506
-0.0225143540463812
-0.0433079670970833
0.0967256193076757
-0.0534176522105933
-0.0169471701946681
0.0394615242410506
-0.0225143540463812
-0.0169471701946681
0.0394615242410506
-0.0225143540463812
-0.0169471701946681
0.0394615242410506
-0.0225143540463812
-0.0391071853635452
0.0812828139168083
-0.0421756285532663
-0.0256614811798432
0.0500374713715998
-0.0243759901917519
-0.0243618190179577
0.0502986626025690
-0.0259368435846105
-0.0131499729111514
0.0272273674125088
-0.0140773945013535
-0.0131499729111514
0.0272273674125088
-0.0140773945013535
-0.0701669027061177
-0.0858970304831770
0.1560639331892944
-0.0701669027061177
-0.0858970304831770
0.1560639331892944
-0.0701669027061177
-0.0858970304831770
0.1560639331892944
-0.0377370554866747
0.0900341430920095
-0.0522970876053296
-0.0099762751858823
0.0223285376778508
-0.0123522624919651
-0.0099762751858823
0.0223285376778508
-0.0123522624919651
-0.0099762751858823
0.0223285376778508
-0.0123522624919651
-0.0099762751858823
0.0223285376778508
-0.0123522624919651
0.1065232856376149
-0.0472464142267168
-0.0592768714108972
0.1065232856376149
-0.0472464142267168
-0.0592768714108972
0.1065232856376149
-0.0472464142267168
-0.0592768714108972
-0.1784433578445251
-0.1164258176702394
0.2948691755147677
-0.1894082798952744
-0.1164111385936486
0.3058194184889249
-0.1784433578445251
-0.1164258176702394
0.2948691755147677
-0.1894082798952744
-0.1164111385936486
0.3058194184889249
-0.0996919592705680
-0.0601812138753525
0.1598731731459232
-0.3303190301538132
0.7037151801713444
-0.3733961500175034
-0.0224148629436541
0.0611233473951954
-0.0387084844515372
-0.0134929405868626
0.0321780010382257
-0.0186850604513612
-0.0134929405868626
0.0321780010382257
-0.0186850604513612
-0.0170489337700343
0.0444226361298485
-0.0273737023598161
-0.0088542680323638
0.0195742104672827
-0.0107199424349191
-0.0088542680323638
0.0195742104672827
-0.0107199424349191
-0.0088542680323638
0.0195742104672827
-0.0107199424349191
-0.0088542680323638
0.0195742104672827
-0.0107199424349191
-0.0091745615380759
0.0197553000356447
-0.0105807384975683
-0.0509213017167190
0.1101436676536256
-0.0592223659369041
-0.0091745615380759
0.0197553000356447
-0.0105807384975683
-0.0091745615380759
0.0197553000356447
-0.0105807384975683
-0.0083070040866846
0.0174528629779236
-0.0091458588912383
-0.0083070040866846
0.0174528629779236
-0.0091458588912383
-0.0083070040866846
0.0174528629779236
-0.0091458588912383
-0.0083070040866846
0.0174528629779236
-0.0091458588912383
-0.0083070040866846
0.0174528629779236
-0.0091458588912383
0.2611116030684008
-0.1059896290807968
-0.1551219739876047
0.2611116030684008
-0.1059896290807968
-0.1551219739876047
0.0721773851427765
-0.0333002215787184
-0.0388771635640590
-0.0069700116295069
0.0126782443126504
-0.0057082326831417
-0.0069700116295069
0.0126782443126504
-0.0057082326831417
-0.0069700116295069
0.0126782443126504
-0.0057082326831417
0.0909108074876264
-0.1364021089639602
0.0454913014763377
0.1244199447555221
-0.2065910816828109
0.0821711369272907
-0.3790193109294918
-0.0618553883010016
0.4408746992304970
-0.0168580813317500
0.0390522074184603
-0.0221941260867054
-0.0168580813317500
0.0390522074184603
-0.0221941260867054
-0.0168580813317500
0.0390522074184603
-0.0221941260867054
-0.0168580813317500
0.0390522074184603
-0.0221941260867054
-0.0168580813317500
0.0390522074184603
-0.0221941260867054
-0.0634263944276942
0.1241850192113459
-0.0607586247836503
-0.0065941802555105
0.0199538816007881
-0.0133597013452730
-0.0426427067127194
0.1353686480700684
-0.0927259413573401
-0.0065941802555105
0.0199538816007881
-0.0133597013452730
-0.0076833155427120
0.0161168275161300
-0.0084335119734120
-0.0224895397452212
0.0471469859383456
-0.0246574461931208
-0.0076833155427120
0.0161168275161300
-0.0084335119734120
-0.0224895397452212
0.0471469859383456
-0.0246574461931208
-0.0076833155427120
0.0161168275161300
-0.0084335119734120
0.0608866748993143
-0.0238645934744951
-0.0370220814248120
0.0608866748993143
-0.0238645934744951
-0.0370220814248120
0.0608866748993143
-0.0238645934744951
-0.0370220814248120
-0.0624508041838404
0.1053550770743798
-0.0429042728905336
-0.0312894788684036
0.0475822183254044
-0.0162927394569935
-0.0549529456353122
0.0817238984344891
-0.0267709527991708
-0.0312894788684036
0.0475822183254044
-0.0162927394569935
-0.0112112428421311
0.0210056219768290
-0.0097943791346979
-0.0544623177113510
0.1045555767197867
-0.0500932590084334
-0.0112112428421311
0.0210056219768290
-0.0097943791346979
-0.0112112428421311
0.0210056219768290
-0.0097943791346979
-0.0230854495407755
0.0467679922808267
-0.0236825427400472
-0.0218129612446565
0.2592287864865968
-0.2374158252419316
-0.0088475421659922
0.0172987649855139
-0.0084512228195208
-0.0267742033191758
0.0524348730534070
-0.0256606697342286
-0.0088475421659922
0.0172987649855139
-0.0084512228195208
-0.0074353385006026
0.0164008389134870
-0.0089655004128820
-0.0074353385006026
0.0164008389134870
-0.0089655004128820
-0.0074353385006026
0.0164008389134870
-0.0089655004128820
-0.1467899004472004
0.2232070842308059
-0.0764171837835939
-0.0218902151214612
0.0324226701228168
-0.0105324550013478
-0.0086764886861215
0.0181732924066495
-0.0094968037205274
-0.0086764886861215
0.0181732924066495
-0.0094968037205274
-0.0041075464410729
0.0079303135542863
-0.0038227671132134
-0.0112418780216509
0.0244660231924075
-0.0132241451707558
-0.0360520787982794
0.0655463460964663
-0.0294942672981849
-0.0387664976353039
0.0855181849217208
-0.0467516872864134
-0.0360520787982794
0.0655463460964663
-0.0294942672981849
-0.0135983020773890
0.0315213966240721
-0.0179230945466814
-0.0135983020773890
0.0315213966240721
-0.0179230945466814
-0.0255060130738006
0.0496016162664768
-0.0240956031926681
-0.0371657750496504
0.0682566090086139
-0.0310908339589573
-0.0141327275103140
0.0248629685227512
-0.0107302410124331
-0.0448449472776531
0.1023861618743533
-0.0575412145966964
-0.0141394856800091
0.0366275807033566
-0.0224880950233446
-0.0067496742221124
0.0142837445787044
-0.0075340703565875
-0.0097904986756528
0.0177207525504386
-0.0079302538747859
-0.0097904986756528
0.0177207525504386
-0.0079302538747859
-0.0097904986756528
0.0177207525504386
-0.0079302538747859
-0.0294215208629031
-0.0241223790869131
0.0535438999498166
-0.0109839325929598
0.0247508896827274
-0.0137669570897681
-0.0109839325929598
0.0247508896827274
-0.0137669570897681
-0.0109839325929598
0.0247508896827274
-0.0137669570897681
-0.0109839325929598
0.0247508896827274
-0.0137669570897681
-0.0109839325929598
0.0247508896827274
-0.0137669570897681
-0.0042552048654848
0.0082150554651852
-0.0039598505997005
-0.0042552048654848
0.0082150554651852
-0.0039598505997005
-0.0042552048654848
0.0082150554651852
-0.0039598505997005
-0.0148901133698575
0.0326737140048969
-0.0177836006350390
-0.0148901133698575
0.0326737140048969
-0.0177836006350390
-0.0148901133698575
0.0326737140048969
-0.0177836006350390
-0.0242410768849844
0.0368686837695107
-0.0126276068845264
-0.0242410768849844
0.0368686837695107
-0.0126276068845264
-0.0242410768849844
0.0368686837695107
-0.0126276068845264
-0.0112759266447214
0.0211087183134013
-0.0098327916686792
-0.0112759266447214
0.0211087183134013
-0.0098327916686792
-0.0112759266447214
0.0211087183134013
-0.0098327916686792
-0.0154625924756981
0.0373075214429051
-0.0218449289672098
-0.0117377616062706
0.0253949163695727
-0.0136571547633036
-0.0117377616062706
0.0253949163695727
-0.0136571547633036
-0.0117377616062706
0.0253949163695727
-0.0136571547633036
-0.0117377616062706
0.0253949163695727
-0.0136571547633036
-0.0142379073747833
0.0294692272953128
-0.0152313199205263
-0.0142379073747833
0.0294692272953128
-0.0152313199205263
-0.0142379073747833
0.0294692272953128
-0.0152313199205263
-0.0142379073747833
0.0294692272953128
-0.0152313199205263
-0.2043981391080659
-0.0757245350229631
0.2801226741310348
0.1066521515314153
-0.1471463504372228
0.0404941989058081
-0.2043981391080659
-0.0757245350229631
0.2801226741310348
0.1235462455926258
-0.1816337663729300
0.0580875207803073
-0.2043981391080659
-0.0757245350229631
0.2801226741310348
-0.0157294605018822
0.0364449655829329
-0.0207155050810497
-0.0157294605018822
0.0364449655829329
-0.0207155050810497
-0.0157294605018822
0.0364449655829329
-0.0207155050810497
-0.0157294605018822
0.0364449655829329
-0.0207155050810497
-0.0157294605018822
0.0364449655829329
-0.0207155050810497
-0.0646249036789619
0.1260508542229497
-0.0614259505439907
-0.0646249036789619
0.1260508542229497
-0.0614259505439907
-0.0251681955579148
0.0539967882976487
-0.0288285927397321
-0.0147480488894304
0.0337367346822737
-0.0189886857928417
-0.0204926842575048
0.0514193522142682
-0.0309266679567592
-0.0204926842575048
0.0514193522142682
-0.0309266679567592
-0.0169323958474464
0.0470944899782526
-0.0301620941308012
-0.0084743356058558
0.0256844032564295
-0.0172100676505689
-0.0071911111166385
0.0150149092013640
-0.0078237980847259
-0.0214904297641797
0.0449069760763263
-0.0234165463121456
-0.0071911111166385
0.0150149092013640
-0.0078237980847259
-0.0071911111166385
0.0150149092013640
-0.0078237980847259
-0.0208913165273059
0.0406087767927528
-0.0197174602654489
-0.0196862016922858
0.0412003282720483
-0.0215141265797648
-0.0104711698588215
0.0203487231773778
-0.0098775533185585
-0.0265117607738803
0.0547603157945556
-0.0282485550206737
-0.0223128763442590
0.0438672221428678
-0.0215543457986099
-0.0265117607738803
0.0547603157945556
-0.0282485550206737
-0.0223128763442590
0.0438672221428678
-0.0215543457986099
-0.0136040228661128
0.0280652370698499
-0.0144612142037379
-0.0174753300883963
0.0403587789321621
-0.0228834488437670
-0.0105007450725625
0.0235814607778333
-0.0130807157052717
-0.0174753300883963
0.0403587789321621
-0.0228834488437670
-0.0105007450725625
0.0235814607778333
-0.0130807157052717
-0.0105007450725625
0.0235814607778333
-0.0130807157052717
-0.0168940940612106
0.0344874159357072
-0.0175933218744992
-0.0069274849984615
0.0129990303061249
-0.0060715453076652
-0.0163198339122785
0.0345712434066131
-0.0182514094943362
-0.0102802913049375
0.0211364859179473
-0.0108561946130154
-0.0102802913049375
0.0211364859179473
-0.0108561946130154
-0.0470580080883950
0.1005129922078388
-0.0534549841194504
-0.0113262539271261
0.0243654273950980
-0.0130391734679736
-0.0219141422302180
0.0470917820260274
-0.0251776397958129
-0.0113262539271261
0.0243654273950980
-0.0130391734679736
-0.0113262539271261
0.0243654273950980
-0.0130391734679736
-0.0394252972921811
0.0802604655404396
-0.0408351682482622
-0.0112118461068064
0.0230712951900602
-0.0118594490832570
-0.0892818818805904
0.0156701076179376
0.0736117742626472
-0.0658068236430098
-0.0446559907091459
0.1104628143521515
-0.0658068236430098
-0.0446559907091459
0.1104628143521515
-0.0545799132253668
0.1075067022307047
-0.0529267890053447
-0.0388933072422935
0.0671293551256271
-0.0282360478833389
-0.0297362710716466
0.0462845338567334
-0.0165482627850917
0.0486819623175599
-0.0013827747966897
-0.0472991875208714
-0.0576706304947830
0.1121429328826726
-0.0544723023878912
-0.0130668853678594
0.0233599421275245
-0.0102930567596662
-0.0130668853678594
0.0233599421275245
-0.0102930567596662
-0.0092150318334643
0.0208516050946704
-0.0116365732612063
-0.0092150318334643
0.0208516050946704
-0.0116365732612063
-0.0129077379077675
0.0266950787247057
-0.0137873408169358
-0.1276523916413323
-0.0688550382737113
0.1965074299150484
-0.1042263841732898
-0.1338115146902969
0.2380378988635892
-0.1042263841732898
-0.1338115146902969
0.2380378988635892
-0.0089219223567915
0.0289453463569697
-0.0200234240001760
-0.0366031030539518
0.0837325909287768
-0.0471294878748163
-0.0072308577602139
0.0151142508496291
-0.0078833930894105
-0.0288960800858277
0.0603970095132275
-0.0315009294273908
-0.0072308577602139
0.0151142508496291
-0.0078833930894105
-0.0072308577602139
0.0151142508496291
-0.0078833930894105
-0.0137115115405363
0.0253070869115459
-0.0115955753710097
0.2153438906175150
-0.0648323597607241
-0.1505115308567856
-0.0377063151902712
0.0622155144969914
-0.0245091993067221
-0.0126462313919296
0.0242141746837387
-0.0115679432918091
-0.0126462313919296
0.0242141746837387
-0.0115679432918091
-0.0108250592152658
0.0234305949581885
-0.0126055357429236
-0.0108250592152658
0.0234305949581885
-0.0126055357429236
-0.0108250592152658
0.0234305949581885
-0.0126055357429236
-0.0108250592152658
0.0234305949581885
-0.0126055357429236
-0.0373855274785159
0.0643246135522405
-0.0269390860737180
-0.0142207927136940
0.0295131641840643
-0.0152923714703695
-0.0142207927136940
0.0295131641840643
-0.0152923714703695
-0.0142207927136940
0.0295131641840643
-0.0152923714703695
-0.0142207927136940
0.0295131641840643
-0.0152923714703695
-0.0787513985739572
-0.0562446037948869
0.1349960023688445
-0.0109627798519741
0.0246772515123031
-0.0137144716603301
-0.0109627798519741
0.0246772515123031
-0.0137144716603301
-0.0109627798519741
0.0246772515123031
-0.0137144716603301
-0.0109627798519741
0.0246772515123031
-0.0137144716603301
-0.0109627798519741
0.0246772515123031
-0.0137144716603301
-0.0125115082686918
0.0228101039590910
-0.0102985956903984
-0.0125115082686918
0.0228101039590910
-0.0102985956903984
-0.2052089026971861
-0.0799709908359096
0.2851798935330977
-0.2052089026971861
-0.0799709908359096
0.2851798935330977
-0.2052089026971861
-0.0799709908359096
0.2851798935330977
-0.0277607803007924
0.0677056054141587
-0.0399448251133645
-0.0145901157922692
0.0404561421061014
-0.0258660263138313
-0.0145901157922692
0.0404561421061014
-0.0258660263138313
-0.0261686129497800
0.0589854259752759
-0.0328168130254920
-0.0111511733292515
0.0242071337505734
-0.0130559604213186
-0.0111511733292515
0.0242071337505734
-0.0130559604213186
-0.0111511733292515
0.0242071337505734
-0.0130559604213186
-0.0072232853360850
0.0150973908599646
-0.0078741055238775
-0.0072232853360850
0.0150973908599646
-0.0078741055238775
-0.0072232853360850
0.0150973908599646
-0.0078741055238775
0.2362926026945841
-0.0801181113372084
-0.1561744913573738
-0.0064879309422452
0.0118466031200831
-0.0053586721778393
-0.0064879309422452
0.0118466031200831
-0.0053586721778393
-0.0064879309422452
0.0118466031200831
-0.0053586721778393
0.0609660242943301
-0.0239565464751861
-0.0370094778191436
0.0609660242943301
-0.0239565464751861
-0.0370094778191436
0.0609660242943301
-0.0239565464751861
-0.0370094778191436
-0.0153938029275004
0.0380333151210865
-0.0226395121935875
-0.0239963317245031
0.0576150270234798
-0.0336186952989753
-0.0153938029275004
0.0380333151210865
-0.0226395121935875
-0.0239963317245031
0.0576150270234798
-0.0336186952989753
-0.0153938029275004
0.0380333151210865
-0.0226395121935875
-0.0083656378154432
0.0176166429394760
-0.0092510051240335
-0.0083656378154432
0.0176166429394760
-0.0092510051240335
-0.0083656378154432
0.0176166429394760
-0.0092510051240335
-0.0083656378154432
0.0176166429394760
-0.0092510051240335
-0.0083656378154432
0.0176166429394760
-0.0092510051240335
0.1660326579315836
-0.0744261480059613
-0.0916065099256192
0.1660326579315836
-0.0744261480059613
-0.0916065099256192
0.1660326579315836
-0.0744261480059613
-0.0916065099256192
-0.0055360593795633
0.0106987043682525
-0.0051626449886880
-0.0055360593795633
0.0106987043682525
-0.0051626449886880
-0.0055360593795633
0.0106987043682525
-0.0051626449886880
-0.0077364577392799
0.0147697110962604
-0.0070332533569807
-0.0054947807333119
0.0123138568152211
-0.0068190760819070
-0.0054947807333119
0.0123138568152211
-0.0068190760819070
-0.0054947807333119
0.0123138568152211
-0.0068190760819070
-0.0054947807333119
0.0123138568152211
-0.0068190760819070
-0.0054947807333119
0.0123138568152211
-0.0068190760819070
-0.0068603591183522
0.0145334841580842
-0.0076731250397313
-0.0068603591183522
0.0145334841580842
-0.0076731250397313
-0.0068603591183522
0.0145334841580842
-0.0076731250397313
-0.0068603591183522
0.0145334841580842
-0.0076731250397313
0.2515898434121801
-0.0722225280582016
-0.1793673153539798
0.2515898434121801
-0.0722225280582016
-0.1793673153539798
0.2515898434121801
-0.0722225280582016
-0.1793673153539798
-0.0170786261149911
0.0376501437543800
-0.0205715176393905
0.0081683267125906
0.0972331254493653
-0.1054014521619452
-0.0170786261149911
0.0376501437543800
-0.0205715176393905
-0.0170786261149911
0.0376501437543800
-0.0205715176393905
-0.0170786261149911
0.0376501437543800
-0.0205715176393905
-0.0250600837983416
0.0380013398132528
-0.0129412560149130
-0.0345093456122720
0.0736905140965986
-0.0391811684843306
-0.0239214573091800
0.0509641594656693
-0.0270427021564913
-0.0100690187165991
0.0187711308115746
-0.0087021120949761
-0.0077070229681242
0.0233355814155493
-0.0156285584474255
-0.0232915001636914
0.0705278432027673
-0.0472363430390797
-0.0077070229681242
0.0233355814155493
-0.0156285584474255
-0.0060896543030365
0.0127297163997522
-0.0066400620967164
-0.0156866059830733
0.0403773471050776
-0.0246907411220058
-0.0156866059830733
0.0403773471050776
-0.0246907411220058
-0.0156866059830733
0.0403773471050776
-0.0246907411220058
-0.0147453663455875
0.0309841513142393
-0.0162387849686557
-0.0073073917843739
0.0153849372631035
-0.0080775454787297
0.1660359999252129
-0.0744393603420600
-0.0915966395831505
0.1660359999252129
-0.0744393603420600
-0.0915966395831505
0.1660359999252129
-0.0744393603420600
-0.0915966395831505
-0.0120483012202957
0.0224573130639072
-0.0104090118436107
-0.0120483012202957
0.0224573130639072
-0.0104090118436107
-0.0120483012202957
0.0224573130639072
-0.0104090118436107
-0.0071456325006593
0.0149347241742416
-0.0077890916735797
-0.0071456325006593
0.0149347241742416
-0.0077890916735797
-0.0071456325006593
0.0149347241742416
-0.0077890916735797
0.1065478716223697
-0.0473414506184429
-0.0592064210039249
0.1065478716223697
-0.0473414506184429
-0.0592064210039249
0.1065478716223697
-0.0473414506184429
-0.0592064210039249
-0.0084580602415906
0.0214100867218231
-0.0129520264802323
-0.0076776422994584
0.0161118962150388
-0.0084342539155811
-0.0076776422994584
0.0161118962150388
-0.0084342539155811
-0.0076776422994584
0.0161118962150388
-0.0084342539155811
0.0643218932103913
-0.0280562850316361
-0.0362656081787551
0.0643218932103913
-0.0280562850316361
-0.0362656081787551
-0.0208044182449418
0.0334233653301860
-0.0126189470852456
-0.0208044182449418
0.0334233653301860
-0.0126189470852456
-0.0096988700526385
0.0175700089722041
-0.0078711389195644
-0.0096988700526385
0.0175700089722041
-0.0078711389195644
-0.0096988700526385
0.0175700089722041
-0.0078711389195644
-0.0109439713793299
0.0246369234105701
-0.0136929520312375
-0.0109439713793299
0.0246369234105701
-0.0136929520312375
-0.0109439713793299
0.0246369234105701
-0.0136929520312375
-0.0109439713793299
0.0246369234105701
-0.0136929520312375
-0.0109439713793299
0.0246369234105701
-0.0136929520312375
0.0563057149203824
-0.0164972322379667
-0.0398084826824185
-0.0153006649603745
0.0356511841186293
-0.0203505191582563
-0.0377720376825957
0.0865850785059405
-0.0488130408233466
-0.0153006649603745
0.0356511841186293
-0.0203505191582563
-0.0377720376825957
0.0865850785059405
-0.0488130408233466
-0.0153006649603745
0.0356511841186293
-0.0203505191582563
-0.0334181862785183
0.0506060473227631
-0.0171878610442458
-0.0120749484071916
0.0224993880518284
-0.0104244396446376
-0.0120749484071916
0.0224993880518284
-0.0104244396446376
-0.0120749484071916
0.0224993880518284
-0.0104244396446376
-0.0214572949606580
0.0459413814827971
-0.0244840865221401
-0.0087145164178983
0.0181764236015206
-0.0094619071836230
-0.0139054924389634
0.0297893603437186
-0.0158838679047576
-0.0087145164178983
0.0181764236015206
-0.0094619071836230
-0.0087145164178983
0.0181764236015206
-0.0094619071836230
-0.1379041907894890
-0.0817800252623529
0.2196842160518427
-0.1379041907894890
-0.0817800252623529
0.2196842160518427
-0.1379041907894890
-0.0817800252623529
0.2196842160518427
-0.1379041907894890
-0.0817800252623529
0.2196842160518427
-0.1379041907894890
-0.0817800252623529
0.2196842160518427
-0.0109263352991931
0.0246125403972212
-0.0136862050980276
-0.0109263352991931
0.0246125403972212
-0.0136862050980276
-0.0109263352991931
0.0246125403972212
-0.0136862050980276
-0.0109263352991931
0.0246125403972212
-0.0136862050980276
-0.0109263352991931
0.0246125403972212
-0.0136862050980276
0.3938762000418191
-0.1604490560547405
-0.2334271439870804
0.3938762000418191
-0.1604490560547405
-0.2334271439870804
0.2275765160001685
-0.0950821671060177
-0.1324943488941512
-0.0151569667391221
0.0352292236597087
-0.0200722569205884
-0.0151569667391221
0.0352292236597087
-0.0200722569205884
-0.0151569667391221
0.0352292236597087
-0.0200722569205884
-0.0077884522545074
0.0199487512220058
-0.0121602989674985
-0.0077884522545074
0.0199487512220058
-0.0121602989674985
-0.0083040907748579
0.0174478590787016
-0.0091437683038446
-0.0083040907748579
0.0174478590787016
-0.0091437683038446
-0.0083040907748579
0.0174478590787016
-0.0091437683038446
-0.0083040907748579
0.0174478590787016
-0.0091437683038446
-0.0083040907748579
0.0174478590787016
-0.0091437683038446
-0.0105878883030919
0.0227263546309294
-0.0121384663278393
-0.0105878883030919
0.0227263546309294
-0.0121384663278393
-0.0073898114578968
0.0223438361246521
-0.0149540246667571
-0.0073232825939458
0.0153386545072089
-0.0080153719132658
-0.0073232825939458
0.0153386545072089
-0.0080153719132658
-0.0073232825939458
0.0153386545072089
-0.0080153719132658
-0.0179225917893656
0.0418496706846189
-0.0239270788952539
-0.0179225917893656
0.0418496706846189
-0.0239270788952539
-0.0179225917893656
0.0418496706846189
-0.0239270788952539
-0.0179225917893656
0.0418496706846189
-0.0239270788952539
-0.0179225917893656
0.0418496706846189
-0.0239270788952539
-0.0314977580835398
0.0630589805818391
-0.0315612224983032
-0.0141150495841253
0.0277005415128057
-0.0135854919286844
-0.0074379745612136
0.0155992140511358
-0.0081612394899260
-0.3833790646388188
-0.0809701246427707
0.4643491892815858
-0.3833790646388188
-0.0809701246427707
0.4643491892815858
-0.3833790646388188
-0.0809701246427707
0.4643491892815858
-0.0209320359556241
0.0392030197840766
-0.0182709838284508
-0.0209320359556241
0.0392030197840766
-0.0182709838284508
-0.0209320359556241
0.0392030197840766
-0.0182709838284508
-0.0061783772060758
0.0205715862999657
-0.0143932090938879
-0.0061783772060758
0.0205715862999657
-0.0143932090938879
-0.0083290073631645
0.0174926629221063
-0.0091636555589374
-0.0083290073631645
0.0174926629221063
-0.0091636555589374
-0.0083290073631645
0.0174926629221063
-0.0091636555589374
-0.0083290073631645
0.0174926629221063
-0.0091636555589374
-0.0083290073631645
0.0174926629221063
-0.0091636555589374
0.0609134885948273
-0.0238812115498360
-0.0370322770449874
0.0609134885948273
-0.0238812115498360
-0.0370322770449874
0.0609134885948273
-0.0238812115498360
-0.0370322770449874
-0.0230330475393364
0.0433936404858627
-0.0203605929465242
-0.0230330475393364
0.0433936404858627
-0.0203605929465242
-0.0230330475393364
0.0433936404858627
-0.0203605929465242
-0.0075518025216945
0.0161520211390785
-0.0086002186173825
-0.0075518025216945
0.0161520211390785
-0.0086002186173825
-0.0066770750229117
0.0121013274616699
-0.0054242524387584
-0.2069565346654068
-0.1266440400293129
0.3336005746947166
-0.2069565346654068
-0.1266440400293129
0.3336005746947166
-0.0897163206247064
-0.0562299247182962
0.1459462453430018
-0.0243518714536804
0.0556475099044661
-0.0312956384507842
-0.0138524385925809
0.0321930286540947
-0.0183405900615152
-0.0138524385925809
0.0321930286540947
-0.0183405900615152
-0.0081946657376705
0.0248484256625658
-0.0166537599248970
-0.0081946657376705
0.0248484256625658
-0.0166537599248970
-0.0073404317718333
0.0153735341057933
-0.0080331023339611
-0.0073404317718333
0.0153735341057933
-0.0080331023339611
-0.0073404317718333
0.0153735341057933
-0.0080331023339611
-0.0187532745539651
0.0323204435456392
-0.0135671689916754
-0.0070194744319392
0.0112427259185400
-0.0042232514866039
-0.0150174396205285
0.0347782922247025
-0.0197608526041734
-0.0150174396205285
0.0347782922247025
-0.0197608526041734
-0.0236879035884905
0.0450547398210256
-0.0213668362325386
-0.0143188066429112
0.0299906152236229
-0.0156718085807140
-0.0070048641305382
0.0146806494375425
-0.0076757853070069
-0.0070048641305382
0.0146806494375425
-0.0076757853070069
-0.0096206454005411
0.0174355282692499
-0.0078148828687097
-0.0096206454005411
0.0174355282692499
-0.0078148828687097
-0.0096206454005411
0.0174355282692499
-0.0078148828687097
-0.0002026057603032
-0.0747394533683984
0.0749420591287040
-0.0772285791217172
-0.0470776410633944
0.1243062201851116
-0.0118681551036265
0.0282613891736773
-0.0163932340700508
-0.0118681551036265
0.0282613891736773
-0.0163932340700508
-0.0118681551036265
0.0282613891736773
-0.0163932340700508
-0.0118681551036265
0.0282613891736773
-0.0163932340700508
-0.0118681551036265
0.0282613891736773
-0.0163932340700508
-0.0085857161951789
0.0214431384553453
-0.0128574222601641
-0.0085857161951789
0.0214431384553453
-0.0128574222601641
-0.0088207213778355
0.0130148396532128
-0.0041941182753725
-0.0088207213778355
0.0130148396532128
-0.0041941182753725
-0.0088207213778355
0.0130148396532128
-0.0041941182753725
-0.0087088534781462
0.0158019850730179
-0.0070931315948720
-0.1377966406624710
-0.0819663372605490
0.2197629779230198
-0.1377966406624710
-0.0819663372605490
0.2197629779230198
-0.1377966406624710
-0.0819663372605490
0.2197629779230198
-0.1377966406624710
-0.0819663372605490
0.2197629779230198
-0.1377966406624710
-0.0819663372605490
0.2197629779230198
-0.0069745850158338
0.0167773181543288
-0.0098027331384954
-0.0069745850158338
0.0167773181543288
-0.0098027331384954
-0.0069745850158338
0.0167773181543288
-0.0098027331384954
-0.0122160402014493
0.0266724157623273
-0.0144563755608779
-0.0122160402014493
0.0266724157623273
-0.0144563755608779
-0.0122160402014493
0.0266724157623273
-0.0144563755608779
-0.0241862168019698
0.0367657142496194
-0.0125794974476508
-0.0241862168019698
0.0367657142496194
-0.0125794974476508
-0.0241862168019698
0.0367657142496194
-0.0125794974476508
-0.0104201466684844
0.0202600536153750
-0.0098399069468904
-0.0120183486516490
0.0257349489578387
-0.0137166003061903
-0.0120183486516490
0.0257349489578387
-0.0137166003061903
-0.0120183486516490
0.0257349489578387
-0.0137166003061903
-0.0071536861468819
0.0149573427007207
-0.0078036565538399
-0.0071536861468819
0.0149573427007207
-0.0078036565538399
-0.0071536861468819
0.0149573427007207
-0.0078036565538399
0.1065477198661150
-0.0473410988271058
-0.0592066210390108
0.1065477198661150
-0.0473410988271058
-0.0592066210390108
0.1065477198661150
-0.0473410988271058
-0.0592066210390108
-0.1180300678418768
0.2251838972397483
-0.1071538293978692
-0.0986332748814156
0.1822097422976111
-0.0835764674161927
-0.0179847659312565
0.0356711393704758
-0.0176863734392199
-0.0179847659312565
0.0356711393704758
-0.0176863734392199
-0.0117338001220259
0.0210777176270992
-0.0093439175050715
-0.0117338001220259
0.0210777176270992
-0.0093439175050715
-0.0117338001220259
0.0210777176270992
-0.0093439175050715
-0.0073139425123730
0.0153099657860804
-0.0079960232737070
-0.0073139425123730
0.0153099657860804
-0.0079960232737070
-0.0073139425123730
0.0153099657860804
-0.0079960232737070
-0.0093848594506912
0.0170401164942375
-0.0076552570435463
-0.0093848594506912
0.0170401164942375
-0.0076552570435463
-0.0093848594506912
0.0170401164942375
-0.0076552570435463
-0.1380595462933583
-0.0816066825409070
0.2196662288342654
-0.1380595462933583
-0.0816066825409070
0.2196662288342654
-0.1380595462933583
-0.0816066825409070
0.2196662288342654
-0.1380595462933583
-0.0816066825409070
0.2196662288342654
-0.1380595462933583
-0.0816066825409070
0.2196662288342654
-0.0153003561869826
0.0355243365670886
-0.0202239803801060
-0.0153003561869826
0.0355243365670886
-0.0202239803801060
-0.0153003561869826
0.0355243365670886
-0.0202239803801060
-0.0153003561869826
0.0355243365670886
-0.0202239803801060
-0.0153003561869826
0.0355243365670886
-0.0202239803801060
-0.0123963499476486
0.0271030556307000
-0.0147067056830507
-0.0123963499476486
0.0271030556307000
-0.0147067056830507
-0.0123963499476486
0.0271030556307000
-0.0147067056830507
-0.0199537043432113
0.0446232237346009
-0.0246695193913876
-0.0199537043432113
0.0446232237346009
-0.0246695193913876
-0.0199537043432113
0.0446232237346009
-0.0246695193913876
-0.0199537043432113
0.0446232237346009
-0.0246695193913876
-0.0113732855634866
0.0247386477437256
-0.0133653621802350
-0.0113732855634866
0.0247386477437256
-0.0133653621802350
-0.0113732855634866
0.0247386477437256
-0.0133653621802350
-0.0156602246576814
0.0236759910714206
-0.0080157664137395
-0.0156602246576814
0.0236759910714206
-0.0080157664137395
-0.0156602246576814
0.0236759910714206
-0.0080157664137395
-0.0104951562757862
0.0223462643029981
-0.0118511080272099
-0.0104951562757862
0.0223462643029981
-0.0118511080272099
-0.0037248308694275
0.0119126050733323
-0.0081877742039062
-0.0037248308694275
0.0119126050733323
-0.0081877742039062
-0.0071285819030508
0.0149182622071768
-0.0077896803041277
-0.0103569070704950
0.0243494934187893
-0.0139925863482945
-0.0103569070704950
0.0243494934187893
-0.0139925863482945
-0.0180001893294817
0.0326799723902789
-0.0146797830608001
-0.0180001893294817
0.0326799723902789
-0.0146797830608001
-0.0180001893294817
0.0326799723902789
-0.0146797830608001
-0.0201975498834337
0.0550786960746387
-0.0348811461912014
-0.0105539251609270
0.0236329037703230
-0.0130789786093936
-0.0105539251609270
0.0236329037703230
-0.0130789786093936
-0.0105539251609270
0.0236329037703230
-0.0130789786093936
-0.0105539251609270
0.0236329037703230
-0.0130789786093936
0.0770259733614140
-0.0276618123050041
-0.0493641610564076
-0.0116012239501294
0.0277885035263947
-0.0161872795762609
-0.0116012239501294
0.0277885035263947
-0.0161872795762609
-0.0116012239501294
0.0277885035263947
-0.0161872795762609
-0.0086025287970027
0.0195817119023932
-0.0109791831053879
-0.0248664768604163
0.0540250814901330
-0.0291586046297051
-0.0079240589239186
0.0166216762762105
-0.0086976173522860
-0.0079240589239186
0.0166216762762105
-0.0086976173522860
-0.0079240589239186
0.0166216762762105
-0.0086976173522860
-0.0079240589239186
0.0166216762762105
-0.0086976173522860
-0.0042617696236413
0.0082256319170972
-0.0039638622934570
-0.0042617696236413
0.0082256319170972
-0.0039638622934570
-0.0042617696236413
0.0082256319170972
-0.0039638622934570
-0.0173827084994146
0.0353584390690334
-0.0179757305696188
-0.0173827084994146
0.0353584390690334
-0.0179757305696188
-0.0173827084994146
0.0353584390690334
-0.0179757305696188
-0.0173827084994146
0.0353584390690334
-0.0179757305696188
-0.1990622073015231
-0.1569566929945985
0.3560189002961235
-0.1990622073015231
-0.1569566929945985
0.3560189002961235
0.0181319065830426
0.1795444501251324
-0.1976763567081698
-0.1990622073015231
-0.1569566929945985
0.3560189002961235
-0.0104994328610996
0.0234544812503714
-0.0129550483892690
-0.0226672274649219
0.0511008834444332
-0.0284336559795075
-0.0104994328610996
0.0234544812503714
-0.0129550483892690
-0.0213998394376763
0.0434217677329730
-0.0220219282952936
-0.0088358916757733
0.0245003343104842
-0.0156644426347095
-0.0088358916757733
0.0245003343104842
-0.0156644426347095
-0.0075678281484266
0.0227041795450751
-0.0151363513966482
-0.0075678281484266
0.0227041795450751
-0.0151363513966482
-0.0075678281484266
0.0227041795450751
-0.0151363513966482
-0.0072034888009179
0.0150506681301337
-0.0078471793292143
-0.0072034888009179
0.0150506681301337
-0.0078471793292143
-0.0072034888009179
0.0150506681301337
-0.0078471793292143
0.2279901220094446
-0.0890465344444628
-0.1389435875649765
0.0390559040838203
-0.0163571269423845
-0.0226987771414308
-0.0164077129178878
0.0365383832821880
-0.0201306703642922
-0.0164077129178878
0.0365383832821880
-0.0201306703642922
-0.0164077129178878
0.0365383832821880
-0.0201306703642922
-0.0164077129178878
0.0365383832821880
-0.0201306703642922
-0.0149068435158356
0.0225879507647407
-0.0076811072489001
-0.0149068435158356
0.0225879507647407
-0.0076811072489001
-0.0097139341501004
0.0175921082056086
-0.0078781740555066
-0.0097139341501004
0.0175921082056086
-0.0078781740555066
-0.0097139341501004
0.0175921082056086
-0.0078781740555066
-0.0066745952101294
0.0160637667945768
-0.0093891715844473
-0.0066745952101294
0.0160637667945768
-0.0093891715844473
-0.0066745952101294
0.0160637667945768
-0.0093891715844473
-0.0066745952101294
0.0160637667945768
-0.0093891715844473
-0.0117222465146121
0.0247611200962440
-0.0130388735816310
-0.0117222465146121
0.0247611200962440
-0.0130388735816310
-0.0117222465146121
0.0247611200962440
-0.0130388735816310
-0.0117222465146121
0.0247611200962440
-0.0130388735816310
-0.1282902642609669
0.5223096309166364
-0.3940193666556671
-0.0106559059595768
0.0247866279478092
-0.0141307219882295
-0.0106559059595768
0.0247866279478092
-0.0141307219882295
-0.0106559059595768
0.0247866279478092
-0.0141307219882295
-0.0106559059595768
0.0247866279478092
-0.0141307219882295
-0.0106559059595768
0.0247866279478092
-0.0141307219882295
-0.0087890626696761
0.0129581733805756
-0.0041691107108970
-0.0087890626696761
0.0129581733805756
-0.0041691107108970
-0.0087890626696761
0.0129581733805756
-0.0041691107108970
-0.0064611289286600
0.0118098756797877
-0.0053487467511276
-0.0064611289286600
0.0118098756797877
-0.0053487467511276
-0.0064611289286600
0.0118098756797877
-0.0053487467511276
0.1889342179256243
-0.0726894075020783
-0.1162448104235457
-0.0179260751342656
0.0370974343555492
-0.0191713592212831
0.1101052988889788
0.0307819084231327
-0.1408872073121133
-0.0179260751342656
0.0370974343555492
-0.0191713592212831
-0.0300262688640407
0.0604470734196409
-0.0304208045556010
-0.0179260751342656
0.0370974343555492
-0.0191713592212831
-0.0082578912489863
0.0122234986034355
-0.0039656073544484
-0.0082578912489863
0.0122234986034355
-0.0039656073544484
-0.0096436247225067
0.0314457923043157
-0.0218021675818077
-0.0096436247225067
0.0314457923043157
-0.0218021675818077
-0.0072384481886108
0.0151346996735000
-0.0078962514848884
-0.0072384481886108
0.0151346996735000
-0.0078962514848884
-0.0072384481886108
0.0151346996735000
-0.0078962514848884
-0.0135554329246843
0.0255657489842498
-0.0120103160595654
-0.0135554329246843
0.0255657489842498
-0.0120103160595654
-0.0091047323319057
0.0196042746597622
-0.0104995423278547
-0.0091047323319057
0.0196042746597622
-0.0104995423278547
-0.0091047323319057
0.0196042746597622
-0.0104995423278547
-0.0091592899191634
0.0205272374839841
-0.0113679475648212
-0.0045903476741148
0.0102842586316209
-0.0056939109575071
-0.0148625096508964
0.0326376326826228
-0.0177751230317242
-0.0148625096508964
0.0326376326826228
-0.0177751230317242
-0.0148625096508964
0.0326376326826228
-0.0177751230317242
-0.0047625136728493
0.0106408530203396
-0.0058783393474876
-0.0047625136728493
0.0106408530203396
-0.0058783393474876
-0.0047625136728493
0.0106408530203396
-0.0058783393474876
-0.0139825484165082
0.0318752743659831
-0.0178927259494704
-0.0139825484165082
0.0318752743659831
-0.0178927259494704
-0.0139825484165082
0.0318752743659831
-0.0178927259494704
-0.0102190333006989
0.0234749379795748
-0.0132559046788722
-0.0102190333006989
0.0234749379795748
-0.0132559046788722
-0.0102190333006989
0.0234749379795748
-0.0132559046788722
-0.0169424179364977
0.0374034052139226
-0.0204609872774191
-0.0169424179364977
0.0374034052139226
-0.0204609872774191
-0.0169424179364977
0.0374034052139226
-0.0204609872774191
-0.0169424179364977
0.0374034052139226
-0.0204609872774191
-0.0242846254213555
0.0369502332793784
-0.0126656078580215
-0.0242846254213555
0.0369502332793784
-0.0126656078580215
-0.0242846254213555
0.0369502332793784
-0.0126656078580215
-0.0113143742162236
0.0211704850247758
-0.0098561108085520
-0.0113143742162236
0.0211704850247758
-0.0098561108085520
-0.0113143742162236
0.0211704850247758
-0.0098561108085520
-0.0092403968795966
0.0192838427626216
-0.0100434458830276
-0.0092403968795966
0.0192838427626216
-0.0100434458830276
-0.0092403968795966
0.0192838427626216
-0.0100434458830276
-0.0092403968795966
0.0192838427626216
-0.0100434458830276
-0.0092403968795966
0.0192838427626216
-0.0100434458830276
-0.1172402140407004
-0.0704141153110167
0.1876543293517149
-0.1172402140407004
-0.0704141153110167
0.1876543293517149
-0.1172402140407004
-0.0704141153110167
0.1876543293517149
-0.0170207664179386
0.0347629493067492
-0.0177421828888125
-0.0170207664179386
0.0347629493067492
-0.0177421828888125
-0.0170207664179386
0.0347629493067492
-0.0177421828888125
-0.0170207664179386
0.0347629493067492
-0.0177421828888125
-0.0055555369478018
0.0124783143043525
-0.0069227773565520
-0.0055555369478018
0.0124783143043525
-0.0069227773565520
-0.0055555369478018
0.0124783143043525
-0.0069227773565520
-0.0055555369478018
0.0124783143043525
-0.0069227773565520
-0.0055555369478018
0.0124783143043525
-0.0069227773565520
-0.0240996634348631
0.0366036260967804
-0.0125039626619174
-0.0240996634348631
0.0366036260967804
-0.0125039626619174
-0.0240996634348631
0.0366036260967804
-0.0125039626619174
-0.0094605645828557
0.0171721734961463
-0.0077116089132908
-0.0094605645828557
0.0171721734961463
-0.0077116089132908
-0.0094605645828557
0.0171721734961463
-0.0077116089132908
-0.0703140325421908
-0.0858880317644376
0.1562020643066290
-0.0703140325421908
-0.0858880317644376
0.1562020643066290
-0.0703140325421908
-0.0858880317644376
0.1562020643066290
-0.0099151512294842
0.0323194482629198
-0.0224042970334352
-0.0099151512294842
0.0323194482629198
-0.0224042970334352
-0.0099151512294842
0.0323194482629198
-0.0224042970334352
-0.0083765651041323
0.0176092249298744
-0.0092326598257417
-0.0083765651041323
0.0176092249298744
-0.0092326598257417
-0.0083765651041323
0.0176092249298744
-0.0092326598257417
-0.0083765651041323
0.0176092249298744
-0.0092326598257417
-0.0083765651041323
0.0176092249298744
-0.0092326598257417
-0.0064592658562446
0.0118031391306220
-0.0053438732743766
-0.0064592658562446
0.0118031391306220
-0.0053438732743766
-0.0064592658562446
0.0118031391306220
-0.0053438732743766
0.1065581923470537
-0.0473801106278894
-0.0591780817191639
0.1065581923470537
-0.0473801106278894
-0.0591780817191639
0.1065581923470537
-0.0473801106278894
-0.0591780817191639
-0.0390786468041018
0.0861283126934264
-0.0470496658893274
-0.0083714168669425
0.0187938809663019
-0.0104224640993607
-0.0083714168669425
0.0187938809663019
-0.0104224640993607
-0.0496547141846640
0.0728554371598540
-0.0232007229751969
-0.0496547141846640
0.0728554371598540
-0.0232007229751969
-0.0185175931412786
0.0356703497067699
-0.0171527565654896
-0.0185175931412786
0.0356703497067699
-0.0171527565654896
-0.0185175931412786
0.0356703497067699
-0.0171527565654896
-0.0092520563470268
0.0181305445679246
-0.0088784882208962
-0.0092520563470268
0.0181305445679246
-0.0088784882208962
-0.0092520563470268
0.0181305445679246
-0.0088784882208962
-0.0074380452339456
0.0164087938141067
-0.0089707485801629
-0.0074380452339456
0.0164087938141067
-0.0089707485801629
-0.0074380452339456
0.0164087938141067
-0.0089707485801629
-0.0185046778626657
0.0356495309972654
-0.0171448531345974
-0.0185046778626657
0.0356495309972654
-0.0171448531345974
-0.0185046778626657
0.0356495309972654
-0.0171448531345974
-0.0207747985359318
0.0403552025640602
-0.0195804040281295
-0.0207747985359318
0.0403552025640602
-0.0195804040281295
-0.0086746048061568
0.0170055634999685
-0.0083309586938116
-0.0074343489416967
0.0163979967997049
-0.0089636478580069
-0.0074343489416967
0.0163979967997049
-0.0089636478580069
-0.0074343489416967
0.0163979967997049
-0.0089636478580069
-0.0114109732321131
0.0213238413149838
-0.0099128680828703
-0.0114109732321131
0.0213238413149838
-0.0099128680828703
-0.0114109732321131
0.0213238413149838
-0.0099128680828703
-0.0193967929604613
0.0429741549421373
-0.0235773619816764
-0.0193967929604613
0.0429741549421373
-0.0235773619816764
-0.0193967929604613
0.0429741549421373
-0.0235773619816764
-0.0193967929604613
0.0429741549421373
-0.0235773619816764
-0.0121001937297751
0.0233496390640917
-0.0112494453343179
-0.0088326080742638
0.0130364809460874
-0.0042038728718234
-0.0088326080742638
0.0130364809460874
-0.0042038728718234
-0.0088326080742638
0.0130364809460874
-0.0042038728718234
-0.0209397164770439
0.0361826535594963
-0.0152429370824526
-0.0209397164770439
0.0361826535594963
-0.0152429370824526
-0.0088891537346403
0.0131348206233959
-0.0042456668887555
-0.0088891537346403
0.0131348206233959
-0.0042456668887555
-0.0088891537346403
0.0131348206233959
-0.0042456668887555
0.1436131625724798
-0.0263308202851192
-0.1172823422873625
-0.0226865214691708
0.0390360686636037
-0.0163495471944332
-0.0226865214691708
0.0390360686636037
-0.0163495471944332
-0.0059874491248628
0.0128861309134349
-0.0068986817885728
-0.0059874491248628
0.0128861309134349
-0.0068986817885728
-0.0059874491248628
0.0128861309134349
-0.0068986817885728
-0.3969761638757842
0.5020193103099050
-0.1050431464341218
-0.3969761638757842
0.5020193103099050
-0.1050431464341218
-0.3969761638757842
0.5020193103099050
-0.1050431464341218
-0.0064880130076727
0.0118467734141755
-0.0053587604065027
-0.0064880130076727
0.0118467734141755
-0.0053587604065027
-0.0064880130076727
0.0118467734141755
-0.0053587604065027
0.0609439223886068
-0.0239385956120971
-0.0370053267765098
0.0609439223886068
-0.0239385956120971
-0.0370053267765098
0.0609439223886068
-0.0239385956120971
-0.0370053267765098
-0.0161981122811869
0.0400044747273204
-0.0238063624461347
-0.0161981122811869
0.0400044747273204
-0.0238063624461347
-0.0161981122811869
0.0400044747273204
-0.0238063624461347
-0.0161981122811869
0.0400044747273204
-0.0238063624461347
-0.0161981122811869
0.0400044747273204
-0.0238063624461347
-0.0236634667669085
0.0341416801090846
-0.0104782133421773
-0.0236634667669085
0.0341416801090846
-0.0104782133421773
-0.0236634667669085
0.0341416801090846
-0.0104782133421773
-0.0064358116096944
0.0117610681500382
-0.0053252565403440
-0.0064358116096944
0.0117610681500382
-0.0053252565403440
-0.0064358116096944
0.0117610681500382
-0.0053252565403440
0.0709091073144498
-0.0420510494224137
-0.0288580578920365
-0.0121677946038223
0.0276464021940618
-0.0154786075902385
-0.0121677946038223
0.0276464021940618
-0.0154786075902385
-0.0121677946038223
0.0276464021940618
-0.0154786075902385
-0.0125639477619031
0.0189214334224887
-0.0063574856605841
-0.0064613573478190
0.0118088093654024
-0.0053474520175841
-0.0064613573478190
0.0118088093654024
-0.0053474520175841
-0.0064613573478190
0.0118088093654024
-0.0053474520175841
0.1662996840416506
-0.0653668889487228
-0.1009327950929293
0.1662996840416506
-0.0653668889487228
-0.1009327950929293
-0.0129503278541947
0.0201162429774296
-0.0071659151232363
-0.0129503278541947
0.0201162429774296
-0.0071659151232363
-0.0129503278541947
0.0201162429774296
-0.0071659151232363
-0.0086914296278206
0.0188313179059575
-0.0101398882781358
-0.0086914296278206
0.0188313179059575
-0.0101398882781358
-0.0086914296278206
0.0188313179059575
-0.0101398882781358
-0.0045689422450486
0.0102429788523631
-0.0056740366073141
-0.0121631879086454
0.0265429444596040
-0.0143797565509579
-0.0121631879086454
0.0265429444596040
-0.0143797565509579
-0.0121631879086454
0.0265429444596040
-0.0143797565509579
-0.0224537767208904
0.0340249494723942
-0.0115711727515035
-0.0120224352578456
0.0224162029175895
-0.0103937676597444
-0.0120224352578456
0.0224162029175895
-0.0103937676597444
-0.0120224352578456
0.0224162029175895
-0.0103937676597444
-0.0051909760210652
0.0116129367421980
-0.0064219607211347
-0.0051909760210652
0.0116129367421980
-0.0064219607211347
-0.0051909760210652
0.0116129367421980
-0.0064219607211347
-0.0121222705276513
0.0261533280132795
-0.0140310574856299
-0.0121222705276513
0.0261533280132795
-0.0140310574856299
-0.0121222705276513
0.0261533280132795
-0.0140310574856299
-0.0121222705276513
0.0261533280132795
-0.0140310574856299
-0.0121222705276513
0.0261533280132795
-0.0140310574856299
-0.0113104369766980
0.0243602767849872
-0.0130498398082902
-0.0113104369766980
0.0243602767849872
-0.0130498398082902
-0.0113104369766980
0.0243602767849872
-0.0130498398082902
-0.0113104369766980
0.0243602767849872
-0.0130498398082902
-0.0483276209475111
0.0717137661516723
-0.0233861452041634
-0.0483276209475111
0.0717137661516723
-0.0233861452041634
-0.0483276209475111
0.0717137661516723
-0.0233861452041634
-0.0483276209475111
0.0717137661516723
-0.0233861452041634
-0.0483276209475111
0.0717137661516723
-0.0233861452041634
-0.0064681476948598
0.0118163210404090
-0.0053481733455497
-0.0064681476948598
0.0118163210404090
-0.0053481733455497
-0.0064681476948598
0.0118163210404090
-0.0053481733455497
0.1660570569028163
-0.0745216660704651
-0.0915353908323523
0.1660570569028163
-0.0745216660704651
-0.0915353908323523
0.1660570569028163
-0.0745216660704651
-0.0915353908323523
-0.0064681476948598
0.0118163210404090
-0.0053481733455497
-0.0064681476948598
0.0118163210404090
-0.0053481733455497
-0.0064681476948598
0.0118163210404090
-0.0053481733455497
0.2518494122728338
-0.0725131653236078
-0.1793362469492265
0.2518494122728338
-0.0725131653236078
-0.1793362469492265
0.2518494122728338
-0.0725131653236078
-0.1793362469492265
-0.0131706645085232
0.0272494633080573
-0.0140787987995332
-0.0131706645085232
0.0272494633080573
-0.0140787987995332
-0.0099666090627491
0.0214883856295823
-0.0115217765668341
-0.0099666090627491
0.0214883856295823
-0.0115217765668341
-0.0073144059830992
0.0157046707276025
-0.0083902647445019
-0.0064984556880829
0.0118622228681650
-0.0053637671800831
-0.0064984556880829
0.0118622228681650
-0.0053637671800831
-0.0064984556880829
0.0118622228681650
-0.0053637671800831
-0.0064862242471387
0.0118439556983919
-0.0053577314512525
-0.0064862242471387
0.0118439556983919
-0.0053577314512525
-0.0064862242471387
0.0118439556983919
-0.0053577314512525
0.0617488476854193
-0.0247427169242142
-0.0370061307612052
0.0617488476854193
-0.0247427169242142
-0.0370061307612052
-0.0228779305906832
0.0366411744142998
-0.0137632438236171
-0.0228779305906832
0.0366411744142998
-0.0137632438236171
-0.0228779305906832
0.0366411744142998
-0.0137632438236171
0.2716386697803094
-0.0894119991120002
-0.1822266706683089
0.2716386697803094
-0.0894119991120002
-0.1822266706683089
-0.0111303093394986
0.0256925058914677
-0.0145621965519689
-0.0111303093394986
0.0256925058914677
-0.0145621965519689
-0.0111303093394986
0.0256925058914677
-0.0145621965519689
-0.0084796562098598
0.0154827240419278
-0.0070030678320687
-0.0084796562098598
0.0154827240419278
-0.0070030678320687
-0.0084796562098598
0.0154827240419278
-0.0070030678320687
-0.0114313853103605
0.0264879761138539
-0.0150565908034931
-0.0114313853103605
0.0264879761138539
-0.0150565908034931
-0.0114313853103605
0.0264879761138539
-0.0150565908034931
-0.0082806108713204
0.0151677968603413
-0.0068871859890197
-0.0082806108713204
0.0151677968603413
-0.0068871859890197
-0.0082806108713204
0.0151677968603413
-0.0068871859890197
0.2745752708310829
-0.1437574383744919
-0.1308178324565898
0.2745752708310829
-0.1437574383744919
-0.1308178324565898
0.2745752708310829
-0.1437574383744919
-0.1308178324565898
-0.0105166879942507
0.0250908858351144
-0.0145741978408640
-0.0105166879942507
0.0250908858351144
-0.0145741978408640
-0.0105166879942507
0.0250908858351144
-0.0145741978408640
-0.0166830394579524
0.0303740903834831
-0.0136910509255317
-0.0166830394579524
0.0303740903834831
-0.0136910509255317
-0.0659816418374983
-0.0413193987288734
0.1073010405663706
-0.0659816418374983
-0.0413193987288734
0.1073010405663706
-0.0659816418374983
-0.0413193987288734
0.1073010405663706
-0.0266986666718867
0.0511686940294756
-0.0244700273575906
-0.0141637007526351
0.0317043092877438
-0.0175406085351098
-0.0141637007526351
0.0317043092877438
-0.0175406085351098
0.4250533419672595
-0.1757959188412226
-0.2492574231260369
0.4250533419672595
-0.1757959188412226
-0.2492574231260369
0.1653128201991846
-0.0710025240117714
-0.0943102961874141
0.1653128201991846
-0.0710025240117714
-0.0943102961874141
-0.0084971502389538
0.0155104584496354
-0.0070133082106805
-0.0084971502389538
0.0155104584496354
-0.0070133082106805
-0.0084971502389538
0.0155104584496354
-0.0070133082106805
0.3534416146592384
-0.1391378468423959
-0.2143037678168410
0.3534416146592384
-0.1391378468423959
-0.2143037678168410
0.0986692375380117
-0.0389455762734466
-0.0597236612645631
-0.0131322602227901
0.0204254764941976
-0.0072932162714047
-0.0131322602227901
0.0204254764941976
-0.0072932162714047
-0.0131322602227901
0.0204254764941976
-0.0072932162714047
-0.0140497504327397
0.0254848610626356
-0.0114351106298954
0.2547723771212268
-0.1001922705689494
-0.1545801065522779
0.2547723771212268
-0.1001922705689494
-0.1545801065522779
0.2547723771212268
-0.1001922705689494
-0.1545801065522779
-0.0125349659192516
0.0194643847417318
-0.0069294188224808
-0.0125349659192516
0.0194643847417318
-0.0069294188224808
-0.0084662490038126
0.0154645637981556
-0.0069983147943437
-0.0084662490038126
0.0154645637981556
-0.0069983147943437
-0.0084662490038126
0.0154645637981556
-0.0069983147943437
0.1610712842300633
-0.0658478185560045
-0.0952234656740597
0.1610712842300633
-0.0658478185560045
-0.0952234656740597
-0.0129564231524543
0.0201259628311894
-0.0071695396787357
-0.0129564231524543
0.0201259628311894
-0.0071695396787357
-0.0129564231524543
0.0201259628311894
-0.0071695396787357
-0.0658943525439555
-0.0414893018454850
0.1073836543894394
-0.0658943525439555
-0.0414893018454850
0.1073836543894394
-0.0658943525439555
-0.0414893018454850
0.1073836543894394
-0.0091570361706469
0.0208448212688937
-0.0116877850982472
-0.0091570361706469
0.0208448212688937
-0.0116877850982472
-0.0091570361706469
0.0208448212688937
-0.0116877850982472
0.1065285877223292
-0.0472660970769747
-0.0592624906453560
0.1065285877223292
-0.0472660970769747
-0.0592624906453560
0.1065285877223292
-0.0472660970769747
-0.0592624906453560
