version: 100
cost-factor: 1
maxid: 50256
xsize: 2

B-Direction
B-DurativeVerb
B-Place
Conj
Direction
Distance
DistanceUnit
DurativeVerb
I-Direction
I-DurativeVerb
I-Place
MomentaryVerb
Num
Other
Place
Prep
Speed
SpeedUnit

U01:%x[-1,0]
U02:%x[0,0]
U03:%x[1,0]
U04:%x[-1,0]/%x[0,0]
U05:%x[0,0]/%x[1,0]
U11:%x[-1,1]
U12:%x[0,1]
U13:%x[1,1]
U14:%x[-1,1]/%x[0,1]
U15:%x[0,1]/%x[1,1]
U31:%x[-1,0]/%x[-1,1]
U32:%x[0,0]/%x[0,1]
U33:%x[1,0]/%x[1,1]
B

1170 B
39276 U01:0.5
32166 U01:1
25326 U01:10
1800 U01:2
29520 U01:203
21780 U01:30
20610 U01:390
45702 U01:4
38124 U01:405
8640 U01:5
25542 U01:90
33804 U01:940
14184 U01:A
28548 U01:A205
14760 U01:A505
15390 U01:B
0 U01:_B-1
42462 U01:b205
7020 U01:c404
13410 U01:一
27972 U01:一点
12240 U01:一直
6444 U01:一路
19098 U01:丁字路口
5886 U01:上
31068 U01:下
44496 U01:下来
46062 U01:下面
40104 U01:不能
33516 U01:东
9576 U01:两
12636 U01:个
3960 U01:之后
16938 U01:书柜
23202 U01:了
936 U01:五
47628 U01:交叉
2592 U01:从
39132 U01:以
21492 U01:传达室
48312 U01:位置
8190 U01:你
29808 U01:倒
28764 U01:停
16470 U01:先
17334 U01:再
2340 U01:几
18702 U01:出
15876 U01:出去
2934 U01:出发
48690 U01:出口
45126 U01:出门
3168 U01:到
6858 U01:到达
468 U01:前
22176 U01:前方
2196 U01:前进
29016 U01:前面
37836 U01:十
23652 U01:十字路口
41652 U01:十字路口处
6678 U01:南
19584 U01:厕所
10224 U01:原地
43758 U01:原点
28368 U01:去
4824 U01:右
23346 U01:右拐
11070 U01:右转
7452 U01:后
9468 U01:后退
4104 U01:向
1602 U01:向前
36954 U01:向着
6030 U01:四
20844 U01:回到
10080 U01:在
49518 U01:地
36432 U01:地方
26586 U01:墙角
47448 U01:墙边
17046 U01:处
26100 U01:多
34632 U01:大街
11268 U01:大路
3762 U01:大门
17766 U01:大门口
13176 U01:天桥
42066 U01:它
13590 U01:小
4662 U01:尽头
10368 U01:左
22878 U01:左转
36612 U01:左边
5346 U01:并
31536 U01:床
15462 U01:座
43236 U01:座位
31950 U01:弯
234 U01:往
35172 U01:快
28260 U01:快点
28098 U01:快速
27486 U01:慢
27234 U01:慢慢
7272 U01:房间
42912 U01:扇
22698 U01:打印机
41778 U01:找到
41256 U01:抵达
17874 U01:拐
35694 U01:拐弯
44424 U01:接
24660 U01:收费站
25776 U01:斜
15066 U01:方向
7902 U01:旁边
34524 U01:朝着
18162 U01:机电
24048 U01:机电楼
3582 U01:机电院
32526 U01:条
48132 U01:板凳
11448 U01:柜子
2790 U01:桌子
46242 U01:椅子
18288 U01:楼
5598 U01:楼梯
5148 U01:楼梯处
4392 U01:楼道
14418 U01:楼道口
20106 U01:正北
40626 U01:步
13716 U01:段
34992 U01:民权
46764 U01:河
20286 U01:沿
4284 U01:沿着
34308 U01:湖北
27612 U01:点
8874 U01:然后
5742 U01:爬
16218 U01:玉带河
24264 U01:玉带路
9792 U01:现在
43650 U01:由
37170 U01:电梯
47106 U01:电脑
10854 U01:的
14634 U01:直到
7614 U01:直接
34776 U01:直行
26478 U01:着
26748 U01:移动
21024 U01:稍
27810 U01:稍微
49176 U01:空调
19296 U01:穿过
45954 U01:窗户
34056 U01:第3
12474 U01:第一
30906 U01:第二
1926 U01:米
39402 U01:米每秒
21654 U01:约
15282 U01:经过
26334 U01:绕
12996 U01:继续
39996 U01:能
20502 U01:行驶
24444 U01:西
38916 U01:请
702 U01:走
16110 U01:走向
31356 U01:走廊
17478 U01:走过
30438 U01:走近
8406 U01:赶紧
19908 U01:起点
49860 U01:跑
22806 U01:跟前
22482 U01:路
29214 U01:路口
11628 U01:转
18882 U01:转弯
10494 U01:转身
50040 U01:边
16722 U01:边沿
40500 U01:迅速
21348 U01:过
48006 U01:过去
39780 U01:迈
30312 U01:近
32400 U01:这
9144 U01:这里
42714 U01:进
3420 U01:进入
38466 U01:远
25146 U01:退
35460 U01:退后
39600 U01:速度
30672 U01:那个
23796 U01:那儿
33624 U01:长安街
25992 U01:门
11844 U01:门口
30186 U01:门把手
30024 U01:靠
6210 U01:顺着
17586 U01:饮水机
40752 U01:马上
44820 U01:黑板
39150 U02:0.5
32094 U02:1
25254 U02:10
1728 U02:2
35946 U02:201
29430 U02:203
21672 U02:30
20520 U02:390
45630 U02:4
38052 U02:405
8568 U02:5
38268 U02:502
25434 U02:90
33732 U02:940
14076 U02:A
28476 U02:A205
9270 U02:A501
14652 U02:A505
15300 U02:B
42372 U02:b205
43938 U02:c400
6876 U02:c404
13284 U02:一
27054 U02:一点
12132 U02:一直
6336 U02:一路
18990 U02:丁字路口
5760 U02:上
42084 U02:上去
30996 U02:下
28782 U02:下来
45972 U02:下面
40014 U02:不能
33408 U02:东
9486 U02:两
12492 U02:个
46566 U02:中央
3780 U02:之后
16830 U02:书柜
23112 U02:了
720 U02:五
47556 U02:交叉
12654 U02:交叉口
2448 U02:从
39024 U02:以
21366 U02:传达室
48240 U02:位置
24912 U02:体育馆
8010 U02:你
29736 U02:倒
28656 U02:停
16398 U02:先
17226 U02:再
2214 U02:几
18630 U02:出
11862 U02:出去
2808 U02:出发
48618 U02:出口
45054 U02:出门
3042 U02:到
6696 U02:到达
252 U02:前
22104 U02:前方
2088 U02:前进
28926 U02:前面
37764 U02:十
23490 U02:十字路口
41580 U02:十字路口处
6570 U02:南
7920 U02:即可
19512 U02:厕所
40320 U02:厘米
10098 U02:原地
20862 U02:原处
43668 U02:原点
28278 U02:去
4680 U02:右
15588 U02:右拐
10980 U02:右转
7290 U02:后
9360 U02:后退
3978 U02:向
1494 U02:向前
36882 U02:向着
5904 U02:四
20736 U02:回到
33210 U02:回头
9954 U02:在
49446 U02:地
36360 U02:地方
26496 U02:墙角
47376 U02:墙边
16956 U02:处
26010 U02:多
21168 U02:大厅
34542 U02:大街
11196 U02:大路
3600 U02:大门
17694 U02:大门口
13104 U02:天桥
41958 U02:它
13428 U02:小
4518 U02:尽头
10242 U02:左
1944 U02:左转
36540 U02:左边
5166 U02:并
31464 U02:床
26928 U02:底端
25560 U02:度
14202 U02:座
43164 U02:座位
31878 U02:弯
18 U02:往
35100 U02:快
28152 U02:快点
28026 U02:快速
27378 U02:慢
27144 U02:慢慢
38934 U02:慢行
7164 U02:房间
42840 U02:扇
22590 U02:打印机
41706 U02:找到
41184 U02:抵达
17154 U02:拐
35622 U02:拐弯
44352 U02:接
24570 U02:收费站
25650 U02:斜
14994 U02:方向
7794 U02:旁边
34416 U02:朝着
18018 U02:机电
23976 U02:机电楼
3438 U02:机电院
32418 U02:条
48024 U02:板凳
11376 U02:柜子
2610 U02:桌子
46908 U02:桥
46170 U02:椅子
6048 U02:楼
5490 U02:楼梯
5004 U02:楼梯处
4302 U02:楼道
14346 U02:楼道口
20034 U02:正北
2358 U02:步
13608 U02:段
34884 U02:民权
46692 U02:河
16326 U02:河边
20214 U02:沿
4176 U02:沿着
34236 U02:湖北
27504 U02:点
8766 U02:然后
5616 U02:爬
16128 U02:玉带河
24192 U02:玉带路
9630 U02:现在
43542 U02:由
37098 U02:电梯
47034 U02:电脑
10728 U02:的
14526 U02:直到
7470 U02:直接
21960 U02:直行
26352 U02:着
26676 U02:移动
20952 U02:稍
27684 U02:稍微
49104 U02:空调
19224 U02:穿过
45846 U02:窗户
33948 U02:第3
12366 U02:第一
30816 U02:第二
954 U02:米
39294 U02:米每秒
21510 U02:约
15174 U02:经过
26226 U02:绕
12888 U02:继续
39888 U02:能
20394 U02:行驶
24372 U02:西
38808 U02:请
33048 U02:调头
486 U02:走
16002 U02:走向
31284 U02:走廊
17352 U02:走过
30366 U02:走近
8208 U02:赶紧
19818 U02:起点
49788 U02:跑
22716 U02:跟前
22410 U02:路
29142 U02:路口
4842 U02:转
32688 U02:转头
18810 U02:转弯
10386 U02:转身
49968 U02:边
16650 U02:边沿
40392 U02:迅速
21240 U02:过
36810 U02:过去
39708 U02:迈
30204 U02:近
32274 U02:这
9036 U02:这里
42624 U02:进
3312 U02:进入
38394 U02:远
25074 U02:退
35388 U02:退后
39528 U02:速度
30564 U02:那个
23670 U02:那儿
33534 U02:长安街
25884 U02:门
3186 U02:门口
30042 U02:门把手
35010 U02:门桥
29916 U02:靠
6138 U02:顺着
17496 U02:饮水机
40644 U02:马上
44748 U02:黑板
39042 U03:0.5
32022 U03:1
25200 U03:10
1620 U03:2
35874 U03:201
29358 U03:203
21528 U03:30
20412 U03:390
45558 U03:4
37998 U03:405
8514 U03:5
38214 U03:502
25380 U03:90
33642 U03:940
14004 U03:A
28422 U03:A205
9216 U03:A501
14544 U03:A505
15192 U03:B
972 U03:_B+1
42300 U03:b205
43884 U03:c400
6714 U03:c404
13230 U03:一
27000 U03:一点
12060 U03:一直
6228 U03:一路
18936 U03:丁字路口
5634 U03:上
41976 U03:上去
28674 U03:下来
45864 U03:下面
39906 U03:不能
33354 U03:东
9378 U03:两
12384 U03:个
46494 U03:中央
3618 U03:之后
16776 U03:书柜
23022 U03:了
504 U03:五
47502 U03:交叉
12510 U03:交叉口
11646 U03:从
21258 U03:传达室
48150 U03:位置
24858 U03:体育馆
9648 U03:你
29664 U03:倒
28566 U03:停
19008 U03:再
2106 U03:几
18558 U03:出
11772 U03:出去
2628 U03:出发
48546 U03:出口
44964 U03:出门
2952 U03:到
6588 U03:到达
36 U03:前
22032 U03:前方
24732 U03:前进
28872 U03:前面
37692 U03:十
23400 U03:十字路口
41508 U03:十字路口处
6462 U03:南
7812 U03:即可
19458 U03:厕所
40248 U03:厘米
9972 U03:原地
20754 U03:原处
43560 U03:原点
28170 U03:去
4536 U03:右
15480 U03:右拐
11952 U03:右转
7182 U03:后
40410 U03:后退
3798 U03:向
15678 U03:向前
5778 U03:四
20682 U03:回到
33156 U03:回头
9810 U03:在
49392 U03:地
36288 U03:地方
26370 U03:墙角
47304 U03:墙边
16848 U03:处
25902 U03:多
21114 U03:大厅
34434 U03:大街
11088 U03:大路
3456 U03:大门
17604 U03:大门口
13014 U03:天桥
41886 U03:它
13302 U03:小
4446 U03:尽头
10116 U03:左
1818 U03:左转
36486 U03:左边
5022 U03:并
31410 U03:床
26856 U03:底端
25452 U03:度
14094 U03:座
43074 U03:座位
31788 U03:弯
8226 U03:往
36018 U03:快
27702 U03:慢
38826 U03:慢行
7110 U03:房间
42732 U03:扇
22536 U03:打印机
42228 U03:抵达
17064 U03:拐
35550 U03:拐弯
44298 U03:接
24498 U03:收费站
14922 U03:方向
7722 U03:旁边
17892 U03:机电
23922 U03:机电楼
3330 U03:机电院
32292 U03:条
47880 U03:板凳
11322 U03:柜子
2466 U03:桌子
46836 U03:桥
46116 U03:椅子
5922 U03:楼
5364 U03:楼梯
4950 U03:楼梯处
4194 U03:楼道
14292 U03:楼道口
19926 U03:正北
2232 U03:步
13446 U03:段
34794 U03:民权
46638 U03:河
16236 U03:河边
45234 U03:沿
5184 U03:沿着
34182 U03:湖北
27396 U03:点
8658 U03:然后
5508 U03:爬
16020 U03:玉带河
24120 U03:玉带路
37044 U03:电梯
46980 U03:电脑
10638 U03:的
14436 U03:直到
7308 U03:直接
21870 U03:直行
26244 U03:着
40158 U03:移动
49032 U03:空调
25668 U03:穿过
45774 U03:窗户
33858 U03:第3
12312 U03:第一
30744 U03:第二
738 U03:米
39168 U03:米每秒
21384 U03:约
15084 U03:经过
12816 U03:继续
39834 U03:能
20304 U03:行驶
24282 U03:西
32994 U03:调头
270 U03:走
15948 U03:走向
31230 U03:走廊
17244 U03:走过
8028 U03:赶紧
19764 U03:起点
22608 U03:跟前
22356 U03:路
29034 U03:路口
4698 U03:转
32904 U03:转头
18756 U03:转弯
10260 U03:转身
49914 U03:边
16596 U03:边沿
44082 U03:迅速
36756 U03:过去
39654 U03:迈
30060 U03:近
32220 U03:这
8946 U03:这里
42570 U03:进
13914 U03:进入
38340 U03:远
25002 U03:退
39420 U03:速度
30492 U03:那个
23508 U03:那儿
33426 U03:长安街
25794 U03:门
3060 U03:门口
29934 U03:门把手
34902 U03:门桥
29862 U03:靠
12906 U03:顺着
17370 U03:饮水机
40554 U03:马上
44676 U03:黑板
39312 U04:0.5/米每秒
39726 U04:0.5/迈
32184 U04:1/米
40338 U04:10/厘米
25344 U04:10/米
1836 U04:2/米
29538 U04:203/房间
21798 U04:30/米
20628 U04:390/米
45720 U04:4/楼
38142 U04:405/走
8676 U04:5/米
25578 U04:90/度
33822 U04:940/米
14220 U04:A/座
28584 U04:A205/门口
14778 U04:A505/的
15408 U04:B/座
15696 U04:_B-1/一直
13788 U04:_B-1/上
31014 U04:_B-1/下
2484 U04:_B-1/从
39060 U04:_B-1/以
8046 U04:_B-1/你
16416 U04:_B-1/先
17262 U04:_B-1/再
23040 U04:_B-1/出
29376 U04:_B-1/到
24516 U04:_B-1/到达
36234 U04:_B-1/前方
2124 U04:_B-1/前进
35892 U04:_B-1/去
22050 U04:_B-1/右
48438 U04:_B-1/右拐
10998 U04:_B-1/右转
12762 U04:_B-1/后
9396 U04:_B-1/后退
11520 U04:_B-1/向
1512 U04:_B-1/向前
36900 U04:_B-1/向着
35514 U04:_B-1/在
18342 U04:_B-1/左
54 U04:_B-1/往
35118 U04:_B-1/快
28188 U04:_B-1/快点
28044 U04:_B-1/快速
27414 U04:_B-1/慢
27162 U04:_B-1/慢慢
41724 U04:_B-1/找到
41202 U04:_B-1/抵达
25686 U04:_B-1/斜
34452 U04:_B-1/朝着
20232 U04:_B-1/沿
4212 U04:_B-1/沿着
11970 U04:_B-1/然后
9666 U04:_B-1/现在
43578 U04:_B-1/由
26694 U04:_B-1/移动
20970 U04:_B-1/稍
27720 U04:_B-1/稍微
19242 U04:_B-1/穿过
26262 U04:_B-1/绕
47790 U04:_B-1/继续
38844 U04:_B-1/请
4932 U04:_B-1/走
48888 U04:_B-1/走过
30384 U04:_B-1/走近
49806 U04:_B-1/跑
32706 U04:_B-1/转头
20664 U04:_B-1/转身
40428 U04:_B-1/迅速
21276 U04:_B-1/过
3348 U04:_B-1/进入
35406 U04:_B-1/退后
47268 U04:_B-1/靠
6156 U04:_B-1/顺着
45180 U04:_B-1/马上
42480 U04:b205/并
7038 U04:c404/门口
13464 U04:一/小
35280 U04:一/点
26208 U04:一/米
27990 U04:一点/前进
49338 U04:一点/往
44982 U04:一点/然后
33300 U04:一点/走
49050 U04:一直/到达
15768 U04:一直/向前
12258 U04:一直/走
14022 U04:一直/进入
6480 U04:一路/向
19422 U04:一路/向前
19116 U04:丁字路口/再
45576 U04:上/到
5940 U04:上/四
13824 U04:上/楼梯
46854 U04:上/的
31086 U04:下/楼梯
44514 U04:下来/再
46080 U04:下面/左
40122 U04:不能/快
33552 U04:东/长安街
9594 U04:两/步
43416 U04:两/米
12672 U04:个/交叉口
31896 U04:个/弯
30978 U04:个/桌子
34128 U04:个/路口
13932 U04:之后/一直
46422 U04:之后/出去
3996 U04:之后/向
48510 U04:之后/往
16974 U04:书柜/处
23220 U04:了/大门
990 U04:五/米
47646 U04:交叉/路口
37962 U04:从/B
48798 U04:从/原点
23994 U04:从/机电楼
2646 U04:从/桌子
19836 U04:从/起点
9054 U04:从/这里
11790 U04:从/门口
39186 U04:以/0.5
21546 U04:传达室/约
48330 U04:位置/并
9990 U04:你/在
43092 U04:你/的
39924 U04:你/能
8244 U04:你/赶紧
43308 U04:你/马上
29826 U04:倒/5
28800 U04:停/下来
44064 U04:先/右
44280 U04:先/左
16488 U04:先/走
19188 U04:再/右
47736 U04:再/向
43524 U04:再/回头
37620 U04:再/往
32040 U04:再/走
17388 U04:再/走过
38754 U04:再/远
29952 U04:再/靠
44568 U04:再/顺着
2376 U04:几/步
23130 U04:出/了
18720 U04:出/大门
46458 U04:出去/到
18036 U04:出去/机电
15894 U04:出去/机电院
43830 U04:出发/一直
41094 U04:出发/往
24138 U04:出发/沿着
2970 U04:出发/走
48708 U04:出口/继续
45144 U04:出门/去
29448 U04:到/203
45648 U04:到/4
38196 U04:到/A
28494 U04:到/A205
9288 U04:到/A501
43956 U04:到/c400
13320 U04:到/一
19026 U04:到/丁字路口
16866 U04:到/书柜
47574 U04:到/交叉
24930 U04:到/体育馆
43020 U04:到/你
32796 U04:到/前方
28944 U04:到/前面
23526 U04:到/十字路口
19530 U04:到/厕所
18450 U04:到/大门
17712 U04:到/大门口
4554 U04:到/尽头
36558 U04:到/左边
31482 U04:到/床
22626 U04:到/打印机
11394 U04:到/柜子
7740 U04:到/桌子
26820 U04:到/楼梯
5040 U04:到/楼梯处
49734 U04:到/楼道
14364 U04:到/楼道口
47052 U04:到/电脑
45882 U04:到/窗户
33966 U04:到/第3
12402 U04:到/第一
31302 U04:到/走廊
46512 U04:到/路
3204 U04:到/门口
6894 U04:到达/c404
48636 U04:到达/出口
24588 U04:到达/收费站
49122 U04:到达/空调
40842 U04:前/一点
48996 U04:前/一直
38790 U04:前/再
48564 U04:前/到达
50238 U04:前/多
522 U04:前/走
32850 U04:前方/5
40212 U04:前方/移动
22194 U04:前方/转弯
8586 U04:前进/5
35244 U04:前进/一
2250 U04:前进/几
46350 U04:前进/到
44694 U04:前进/直到
35640 U04:前面/拐弯
29052 U04:前面/的
37710 U04:前面/走
37332 U04:前面/那个
37854 U04:十/米
23688 U04:十字路口/那儿
41670 U04:十字路口处/右转
6732 U04:南/到达
33228 U04:厕所/回头
19602 U04:厕所/旁边
33336 U04:厕所/调头
10278 U04:原地/左
43776 U04:原点/出发
48834 U04:原点/向
35964 U04:去/201
46710 U04:去/河
28386 U04:去/门口
22122 U04:右/前方
17838 U04:右/拐
4860 U04:右/转
23364 U04:右拐/一直
48474 U04:右拐/之后
11106 U04:右转/沿着
14562 U04:右转/直到
29754 U04:后/倒
50202 U04:后/停
15606 U04:后/右拐
31176 U04:后/往
7488 U04:后/直接
21978 U04:后/直行
12834 U04:后/转
45468 U04:后/转身
25092 U04:后/退
49626 U04:后退/5
35334 U04:后退/一点
9504 U04:后退/两
35370 U04:后退/几
44244 U04:向/前
6606 U04:向/南
19656 U04:向/右
47772 U04:向/右拐
25020 U04:向/后
44028 U04:向/后退
14940 U04:向/大门
11556 U04:向/左
4122 U04:向/左转
20052 U04:向/正北
42246 U04:向/西
45792 U04:向前/到
43866 U04:向前/移动
1638 U04:向前/走
36972 U04:向着/门口
6066 U04:四/楼
20880 U04:回到/原处
35568 U04:在/前面
10134 U04:在/原地
35802 U04:在/拐弯
49536 U04:地/向
36450 U04:地方/停
26604 U04:墙角/右
41328 U04:墙角/后
47466 U04:墙边/一直
35766 U04:处/停
17082 U04:处/左
18522 U04:处/并
29304 U04:处/往
33066 U04:处/调头
32976 U04:处/转头
26118 U04:多/走
34650 U04:大街/方向
44640 U04:大路/前进
20430 U04:大路/行驶
11286 U04:大路/走
19368 U04:大门/一路
3816 U04:大门/之后
18486 U04:大门/处
23274 U04:大门/往
15012 U04:大门/方向
17784 U04:大门口/右
13194 U04:天桥/走
42102 U04:它/上去
13626 U04:小/段
4716 U04:尽头/右
17172 U04:左/拐
50112 U04:左/拐弯
11592 U04:左/转
18828 U04:左/转弯
10404 U04:左/转身
25470 U04:左转/90
22896 U04:左转/直到
36630 U04:左边/转弯
11736 U04:并/从
42552 U04:并/停
15840 U04:并/出去
48384 U04:并/左转
45288 U04:并/沿
5382 U04:并/沿着
18576 U04:并/走
31554 U04:床/的
49986 U04:床/边
38070 U04:座/405
38286 U04:座/502
15498 U04:座/后
43254 U04:座位/去
31968 U04:弯/再
288 U04:往/前
37656 U04:往/前面
44910 U04:往/右
23310 U04:往/右拐
29682 U04:往/后
43380 U04:往/后退
31212 U04:往/左
46188 U04:往/椅子
24390 U04:往/西
41130 U04:往/门口
49662 U04:往/门把手
35190 U04:快/一点
36144 U04:快/点
28296 U04:快点/去
36198 U04:快点/走
33138 U04:快速/到
28116 U04:快速/前进
32634 U04:快速/走
27918 U04:慢/一点
27522 U04:慢/点
49464 U04:慢慢/地
27252 U04:慢慢/的
29610 U04:房间/去
7326 U04:房间/后
42930 U04:扇/门
22734 U04:打印机/跟前
41796 U04:找到/楼梯
42390 U04:抵达/b205
41274 U04:抵达/墙角
41364 U04:拐/一点
17910 U04:拐/出去
35712 U04:拐弯/处
44442 U04:接/下来
24678 U04:收费站/那儿
25812 U04:斜/穿过
20178 U04:方向/出发
34722 U04:方向/直行
15102 U04:方向/走
7938 U04:旁边/即可
22338 U04:旁边/右
16542 U04:旁边/右拐
34560 U04:朝着/大街
37116 U04:朝着/电梯
36702 U04:朝着/门口
18180 U04:机电/楼
24066 U04:机电楼/出发
3636 U04:机电院/大门
32544 U04:条/路
48168 U04:板凳/的
11466 U04:柜子/旁边
2826 U04:桌子/出发
7830 U04:桌子/旁边
10746 U04:桌子/的
47214 U04:桌子/那儿
46260 U04:椅子/的
21186 U04:楼/大厅
18306 U04:楼/大门
45504 U04:楼梯/上
13860 U04:楼梯/之后
31140 U04:楼梯/后
37512 U04:楼梯/左
41850 U04:楼梯/然后
5652 U04:楼梯/爬
26874 U04:楼梯/的
5202 U04:楼梯处/并
12150 U04:楼道/一直
6354 U04:楼道/一路
45360 U04:楼道/前进
49770 U04:楼道/的
50166 U04:楼道/移动
4410 U04:楼道/走
14454 U04:楼道口/右转
20124 U04:正北/方向
40662 U04:步/马上
13734 U04:段/楼梯
35028 U04:民权/门桥
46782 U04:河/上
33444 U04:沿/东
20322 U04:沿/大路
45324 U04:沿/楼道
11214 U04:沿着/大路
41994 U04:沿着/它
16578 U04:沿着/桌子
5526 U04:沿着/楼梯
4320 U04:沿着/楼道
24210 U04:沿着/玉带路
22428 U04:沿着/路
32310 U04:沿着/这
34326 U04:湖北/西
27630 U04:点/往
43470 U04:然后/再
45072 U04:然后/出门
8892 U04:然后/右
12042 U04:然后/右转
18414 U04:然后/向前
20772 U04:然后/回到
41904 U04:然后/沿着
10602 U04:然后/走
16038 U04:然后/走向
44136 U04:然后/迅速
5796 U04:爬/上
16254 U04:玉带河/的
24300 U04:玉带路/往
9828 U04:现在/你
22284 U04:现在/出发
40968 U04:现在/马上
43686 U04:由/原点
37188 U04:电梯/的
47124 U04:电脑/的
48258 U04:的/位置
38700 U04:的/再
49248 U04:的/前面
36378 U04:的/地方
10872 U04:的/尽头
26946 U04:的/底端
43182 U04:的/座位
27342 U04:的/往
37242 U04:的/方向
47178 U04:的/桌子
46926 U04:的/桥
16344 U04:的/河边
30834 U04:的/第二
31608 U04:的/跟前
29160 U04:的/路口
16668 U04:的/边沿
39546 U04:的/速度
30582 U04:的/那个
14868 U04:的/门口
14670 U04:直到/A505
48420 U04:直到/书柜
45396 U04:直到/十字路口
41598 U04:直到/十字路口处
22950 U04:直到/门口
44766 U04:直到/黑板
7632 U04:直接/走
34812 U04:直行/进入
26514 U04:着/墙角
47394 U04:着/墙边
40266 U04:移动/10
26766 U04:移动/到
21042 U04:稍/向
49590 U04:稍微/快
27828 U04:稍微/慢
49194 U04:空调/的
37278 U04:穿过/前面
19314 U04:穿过/大门
25920 U04:穿过/门
45990 U04:窗户/下面
34074 U04:第3/个
12528 U04:第一/个
30924 U04:第二/个
48870 U04:米/再
37908 U04:米/右
21888 U04:米/后
32922 U04:米/处
31734 U04:米/左
1962 U04:米/左转
8784 U04:米/然后
39438 U04:米每秒/的
21690 U04:约/30
15318 U04:经过/B
26388 U04:绕/着
48762 U04:继续/出去
24786 U04:继续/前进
23886 U04:继续/右拐
41472 U04:继续/往
47898 U04:继续/过去
13032 U04:继续/顺着
40032 U04:能/不能
20538 U04:行驶/390
33750 U04:行驶/940
42318 U04:西/抵达
24462 U04:西/走
34380 U04:西/路
38952 U04:请/慢行
32112 U04:走/1
25272 U04:走/10
1746 U04:走/2
31698 U04:走/5
26172 U04:走/一
27072 U04:走/一点
46314 U04:走/两
756 U04:走/五
49374 U04:走/几
18648 U04:走/出
3078 U04:走/到
37782 U04:走/十
36090 U04:走/快
38646 U04:走/的
41526 U04:走/直到
15210 U04:走/经过
36828 U04:走/过去
42642 U04:走/进
38412 U04:走/远
16146 U04:走向/玉带河
31374 U04:走廊/尽头
48924 U04:走过/这
17514 U04:走过/饮水机
30456 U04:走近/前面
8424 U04:赶紧/往
19944 U04:起点/向
49878 U04:跑/到
31644 U04:跟前/右转
22824 U04:跟前/向
24840 U04:路/一直
42192 U04:路/一路
46584 U04:路/中央
32598 U04:路/往
41436 U04:路/继续
22500 U04:路/走
47700 U04:路口/再
29232 U04:路口/处
34164 U04:路口/左
26658 U04:转/90
31806 U04:转/个
37566 U04:转/再
11664 U04:转/并
18378 U04:转/然后
12924 U04:转/继续
19692 U04:转/进入
44370 U04:转弯/接
36306 U04:转弯/的
18900 U04:转弯/走
10512 U04:转身/然后
49284 U04:转身/进入
50058 U04:边/后
16740 U04:边沿/走
40518 U04:迅速/后退
44190 U04:迅速/向
21402 U04:过/传达室
48042 U04:过去/板凳
39798 U04:迈/的
30330 U04:近/一点
42858 U04:这/扇
32436 U04:这/条
9162 U04:这里/走
42750 U04:进/这
14112 U04:进入/A
19728 U04:进入/厕所
7200 U04:进入/房间
21096 U04:进入/机电
3474 U04:进入/机电院
34920 U04:进入/民权
34254 U04:进入/湖北
38484 U04:远/一点
38574 U04:远/点
25164 U04:退/几
35478 U04:退后/一点
39618 U04:速度/前进
30690 U04:那个/桌子
37386 U04:那个/门
47250 U04:那儿/停
23814 U04:那儿/继续
33660 U04:长安街/行驶
37440 U04:门/上
42984 U04:门/到
26028 U04:门/多
48960 U04:门/继续
46386 U04:门口/之后
28692 U04:门口/停
11880 U04:门口/出去
41166 U04:门口/去
22986 U04:门口/处
32670 U04:门口/左
15804 U04:门口/并
36738 U04:门口/方向
37026 U04:门口/走
49698 U04:门把手/的
30222 U04:门把手/近
47322 U04:靠/着
30078 U04:靠/门把手
44604 U04:顺着/大路
13122 U04:顺着/天桥
6246 U04:顺着/楼道
41400 U04:顺着/这
17622 U04:饮水机/到
41058 U04:马上/出发
45216 U04:马上/右
40770 U04:马上/右拐
43344 U04:马上/往
44838 U04:黑板/前面
39204 U05:0.5/米每秒
39672 U05:0.5/迈
32130 U05:1/米
40284 U05:10/厘米
25290 U05:10/米
1764 U05:2/米
35982 U05:201/_B+1
29466 U05:203/房间
21708 U05:30/米
20556 U05:390/米
45666 U05:4/楼
38088 U05:405/走
8604 U05:5/米
38304 U05:502/_B+1
25488 U05:90/度
33768 U05:940/米
14130 U05:A/座
28512 U05:A205/门口
9306 U05:A501/_B+1
14688 U05:A505/的
15336 U05:B/座
42408 U05:b205/并
43974 U05:c400/_B+1
6912 U05:c404/门口
13338 U05:一/小
35262 U05:一/点
26190 U05:一/米
27090 U05:一点/_B+1
27936 U05:一点/前进
49320 U05:一点/往
44928 U05:一点/然后
33282 U05:一点/走
49014 U05:一直/到达
15714 U05:一直/向前
12168 U05:一直/走
13950 U05:一直/进入
6372 U05:一路/向
19386 U05:一路/向前
19044 U05:丁字路口/再
45522 U05:上/到
5814 U05:上/四
13806 U05:上/楼梯
46800 U05:上/的
42120 U05:上去/_B+1
31032 U05:下/楼梯
28818 U05:下来/_B+1
44460 U05:下来/再
46008 U05:下面/左
40050 U05:不能/快
33462 U05:东/长安街
9522 U05:两/步
43398 U05:两/米
12546 U05:个/交叉口
31824 U05:个/弯
30942 U05:个/桌子
34092 U05:个/路口
46602 U05:中央/_B+1
13878 U05:之后/一直
46404 U05:之后/出去
3834 U05:之后/向
48492 U05:之后/往
16884 U05:书柜/处
23148 U05:了/大门
774 U05:五/米
47592 U05:交叉/路口
12690 U05:交叉口/_B+1
37926 U05:从/B
48780 U05:从/原点
23940 U05:从/机电楼
2502 U05:从/桌子
19782 U05:从/起点
8964 U05:从/这里
11754 U05:从/门口
39078 U05:以/0.5
21420 U05:传达室/约
48276 U05:位置/并
24948 U05:体育馆/_B+1
9846 U05:你/在
43038 U05:你/的
39852 U05:你/能
8064 U05:你/赶紧
43290 U05:你/马上
29772 U05:倒/5
36666 U05:停/_B+1
28710 U05:停/下来
44046 U05:先/右
44262 U05:先/左
16434 U05:先/走
19134 U05:再/右
47718 U05:再/向
43488 U05:再/回头
37584 U05:再/往
31986 U05:再/走
17280 U05:再/走过
38718 U05:再/远
29880 U05:再/靠
44532 U05:再/顺着
2268 U05:几/步
23058 U05:出/了
18666 U05:出/大门
11898 U05:出去/_B+1
46440 U05:出去/到
17928 U05:出去/机电
15858 U05:出去/机电院
20196 U05:出发/_B+1
43794 U05:出发/一直
41076 U05:出发/往
24084 U05:出发/沿着
2844 U05:出发/走
48654 U05:出口/继续
45090 U05:出门/去
29394 U05:到/203
45594 U05:到/4
38178 U05:到/A
28440 U05:到/A205
9234 U05:到/A501
43902 U05:到/c400
13248 U05:到/一
18954 U05:到/丁字路口
16794 U05:到/书柜
47520 U05:到/交叉
24876 U05:到/体育馆
43002 U05:到/你
32760 U05:到/前方
28890 U05:到/前面
23418 U05:到/十字路口
19476 U05:到/厕所
18432 U05:到/大门
17640 U05:到/大门口
4464 U05:到/尽头
36504 U05:到/左边
31428 U05:到/床
22554 U05:到/打印机
11340 U05:到/柜子
7704 U05:到/桌子
26784 U05:到/楼梯
4968 U05:到/楼梯处
49716 U05:到/楼道
14310 U05:到/楼道口
46998 U05:到/电脑
45810 U05:到/窗户
33876 U05:到/第3
12330 U05:到/第一
31248 U05:到/走廊
46476 U05:到/路
3096 U05:到/门口
6750 U05:到达/c404
48582 U05:到达/出口
24534 U05:到达/收费站
49068 U05:到达/空调
40806 U05:前/一点
48978 U05:前/一直
38772 U05:前/再
48528 U05:前/到达
50220 U05:前/多
306 U05:前/走
32814 U05:前方/5
40176 U05:前方/移动
22140 U05:前方/转弯
8532 U05:前进/5
24804 U05:前进/_B+1
35226 U05:前进/一
2142 U05:前进/几
46332 U05:前进/到
44658 U05:前进/直到
44856 U05:前面/_B+1
35586 U05:前面/拐弯
28962 U05:前面/的
37674 U05:前面/走
37296 U05:前面/那个
37800 U05:十/米
45414 U05:十字路口/_B+1
23544 U05:十字路口/那儿
41616 U05:十字路口处/右转
6624 U05:南/到达
7956 U05:即可/_B+1
19746 U05:厕所/_B+1
33174 U05:厕所/回头
19548 U05:厕所/旁边
33318 U05:厕所/调头
40356 U05:厘米/_B+1
10152 U05:原地/左
20898 U05:原处/_B+1
43704 U05:原点/出发
48816 U05:原点/向
35910 U05:去/201
29628 U05:去/_B+1
46656 U05:去/河
28314 U05:去/门口
22068 U05:右/前方
17802 U05:右/拐
4734 U05:右/转
15624 U05:右拐/_B+1
23328 U05:右拐/一直
48456 U05:右拐/之后
31662 U05:右转/_B+1
11016 U05:右转/沿着
14472 U05:右转/直到
29700 U05:后/倒
50184 U05:后/停
15516 U05:后/右拐
31158 U05:后/往
7344 U05:后/直接
21906 U05:后/直行
12780 U05:后/转
45450 U05:后/转身
25038 U05:后/退
49608 U05:后退/5
35316 U05:后退/一点
9414 U05:后退/两
35352 U05:后退/几
44208 U05:向/前
6498 U05:向/南
19638 U05:向/右
47754 U05:向/右拐
24984 U05:向/后
44010 U05:向/后退
14904 U05:向/大门
11538 U05:向/左
4014 U05:向/左转
19962 U05:向/正北
42210 U05:向/西
45756 U05:向前/到
43848 U05:向前/移动
1530 U05:向前/走
36918 U05:向着/门口
5958 U05:四/楼
20790 U05:回到/原处
33246 U05:回头/_B+1
35532 U05:在/前面
10008 U05:在/原地
35784 U05:在/拐弯
49482 U05:地/向
36396 U05:地方/停
26532 U05:墙角/右
41292 U05:墙角/后
47412 U05:墙边/一直
23004 U05:处/_B+1
35730 U05:处/停
16992 U05:处/左
18504 U05:处/并
29250 U05:处/往
33012 U05:处/调头
32940 U05:处/转头
26046 U05:多/走
21204 U05:大厅/_B+1
34578 U05:大街/方向
44622 U05:大路/前进
20340 U05:大路/行驶
11232 U05:大路/走
15930 U05:大门/_B+1
19332 U05:大门/一路
3654 U05:大门/之后
18468 U05:大门/处
23238 U05:大门/往
14958 U05:大门/方向
17730 U05:大门口/右
13140 U05:天桥/走
42012 U05:它/上去
13482 U05:小/段
10890 U05:尽头/_B+1
4572 U05:尽头/右
17100 U05:左/拐
50094 U05:左/拐弯
11574 U05:左/转
18774 U05:左/转弯
10296 U05:左/转身
25398 U05:左转/90
1980 U05:左转/_B+1
22860 U05:左转/直到
36576 U05:左边/转弯
11682 U05:并/从
42498 U05:并/停
15822 U05:并/出去
48348 U05:并/左转
45252 U05:并/沿
5220 U05:并/沿着
18540 U05:并/走
31500 U05:床/的
49932 U05:床/边
26964 U05:底端/_B+1
25596 U05:度/_B+1
38016 U05:座/405
38232 U05:座/502
14238 U05:座/_B+1
15426 U05:座/后
43200 U05:座位/去
31914 U05:弯/再
72 U05:往/前
37638 U05:往/前面
44892 U05:往/右
23292 U05:往/右拐
29646 U05:往/后
43362 U05:往/后退
31194 U05:往/左
46134 U05:往/椅子
24318 U05:往/西
41112 U05:往/门口
49644 U05:往/门把手
35136 U05:快/一点
36108 U05:快/点
28206 U05:快点/去
36162 U05:快点/走
33120 U05:快速/到
28062 U05:快速/前进
32616 U05:快速/走
27846 U05:慢/一点
27432 U05:慢/点
49410 U05:慢慢/地
27180 U05:慢慢/的
38970 U05:慢行/_B+1
49302 U05:房间/_B+1
29556 U05:房间/去
7218 U05:房间/后
42876 U05:扇/门
22644 U05:打印机/跟前
41742 U05:找到/楼梯
42336 U05:抵达/b205
41220 U05:抵达/墙角
17190 U05:拐/_B+1
41346 U05:拐/一点
17856 U05:拐/出去
50130 U05:拐弯/_B+1
35658 U05:拐弯/处
44388 U05:接/下来
24606 U05:收费站/那儿
25704 U05:斜/穿过
20142 U05:方向/出发
34668 U05:方向/直行
15030 U05:方向/走
11484 U05:旁边/_B+1
7848 U05:旁边/即可
22320 U05:旁边/右
16524 U05:旁边/右拐
34470 U05:朝着/大街
37062 U05:朝着/电梯
36684 U05:朝着/门口
18054 U05:机电/楼
24012 U05:机电楼/出发
3492 U05:机电院/大门
32454 U05:条/路
48060 U05:板凳/的
11412 U05:柜子/旁边
2664 U05:桌子/出发
7758 U05:桌子/旁边
10656 U05:桌子/的
47196 U05:桌子/那儿
46944 U05:桥/_B+1
46206 U05:椅子/的
6084 U05:楼/_B+1
21132 U05:楼/大厅
18198 U05:楼/大门
13752 U05:楼梯/_B+1
45486 U05:楼梯/上
13842 U05:楼梯/之后
31104 U05:楼梯/后
37476 U05:楼梯/左
41814 U05:楼梯/然后
5544 U05:楼梯/爬
26838 U05:楼梯/的
5058 U05:楼梯处/并
12078 U05:楼道/一直
6264 U05:楼道/一路
45342 U05:楼道/前进
49752 U05:楼道/的
50148 U05:楼道/移动
4338 U05:楼道/走
14382 U05:楼道口/右转
20070 U05:正北/方向
2394 U05:步/_B+1
40572 U05:步/马上
13644 U05:段/楼梯
34938 U05:民权/门桥
46728 U05:河/上
16362 U05:河边/_B+1
33372 U05:沿/东
20250 U05:沿/大路
45306 U05:沿/楼道
11124 U05:沿着/大路
41922 U05:沿着/它
16560 U05:沿着/桌子
5400 U05:沿着/楼梯
4230 U05:沿着/楼道
24156 U05:沿着/玉带路
22374 U05:沿着/路
32238 U05:沿着/这
34272 U05:湖北/西
35298 U05:点/_B+1
27540 U05:点/往
43434 U05:然后/再
45000 U05:然后/出门
8802 U05:然后/右
11988 U05:然后/右转
18396 U05:然后/向前
20700 U05:然后/回到
41868 U05:然后/沿着
10530 U05:然后/走
15966 U05:然后/走向
44100 U05:然后/迅速
5670 U05:爬/上
16164 U05:玉带河/的
24228 U05:玉带路/往
9684 U05:现在/你
22248 U05:现在/出发
40878 U05:现在/马上
43596 U05:由/原点
37134 U05:电梯/的
47070 U05:电脑/的
48186 U05:的/位置
38664 U05:的/再
49212 U05:的/前面
36324 U05:的/地方
10764 U05:的/尽头
26892 U05:的/底端
43110 U05:的/座位
27270 U05:的/往
37206 U05:的/方向
47142 U05:的/桌子
46872 U05:的/桥
16272 U05:的/河边
30762 U05:的/第二
31572 U05:的/跟前
29070 U05:的/路口
16614 U05:的/边沿
39456 U05:的/速度
30510 U05:的/那个
14796 U05:的/门口
14580 U05:直到/A505
48402 U05:直到/书柜
45378 U05:直到/十字路口
41544 U05:直到/十字路口处
22914 U05:直到/门口
44712 U05:直到/黑板
7506 U05:直接/走
21996 U05:直行/_B+1
34740 U05:直行/进入
26406 U05:着/墙角
47340 U05:着/墙边
40230 U05:移动/10
26712 U05:移动/到
20988 U05:稍/向
49572 U05:稍微/快
27738 U05:稍微/慢
49140 U05:空调/的
37260 U05:穿过/前面
19260 U05:穿过/大门
25830 U05:穿过/门
45900 U05:窗户/下面
33984 U05:第3/个
12420 U05:第一/个
30852 U05:第二/个
1008 U05:米/_B+1
48852 U05:米/再
37872 U05:米/右
21816 U05:米/后
32886 U05:米/处
31716 U05:米/左
1854 U05:米/左转
8694 U05:米/然后
39330 U05:米每秒/的
21564 U05:约/30
15228 U05:经过/B
26280 U05:绕/着
48726 U05:继续/出去
24750 U05:继续/前进
23832 U05:继续/右拐
41454 U05:继续/往
47808 U05:继续/过去
12942 U05:继续/顺着
39942 U05:能/不能
20448 U05:行驶/390
33678 U05:行驶/940
42264 U05:西/抵达
24408 U05:西/走
34344 U05:西/路
38862 U05:请/慢行
33084 U05:调头/_B+1
32058 U05:走/1
25218 U05:走/10
1656 U05:走/2
31680 U05:走/5
8496 U05:走/_B+1
26136 U05:走/一
27018 U05:走/一点
46296 U05:走/两
540 U05:走/五
49356 U05:走/几
18594 U05:走/出
2988 U05:走/到
37728 U05:走/十
36036 U05:走/快
38628 U05:走/的
41490 U05:走/直到
15120 U05:走/经过
36774 U05:走/过去
42588 U05:走/进
38358 U05:走/远
16056 U05:走向/玉带河
31320 U05:走廊/尽头
48906 U05:走过/这
17406 U05:走过/饮水机
30402 U05:走近/前面
8262 U05:赶紧/往
19854 U05:起点/向
49824 U05:跑/到
31626 U05:跟前/右转
22752 U05:跟前/向
34398 U05:路/_B+1
24822 U05:路/一直
42174 U05:路/一路
46530 U05:路/中央
32562 U05:路/往
41418 U05:路/继续
22446 U05:路/走
47664 U05:路口/再
29178 U05:路口/处
34146 U05:路口/左
26640 U05:转/90
4878 U05:转/_B+1
31752 U05:转/个
37530 U05:转/再
11610 U05:转/并
18360 U05:转/然后
12852 U05:转/继续
19674 U05:转/进入
32724 U05:转头/_B+1
22212 U05:转弯/_B+1
44316 U05:转弯/接
36270 U05:转弯/的
18846 U05:转弯/走
10422 U05:转身/然后
49266 U05:转身/进入
50004 U05:边/后
16686 U05:边沿/走
40446 U05:迅速/后退
44154 U05:迅速/向
21294 U05:过/传达室
36846 U05:过去/_B+1
47916 U05:过去/板凳
39744 U05:迈/的
30240 U05:近/一点
42768 U05:这/扇
32328 U05:这/条
9072 U05:这里/走
42660 U05:进/这
14040 U05:进入/A
19710 U05:进入/厕所
7128 U05:进入/房间
21078 U05:进入/机电
3366 U05:进入/机电院
34830 U05:进入/民权
34200 U05:进入/湖北
38430 U05:远/一点
38520 U05:远/点
25110 U05:退/几
35424 U05:退后/一点
39564 U05:速度/前进
30600 U05:那个/桌子
37350 U05:那个/门
47232 U05:那儿/停
23706 U05:那儿/继续
33570 U05:长安街/行驶
37404 U05:门/上
42948 U05:门/到
25938 U05:门/多
48942 U05:门/继续
3222 U05:门口/_B+1
46368 U05:门口/之后
28602 U05:门口/停
11808 U05:门口/出去
41148 U05:门口/去
22968 U05:门口/处
32652 U05:门口/左
15786 U05:门口/并
36720 U05:门口/方向
36990 U05:门口/走
49680 U05:门把手/的
30096 U05:门把手/近
35046 U05:门桥/_B+1
47286 U05:靠/着
29970 U05:靠/门把手
44586 U05:顺着/大路
13050 U05:顺着/天桥
6174 U05:顺着/楼道
41382 U05:顺着/这
17532 U05:饮水机/到
40986 U05:马上/出发
45198 U05:马上/右
40680 U05:马上/右拐
43326 U05:马上/往
44784 U05:黑板/前面
90 U11:_B-1
7650 U11:a
18216 U11:b
5418 U11:c
8442 U11:d
23724 U11:i
1026 U11:m
2862 U11:n
558 U11:nd
9864 U11:nm
41004 U11:nt
324 U11:p
1998 U11:q
8280 U11:r
10908 U11:u
792 U11:v
7056 U11:ws
7524 U12:a
18072 U12:b
5238 U12:c
8298 U12:d
23562 U12:i
810 U12:m
2682 U12:n
342 U12:nd
9702 U12:nm
40896 U12:nt
108 U12:p
1044 U12:q
8082 U12:r
10782 U12:u
576 U12:v
6930 U12:ws
1062 U13:_B+1
7362 U13:a
17946 U13:b
5076 U13:c
8100 U13:d
23436 U13:i
594 U13:m
2520 U13:n
126 U13:nd
47826 U13:nt
3852 U13:p
828 U13:q
8982 U13:r
10674 U13:u
360 U13:v
6768 U13:ws
25722 U14:_B-1/a
12006 U14:_B-1/c
15732 U14:_B-1/d
36252 U14:_B-1/n
12798 U14:_B-1/nd
9720 U14:_B-1/nm
40914 U14:_B-1/nt
144 U14:_B-1/p
8118 U14:_B-1/r
1548 U14:_B-1/v
27954 U14:a/m
38592 U14:a/n
13662 U14:a/q
7668 U14:a/v
18234 U14:b/n
43506 U14:c/d
8910 U14:c/nd
5436 U14:c/p
10620 U14:c/v
27864 U14:d/a
21726 U14:d/m
19206 U14:d/nd
8460 U14:d/p
27288 U14:d/u
12276 U14:d/v
23742 U14:i/r
13500 U14:m/a
45018 U14:m/c
29574 U14:m/n
6516 U14:m/p
1080 U14:m/q
19440 U14:m/v
30258 U14:n/a
5256 U14:n/c
12186 U14:n/d
6390 U14:n/m
3672 U14:n/n
3870 U14:n/nd
19980 U14:n/p
24696 U14:n/r
10800 U14:n/u
2880 U14:n/v
7542 U14:nd/a
13968 U14:nd/d
40860 U14:nd/m
15642 U14:nd/n
4752 U14:nd/nd
4032 U14:nd/p
37368 U14:nd/r
29088 U14:nd/u
612 U14:nd/v
9882 U14:nm/r
22302 U14:nm/v
41022 U14:nt/d
48078 U14:nt/n
34002 U14:p/m
2700 U14:p/n
378 U14:p/nd
9090 U14:p/r
4140 U14:p/v
37980 U14:p/ws
8820 U14:q/c
40698 U14:q/d
12708 U14:q/n
21924 U14:q/nd
27648 U14:q/p
39474 U14:q/u
2016 U14:q/v
8316 U14:r/d
30708 U14:r/n
10026 U14:r/p
32472 U14:r/q
43128 U14:r/u
9180 U14:r/v
38736 U14:u/d
30870 U14:u/m
14886 U14:u/n
10926 U14:u/nd
27360 U14:u/p
30618 U14:u/r
36126 U14:v/a
18090 U14:v/b
10548 U14:v/c
37602 U14:v/d
23580 U14:v/i
846 U14:v/m
3240 U14:v/n
4590 U14:v/nd
47934 U14:v/nt
11142 U14:v/p
31842 U14:v/q
42786 U14:v/r
23166 U14:v/u
1674 U14:v/v
6948 U14:v/ws
42516 U14:ws/c
7074 U14:ws/n
14814 U14:ws/u
27882 U15:a/m
38538 U15:a/n
13518 U15:a/q
7560 U15:a/v
18108 U15:b/n
43452 U15:c/d
8838 U15:c/nd
5274 U15:c/p
10566 U15:c/v
27756 U15:d/a
21582 U15:d/m
19152 U15:d/nd
8334 U15:d/p
27198 U15:d/u
12204 U15:d/v
45432 U15:i/_B+1
23598 U15:i/r
27108 U15:m/_B+1
13356 U15:m/a
44946 U15:m/c
29484 U15:m/n
6408 U15:m/p
864 U15:m/q
19404 U15:m/v
3258 U15:n/_B+1
30114 U15:n/a
5094 U15:n/c
12096 U15:n/d
6282 U15:n/m
3510 U15:n/n
3690 U15:n/nd
19872 U15:n/p
24624 U15:n/r
10692 U15:n/u
2718 U15:n/v
10944 U15:nd/_B+1
7380 U15:nd/a
13896 U15:nd/d
40824 U15:nd/m
15534 U15:nd/n
4608 U15:nd/nd
3888 U15:nd/p
37314 U15:nd/r
28980 U15:nd/u
396 U15:nd/v
9738 U15:nm/r
22266 U15:nm/v
40932 U15:nt/d
47952 U15:nt/n
33894 U15:p/m
2538 U15:p/n
162 U15:p/nd
9000 U15:p/r
4050 U15:p/v
37944 U15:p/ws
1098 U15:q/_B+1
8712 U15:q/c
40590 U15:q/d
12564 U15:q/n
21834 U15:q/nd
27558 U15:q/p
39348 U15:q/u
1872 U15:q/v
8136 U15:r/d
30636 U15:r/n
9900 U15:r/p
32346 U15:r/q
43056 U15:r/u
9108 U15:r/v
38682 U15:u/d
30780 U15:u/m
14832 U15:u/n
10818 U15:u/nd
27306 U15:u/p
30528 U15:u/r
2034 U15:v/_B+1
36054 U15:v/a
17964 U15:v/b
10440 U15:v/c
37548 U15:v/d
23454 U15:v/i
630 U15:v/m
3114 U15:v/n
4482 U15:v/nd
47844 U15:v/nt
11034 U15:v/p
31770 U15:v/q
42678 U15:v/r
23076 U15:v/u
1566 U15:v/v
6786 U15:v/ws
9324 U15:ws/_B+1
42426 U15:ws/c
6966 U15:ws/n
14706 U15:ws/u
39366 U31:0.5/m
32202 U31:1/m
25362 U31:10/m
1890 U31:2/m
29592 U31:203/m
21852 U31:30/m
20646 U31:390/m
45738 U31:4/m
38160 U31:405/m
8730 U31:5/m
25614 U31:90/m
33840 U31:940/m
14256 U31:A/ws
28620 U31:A205/ws
14850 U31:A505/ws
15444 U31:B/ws
180 U31:_B-1/_B-1
42534 U31:b205/ws
7092 U31:c404/ws
13536 U31:一/m
28008 U31:一点/m
12294 U31:一直/d
6534 U31:一路/m
19170 U31:丁字路口/n
37494 U31:上/nd
5976 U31:上/v
31122 U31:下/v
44550 U31:下来/v
46098 U31:下面/nd
40140 U31:不能/v
33588 U31:东/nd
9612 U31:两/m
12726 U31:个/q
4068 U31:之后/nd
17010 U31:书柜/n
23256 U31:了/u
1116 U31:五/m
47682 U31:交叉/v
2736 U31:从/p
39222 U31:以/p
21600 U31:传达室/n
48366 U31:位置/n
8352 U31:你/r
29844 U31:倒/v
28836 U31:停/v
16506 U31:先/d
17424 U31:再/d
2412 U31:几/m
18738 U31:出/v
15912 U31:出去/v
3006 U31:出发/v
48744 U31:出口/v
45162 U31:出门/v
34020 U31:到/p
3276 U31:到/v
6984 U31:到达/v
648 U31:前/nd
32868 U31:前方/n
22230 U31:前方/nd
2286 U31:前进/v
29106 U31:前面/nd
37890 U31:十/m
23760 U31:十字路口/i
41688 U31:十字路口处/n
6804 U31:南/nd
19620 U31:厕所/n
10314 U31:原地/n
43812 U31:原点/n
28404 U31:去/v
4896 U31:右/nd
23382 U31:右拐/n
11160 U31:右转/v
7578 U31:后/nd
9540 U31:后退/v
4158 U31:向/p
1692 U31:向前/v
37008 U31:向着/p
6102 U31:四/m
20916 U31:回到/v
10170 U31:在/p
49554 U31:地/u
36468 U31:地方/n
26622 U31:墙角/n
47484 U31:墙边/n
17118 U31:处/n
35856 U31:处/v
26154 U31:多/d
34686 U31:大街/n
11304 U31:大路/n
3906 U31:大门/n
17820 U31:大门口/n
13212 U31:天桥/n
42138 U31:它/r
13680 U31:小/a
4770 U31:尽头/nd
10458 U31:左/nd
22932 U31:左转/v
36648 U31:左边/nd
5454 U31:并/c
31590 U31:床/n
15552 U31:座/n
43272 U31:座位/n
32004 U31:弯/n
414 U31:往/p
29340 U31:往/v
35208 U31:快/a
36216 U31:快点/d
28332 U31:快点/v
28134 U31:快速/d
27576 U31:慢/a
27324 U31:慢慢/d
7398 U31:房间/n
42966 U31:扇/q
22770 U31:打印机/n
41832 U31:找到/v
41310 U31:抵达/v
17982 U31:拐/v
35748 U31:拐弯/v
44478 U31:接/v
24714 U31:收费站/n
25848 U31:斜/a
15138 U31:方向/n
7974 U31:旁边/nd
34596 U31:朝着/p
18252 U31:机电/b
24102 U31:机电楼/n
3708 U31:机电院/n
32580 U31:条/q
48204 U31:板凳/n
11502 U31:柜子/n
2898 U31:桌子/n
46278 U31:椅子/n
18324 U31:楼/n
5688 U31:楼梯/n
5292 U31:楼梯处/n
4428 U31:楼道/n
14490 U31:楼道口/n
20160 U31:正北/nd
40716 U31:步/q
13770 U31:段/q
35064 U31:民权/n
46818 U31:河/n
20358 U31:沿/p
4356 U31:沿着/p
34362 U31:湖北/n
27666 U31:点/q
8928 U31:然后/c
5832 U31:爬/v
16290 U31:玉带河/n
24336 U31:玉带路/n
9918 U31:现在/nm
41040 U31:现在/nt
43722 U31:由/p
37224 U31:电梯/n
47160 U31:电脑/n
10962 U31:的/u
14724 U31:直到/v
7686 U31:直接/a
34848 U31:直行/v
26550 U31:着/u
26802 U31:移动/v
21060 U31:稍/d
27900 U31:稍微/d
49230 U31:空调/n
19350 U31:穿过/v
46026 U31:窗户/n
34110 U31:第3/m
12582 U31:第一/m
30960 U31:第二/m
2052 U31:米/q
39492 U31:米每秒/q
21744 U31:约/d
15354 U31:经过/v
26424 U31:绕/v
13068 U31:继续/v
40068 U31:能/v
20574 U31:行驶/v
24480 U31:西/nd
38988 U31:请/v
882 U31:走/v
16182 U31:走向/v
31392 U31:走廊/n
17550 U31:走过/v
30474 U31:走近/v
8478 U31:赶紧/d
19998 U31:起点/n
49896 U31:跑/v
22842 U31:跟前/nd
22518 U31:路/n
29268 U31:路口/n
11700 U31:转/v
18918 U31:转弯/v
10584 U31:转身/v
50076 U31:边/nd
16758 U31:边沿/nd
40536 U31:迅速/a
44226 U31:迅速/d
21438 U31:过/v
48096 U31:过去/nt
39816 U31:迈/q
30348 U31:近/a
32490 U31:这/r
9198 U31:这里/r
42804 U31:进/v
3528 U31:进入/v
38502 U31:远/a
25182 U31:退/v
35496 U31:退后/v
39636 U31:速度/n
30726 U31:那个/r
23850 U31:那儿/r
33696 U31:长安街/n
26064 U31:门/n
11916 U31:门口/n
30276 U31:门把手/n
30132 U31:靠/v
6300 U31:顺着/p
17658 U31:饮水机/n
40788 U31:马上/d
44874 U31:黑板/n
39240 U32:0.5/m
32148 U32:1/m
25308 U32:10/m
1782 U32:2/m
36000 U32:201/m
29502 U32:203/m
21762 U32:30/m
20592 U32:390/m
45684 U32:4/m
38106 U32:405/m
8622 U32:5/m
38322 U32:502/m
25506 U32:90/m
33786 U32:940/m
14148 U32:A/ws
28530 U32:A205/ws
9342 U32:A501/ws
14742 U32:A505/ws
15372 U32:B/ws
42444 U32:b205/ws
43992 U32:c400/ws
7002 U32:c404/ws
13374 U32:一/m
27126 U32:一点/m
12222 U32:一直/d
6426 U32:一路/m
19062 U32:丁字路口/n
37458 U32:上/nd
5850 U32:上/v
42156 U32:上去/v
31050 U32:下/v
28854 U32:下来/v
46044 U32:下面/nd
40086 U32:不能/v
33480 U32:东/nd
9558 U32:两/m
12600 U32:个/q
46620 U32:中央/n
3924 U32:之后/nd
16902 U32:书柜/n
23184 U32:了/u
900 U32:五/m
47610 U32:交叉/v
12744 U32:交叉口/n
2556 U32:从/p
39096 U32:以/p
21456 U32:传达室/n
48294 U32:位置/n
24966 U32:体育馆/n
8154 U32:你/r
29790 U32:倒/v
28728 U32:停/v
16452 U32:先/d
17298 U32:再/d
2304 U32:几/m
18684 U32:出/v
11934 U32:出去/v
2916 U32:出发/v
48672 U32:出口/v
45108 U32:出门/v
33912 U32:到/p
3132 U32:到/v
6822 U32:到达/v
432 U32:前/nd
32832 U32:前方/n
22158 U32:前方/nd
2160 U32:前进/v
28998 U32:前面/nd
37818 U32:十/m
23616 U32:十字路口/i
41634 U32:十字路口处/n
6642 U32:南/nd
7992 U32:即可/v
19566 U32:厕所/n
40374 U32:厘米/q
10188 U32:原地/n
20934 U32:原处/n
43740 U32:原点/n
28350 U32:去/v
4788 U32:右/nd
15660 U32:右拐/n
23904 U32:右拐/v
11052 U32:右转/v
7416 U32:后/nd
9432 U32:后退/v
4086 U32:向/p
1584 U32:向前/v
36936 U32:向着/p
5994 U32:四/m
20808 U32:回到/v
33264 U32:回头/v
10044 U32:在/p
49500 U32:地/u
36414 U32:地方/n
26568 U32:墙角/n
47430 U32:墙边/n
17028 U32:处/n
35838 U32:处/v
26082 U32:多/d
21222 U32:大厅/n
34614 U32:大街/n
11250 U32:大路/n
3726 U32:大门/n
17748 U32:大门口/n
13158 U32:天桥/n
42030 U32:它/r
13554 U32:小/a
4626 U32:尽头/nd
10332 U32:左/nd
2070 U32:左转/v
36594 U32:左边/nd
5310 U32:并/c
31518 U32:床/n
26982 U32:底端/n
25632 U32:度/q
14274 U32:座/n
43218 U32:座位/n
31932 U32:弯/n
198 U32:往/p
29322 U32:往/v
35154 U32:快/a
36180 U32:快点/d
28224 U32:快点/v
28080 U32:快速/d
27450 U32:慢/a
27216 U32:慢慢/d
39006 U32:慢行/v
7236 U32:房间/n
42894 U32:扇/q
22662 U32:打印机/n
41760 U32:找到/v
41238 U32:抵达/v
17208 U32:拐/v
35676 U32:拐弯/v
44406 U32:接/v
24642 U32:收费站/n
25740 U32:斜/a
15048 U32:方向/n
7866 U32:旁边/nd
34488 U32:朝着/p
18126 U32:机电/b
24030 U32:机电楼/n
3546 U32:机电院/n
32508 U32:条/q
48114 U32:板凳/n
11430 U32:柜子/n
2754 U32:桌子/n
46962 U32:桥/n
46224 U32:椅子/n
18270 U32:楼/n
6120 U32:楼/q
5562 U32:楼梯/n
5112 U32:楼梯处/n
4374 U32:楼道/n
14400 U32:楼道口/n
20088 U32:正北/nd
2430 U32:步/q
13698 U32:段/q
34956 U32:民权/n
46746 U32:河/n
16380 U32:河边/n
20268 U32:沿/p
4248 U32:沿着/p
34290 U32:湖北/n
38610 U32:点/n
27594 U32:点/q
8856 U32:然后/c
5706 U32:爬/v
16200 U32:玉带河/n
24246 U32:玉带路/n
9756 U32:现在/nm
40950 U32:现在/nt
43614 U32:由/p
37152 U32:电梯/n
47088 U32:电脑/n
10836 U32:的/u
14598 U32:直到/v
7596 U32:直接/a
22014 U32:直行/n
34758 U32:直行/v
26442 U32:着/u
26730 U32:移动/v
21006 U32:稍/d
27774 U32:稍微/d
49158 U32:空调/n
19278 U32:穿过/v
45918 U32:窗户/n
34038 U32:第3/m
12438 U32:第一/m
30888 U32:第二/m
1134 U32:米/q
39384 U32:米每秒/q
21618 U32:约/d
15246 U32:经过/v
26298 U32:绕/v
12960 U32:继续/v
39960 U32:能/v
20466 U32:行驶/v
24426 U32:西/nd
38880 U32:请/v
33102 U32:调头/v
666 U32:走/v
16074 U32:走向/v
31338 U32:走廊/n
17442 U32:走过/v
30420 U32:走近/v
8370 U32:赶紧/d
19890 U32:起点/n
49842 U32:跑/v
22788 U32:跟前/nd
22464 U32:路/n
29196 U32:路口/n
4914 U32:转/v
32742 U32:转头/v
18864 U32:转弯/v
10476 U32:转身/v
50022 U32:边/nd
16704 U32:边沿/nd
40464 U32:迅速/a
44172 U32:迅速/d
21312 U32:过/v
47970 U32:过去/nt
36864 U32:过去/v
39762 U32:迈/q
30294 U32:近/a
32364 U32:这/r
9126 U32:这里/r
42696 U32:进/v
3384 U32:进入/v
38448 U32:远/a
25128 U32:退/v
35442 U32:退后/v
39582 U32:速度/n
30654 U32:那个/r
23778 U32:那儿/r
33606 U32:长安街/n
25956 U32:门/n
3294 U32:门口/n
30150 U32:门把手/n
35082 U32:门桥/n
29988 U32:靠/v
6192 U32:顺着/p
17568 U32:饮水机/n
40734 U32:马上/d
44802 U32:黑板/n
39114 U33:0.5/m
32076 U33:1/m
25236 U33:10/m
1710 U33:2/m
35928 U33:201/m
29412 U33:203/m
21636 U33:30/m
20484 U33:390/m
45612 U33:4/m
38034 U33:405/m
8550 U33:5/m
38250 U33:502/m
25416 U33:90/m
33714 U33:940/m
14058 U33:A/ws
28458 U33:A205/ws
9252 U33:A501/ws
14616 U33:A505/ws
15264 U33:B/ws
1152 U33:_B+1/_B+1
42354 U33:b205/ws
43920 U33:c400/ws
6840 U33:c404/ws
13266 U33:一/m
27036 U33:一点/m
12114 U33:一直/d
6318 U33:一路/m
18972 U33:丁字路口/n
37422 U33:上/nd
5724 U33:上/v
42048 U33:上去/v
28746 U33:下来/v
45936 U33:下面/nd
39978 U33:不能/v
33390 U33:东/nd
9450 U33:两/m
12456 U33:个/q
46548 U33:中央/n
3744 U33:之后/nd
16812 U33:书柜/n
23094 U33:了/u
684 U33:五/m
47538 U33:交叉/v
12618 U33:交叉口/n
11718 U33:从/p
21330 U33:传达室/n
48222 U33:位置/n
24894 U33:体育馆/n
9774 U33:你/r
29718 U33:倒/v
28638 U33:停/v
19080 U33:再/d
2178 U33:几/m
18612 U33:出/v
11826 U33:出去/v
2772 U33:出发/v
48600 U33:出口/v
45036 U33:出门/v
45540 U33:到/p
3024 U33:到/v
6660 U33:到达/v
216 U33:前/nd
32778 U33:前方/n
22086 U33:前方/nd
24768 U33:前进/v
28908 U33:前面/nd
37746 U33:十/m
23472 U33:十字路口/i
41562 U33:十字路口处/n
6552 U33:南/nd
7884 U33:即可/v
19494 U33:厕所/n
40302 U33:厘米/q
10062 U33:原地/n
20826 U33:原处/n
43632 U33:原点/n
28242 U33:去/v
4644 U33:右/nd
15570 U33:右拐/n
23868 U33:右拐/v
12024 U33:右转/v
7254 U33:后/nd
40482 U33:后退/v
3942 U33:向/p
15750 U33:向前/v
5868 U33:四/m
20718 U33:回到/v
33192 U33:回头/v
9936 U33:在/p
49428 U33:地/u
36342 U33:地方/n
26460 U33:墙角/n
47358 U33:墙边/n
16920 U33:处/n
35820 U33:处/v
25974 U33:多/d
21150 U33:大厅/n
34506 U33:大街/n
11178 U33:大路/n
3564 U33:大门/n
17676 U33:大门口/n
13086 U33:天桥/n
41940 U33:它/r
13392 U33:小/a
4500 U33:尽头/nd
10206 U33:左/nd
1908 U33:左转/v
36522 U33:左边/nd
5130 U33:并/c
31446 U33:床/n
26910 U33:底端/n
25524 U33:度/q
14166 U33:座/n
43146 U33:座位/n
31860 U33:弯/n
8388 U33:往/p
29286 U33:往/v
36072 U33:快/a
27792 U33:慢/a
38898 U33:慢行/v
7146 U33:房间/n
42822 U33:扇/q
22572 U33:打印机/n
42282 U33:抵达/v
17136 U33:拐/v
35604 U33:拐弯/v
44334 U33:接/v
24552 U33:收费站/n
14976 U33:方向/n
7776 U33:旁边/nd
18000 U33:机电/b
23958 U33:机电楼/n
3402 U33:机电院/n
32382 U33:条/q
47988 U33:板凳/n
11358 U33:柜子/n
2574 U33:桌子/n
46890 U33:桥/n
46152 U33:椅子/n
18144 U33:楼/n
6012 U33:楼/q
5472 U33:楼梯/n
4986 U33:楼梯处/n
4266 U33:楼道/n
14328 U33:楼道口/n
20016 U33:正北/nd
2322 U33:步/q
13572 U33:段/q
34866 U33:民权/n
46674 U33:河/n
16308 U33:河边/n
45270 U33:沿/p
5328 U33:沿着/p
34218 U33:湖北/n
38556 U33:点/n
27468 U33:点/q
8748 U33:然后/c
5580 U33:爬/v
16092 U33:玉带河/n
24174 U33:玉带路/n
37080 U33:电梯/n
47016 U33:电脑/n
10710 U33:的/u
14508 U33:直到/v
7434 U33:直接/a
21942 U33:直行/n
34704 U33:直行/v
26316 U33:着/u
40194 U33:移动/v
49086 U33:空调/n
25758 U33:穿过/v
45828 U33:窗户/n
33930 U33:第3/m
12348 U33:第一/m
30798 U33:第二/m
918 U33:米/q
39258 U33:米每秒/q
21474 U33:约/d
15156 U33:经过/v
12870 U33:继续/v
39870 U33:能/v
20376 U33:行驶/v
24354 U33:西/nd
33030 U33:调头/v
450 U33:走/v
15984 U33:走向/v
31266 U33:走廊/n
17316 U33:走过/v
8172 U33:赶紧/d
19800 U33:起点/n
22680 U33:跟前/nd
22392 U33:路/n
29124 U33:路口/n
4806 U33:转/v
32958 U33:转头/v
18792 U33:转弯/v
10350 U33:转身/v
49950 U33:边/nd
16632 U33:边沿/nd
44118 U33:迅速/d
47862 U33:过去/nt
36792 U33:过去/v
39690 U33:迈/q
30168 U33:近/a
32256 U33:这/r
9018 U33:这里/r
42606 U33:进/v
13986 U33:进入/v
38376 U33:远/a
25056 U33:退/v
39510 U33:速度/n
30546 U33:那个/r
23634 U33:那儿/r
33498 U33:长安街/n
25866 U33:门/n
3150 U33:门口/n
30006 U33:门把手/n
34974 U33:门桥/n
29898 U33:靠/v
12978 U33:顺着/p
17460 U33:饮水机/n
40608 U33:马上/d
44730 U33:黑板/n

-0.1622150290063543
0.0526044473359635
-0.2154333033076752
0.1801069512060456
0.3055282553478293
-0.1562721971509477
-0.1735185259175185
0.2645618587808995
-0.1947107745873208
-0.2584480445884836
-0.2306321126100759
0.0861205719080171
-0.1520791583203503
0.2933514238706378
-0.2632133312612338
0.3029438806289667
0.4980809975117517
-0.1767759098401349
-0.0206848199323523
-0.0287373018485798
-0.0405153805231293
-0.0603045299388735
-0.0404393153424845
-0.0247762865330507
-0.0220467828163007
-0.1859528455263309
-0.0254911871567562
-0.0298975992410009
-0.0869072623934997
-0.0677819413818212
-0.0229695585741261
-0.0637122733497597
-0.0508090729032032
0.8288819452540677
-0.0379337253679971
-0.0199220624248021
-0.0075285687967343
-0.0091451802773980
-0.0127802273927057
-0.0145866017893231
-0.0112173641478933
-0.0133851747135860
-0.0094096466602274
-0.0150575878020797
-0.0080726666263968
-0.0107050642177854
-0.0268948097135702
-0.0091656427199146
-0.0101198195379370
-0.0223794067361739
-0.0302538945338876
0.2318791367005513
-0.0130210140837358
-0.0081564669512063
-0.0016317583824519
-0.0026114091260555
-0.0015665841389327
-0.0056692779806180
-0.0046451403476586
-0.0015501915399773
-0.0017993221237880
-0.0051637859679539
-0.0014558441338422
-0.0015154689912683
-0.0016766742609081
-0.0026967368379476
-0.0015804907620403
-0.0045471307245813
-0.0025189811798336
0.0496516326422181
-0.0074802698396521
-0.0015425663047079
-0.0057190676920172
-0.0070951559685989
-0.0109246722659934
-0.0123658341477968
-0.0088944155415577
-0.0099869781519882
-0.0073608844564811
-0.0117827779749036
-0.0061953406410089
-0.0084422413935477
-0.0235459995103696
-0.0072537503862198
-0.0080950087780094
-0.0177538847278732
-0.0245931964489302
0.1866084047109621
-0.0103191033289926
-0.0062800932966654
-0.1622150290063543
0.0526044473359635
-0.2154333033076752
0.1801069512060456
0.3055282553478293
-0.1562721971509477
-0.1735185259175185
0.2645618587808995
-0.1947107745873208
-0.2584480445884836
-0.2306321126100759
0.0861205719080171
-0.1520791583203503
0.2933514238706378
-0.2632133312612338
0.3029438806289667
0.4980809975117517
-0.1767759098401349
-0.0823854998160912
-0.1077985708749163
-0.1507870546307061
-0.1830660369699561
-0.2077768155239522
-0.0936130631503376
-0.0834408718648673
-0.1796226196991774
-0.0852625742649215
-0.0115799391538671
-0.1508264390179729
-0.1252570632117261
-0.0912231218666413
-0.2757315307046804
-0.1419780984284924
2.2785060075066665
-0.2308712592216088
-0.0772854491068047
-0.1259921849496072
-0.1365571999664982
0.2936347567523771
0.1180101093252929
-0.0620259381102629
-0.1223941996581372
0.0228936051294052
-0.0637914743843437
-0.1367996913452326
-0.1005751120162319
0.1944525870823042
-0.0074724372668713
-0.1134629325103881
-0.2784289285752928
0.2646845644661208
0.4702554269372994
-0.0995515835610279
-0.1168793673488616
-0.0318517723377756
-0.0526746131190813
-0.0351575562790961
-0.0804181926326397
-0.1205864295696951
-0.0291068725478384
-0.0291174278269073
0.0314212700586012
-0.0302006691929574
-0.0634305305339814
-0.0325834244011541
-0.0549395762010051
-0.0291228574485450
-0.1153184120348320
-0.0234876364236833
0.8952231557090885
-0.1697912989090549
-0.0288571563094530
-0.0250092243899875
-0.0338995620476317
-0.0329850496353963
-0.0731239242473929
-0.0458165157443063
-0.0330291375403815
-0.0335994013405792
-0.1002354923291311
-0.0266629271072289
-0.0368768902843904
-0.0579008613328546
-0.0438851940748241
-0.0275427444548181
-0.0624605936027918
-0.0685477272714476
0.7773959882509492
-0.0485512429181416
-0.0272694999296823
-0.1622150290063543
0.0526044473359635
-0.2154333033076752
0.1801069512060456
0.3055282553478293
-0.1562721971509477
-0.1735185259175185
0.2645618587808995
-0.1947107745873208
-0.2584480445884836
-0.2306321126100759
0.0861205719080171
-0.1520791583203503
0.2933514238706378
-0.2632133312612338
0.3029438806289667
0.4980809975117517
-0.1767759098401349
-0.0162286502979418
-0.0196442221146903
-0.0293934390086699
-0.0418857826269322
-0.0332926258843143
-0.0223642518374011
-0.0185431460138526
-0.0372004104377841
-0.0193496748364869
-0.0215029879612837
-0.0403259660082464
-0.0325819468381414
-0.0195666133465344
-0.0554009975894226
-0.0497066888610108
0.5085278973489770
-0.0348534444130592
-0.0166870492732176
-0.0075285687967343
-0.0091451802773980
-0.0127802273927057
-0.0145866017893231
-0.0112173641478933
-0.0133851747135860
-0.0094096466602274
-0.0150575878020797
-0.0080726666263968
-0.0107050642177854
-0.0268948097135702
-0.0091656427199146
-0.0101198195379370
-0.0223794067361739
-0.0302538945338876
0.2318791367005513
-0.0130210140837358
-0.0081564669512063
0.1782335938349242
-0.0229188695956860
-0.1880564870861026
-0.0681395841540751
0.4773821251857683
-0.0327835063844706
-0.0331157610714530
0.0400893454093867
-0.0385307800315366
-0.0279899319477589
-0.0724187231931089
0.2654226984885874
-0.0364390224306205
-0.0554893076380571
-0.2769306283578702
-0.0203904327939856
-0.0489829648964379
-0.0389417633374884
-0.0542566390128351
-0.0092168529052023
-0.0452468884184703
-0.0352948595682281
0.4627960642780432
-0.0109971906389683
-0.0158819155918414
-0.0295207621146867
-0.0133904377306739
-0.0108955241955094
-0.0155909310858092
-0.0520142496283322
-0.0162483214645390
-0.0276754132697421
-0.0795491288931599
-0.0084615019235394
-0.0239513314655363
-0.0146041163709657
-0.0928761813773549
-0.1945011946179499
-0.1058632805952618
0.1614515543996023
0.3679785626221701
-0.0865734838858881
-0.0666922378354629
0.0385420470983270
0.3076506448592540
-0.0632940159672454
-0.0268087300924351
-0.1705917902495988
-0.0753724375965194
0.1066091151265470
0.0654324139154518
-0.1009433836178061
0.0012843618496482
-0.0654319640355108
-0.0507348689507181
-0.0086350160663294
-0.0413248107623794
-0.0304296607463698
0.4245519167723351
-0.0102926731907029
-0.0151626081873197
-0.0286019912163599
-0.0109416191606680
-0.0102326648875384
-0.0138673939990631
-0.0494085285628020
-0.0151761286132806
-0.0253255785657392
-0.0708209646120904
-0.0077847104974046
-0.0219723159978631
-0.0138403827556865
-0.0083007138043413
-0.0016933533437968
-0.0094505198268426
-0.0121387181658814
0.0956618129864102
-0.0019433958946562
-0.0019769065636559
-0.0025670138685565
-0.0062947690337099
-0.0018477518829687
-0.0044236417340669
-0.0064584030621571
-0.0028626425455844
-0.0059397187394256
-0.0207848339896881
-0.0018987908288515
-0.0050091709140272
-0.0020714687882103
0.4639662031544909
-0.1285368795127018
0.5046670308427906
-0.2139611802434834
0.1384076426806490
-0.1133484635923860
-0.1159994680110877
-0.0475887456150753
-0.2176568371864501
-0.1125081380123332
-0.3546597540276419
0.0833156192338751
0.0476407701675196
-0.2571727054611310
0.7234730376732450
-0.1088195470487840
-0.1668296824204359
-0.1243889026211016
-0.0290532074600087
-0.1566603936751274
0.1714980923909182
0.5402242259793495
1.2131929933607482
-0.1253252046484270
-0.1338697035162857
-0.0190030576278827
-0.1682299378705670
-0.1171641580985748
0.3550551888133834
-0.2741002533785045
-0.1244918497898786
-0.4024251655577515
-0.1602660464385138
-0.2510509938185687
-0.1974047010379678
-0.1209258276262787
-0.4190220454431761
0.4036311226204411
-0.1643079443267008
0.3093299743420404
0.6652497200819193
-0.3342974982938463
-0.2229437556271851
-0.6741311865490773
0.0508129964900121
-0.3423995952135556
0.2393097787376522
0.0126049000533043
-0.3269834514462940
0.7245510125889425
0.4242004708564869
-0.1762145891134973
0.1405163070018677
-0.3099062167592801
0.0615453660668186
-0.0284337838716800
0.3128161447203477
-0.1232560727554706
0.5785184816771568
-0.0280090980029190
-0.0338483255304401
-0.0669913040827974
-0.0471137802108759
-0.0309380562718144
-0.0660695975955335
-0.1044132095393981
-0.0436220391550039
-0.0555062262056142
-0.2062908956335158
-0.0337117534524473
-0.0520104947593743
-0.0326653553974652
-0.0864274161419827
-0.0713579342456288
0.2091907431498480
-0.1330740913736600
1.0219743965989883
-0.0373754806585124
-0.0462844762351780
-0.0486969149107954
-0.0772964790350315
-0.0346886813706461
-0.0176838553785482
-0.0984510768225522
-0.0434832428282868
-0.1556809871042935
-0.1704403660461149
-0.0788120403153274
-0.0910167399089782
-0.0403953573732807
0.1810178359169888
-0.0219005066406823
-0.1830234208888018
-0.0670583343016219
0.4840299020826807
-0.0240675104960442
-0.0299703782681842
0.0421171639099367
-0.0369766006279948
-0.0250484574677916
-0.0510625052970029
0.1164310598770470
-0.0343983938281867
-0.0509707456641239
-0.1941462966343242
-0.0192618809027647
-0.0478550528199416
-0.0378558779491851
-0.0542566390128351
-0.0092168529052023
-0.0452468884184703
-0.0352948595682281
0.4627960642780432
-0.0109971906389683
-0.0158819155918414
-0.0295207621146867
-0.0133904377306739
-0.0108955241955094
-0.0155909310858092
-0.0520142496283322
-0.0162483214645390
-0.0276754132697421
-0.0795491288931599
-0.0084615019235394
-0.0239513314655363
-0.0146041163709657
-0.0928761813773549
-0.1945011946179499
-0.1058632805952618
0.1614515543996023
0.3679785626221701
-0.0865734838858881
-0.0666922378354629
0.0385420470983270
0.3076506448592540
-0.0632940159672454
-0.0268087300924351
-0.1705917902495988
-0.0753724375965194
0.1066091151265470
0.0654324139154518
-0.1009433836178061
0.0012843618496482
-0.0654319640355108
-0.0130392783088003
-0.0644980989309424
-0.0141338139842546
-0.1075324614754863
-0.0457688978903142
0.1334379813398976
-0.0187520218355608
0.4057079344525481
-0.0269785461859729
-0.0165747820416520
-0.0414542768820183
-0.2792450872254282
-0.0181174869863156
0.2255945896591731
-0.0291293528169249
-0.0158216262312304
-0.0576221432163564
-0.0160726314403509
-0.0238104580300583
0.6753086409872571
-0.0376227398249302
-0.0396382037254833
-0.1037701220767182
-0.0337249110359195
-0.0283126423294788
0.6897585307994348
-0.0357218647198328
-0.0597118211009319
-0.0536625514019653
-0.4668658253756687
-0.0265869013158838
-0.2468931034987406
-0.0484395589864138
-0.0424745367571788
-0.0897091444684934
-0.0281227871390003
-0.0003742171668337
-0.0018667972869661
-0.0003073563422800
-0.0002056168398415
-0.0005230458486274
-0.0005193245566930
-0.0003536881543737
0.0136815587186740
-0.0003665986494255
-0.0006718209433677
-0.0004388125293044
-0.0043675633727993
-0.0004468396351103
-0.0018427331888285
-0.0002678439918891
-0.0004276156239489
-0.0003157914880022
-0.0003858931003791
-0.0028140403530346
-0.0419520356006575
-0.0026009017255996
-0.0024087627065309
-0.0075496094506733
-0.0076811757008966
-0.0041405804507555
0.3004799862019619
-0.0037604405780688
-0.0049269013934546
-0.0070171298620783
-0.1527588317761883
-0.0033665541034811
-0.0442330654072118
-0.0053249400244312
-0.0030470632398397
-0.0039001937084639
-0.0029977601205932
-0.0003742171668337
-0.0018667972869661
-0.0003073563422800
-0.0002056168398415
-0.0005230458486274
-0.0005193245566930
-0.0003536881543737
0.0136815587186740
-0.0003665986494255
-0.0006718209433677
-0.0004388125293044
-0.0043675633727993
-0.0004468396351103
-0.0018427331888285
-0.0002678439918891
-0.0004276156239489
-0.0003157914880022
-0.0003858931003791
-0.0916698573681822
-0.1899699601605999
-0.3057013614551164
-0.1232229738960416
-0.0723307725320855
0.0064706637986493
-0.1201056056997606
0.1516587269282284
0.0140416761927007
-0.1203932396335192
0.1409885387759314
0.5767175481658140
-0.0922757940241590
0.4816637226007949
-0.1080718869935227
0.1186559582356986
-0.1728527761413234
-0.0936026067934743
-0.2881402816970060
0.3603089062742250
-0.1229265406288345
-0.6338637839672714
-0.1670478290630092
-0.4193230706531851
-0.3235756551140511
2.4262989373484918
-0.3397431655672952
0.2826138766188601
-0.4025250342751955
1.2585318620867543
-0.3242686973922408
0.1669529111309399
-0.4200206388771670
-0.3770276026425256
-0.3911241250541748
-0.2851200685272239
-0.1259464274285623
-0.1680971382431784
-0.2701654662192515
-0.1520341928075548
0.1657425990511089
-0.1006315155912338
-0.0819065089489761
0.6923271261662937
-0.0929762411584799
0.1825739666934148
-0.0370898076832320
-0.0642766079824406
-0.1013192293726816
0.2424179585967820
-0.0476082363262292
-0.1771037707848806
0.2267496658685688
-0.0906561738294693
-0.0381279194273242
-0.1364047994550391
-0.1885747698031535
-0.0366633186060528
-0.0935226700740614
-0.0648799166554682
-0.0506279076445665
0.2916380584017898
-0.0441567146816350
-0.0705084787873520
0.1788628786686684
0.4554785336541440
-0.0417124306724824
0.0431995289925687
-0.0638336033723868
-0.0497348199150096
-0.0490272265476788
-0.0414044240749643
-0.0407123210047099
-0.1041869310777367
-0.0404493338476904
-0.0361573641765319
-0.0953470843515502
-0.0288710111383437
-0.0276626559580923
0.6972051026998281
-0.0279270981164455
0.1197022666475393
-0.0386954515595097
0.0539950247357063
-0.0340612345691618
-0.2099645445618119
-0.0330428422589169
-0.0473079864320050
-0.0768271153248910
-0.0296894197056854
-0.0130392783088003
-0.0644980989309424
-0.0141338139842546
-0.1075324614754863
-0.0457688978903142
0.1334379813398976
-0.0187520218355608
0.4057079344525481
-0.0269785461859729
-0.0165747820416520
-0.0414542768820183
-0.2792450872254282
-0.0181174869863156
0.2255945896591731
-0.0291293528169249
-0.0158216262312304
-0.0576221432163564
-0.0160726314403509
-0.0238104580300583
0.6753086409872571
-0.0376227398249302
-0.0396382037254833
-0.1037701220767182
-0.0337249110359195
-0.0283126423294788
0.6897585307994348
-0.0357218647198328
-0.0597118211009319
-0.0536625514019653
-0.4668658253756687
-0.0265869013158838
-0.2468931034987406
-0.0484395589864138
-0.0424745367571788
-0.0897091444684934
-0.0281227871390003
-0.0003742171668337
-0.0018667972869661
-0.0003073563422800
-0.0002056168398415
-0.0005230458486274
-0.0005193245566930
-0.0003536881543737
0.0136815587186740
-0.0003665986494255
-0.0006718209433677
-0.0004388125293044
-0.0043675633727993
-0.0004468396351103
-0.0018427331888285
-0.0002678439918891
-0.0004276156239489
-0.0003157914880022
-0.0003858931003791
-0.0332878176435923
-0.0456462104989588
-0.2183473313213970
-0.0362302832762101
-0.0517750214111336
0.1179991018898524
-0.0388694049912648
-0.1895049846535159
-0.0353171296286069
0.6201914053075331
-0.0587602786393117
-0.1009246315466823
0.1185666995531609
0.1365619498993963
-0.2103949830160193
-0.0600922215189736
0.1212052356904627
-0.0353740941947379
-0.0008783792551477
-0.0010761303036431
-0.0090822239777907
-0.0009237129765562
-0.0012142208350871
-0.0060170768384960
-0.0008077671630026
-0.0008493217912221
-0.0008688164920820
-0.0034556540204651
-0.0008302493048246
-0.0005325158364918
0.0383038224717357
-0.0036671354092042
-0.0041222336069298
-0.0010775477159145
-0.0019396123163396
-0.0009612246285379
-0.0122768995824456
-0.0156681674540544
-0.1044604430682062
-0.0139141331472031
-0.0168491565560443
-0.0606415207737677
-0.0114752452235905
-0.0167170553125304
-0.0130438591320769
-0.0289912399928589
-0.0404613241869715
-0.0117561099880852
0.4901569842676554
-0.0431283519565798
-0.0457686426892426
-0.0178282139029055
-0.0239504602091762
-0.0132261610919403
-0.0008783792551477
-0.0010761303036431
-0.0090822239777907
-0.0009237129765562
-0.0012142208350871
-0.0060170768384960
-0.0008077671630026
-0.0008493217912221
-0.0008688164920820
-0.0034556540204651
-0.0008302493048246
-0.0005325158364918
0.0383038224717357
-0.0036671354092042
-0.0041222336069298
-0.0010775477159145
-0.0019396123163396
-0.0009612246285379
-0.0008783792551477
-0.0010761303036431
-0.0090822239777907
-0.0009237129765562
-0.0012142208350871
-0.0060170768384960
-0.0008077671630026
-0.0008493217912221
-0.0008688164920820
-0.0034556540204651
-0.0008302493048246
-0.0005325158364918
0.0383038224717357
-0.0036671354092042
-0.0041222336069298
-0.0010775477159145
-0.0019396123163396
-0.0009612246285379
-0.3009610165423186
-0.2259241674052143
0.4102139615503415
0.0365665166982767
0.0317362287065560
0.0003920993763546
-0.3395075411487354
-0.1020132515165025
-0.3109222779988520
0.4834176493819055
-0.3050278192238521
-0.4129395299560353
0.2357289540912978
0.4865207410209673
0.7988437249965914
-0.1300092710431048
-0.0850431605435769
-0.2710718404440156
-0.0991936360389157
-0.1087098115039618
0.0339962980773364
-0.2150645875975558
-0.1477561968323937
0.5294307144462880
-0.1156843773837476
-0.1692922606271781
-0.1077886787179138
-0.1281403699434488
0.1362664780386062
-0.1991832659261534
0.7356795144542524
0.3589577129455421
-0.1762518570710110
-0.1159898954001448
-0.1248432651392256
-0.0864325157803867
-0.0722702413168082
-0.0588501904122471
0.1334889979837922
-0.0615045498982099
-0.0842291652117089
-0.1583851417934994
-0.0527194491530767
-0.0860017576245570
-0.0486193492953608
-0.0915010267884364
0.0417865777727711
-0.0112343077727139
0.8633383829874212
-0.1801686641848721
-0.2302182928627173
-0.0626602657164280
0.2156417647844852
-0.0558933214978401
-0.0370205322749328
-0.0421929109594935
0.0593967670621000
-0.0482841958739391
-0.0522289946176071
0.5136195593824889
-0.0527835284800919
-0.0581731106532013
-0.0357665994230294
-0.0830874880410446
-0.0869170980156589
-0.0597284824772873
0.4931278098132419
-0.2966022068433105
-0.0658374341968826
-0.0479113410150950
-0.0604399310563193
-0.0391702823299537
-0.0510759755430975
-0.0404730074074398
-0.0354395773437937
-0.0414091601388459
-0.0512822021650143
-0.1374351247340501
-0.0324555254121394
-0.0423932236872385
-0.0350401968472412
-0.0587334968061501
-0.0001049548140549
-0.0371622588298185
0.9424756586295997
-0.0965148413303508
-0.1450712363167544
-0.0425946888740186
-0.0583208259404228
-0.0369693624391928
-0.0332878176435923
-0.0456462104989588
-0.2183473313213970
-0.0362302832762101
-0.0517750214111336
0.1179991018898524
-0.0388694049912648
-0.1895049846535159
-0.0353171296286069
0.6201914053075331
-0.0587602786393117
-0.1009246315466823
0.1185666995531609
0.1365619498993963
-0.2103949830160193
-0.0600922215189736
0.1212052356904627
-0.0353740941947379
-0.0008783792551477
-0.0010761303036431
-0.0090822239777907
-0.0009237129765562
-0.0012142208350871
-0.0060170768384960
-0.0008077671630026
-0.0008493217912221
-0.0008688164920820
-0.0034556540204651
-0.0008302493048246
-0.0005325158364918
0.0383038224717357
-0.0036671354092042
-0.0041222336069298
-0.0010775477159145
-0.0019396123163396
-0.0009612246285379
-0.0122768995824456
-0.0156681674540544
-0.1044604430682062
-0.0139141331472031
-0.0168491565560443
-0.0606415207737677
-0.0114752452235905
-0.0167170553125304
-0.0130438591320769
-0.0289912399928589
-0.0404613241869715
-0.0117561099880852
0.4901569842676554
-0.0431283519565798
-0.0457686426892426
-0.0178282139029055
-0.0239504602091762
-0.0132261610919403
-0.0010960145130163
-0.0010202449287924
-0.0005360155053415
-0.0009989767524466
-0.0010386678882342
-0.0036965506716349
0.0419357136865450
-0.0020376704647702
-0.0010984912744740
-0.0014542436654796
-0.0104162573114401
-0.0051610313365669
-0.0011143246206853
-0.0031180320045869
-0.0032002067955515
-0.0010148294094140
-0.0010776101286033
-0.0038565464155051
-0.0185426967942627
-0.0204040113959448
-0.0229056906717360
-0.0315602177883561
-0.0324722905992997
-0.0310235715763511
0.6236110566455438
-0.0219715648715948
-0.0205500205167856
-0.0209411117489409
-0.1331215678158079
-0.0428801832916855
-0.0219418794678833
-0.0357436588440204
-0.0449493661198893
-0.0311193683044775
-0.0223913104978741
-0.0710925463406607
-0.1643136641206975
-0.2014867486814554
-0.3300465718900861
-0.1900836031053585
-0.2003743349103814
0.3407303670984681
0.2023740931827877
0.1005172851509661
-0.1656503355417729
-0.0618682933026462
0.3596229351375044
0.5286774508931174
-0.2329029036200164
0.1970946889822170
0.3234456225380504
-0.1779302478204870
-0.1498065987058925
-0.1779991412842618
-0.0010960145130163
-0.0010202449287924
-0.0005360155053415
-0.0009989767524466
-0.0010386678882342
-0.0036965506716349
0.0419357136865450
-0.0020376704647702
-0.0010984912744740
-0.0014542436654796
-0.0104162573114401
-0.0051610313365669
-0.0011143246206853
-0.0031180320045869
-0.0032002067955515
-0.0010148294094140
-0.0010776101286033
-0.0038565464155051
-0.0053194784339934
-0.0049617645797773
-0.0026212479368392
-0.0048564544243336
-0.0050403538278320
-0.0177450767530560
0.2041508035968569
-0.0098686329865150
-0.0053292763389002
-0.0070369081592738
-0.0523756724066531
-0.0248167758727448
-0.0054027666681466
-0.0149505596808779
-0.0153332226132042
-0.0049197452292039
-0.0052173001508079
-0.0183555675347248
-0.0775432049201130
-0.0521723529125817
-0.1473234859469213
0.0126899600959318
0.0499812372336472
-0.1223658470200685
0.7529573437895899
-0.0290298294407565
-0.0769074494027034
-0.0792906586499952
0.2447229103909359
-0.1895424357451045
-0.0787508281861370
-0.1817751176772685
-0.1697559649825295
-0.0064360562889148
-0.1097343023309270
0.2602760819939080
-0.0863583752137904
-0.0654254472815229
-0.2345239180712026
-0.1232405591588133
-0.0791755479419851
-0.1240914985071367
0.7187395273799484
-0.1407060313720304
-0.0711346153739095
-0.0868182879449291
0.2467541830907171
-0.1480477431213123
0.1625402918250018
0.0987659185480444
-0.1230817893134822
-0.1103638287229950
-0.0895315493151126
0.2556992704945046
-0.1643136641206975
-0.2014867486814554
-0.3300465718900861
-0.1900836031053585
-0.2003743349103814
0.3407303670984681
0.2023740931827877
0.1005172851509661
-0.1656503355417729
-0.0618682933026462
0.3596229351375044
0.5286774508931174
-0.2329029036200164
0.1970946889822170
0.3234456225380504
-0.1779302478204870
-0.1498065987058925
-0.1779991412842618
-0.0628253049598780
-0.0468196593836965
-0.1004869707604856
-0.0636615159301574
-0.0623723694990062
-0.0930045167963626
0.7988858280432971
-0.0819342563875071
-0.0497613803971828
-0.0602216692407122
0.0660494817465205
-0.1173157272026624
-0.0613896246060069
-0.1124683767302125
-0.0937251572697798
-0.0705205740018855
-0.0700424870452081
0.2816142804209045
-0.0210133020734483
-0.0196548600092885
-0.0098907623853750
-0.0190920901092543
-0.0199626027185238
-0.0802992169184163
0.5148362664468315
-0.0445062741563140
-0.0210154424715273
-0.0284005397272741
-0.0690191408889155
-0.1045479204702662
-0.0212432630513179
0.1164915695669496
-0.0643169473923838
-0.0202451192274276
-0.0207545923593146
-0.0673657620547483
-0.0010960145130163
-0.0010202449287924
-0.0005360155053415
-0.0009989767524466
-0.0010386678882342
-0.0036965506716349
0.0419357136865450
-0.0020376704647702
-0.0010984912744740
-0.0014542436654796
-0.0104162573114401
-0.0051610313365669
-0.0011143246206853
-0.0031180320045869
-0.0032002067955515
-0.0010148294094140
-0.0010776101286033
-0.0038565464155051
-0.0185426967942627
-0.0204040113959448
-0.0229056906717360
-0.0315602177883561
-0.0324722905992997
-0.0310235715763511
0.6236110566455438
-0.0219715648715948
-0.0205500205167856
-0.0209411117489409
-0.1331215678158079
-0.0428801832916855
-0.0219418794678833
-0.0357436588440204
-0.0449493661198893
-0.0311193683044775
-0.0223913104978741
-0.0710925463406607
-0.1643136641206975
-0.2014867486814554
-0.3300465718900861
-0.1900836031053585
-0.2003743349103814
0.3407303670984681
0.2023740931827877
0.1005172851509661
-0.1656503355417729
-0.0618682933026462
0.3596229351375044
0.5286774508931174
-0.2329029036200164
0.1970946889822170
0.3234456225380504
-0.1779302478204870
-0.1498065987058925
-0.1779991412842618
-0.0624785295065649
-0.0929761192013399
-0.1010205233674793
-0.1030848193520025
-0.1318350660584407
-0.0659967884214894
-0.0418971809610798
-0.2258893162763780
1.3029263959984454
-0.0298823620949759
-0.2065386343812433
-0.1216209843019465
-0.0492509135855511
-0.2632530266314013
-0.1349868604176162
-0.1395365864889256
-0.0393583111301725
-0.0355362098249206
-0.0271041559497627
-0.2045926246859459
-0.1559282179951654
-0.0870448460840519
-0.1270131352510672
-0.0669833449913938
-0.0451856902281767
-0.7988280948995510
-0.0391510515415224
2.1748983037325589
-0.0923849390697396
-0.2298170486774017
-0.1172499150459180
-0.3224500314053465
-0.1199736004080857
-0.1995826227771792
-0.0680097662953668
-0.0249625805854620
-0.0573535471754606
-0.1266802928038583
-0.3351531977642448
-0.3886190068037987
-0.3451794971684200
-0.1001681231800394
-0.1818468155274197
-0.3166574750677827
-0.1662399352845425
-0.0712839462650380
3.5146610067138577
-0.2949824826219772
-0.1326604217121394
-0.3176218558229351
-0.2744820708378016
-0.1648567159141254
-0.0756421825126723
-0.0692759000663335
-0.0766512744793661
0.0028552603040001
-0.1812450544697420
-0.0141878978162672
0.2719233753474347
-0.1041339356864080
-0.1105064035949855
0.5839153459141258
-0.1174882256355521
-0.1247950476859055
-0.2047471241255042
0.5187066604015190
-0.1422887936249598
0.2267379061783158
-0.2308734775272474
0.6075630450758689
-0.1968956063813032
-0.0696348427731111
-0.0694890568919263
0.0442626414687392
0.0529691872777902
-0.2622929450097166
-0.0634135482415640
0.0700277010577401
-0.0980527604269152
0.5391676742028357
-0.1595614892340340
-0.1936929846723673
-0.2601186283928137
0.8925766927894693
0.2037088937689252
0.2093014148994973
-0.1859727691586000
-0.2104582456105309
-0.1747664653803731
-0.0770707556608023
-0.0141535327923637
-0.0832791777179464
-0.0908773472403429
0.1524989938355002
-0.1039705402596348
-0.0503119153957542
-0.1112535846219095
-0.1388340862800433
-0.0326979851261443
-0.0231056131108346
-0.0858647324288483
-0.0874918510525845
-0.0406256396856231
-0.1400267877378990
-0.0806095708981222
-0.1145264768365904
-0.0330046110583686
-0.0212411568531488
-0.0431251663260109
-0.0949271038810917
-0.1457923297186167
0.5932259676180609
-0.0783348064758429
-0.0638619296876746
-0.0848820433132083
-0.2426881929988191
-0.0784034063188863
-0.0541534239676172
-0.2110544965269031
0.1603840386898675
-0.0635386685816712
-0.0610664523859717
-0.1225319096646762
-0.1383623866354561
0.1811400067222412
-0.0423214549364325
-0.1714095037720272
-0.0082208861020131
1.1772014639954382
-0.3175767876947860
-0.0183188995305833
0.3472663248420211
-0.1872237342919140
0.0399874118522904
-0.1928401029832435
-0.6978035439493610
-0.5503293669162458
-0.4569488874183691
0.5670686054270656
0.2848544495358513
1.2208637078931113
0.0072527630346599
-0.0450918894597711
-0.1407031165932151
-0.0209268489673632
-0.0634714988782647
-0.0927562358484312
-0.0981888933119325
-0.1389759141254678
-0.0485330096211551
-0.0403125472117151
0.3208905997678396
0.5533869741552641
-0.0357229461101688
-0.1903714388964457
0.0274677229202377
-0.0492791543426764
-0.2163212232223530
-0.1411656149497050
-0.1255095487205582
-0.0412289001724033
-0.0208583471818901
-0.0604996600120211
-0.0948840058960971
0.8499968115885251
-0.1261099253073102
0.0816070260751180
-0.1500010383401953
-0.1072970490859170
-0.2501096107401519
-0.0763917303900566
-0.1259726316519539
-0.2608150134860715
-0.1971816131098283
-0.2321501806357110
-0.2497467228083837
0.6377059503930851
-0.1547551113348598
-0.0822292045017099
-0.0506101214239585
-0.1215876451973866
-0.0187228399227763
0.0064477609584722
0.4781292879413565
-0.0605993259694072
-0.2108977783055250
-0.2117159790587161
0.0190032812138850
-0.3213054816080797
-0.1759097366457673
2.0687641110838513
0.0698252438089965
-0.1736317910515371
0.0198552932872599
-0.4923202295709409
0.1659955872456410
-0.1555963384697733
-0.1142033939645354
-0.0610495062776566
-0.1601219867545434
-0.3084807289541932
0.7469388483502422
-0.2182125934807742
-0.0171927602216460
-0.0788177428543761
0.1799203147663871
-0.1058998685840556
-0.3433486674057057
-0.2213545869813373
-0.3855434674570787
0.2741995869406810
0.6675147533854703
-0.2910537344841811
0.0625354786084211
-0.1102908215665831
-0.0660031009078664
-0.0630464966606265
-0.1031702032025722
-0.1776800078217882
-0.1470524928332596
-0.1451246917409324
-0.1246605341439395
1.7480224153337984
-0.1808005696551619
-0.0770995696568464
-0.0641030903166381
-0.3010330543736999
-0.1850847670289544
-0.0846914904471924
-0.2420572435069456
-0.1855001575449136
-0.1607724253596269
-0.0849698787912297
0.4446973815650029
-0.1077624709051991
0.1431352179124332
-0.3641970008302807
-0.3468654356353023
0.2669797704767457
0.7785432636518868
-0.1914498648581961
0.5140481068352140
-0.2188533413685988
-0.2517111970879068
-0.4280818640224840
-0.0367390810830823
0.0415024806857573
0.9576256076107099
0.2644495746915431
0.7666602072718328
0.6696812322678994
-0.1047547554881105
-0.0929098687131413
0.3822017990008758
-0.2879275284627571
0.6937797999550732
0.3305727095106008
-0.1582639070708228
-0.1854104819084511
0.2943716002027434
-0.3057541882661373
-0.1504260000638964
-0.5973809837114606
-0.0288755520174952
-0.2514526591040097
0.5342229420841143
-0.2663831807693770
0.1625896853414829
-0.1731934422013900
-0.1167090727260201
0.5708081375542172
-0.2007483653354597
0.4205973553348178
-0.2761316029639122
0.4523750442310173
-0.1501638981928247
-0.1449165286148439
-0.1044528324293915
-0.2356874891176524
-0.1345337806648390
-0.3516590029206441
0.4425114317006212
0.1977834093375066
-0.3743467586505824
0.9823223638166652
-0.2260810766645023
-0.1958477237238564
-0.1271199450902089
-0.0480017942874133
-0.0655346865813313
-0.1955814597728885
-0.1519404348194780
-0.1272493187169221
-0.4488615625796512
-0.1050430317399334
0.5902484896628882
-0.0639418757548068
-0.1262645548351031
-0.1389496922181298
0.0151700989630975
-0.1198186640670150
1.1332708903215600
-0.1486544449630425
0.0290466430823484
-0.1571972832824204
-0.0460763098040538
-0.0175735507573460
-0.0605796858988203
-0.0892286753062749
-0.0774144549589045
-0.0940086220947031
-0.0381798147243694
-0.0366121163244582
-0.1293092118319617
-0.0578140149551915
-0.0250528565861398
-0.1209564858235823
-0.0960598593987472
-0.0425753057611177
0.4094605601054954
-0.0611233507208823
-0.1033676041612528
-0.0407654016726824
-0.0193687693230433
-0.0098927307342784
0.0137152487672619
-0.0133450151109252
-0.0337841090308853
0.8521185559263211
-0.0149805422022257
-0.0142544955994348
-0.2291698166898263
-0.0271166437860924
-0.0151543478967374
-0.0217847152692346
-0.1513859224033480
-0.0114707522376556
-0.1668749410452817
-0.0422050627583725
-0.0262300554978571
-0.0754875787204061
-0.0126970757110212
-0.0019276242462436
0.0947371716648686
-0.0026008885305737
-0.0155645155940073
0.1998718901808818
-0.0019903956287283
-0.0021777746540498
-0.0725341966075676
-0.0066311155763247
-0.0023339116230737
-0.0034499549481166
-0.0489411391935931
-0.0021744857345336
-0.0690657361679641
-0.0055074634428368
-0.0072746253706397
-0.0501637823829862
-0.0022714521445102
-0.0070082472112227
-0.0726621673989490
-0.0093183838959186
-0.0292738964699432
0.7418872138673736
-0.0097456298871190
-0.0110814923820931
-0.1805847056266764
-0.0234224789645031
-0.0112241259963982
-0.0162777444076482
-0.1142861783200947
-0.0079845500270357
-0.1336796402144909
-0.0310956622747481
-0.0184643822853215
-0.0563792320086466
-0.0093986964965647
-0.0472588727721399
0.2861472886603577
-0.0722800454375100
-0.1336513424033364
-0.1094931939891308
-0.0450257180277813
-0.0466683869383704
0.5185094583357944
-0.0502276854973362
-0.1317004663547136
-0.0554885666192168
0.1529478234818180
-0.0420191225518913
0.1135717654452881
-0.0519289593970300
-0.2307460072522505
-0.0024554575697449
-0.0522325111127686
-0.0806612147721691
0.7957343315791760
0.0263879760397036
-0.2649497179188559
0.2228270196441654
-0.0879494424656483
-0.0856769330740339
-0.3667692142280637
-0.1605713885581256
-0.1623142301524393
-0.1052298549782367
0.5432295860549854
-0.0934770385003006
0.0010831074143676
0.0021190443673413
-0.1647880580373829
0.0743265093397640
-0.0933204817542141
-0.0098927307342784
0.0137152487672619
-0.0133450151109252
-0.0337841090308853
0.8521185559263211
-0.0149805422022257
-0.0142544955994348
-0.2291698166898263
-0.0271166437860924
-0.0151543478967374
-0.0217847152692346
-0.1513859224033480
-0.0114707522376556
-0.1668749410452817
-0.0422050627583725
-0.0262300554978571
-0.0754875787204061
-0.0126970757110212
-0.0037088424884364
0.1045665005062684
-0.0104377276424494
-0.0038422295258673
-0.0102052987082404
-0.0046007576523568
-0.0034120085367183
-0.0212365589316571
-0.0039766101046770
0.0592899439432108
-0.0053237471186456
-0.0242984478775740
-0.0069507709552348
-0.0358995075239510
-0.0152345159842883
-0.0050404857336944
-0.0058610545830150
-0.0038278810826730
-0.0005846304053088
-0.0065625292229880
-0.0013081932886992
-0.0004403125971994
-0.0012023842496390
-0.0007769534637695
-0.0005424948533980
0.0324158452516174
-0.0005244306716003
-0.0085109206753967
-0.0005044903229879
-0.0029427170170838
-0.0011730893621391
-0.0039754681885251
-0.0013881439979944
-0.0006671582395047
-0.0006864114528055
-0.0006255172425759
-0.0021304378290245
0.0268293978063945
-0.0052804197106745
-0.0019132064191477
-0.0050808152548694
-0.0028117843066146
-0.0020469703620755
0.0677377215883250
-0.0021172219937158
-0.0257664384314440
-0.0023314578865777
-0.0105947072846658
-0.0042280836433742
-0.0156433020069642
-0.0070597596258523
-0.0023405930844869
-0.0029170630803641
-0.0023048584748713
-0.0005846304053088
-0.0065625292229880
-0.0013081932886992
-0.0004403125971994
-0.0012023842496390
-0.0007769534637695
-0.0005424948533980
0.0324158452516174
-0.0005244306716003
-0.0085109206753967
-0.0005044903229879
-0.0029427170170838
-0.0011730893621391
-0.0039754681885251
-0.0013881439979944
-0.0006671582395047
-0.0006864114528055
-0.0006255172425759
-0.0619599744991887
-0.0147614312768969
-0.0989373100951181
-0.1118610376464334
-0.1500461533190543
-0.1459814994662196
-0.0767046952637157
0.1243934797361442
-0.0605314999851719
0.7885011384507774
0.0471410555825007
-0.2268377735248700
-0.1286731789117282
0.4607559824598053
-0.0304438519958282
-0.1361502443971811
-0.1131229979358916
-0.0647800079118734
-0.0037088424884364
0.1045665005062684
-0.0104377276424494
-0.0038422295258673
-0.0102052987082404
-0.0046007576523568
-0.0034120085367183
-0.0212365589316571
-0.0039766101046770
0.0592899439432108
-0.0053237471186456
-0.0242984478775740
-0.0069507709552348
-0.0358995075239510
-0.0152345159842883
-0.0050404857336944
-0.0058610545830150
-0.0038278810826730
-0.0005846304053088
-0.0065625292229880
-0.0013081932886992
-0.0004403125971994
-0.0012023842496390
-0.0007769534637695
-0.0005424948533980
0.0324158452516174
-0.0005244306716003
-0.0085109206753967
-0.0005044903229879
-0.0029427170170838
-0.0011730893621391
-0.0039754681885251
-0.0013881439979944
-0.0006671582395047
-0.0006864114528055
-0.0006255172425759
-0.0005404719422704
-0.0006573675348972
-0.0056429084342215
-0.0005812339912731
-0.0007315634305238
-0.0037103353714820
-0.0005026404447821
-0.0005283586068876
-0.0005268718799484
-0.0025178034780266
-0.0005830017979465
-0.0003325767574456
0.0243785373591426
-0.0023938598258831
-0.0026518227271658
-0.0006737293781333
-0.0012177449670202
-0.0005862467912319
-0.0005404719422704
-0.0006573675348972
-0.0056429084342215
-0.0005812339912731
-0.0007315634305238
-0.0037103353714820
-0.0005026404447821
-0.0005283586068876
-0.0005268718799484
-0.0025178034780266
-0.0005830017979465
-0.0003325767574456
0.0243785373591426
-0.0023938598258831
-0.0026518227271658
-0.0006737293781333
-0.0012177449670202
-0.0005862467912319
-0.0005404719422704
-0.0006573675348972
-0.0056429084342215
-0.0005812339912731
-0.0007315634305238
-0.0037103353714820
-0.0005026404447821
-0.0005283586068876
-0.0005268718799484
-0.0025178034780266
-0.0005830017979465
-0.0003325767574456
0.0243785373591426
-0.0023938598258831
-0.0026518227271658
-0.0006737293781333
-0.0012177449670202
-0.0005862467912319
-0.0005404719422704
-0.0006573675348972
-0.0056429084342215
-0.0005812339912731
-0.0007315634305238
-0.0037103353714820
-0.0005026404447821
-0.0005283586068876
-0.0005268718799484
-0.0025178034780266
-0.0005830017979465
-0.0003325767574456
0.0243785373591426
-0.0023938598258831
-0.0026518227271658
-0.0006737293781333
-0.0012177449670202
-0.0005862467912319
-0.0013810474931792
-0.0028609792674387
-0.0012469048587385
-0.0055007672863288
-0.0096075326106122
-0.0013118013436794
0.0556404371711653
-0.0007660270722833
-0.0025272288903405
-0.0013855943125398
-0.0065858559579295
-0.0012237284253314
-0.0018111659480754
-0.0041763776287287
-0.0026666973840441
-0.0037255261654197
-0.0026957898683028
-0.0061674126581916
-0.0074338276114085
-0.0156146280538655
-0.0080040478375774
0.0505170322684641
-0.0455771240767996
-0.0078459568888695
0.0913489114750909
-0.0076018628697217
-0.0144938544418741
-0.0075021449724199
-0.0734660470790903
-0.0158690511883037
-0.0083231080589330
-0.0327383631805011
-0.0133710108588854
0.1450458798481275
-0.0123637562534589
-0.0167070402199619
-0.0013810474931792
-0.0028609792674387
-0.0012469048587385
-0.0055007672863288
-0.0096075326106122
-0.0013118013436794
0.0556404371711653
-0.0007660270722833
-0.0025272288903405
-0.0013855943125398
-0.0065858559579295
-0.0012237284253314
-0.0018111659480754
-0.0041763776287287
-0.0026666973840441
-0.0037255261654197
-0.0026957898683028
-0.0061674126581916
-0.0025015521800480
-0.0052321160199072
-0.0022716947809866
-0.0098586680165248
-0.0168107026940607
-0.0023620919967470
0.0996284316124432
-0.0014492341760989
-0.0046378758713075
-0.0025126124573485
-0.0110540118379874
-0.0023049633218643
-0.0032967289191261
-0.0077808191561520
-0.0048979958183800
-0.0065047326909366
-0.0050517686087292
-0.0111008630662327
-0.0025015521800480
-0.0052321160199072
-0.0022716947809866
-0.0098586680165248
-0.0168107026940607
-0.0023620919967470
0.0996284316124432
-0.0014492341760989
-0.0046378758713075
-0.0025126124573485
-0.0110540118379874
-0.0023049633218643
-0.0032967289191261
-0.0077808191561520
-0.0048979958183800
-0.0065047326909366
-0.0050517686087292
-0.0111008630662327
-0.0013810474931792
-0.0028609792674387
-0.0012469048587385
-0.0055007672863288
-0.0096075326106122
-0.0013118013436794
0.0556404371711653
-0.0007660270722833
-0.0025272288903405
-0.0013855943125398
-0.0065858559579295
-0.0012237284253314
-0.0018111659480754
-0.0041763776287287
-0.0026666973840441
-0.0037255261654197
-0.0026957898683028
-0.0061674126581916
-0.0074338276114085
-0.0156146280538655
-0.0080040478375774
0.0505170322684641
-0.0455771240767996
-0.0078459568888695
0.0913489114750909
-0.0076018628697217
-0.0144938544418741
-0.0075021449724199
-0.0734660470790903
-0.0158690511883037
-0.0083231080589330
-0.0327383631805011
-0.0133710108588854
0.1450458798481275
-0.0123637562534589
-0.0167070402199619
-0.0292445521421842
-0.0315446473896619
-0.0466607122336027
0.3691097385779171
-0.0577131373926793
-0.0277422678166885
-0.0506696713788106
-0.1294779777145796
-0.0434924952612749
-0.0322223307279373
-0.1553226415062235
0.1977270616100283
-0.0241501290039958
0.2336290365300993
-0.0625232467883142
-0.0379969819705256
-0.0455907412585098
-0.0261143041330311
-0.0178850556204728
-0.0328323786530772
-0.0157271636908571
-0.0230685996447579
-0.0575030670643296
-0.0125374176027240
-0.0129188391418960
-0.2101775466954974
-0.0108072106317101
-0.0192481140910715
-0.0151288330255942
0.5727758488807976
-0.0095164479092515
-0.0590664124012621
-0.0368019303973969
-0.0117985506385068
-0.0182796267352373
-0.0094786549371420
-0.0046819504344544
-0.0071697954151891
-0.0045075238655993
-0.0154716492310056
-0.0062767889330752
-0.0066797272933395
-0.0073720831244340
-0.1167857590304047
-0.0041585394865768
-0.0120488697981383
-0.0063151784011700
0.2495269667133300
-0.0044785557995728
-0.0320976685788767
-0.0041450216298081
-0.0046702133678655
-0.0076524777892755
-0.0050151645345368
-0.0051778609818329
-0.0025190322726941
-0.0023443245583951
-0.0035164126124714
-0.0030119473356418
-0.0060441757215765
-0.0051867426715476
-0.0473448152978632
-0.0014310789107343
-0.0047436011351542
-0.0049398569717737
0.1226006356753347
-0.0017470918100716
-0.0175498405732995
-0.0119208117268498
-0.0014635078703103
-0.0019238832613947
-0.0017356519637243
-0.0698499122229682
-0.0775400823652014
0.0191501856206584
0.2143180872844162
-0.1182330511129699
-0.0759544392389114
0.1368594024356615
-0.1650104698613263
-0.1179509209151902
-0.0644684139846678
0.2345448424924221
0.0785987691754082
-0.0528351707007177
0.3262290539163334
-0.2641569132835439
-0.0680693335820036
0.1270980509095711
-0.0627296845669431
-0.0046819504344544
-0.0071697954151891
-0.0045075238655993
-0.0154716492310056
-0.0062767889330752
-0.0066797272933395
-0.0073720831244340
-0.1167857590304047
-0.0041585394865768
-0.0120488697981383
-0.0063151784011700
0.2495269667133300
-0.0044785557995728
-0.0320976685788767
-0.0041450216298081
-0.0046702133678655
-0.0076524777892755
-0.0050151645345368
-0.0439006370614545
-0.1102819539171495
-0.0421723900287066
-0.0545004241177815
-0.0556205659893434
-0.1835134513016574
-0.1065514528289818
0.3605297997931928
-0.0422868849173602
0.0860915556041563
-0.3297502256553562
0.6094539677785326
-0.0459953832898549
0.3390759728238370
-0.2213837493026366
-0.0679931413609717
-0.0506028186875631
-0.0405982175408842
-0.0292445521421842
-0.0315446473896619
-0.0466607122336027
0.3691097385779171
-0.0577131373926793
-0.0277422678166885
-0.0506696713788106
-0.1294779777145796
-0.0434924952612749
-0.0322223307279373
-0.1553226415062235
0.1977270616100283
-0.0241501290039958
0.2336290365300993
-0.0625232467883142
-0.0379969819705256
-0.0455907412585098
-0.0261143041330311
-0.0178850556204728
-0.0328323786530772
-0.0157271636908571
-0.0230685996447579
-0.0575030670643296
-0.0125374176027240
-0.0129188391418960
-0.2101775466954974
-0.0108072106317101
-0.0192481140910715
-0.0151288330255942
0.5727758488807976
-0.0095164479092515
-0.0590664124012621
-0.0368019303973969
-0.0117985506385068
-0.0182796267352373
-0.0094786549371420
-0.0074261884338682
0.0592513624481785
-0.0085523784916075
-0.0258484465396109
-0.0440631311457217
-0.0261657767785285
-0.0172107819543183
0.6152649445751129
-0.0127563873056608
-0.0207659467980345
-0.0243842780166433
-0.2715594870486269
-0.0075871478076679
-0.1220652569102863
-0.0255915294147935
-0.0195444830498720
-0.0324997121168099
-0.0084953752112374
-0.0027882529342065
-0.0068167672346468
-0.0024101921162942
-0.0022480261991319
-0.0074037851820673
-0.0029153606605265
-0.0026358772068274
0.1569353638287364
-0.0027252008461726
-0.0060773828258947
-0.0033068669476084
-0.0741627893081023
-0.0029838459917721
-0.0234301941660306
-0.0019165648716131
-0.0051159576376492
-0.0070813113443896
-0.0029169883558010
-0.0014734853768845
0.1152192211427239
-0.0015792079473533
-0.0036881810605677
-0.0169121285606042
-0.0013881222964008
-0.0014991050341858
-0.0167212843097402
-0.0017217759295448
-0.0021136707563593
-0.0016367492137349
-0.0186037180127966
-0.0015196289548862
-0.0180313669894314
-0.0017884544818656
-0.0051493404974335
-0.0198344245052047
-0.0015585772157241
-0.0002580120135607
-0.0013277267278310
-0.0002224891040617
-0.0003906272492447
-0.0015295336542636
-0.0002375399926524
-0.0002493276564347
0.0126982401636239
-0.0002327714213682
-0.0004193467972043
-0.0001910608161837
-0.0023334780603360
-0.0002578220291918
-0.0018021473546504
-0.0001611441032898
-0.0008890057291690
-0.0019340107916294
-0.0002621966625517
-0.0074261884338682
0.0592513624481785
-0.0085523784916075
-0.0258484465396109
-0.0440631311457217
-0.0261657767785285
-0.0172107819543183
0.6152649445751129
-0.0127563873056608
-0.0207659467980345
-0.0243842780166433
-0.2715594870486269
-0.0075871478076679
-0.1220652569102863
-0.0255915294147935
-0.0195444830498720
-0.0324997121168099
-0.0084953752112374
-0.0027882529342065
-0.0068167672346468
-0.0024101921162942
-0.0022480261991319
-0.0074037851820673
-0.0029153606605265
-0.0026358772068274
0.1569353638287364
-0.0027252008461726
-0.0060773828258947
-0.0033068669476084
-0.0741627893081023
-0.0029838459917721
-0.0234301941660306
-0.0019165648716131
-0.0051159576376492
-0.0070813113443896
-0.0029169883558010
-0.0058206544536215
-0.0104719588788529
-0.0790452541267765
-0.0053071614200957
-0.0082453047183304
-0.0168165089599411
-0.0048866970408104
0.0685234472105047
-0.0054011557067226
0.0776486008695530
-0.0066206631360312
-0.0085237649709786
0.1043587103603695
-0.0364859678480317
-0.0334764372030033
-0.0142641361139779
-0.0093281527496119
-0.0058369411136205
-0.0033308663886903
-0.0041779862854591
-0.0466222368264552
-0.0036772815153917
-0.0047922081968311
-0.0211445753471725
-0.0030813466553564
-0.0041228422423208
-0.0033033684527235
-0.0057875382157402
-0.0037342952492537
-0.0022004976906582
0.1505608937479041
-0.0111070179789324
-0.0194439962413145
-0.0043023097186020
-0.0060676843235026
-0.0036648424194911
-0.0041547365884498
-0.0052266699491642
-0.0630729422577888
-0.0045766316080390
-0.0060115373848007
-0.0274879625796703
-0.0038399717659376
-0.0051540120469335
-0.0041217043506115
-0.0067690314662222
-0.0047195352580977
-0.0027446810839613
0.1933851718837715
-0.0136228501776387
-0.0244305089648628
-0.0053930105795694
-0.0074875299991563
-0.0045718558228586
-0.0006520101798012
-0.0008176803715440
-0.0096913430728159
-0.0006988545375687
-0.0009466115919322
-0.0033303167364597
-0.0006046062076957
-0.0009332400787843
-0.0006478612716506
-0.0008751728659098
-0.0007201027237567
-0.0004336000709616
0.0290857773108486
-0.0019667308802076
-0.0041148391546744
-0.0008396927854377
-0.0010969060759856
-0.0007162087056612
-0.0033308663886903
-0.0041779862854591
-0.0466222368264552
-0.0036772815153917
-0.0047922081968311
-0.0211445753471725
-0.0030813466553564
-0.0041228422423208
-0.0033033684527235
-0.0057875382157402
-0.0037342952492537
-0.0022004976906582
0.1505608937479041
-0.0111070179789324
-0.0194439962413145
-0.0043023097186020
-0.0060676843235026
-0.0036648424194911
-0.0058206544536215
-0.0104719588788529
-0.0790452541267765
-0.0053071614200957
-0.0082453047183304
-0.0168165089599411
-0.0048866970408104
0.0685234472105047
-0.0054011557067226
0.0776486008695530
-0.0066206631360312
-0.0085237649709786
0.1043587103603695
-0.0364859678480317
-0.0334764372030033
-0.0142641361139779
-0.0093281527496119
-0.0058369411136205
-0.0033308663886903
-0.0041779862854591
-0.0466222368264552
-0.0036772815153917
-0.0047922081968311
-0.0211445753471725
-0.0030813466553564
-0.0041228422423208
-0.0033033684527235
-0.0057875382157402
-0.0037342952492537
-0.0022004976906582
0.1505608937479041
-0.0111070179789324
-0.0194439962413145
-0.0043023097186020
-0.0060676843235026
-0.0036648424194911
-0.0041547365884498
-0.0052266699491642
-0.0630729422577888
-0.0045766316080390
-0.0060115373848007
-0.0274879625796703
-0.0038399717659376
-0.0051540120469335
-0.0041217043506115
-0.0067690314662222
-0.0047195352580977
-0.0027446810839613
0.1933851718837715
-0.0136228501776387
-0.0244305089648628
-0.0053930105795694
-0.0074875299991563
-0.0045718558228586
-0.0053705656071012
-0.0052862890235362
-0.0033533725935023
-0.0056790919204555
-0.0056004837923697
-0.0129668590092969
0.1914083252770393
-0.0080420325470554
-0.0054921441518995
-0.0065012591778311
-0.0465609117737853
-0.0173179246370378
-0.0060565597087022
-0.0200630932210244
-0.0120511738756391
-0.0049587323437029
-0.0051066659306234
-0.0210011659634673
-0.0064784864828095
-0.0063215278177851
-0.0038657532916750
-0.0067197498030854
-0.0066764945813719
-0.0169037589129540
0.2420922687465805
-0.0101550155537847
-0.0066044693113313
-0.0080081547622350
-0.0639930833051834
-0.0228531267320190
-0.0071868448268177
-0.0234338951980575
-0.0155226085318730
-0.0060102574842806
-0.0062012058730862
-0.0251578362782219
-0.0053705656071012
-0.0052862890235362
-0.0033533725935023
-0.0056790919204555
-0.0056004837923697
-0.0129668590092969
0.1914083252770393
-0.0080420325470554
-0.0054921441518995
-0.0065012591778311
-0.0465609117737853
-0.0173179246370378
-0.0060565597087022
-0.0200630932210244
-0.0120511738756391
-0.0049587323437029
-0.0051066659306234
-0.0210011659634673
-0.0043064945683874
-0.0040256865284639
-0.0020394532422042
-0.0040296120625520
-0.0041797197570947
-0.0150017073387387
0.1846029965285844
-0.0081430081468142
-0.0043243466287251
-0.0058108290677644
-0.0572961427774361
-0.0210212013109140
-0.0043900830342481
-0.0126170855425322
-0.0132551067126387
-0.0040874845427011
-0.0042578708403035
-0.0158171644270570
-0.0053705656071012
-0.0052862890235362
-0.0033533725935023
-0.0056790919204555
-0.0056004837923697
-0.0129668590092969
0.1914083252770393
-0.0080420325470554
-0.0054921441518995
-0.0065012591778311
-0.0465609117737853
-0.0173179246370378
-0.0060565597087022
-0.0200630932210244
-0.0120511738756391
-0.0049587323437029
-0.0051066659306234
-0.0210011659634673
-0.0064784864828095
-0.0063215278177851
-0.0038657532916750
-0.0067197498030854
-0.0066764945813719
-0.0169037589129540
0.2420922687465805
-0.0101550155537847
-0.0066044693113313
-0.0080081547622350
-0.0639930833051834
-0.0228531267320190
-0.0071868448268177
-0.0234338951980575
-0.0155226085318730
-0.0060102574842806
-0.0062012058730862
-0.0251578362782219
-0.0063790173903575
-0.0089129002094635
-0.0071450413588377
-0.0109625575537203
-0.0144206573051116
-0.0053312225261555
-0.0051853315640931
-0.0715820460486939
-0.0055483061298463
-0.0092676862275100
-0.0058141773724652
-0.0087543195483153
-0.0053376130414823
-0.0182843419314994
-0.0029643820483146
0.2126045206948873
-0.0213316084773709
-0.0053833119616521
-0.0099031226634935
-0.0078661405826714
-0.0136048602204323
-0.0112911083585474
-0.0079212684530778
-0.0063368222372971
-0.0402447574532335
-0.0718098623318646
-0.0136094108738287
0.0238141478983102
0.2175108543329016
-0.0057238843062034
-0.0129073545908905
-0.0217086599982949
-0.0032812193179266
0.0061300544043056
-0.0082697305906246
-0.0129768546571316
-0.0048973790954875
-0.0075744728234352
-0.0055506356570673
-0.0098676914475745
-0.0133820823820199
-0.0043286955439045
-0.0041242115036142
-0.0635946573356604
-0.0042794115540392
-0.0064859116691236
-0.0043337790493433
-0.0068568402767939
-0.0043106712229086
-0.0163083436104760
-0.0024596244065950
0.1833106997183661
-0.0206458862607832
-0.0043104058795458
-0.0004855958649052
-0.0005631636517119
-0.0004240590588759
-0.0007827189032602
-0.0008127207860152
-0.0003345284822946
-0.0003125224928257
-0.0048085334957069
-0.0003948031870122
-0.0006237660503204
-0.0005615158521787
-0.0004865348131815
-0.0003613002420624
-0.0016972882125245
-0.0001611753831598
0.0146228013960166
-0.0014775877230295
-0.0003349871969501
0.2188625190362153
-0.2190019646597898
0.1747855364417900
-0.0272501116808469
-0.3493856167521932
-0.1997335477993918
-0.1471027108246246
0.5270614184265380
0.1272374978004099
0.0391133054939321
0.4431988172198853
-0.3125414066800061
-0.0421676238155762
0.1981829946349215
-0.6078456469905527
0.5958529766727511
-0.2380787780373599
-0.1811876584860492
-0.0307987266269089
-0.0283666035170778
-0.0805187514549935
-0.0393063999024237
-0.0349520574283869
-0.0292691195985073
-0.0209605539585802
-0.2084271573065107
-0.0266972783324248
-0.0750751364207919
-0.0342682978856158
-0.0253359571708235
-0.0351184639169166
-0.0977554518966020
-0.0310744573405040
0.8673398199610520
-0.0474879082967784
-0.0219274989072285
-0.0063790173903575
-0.0089129002094635
-0.0071450413588377
-0.0109625575537203
-0.0144206573051116
-0.0053312225261555
-0.0051853315640931
-0.0715820460486939
-0.0055483061298463
-0.0092676862275100
-0.0058141773724652
-0.0087543195483153
-0.0053376130414823
-0.0182843419314994
-0.0029643820483146
0.2126045206948873
-0.0213316084773709
-0.0053833119616521
-0.0099031226634935
-0.0078661405826714
-0.0136048602204323
-0.0112911083585474
-0.0079212684530778
-0.0063368222372971
-0.0402447574532335
-0.0718098623318646
-0.0136094108738287
0.0238141478983102
0.2175108543329016
-0.0057238843062034
-0.0129073545908905
-0.0217086599982949
-0.0032812193179266
0.0061300544043056
-0.0082697305906246
-0.0129768546571316
-0.0582690561877823
-0.0117863626662220
0.0275777768326271
-0.0208067482301352
-0.0655840910617223
-0.0112376416520004
-0.0118858924023298
-0.0141533112644494
-0.0282609918405291
-0.0114154004432440
-0.0371093976795229
-0.0383721538175986
-0.0163911510382807
-0.0450365401077124
0.3833389500441082
-0.0119765923914388
-0.0174591557496546
-0.0111722403441287
-0.0381390702314992
-0.0046441024463001
0.3310004292139135
-0.0060882912956987
-0.0141571315831185
-0.0048669268968642
-0.0058209551166504
-0.0041957732228273
-0.0118882231860322
-0.0046018946752323
-0.1555008853916765
-0.0117878094124053
-0.0050229444143378
-0.0096250235902869
-0.0365082721299467
-0.0059799738990850
-0.0058507232936504
-0.0063224284283039
-0.0276084390478653
-0.0165437040158046
-0.0264607901740762
-0.0501811261996420
-0.0860439573314502
-0.0141913105547084
-0.0118642158713332
-0.0158710841977283
0.1358739287751337
-0.0093241302630975
-0.0540086181147264
-0.0466392481603450
-0.0126984063113273
0.0507237753062002
0.1013880804035310
-0.0235047459560722
0.1182346314091978
-0.0112806396958845
-0.0059489353193117
-0.0010090784701269
-0.0097211171192875
-0.0015805913583995
-0.0082583820738806
-0.0010052487065670
-0.0010429300087326
-0.0007608190062776
-0.0057900475830059
-0.0008304206874313
-0.0032237747190602
-0.0050961382319296
-0.0013433328459793
-0.0042816007811571
0.0541428407423312
-0.0009179603006529
-0.0023959077636807
-0.0009365557668513
-0.0059489353193117
-0.0010090784701269
-0.0097211171192875
-0.0015805913583995
-0.0082583820738806
-0.0010052487065670
-0.0010429300087326
-0.0007608190062776
-0.0057900475830059
-0.0008304206874313
-0.0032237747190602
-0.0050961382319296
-0.0013433328459793
-0.0042816007811571
0.0541428407423312
-0.0009179603006529
-0.0023959077636807
-0.0009365557668513
0.2474270116556314
-0.2479940368161749
0.1879368179527032
-0.4549884429144255
0.1543732139595371
-0.1084454519358710
-0.1011158604864538
-0.3222616487349523
0.2706698491096170
-0.2329047974532399
0.8676182512350527
0.1831361979484064
-0.2604591234126789
-0.3064138541489070
1.0645056703350626
-0.3279910686576826
-0.3793629095465996
-0.2337298180889709
0.4998621035423012
-0.0391272985741524
-0.1936294350632849
-0.0554006792729782
-0.2843931426738769
-0.0484566856342800
-0.0502814521706144
-0.0564959491022420
-0.1342569956424226
-0.0422806976402988
-0.1971982308018856
0.1445376216334114
-0.0607007342032357
-0.1114212383752381
0.8019582161848198
-0.0432198363201809
-0.0690934401894029
-0.0604021256964628
-0.1507087288798083
-0.1043927999521984
-0.2483913069835059
-0.2196823603919502
-0.1363704572216619
-0.0649269609059940
-0.0755176789207234
-0.0639944663156960
0.5381406655364538
-0.0520370184336739
0.2615629913611101
-0.1821181605310238
-0.0632215168901484
0.2934845213863532
0.5893015527186623
-0.0935188687211771
-0.1704666015460003
-0.0571428053090208
-0.0582690561877823
-0.0117863626662220
0.0275777768326271
-0.0208067482301352
-0.0655840910617223
-0.0112376416520004
-0.0118858924023298
-0.0141533112644494
-0.0282609918405291
-0.0114154004432440
-0.0371093976795229
-0.0383721538175986
-0.0163911510382807
-0.0450365401077124
0.3833389500441082
-0.0119765923914388
-0.0174591557496546
-0.0111722403441287
-0.0381390702314992
-0.0046441024463001
0.3310004292139135
-0.0060882912956987
-0.0141571315831185
-0.0048669268968642
-0.0058209551166504
-0.0041957732228273
-0.0118882231860322
-0.0046018946752323
-0.1555008853916765
-0.0117878094124053
-0.0050229444143378
-0.0096250235902869
-0.0365082721299467
-0.0059799738990850
-0.0058507232936504
-0.0063224284283039
-0.0276084390478653
-0.0165437040158046
-0.0264607901740762
-0.0501811261996420
-0.0860439573314502
-0.0141913105547084
-0.0118642158713332
-0.0158710841977283
0.1358739287751337
-0.0093241302630975
-0.0540086181147264
-0.0466392481603450
-0.0126984063113273
0.0507237753062002
0.1013880804035310
-0.0235047459560722
0.1182346314091978
-0.0112806396958845
-0.0081720485843447
-0.0346674843634977
-0.0227744562916864
-0.0807583259630336
-0.0664502353994136
-0.0091689696081563
-0.0098933949101527
0.1201232458239942
-0.0253190168715955
-0.0085401211621168
0.2888310433081549
-0.0355932911918867
-0.0075243090434720
-0.0421244923160275
-0.0159560820170098
-0.0227670821926211
-0.0108632853650202
-0.0083816938521155
-0.0088170390330748
-0.0629739256040278
-0.0116863075895564
-0.0443500375943029
-0.0608568521197259
-0.0114562966060955
-0.0106847006956698
0.7001180878059862
-0.0201166989850718
-0.0152398675964594
-0.0232431803230033
-0.1899212092534756
-0.0092408906990150
-0.1542189936758906
-0.0288450612119102
-0.0166061010040266
-0.0210571204499725
-0.0108038053647037
-0.0014462579500957
-0.0253654445718792
-0.0025501897110028
-0.0107331094003664
-0.0199935248114568
-0.0012881896832518
-0.0016350558852281
0.1383571731248082
-0.0065372190194483
-0.0023168733780274
-0.0089266277169717
-0.0233826480730123
-0.0015053438084640
-0.0201681054626682
-0.0047515703997938
-0.0032546946033995
-0.0027403355353865
-0.0017619831143555
-0.0039141260579293
-0.0440475765487034
-0.0059364212812857
-0.0150110233278638
-0.0528888479503751
-0.0059693240508030
-0.0044644625652013
0.3307796121988800
-0.0135501369583981
-0.0068812358297589
-0.0136637758618470
-0.0420779880399539
-0.0044599044307147
-0.0714048842013994
-0.0194429415981804
-0.0080093080427542
-0.0143783968307593
-0.0046792586229506
-0.2315454306514461
0.0278010413019067
-0.1484538124091744
0.5957009492695288
-0.2170030612575860
-0.2446460076945417
-0.2108265608219224
0.4447108799693255
0.3410982930866189
-0.2467457689156174
0.5421253358581882
0.0911112399551611
-0.1051650529255817
0.1174774632230907
-0.3950502734373544
0.1326461448673123
-0.3077228030332592
-0.1855125763846136
-0.0467699133800202
0.2467970177512466
0.1580119921121755
-0.2338109515571410
-0.1458011817506680
-0.0647283907328564
-0.0582004171444662
0.5879982497454404
-0.0941972678715915
-0.1217205104526568
-0.3771560940159649
0.4272860291876497
-0.0427386350122249
-0.2676656189530361
-0.0692266118194605
0.2215686550718140
-0.0672629844371727
-0.0523833667410674
-0.0081720485843447
-0.0346674843634977
-0.0227744562916864
-0.0807583259630336
-0.0664502353994136
-0.0091689696081563
-0.0098933949101527
0.1201232458239942
-0.0253190168715955
-0.0085401211621168
0.2888310433081549
-0.0355932911918867
-0.0075243090434720
-0.0421244923160275
-0.0159560820170098
-0.0227670821926211
-0.0108632853650202
-0.0083816938521155
-0.0088170390330748
-0.0629739256040278
-0.0116863075895564
-0.0443500375943029
-0.0608568521197259
-0.0114562966060955
-0.0106847006956698
0.7001180878059862
-0.0201166989850718
-0.0152398675964594
-0.0232431803230033
-0.1899212092534756
-0.0092408906990150
-0.1542189936758906
-0.0288450612119102
-0.0166061010040266
-0.0210571204499725
-0.0108038053647037
-0.0037708579504905
0.0313039189476166
-0.0299633453880531
-0.0107640785830593
-0.0063590819411831
-0.0062680240974636
-0.0031880703497388
-0.0181629851348414
-0.0039026634809220
-0.0108494158232074
-0.0039342525954087
-0.0027083435944715
-0.0099152768252020
0.0565861837166672
-0.0401261239890214
0.0746591746119350
-0.0092028412165712
-0.0034339163065795
-0.0172998328076883
0.9886516456916183
-0.0425252836056091
-0.0838193676001118
-0.1610211641207590
-0.0194109997184547
-0.0186056853127982
-0.2294260593542012
-0.0328507622714721
-0.0367007106617781
0.0547474503772205
-0.1749111133460060
-0.0211861078290268
-0.2128086113258728
0.0303137584116364
-0.0351279248257833
0.0302887085287641
-0.0183079402296608
-0.0004190796232036
0.0358122260686760
-0.0034406272786996
-0.0005423904708350
-0.0015475844421726
-0.0007113080245481
-0.0004404861027367
-0.0077987217861957
-0.0005436811555679
-0.0024023512336730
-0.0006747178694349
-0.0009419335219100
-0.0011148368923309
-0.0054511939140998
-0.0077639520051539
-0.0005953853548392
-0.0009449527935513
-0.0004790235997234
-0.0054601570003116
0.4295774201245647
-0.0114482213424074
-0.0091373845673330
-0.0294916613933598
-0.0069592112531520
-0.0063402577746647
-0.1919121209156532
-0.0070778239721275
-0.0134467815004940
-0.0172942895172442
-0.0289333576073465
-0.0072476275578508
-0.0395490661463382
-0.0207359927927524
-0.0098147901033737
-0.0185282333651706
-0.0062004433149861
-0.0037708579504905
0.0313039189476166
-0.0299633453880531
