version: 100
cost-factor: 1
maxid: 12747
xsize: 3

f
o
s

U00:%x[-2,0]
U01:%x[-1,0]
U02:%x[0,0]
U03:%x[1,0]
U04:%x[2,0]
U05:%x[-2,0]/%x[-1,0]/%x[0,0]
U06:%x[-1,0]/%x[0,0]/%x[1,0]
U07:%x[0,0]/%x[1,0]/%x[2,0]
U08:%x[-1,0]/%x[0,0]
U09:%x[0,0]/%x[1,0]
U10:%x[-2,2]
U11:%x[-1,2]
U12:%x[0,2]
U13:%x[1,2]
U14:%x[2,2]
U15:%x[-2,2]/%x[-1,2]/%x[0,2]
U16:%x[-1,2]/%x[0,2]/%x[1,2]
U17:%x[0,2]/%x[1,2]/%x[2,2]
U18:%x[-1,2]/%x[0,2]
U19:%x[0,2]/%x[1,2]
B

300 B
8799 U00:0.5
12066 U00:1
6264 U00:10
426 U00:2
5235 U00:30
1992 U00:5
7140 U00:A205门口
3519 U00:B座
8400 U00:D栋405
60 U00:_B-1
0 U00:_B-2
9918 U00:b205
3345 U00:v
11787 U00:板凳的位置
1272 U00:并
9039 U00:不能
9279 U00:步
7989 U00:厕所
7911 U00:朝
8124 U00:朝着
5631 U00:出
735 U00:出发
11946 U00:出口
11418 U00:出去
4512 U00:穿过
5172 U00:传达室
11235 U00:窗户下面
12600 U00:床边
639 U00:从
5496 U00:打印机跟前
2589 U00:大路
4536 U00:大门
4305 U00:大门处
3435 U00:大门方向
4098 U00:大门口
7347 U00:倒
4074 U00:到
6030 U00:到达
6783 U00:的
9486 U00:抵达
12387 U00:地
6846 U00:点
11520 U00:电脑的桌子那儿
4455 U00:丁字路口
6474 U00:多
1656 U00:房间
1896 U00:赶紧
4149 U00:拐
5136 U00:过
11763 U00:过去
1698 U00:后
2181 U00:后退
5883 U00:机电楼
900 U00:机电院大门
9240 U00:几
3036 U00:继续
11673 U00:交叉路口
10650 U00:接
852 U00:进入
1134 U00:尽头
3489 U00:经过
6594 U00:径直
7449 U00:靠
12306 U00:快
7050 U00:快点
10170 U00:两
5661 U00:了
1053 U00:楼道
3309 U00:楼道口
12708 U00:楼道移动
1326 U00:楼梯
1242 U00:楼梯处
5445 U00:路
9399 U00:马上
8931 U00:迈
6831 U00:慢
6765 U00:慢慢
6447 U00:门
7491 U00:门把手
3648 U00:门口
2028 U00:米
8838 U00:米每秒
1554 U00:南
9009 U00:能
1878 U00:你
12585 U00:跑到
4737 U00:起点
180 U00:前
9102 U00:前方
7812 U00:前方十字路口
534 U00:前进
11352 U00:前进到
7215 U00:前面的路口处
8331 U00:前面那个门
11619 U00:墙边
9501 U00:墙角
6570 U00:桥的中线
2055 U00:然后
3138 U00:上
5034 U00:稍
6915 U00:稍微
5799 U00:十字路口那儿
6057 U00:收费站那儿
3912 U00:书柜处
1410 U00:顺着
3081 U00:天桥
6201 U00:退
120 U00:往
7926 U00:卧室
9876 U00:西
7632 U00:下
10671 U00:下来
3783 U00:先
2247 U00:现在
1524 U00:向
363 U00:向前
11217 U00:向前到
8013 U00:向着
6396 U00:斜
4878 U00:行驶
9192 U00:迅速
4827 U00:沿
1017 U00:沿着
10857 U00:一点
1488 U00:一路
2901 U00:一直
9126 U00:移动
11295 U00:椅子的方向
8754 U00:以
4050 U00:饮水机
10290 U00:由
4122 U00:右
5730 U00:右拐
2541 U00:右转
5958 U00:玉带路
2346 U00:原地
10317 U00:原点
5205 U00:约
3987 U00:再
2313 U00:在
9714 U00:找到
2118 U00:这里
10008 U00:这扇门
9597 U00:这条路
942 U00:之后
9663 U00:直到
1737 U00:直接
2694 U00:转
2421 U00:转身
4407 U00:转弯
690 U00:桌子
3867 U00:桌子的边沿
5382 U00:桌子旁边
11595 U00:着
240 U00:走
1092 U00:走到
4020 U00:走过
9984 U00:走进
2379 U00:左
7863 U00:左边拐弯的地方
5544 U00:左转
8757 U01:0.5
12045 U01:1
6243 U01:10
393 U01:2
7263 U01:203房间
5208 U01:30
4881 U01:390
1962 U01:5
6324 U01:90
7110 U01:A205门口
3492 U01:B座
8379 U01:D栋405
3 U01:_B-1
9897 U01:b205
3312 U01:v
11766 U01:板凳的位置
1245 U01:并
9012 U01:不能
9243 U01:步
7965 U01:厕所
7890 U01:朝
8106 U01:朝着
5595 U01:出
693 U01:出发
11928 U01:出口
10890 U01:出门
3669 U01:出去
4491 U01:穿过
5139 U01:传达室
11220 U01:窗户下面
12588 U01:床边
7749 U01:床的跟前
594 U01:从
5472 U01:打印机跟前
2568 U01:大路
4515 U01:大门
4281 U01:大门处
3408 U01:大门方向
4077 U01:大门口
8199 U01:大厅
7332 U01:倒
4053 U01:到
1557 U01:到达
6768 U01:的
9465 U01:抵达
12375 U01:地
6834 U01:点
11508 U01:电脑的桌子那儿
8067 U01:电梯口
4434 U01:丁字路口
6450 U01:多
1623 U01:房间
1881 U01:赶紧
4125 U01:拐
5106 U01:过
11742 U01:过去
1659 U01:后
2160 U01:后退
4953 U01:回到
5853 U01:机电楼
855 U01:机电院大门
537 U01:几
3012 U01:继续
11655 U01:交叉路口
10629 U01:接
807 U01:进入
7494 U01:近
1095 U01:尽头
3462 U01:经过
6573 U01:径直
7407 U01:靠
9042 U01:快
7026 U01:快点
6981 U01:快速
8259 U01:离开到
2184 U01:两
5634 U01:了
1020 U01:楼道
3267 U01:楼道口
12684 U01:楼道移动
1302 U01:楼梯
1212 U01:楼梯处
5421 U01:路
9282 U01:马上
8919 U01:迈
6810 U01:慢
6735 U01:慢慢
6420 U01:门
7452 U01:门把手
12483 U01:门把手的方向
2739 U01:门口
429 U01:米
8802 U01:米每秒
1527 U01:南
8982 U01:能
1842 U01:你
10029 U01:你的座位
1329 U01:爬上
12564 U01:跑到
4707 U01:起点
123 U01:前
9078 U01:前方
7794 U01:前方十字路口
507 U01:前进
11334 U01:前进到
7200 U01:前面的路口处
8316 U01:前面那个门
11598 U01:墙边
9489 U01:墙角
6546 U01:桥的中线
8652 U01:请
7053 U01:去
2031 U01:然后
3120 U01:上
11154 U01:上到
5010 U01:稍
6885 U01:稍微
9666 U01:十字路口处
5772 U01:十字路口那儿
6033 U01:收费站那儿
3891 U01:书柜处
1377 U01:顺着
8868 U01:速度
9777 U01:它
3060 U01:天桥
7143 U01:停
6189 U01:退
63 U01:往
7914 U01:卧室
243 U01:五
5979 U01:西
7614 U01:下
10653 U01:下来
3768 U01:先
2220 U01:现在
945 U01:向
339 U01:向前
11196 U01:向前到
7992 U01:向着
6372 U01:斜
4854 U01:行驶
9171 U01:迅速
4800 U01:沿
990 U01:沿着
6498 U01:一
6939 U01:一点
1452 U01:一路
2877 U01:一直
9105 U01:移动
6636 U01:移动到
11277 U01:椅子的方向
8709 U01:以
4023 U01:饮水机
10266 U01:由
1137 U01:右
5706 U01:右拐
5298 U01:右前方
2511 U01:右转
5937 U01:玉带路
2316 U01:原地
10293 U01:原点
8463 U01:远
5175 U01:约
3957 U01:再
2280 U01:在
9696 U01:找到
2097 U01:这里
9987 U01:这扇门
9579 U01:这条路
4761 U01:正北方向
903 U01:之后
3348 U01:直到
1701 U01:直接
2670 U01:转
2382 U01:转身
4383 U01:转弯
642 U01:桌子
3846 U01:桌子的边沿
1770 U01:桌子旁边
11571 U01:着
183 U01:走
4329 U01:走出
738 U01:走到
3990 U01:走过
9960 U01:走进
7545 U01:走近
3729 U01:走向
2349 U01:左
7851 U01:左边拐弯的地方
5520 U01:左转
8712 U02:0.5
12027 U02:1
6225 U02:10
366 U02:2
7245 U02:203房间
5178 U02:30
4857 U02:390
11157 U02:4楼
1938 U02:5
6294 U02:90
7083 U02:A205门口
2121 U02:A501
3351 U02:A505的门口
3198 U02:A座
8403 U02:A座502
3465 U02:B座
8358 U02:D栋405
9879 U02:b205
10380 U02:c400
1560 U02:c404门口
3270 U02:v
11745 U02:板凳的位置
1215 U02:并
8985 U02:不能
540 U02:步
4644 U02:厕所
4572 U02:厕所旁边
7869 U02:朝
8088 U02:朝着
5565 U02:出
645 U02:出发
11910 U02:出口
10860 U02:出门
2742 U02:出去
4473 U02:穿过
5109 U02:传达室
8262 U02:窗户旁边
11199 U02:窗户下面
12567 U02:床边
7731 U02:床的跟前
558 U02:从
5448 U02:打印机跟前
2544 U02:大路
4332 U02:大门
4260 U02:大门处
3384 U02:大门方向
4056 U02:大门口
8181 U02:大厅
7314 U02:倒
4026 U02:到
1530 U02:到达
6738 U02:的
9444 U02:抵达
12357 U02:地
2904 U02:第一个交叉口
6813 U02:点
11490 U02:电脑的桌子那儿
8046 U02:电梯口
4410 U02:丁字路口
6327 U02:度
6597 U02:对面
6423 U02:多
1596 U02:房间
1845 U02:赶紧
3915 U02:拐
12624 U02:拐弯
2592 U02:柜子旁边
5082 U02:过
11721 U02:过去
11460 U02:河上的桥
10740 U02:黑板前面
1626 U02:后
2139 U02:后退
4932 U02:回到
10224 U02:回头
5832 U02:机电楼
4152 U02:机电楼大门
5064 U02:机电楼大厅
810 U02:机电院大门
1773 U02:即可
510 U02:几
2979 U02:继续
11637 U02:交叉路口
10608 U02:接
774 U02:进入
7455 U02:近
1056 U02:尽头
3438 U02:经过
6549 U02:径直
7374 U02:靠
12219 U02:空调的前面
9015 U02:快
7002 U02:快点
6954 U02:快速
9129 U02:厘米
8238 U02:离开到
2163 U02:两
5598 U02:了
993 U02:楼道
12525 U02:楼道的尽头
3234 U02:楼道口
12657 U02:楼道移动
1275 U02:楼梯
1188 U02:楼梯处
6639 U02:楼梯的底端
5400 U02:路
11421 U02:路中央
9246 U02:马上
8901 U02:迈
6789 U02:慢
6705 U02:慢慢
8655 U02:慢行
6399 U02:门
7410 U02:门把手
12465 U02:门把手的方向
741 U02:门口
5547 U02:门口处
246 U02:米
8760 U02:米每秒
1491 U02:南
8952 U02:能
1803 U02:你
10011 U02:你的座位
1305 U02:爬上
12543 U02:跑到
4677 U02:起点
66 U02:前
9057 U02:前方
7767 U02:前方十字路口
474 U02:前进
11316 U02:前进到
7578 U02:前面的第二个桌子旁边
7182 U02:前面的路口处
7548 U02:前面的那个桌子旁边
8295 U02:前面那个门
11574 U02:墙边
9468 U02:墙角
6525 U02:桥的中线
8631 U02:请
7029 U02:去
1995 U02:然后
3102 U02:上
11133 U02:上到
9780 U02:上去
4974 U02:稍
6852 U02:稍微
11043 U02:十字路口
9645 U02:十字路口处
5751 U02:十字路口那儿
6009 U02:收费站那儿
3870 U02:书柜处
1350 U02:顺着
1332 U02:四楼
8841 U02:速度
9756 U02:它
6120 U02:体育馆
3039 U02:天桥
7113 U02:停
6171 U02:退
6 U02:往
7893 U02:卧室
186 U02:五
5961 U02:西
7596 U02:下
7146 U02:下来
3750 U02:先
2196 U02:现在
906 U02:向
309 U02:向前
11175 U02:向前到
7968 U02:向着
6348 U02:斜
4830 U02:行驶
9147 U02:迅速
4779 U02:沿
969 U02:沿着
6477 U02:一
6678 U02:一点
1413 U02:一路
3084 U02:一小段楼梯
2853 U02:一直
9081 U02:移动
6615 U02:移动到
11256 U02:椅子的方向
8673 U02:以
3993 U02:饮水机
10245 U02:由
1098 U02:右
3522 U02:右拐
5280 U02:右前方
2475 U02:右转
3732 U02:玉带河的河边
5913 U02:玉带路
4956 U02:原处
2283 U02:原地
10269 U02:原点
8442 U02:远
5142 U02:约
3933 U02:再
2250 U02:在
9678 U02:找到
2076 U02:这里
9963 U02:这扇门
9561 U02:这条路
4740 U02:正北方向
858 U02:之后
3315 U02:直到
1662 U02:直接
5259 U02:直行
1140 U02:转
2352 U02:转身
4362 U02:转弯
597 U02:桌子
3825 U02:桌子的边沿
2454 U02:桌子的尽头
1740 U02:桌子旁边
11547 U02:着
126 U02:走
4308 U02:走出
696 U02:走到
3960 U02:走过
8070 U02:走过去
9939 U02:走进
7524 U02:走近
7698 U02:走廊尽头
3705 U02:走向
2319 U02:左
7833 U02:左边拐弯的地方
432 U02:左转
8676 U03:0.5
12009 U03:1
6213 U03:10
342 U03:2
7224 U03:203房间
5145 U03:30
4833 U03:390
11136 U03:4楼
1926 U03:5
6267 U03:90
7068 U03:A205门口
2100 U03:A501
3318 U03:A505的门口
3180 U03:A座
8382 U03:A座502
3441 U03:B座
8346 U03:D栋405
249 U03:_B+1
9858 U03:b205
10362 U03:c400
1533 U03:c404门口
3237 U03:v
11724 U03:板凳的位置
1191 U03:并
8955 U03:不能
513 U03:步
4626 U03:厕所
4557 U03:厕所旁边
600 U03:出发
11892 U03:出口
10824 U03:出门
2718 U03:出去
6351 U03:穿过
5085 U03:传达室
8241 U03:窗户旁边
11178 U03:窗户下面
12546 U03:床边
7716 U03:床的跟前
2673 U03:从
5424 U03:打印机跟前
2514 U03:大路
4311 U03:大门
4242 U03:大门处
3372 U03:大门方向
4029 U03:大门口
8169 U03:大厅
7293 U03:倒
3996 U03:到
1494 U03:到达
6708 U03:的
9837 U03:抵达
12345 U03:地
2880 U03:第一个交叉口
6792 U03:点
11478 U03:电脑的桌子那儿
8025 U03:电梯口
4386 U03:丁字路口
6297 U03:度
6576 U03:对面
6402 U03:多
1581 U03:房间
1806 U03:赶紧
3894 U03:拐
12612 U03:拐弯
2571 U03:柜子旁边
11700 U03:过去
11448 U03:河上的桥
10722 U03:黑板前面
1599 U03:后
9150 U03:后退
4911 U03:回到
10197 U03:回头
5820 U03:机电楼
4128 U03:机电楼大门
5052 U03:机电楼大厅
777 U03:机电院大门
1743 U03:即可
477 U03:几
2946 U03:继续
11622 U03:交叉路口
10590 U03:接
3159 U03:进入
7413 U03:近
1023 U03:尽头
3411 U03:经过
6528 U03:径直
7356 U03:靠
12198 U03:空调的前面
8988 U03:快
9108 U03:厘米
8220 U03:离开到
2142 U03:两
5568 U03:了
972 U03:楼道
12513 U03:楼道的尽头
3216 U03:楼道口
12642 U03:楼道移动
1248 U03:楼梯
1167 U03:楼梯处
6618 U03:楼梯的底端
5388 U03:路
11394 U03:路中央
9216 U03:马上
8889 U03:迈
6855 U03:慢
8634 U03:慢行
6375 U03:门
7377 U03:门把手
12447 U03:门把手的方向
699 U03:门口
5523 U03:门口处
189 U03:米
8715 U03:米每秒
1455 U03:南
8937 U03:能
2199 U03:你
9990 U03:你的座位
1278 U03:爬上
4662 U03:起点
9 U03:前
6036 U03:前进
7566 U03:前面的第二个桌子旁边
7170 U03:前面的路口处
7527 U03:前面的那个桌子旁边
8280 U03:前面那个门
11550 U03:墙边
9447 U03:墙角
6510 U03:桥的中线
7005 U03:去
1965 U03:然后
8298 U03:上
11115 U03:上到
9759 U03:上去
11028 U03:十字路口
9627 U03:十字路口处
5733 U03:十字路口那儿
5991 U03:收费站那儿
3849 U03:书柜处
2982 U03:顺着
1308 U03:四楼
8805 U03:速度
9735 U03:它
6105 U03:体育馆
3015 U03:天桥
7086 U03:停
6150 U03:退
1848 U03:往
7872 U03:卧室
129 U03:五
5940 U03:西
7116 U03:下来
861 U03:向
3546 U03:向前
7944 U03:向着
4803 U03:行驶
10467 U03:迅速
10968 U03:沿
1218 U03:沿着
6453 U03:一
6663 U03:一点
1380 U03:一路
3063 U03:一小段楼梯
2835 U03:一直
9060 U03:移动
10341 U03:移动到
11244 U03:椅子的方向
3963 U03:饮水机
1059 U03:右
3495 U03:右拐
2763 U03:右转
3708 U03:玉带河的河边
5886 U03:玉带路
4935 U03:原处
2253 U03:原地
10248 U03:原点
8421 U03:远
5112 U03:约
4413 U03:再
2223 U03:在
2064 U03:这里
9942 U03:这扇门
9549 U03:这条路
4710 U03:正北方向
813 U03:之后
3273 U03:直到
1629 U03:直接
5238 U03:直行
1101 U03:转
2322 U03:转身
4350 U03:转弯
561 U03:桌子
3813 U03:桌子的边沿
2424 U03:桌子的尽头
1704 U03:桌子旁边
11526 U03:着
69 U03:走
4284 U03:走出
648 U03:走到
3936 U03:走过
8049 U03:走过去
7686 U03:走廊尽头
3687 U03:走向
2286 U03:左
7821 U03:左边拐弯的地方
396 U03:左转
11997 U04:1
6207 U04:10
312 U04:2
5115 U04:30
4806 U04:390
11118 U04:4楼
7296 U04:5
6246 U04:90
2079 U04:A501
3276 U04:A505的门口
3162 U04:A座
8361 U04:A座502
3414 U04:B座
192 U04:_B+1
252 U04:_B+2
9840 U04:b205
10344 U04:c400
1497 U04:c404门口
3219 U04:v
11703 U04:板凳的位置
1170 U04:并
8940 U04:不能
480 U04:步
4611 U04:厕所
4539 U04:厕所旁边
564 U04:出发
11877 U04:出口
10797 U04:出门
2697 U04:出去
8223 U04:窗户旁边
2646 U04:从
5403 U04:打印机跟前
2478 U04:大路
4287 U04:大门
4221 U04:大门处
3999 U04:大门口
7281 U04:倒
3966 U04:到
1458 U04:到达
8718 U04:的
9822 U04:抵达
2856 U04:第一个交叉口
8478 U04:点
4365 U04:丁字路口
6270 U04:度
6552 U04:对面
6378 U04:多
12243 U04:房间
3873 U04:拐
12603 U04:拐弯
2547 U04:柜子旁边
11442 U04:河上的桥
10704 U04:黑板前面
1584 U04:后
10050 U04:后退
4893 U04:回到
10173 U04:回头
4101 U04:机电楼大门
5046 U04:机电楼大厅
3627 U04:机电院大门
1707 U04:即可
6153 U04:几
2922 U04:继续
11601 U04:交叉路口
10575 U04:接
3141 U04:进入
7380 U04:近
996 U04:尽头
3387 U04:经过
6513 U04:径直
12177 U04:空调的前面
8958 U04:快
9084 U04:厘米
8211 U04:离开到
11259 U04:两
2796 U04:楼道
1221 U04:楼梯
11373 U04:路中央
9195 U04:马上
8883 U04:迈
6354 U04:门
7359 U04:门把手
12435 U04:门把手的方向
651 U04:门口
5499 U04:门口处
132 U04:米
8679 U04:米每秒
1416 U04:南
9966 U04:你的座位
1251 U04:爬上
1851 U04:前
6012 U04:前进
11529 U04:墙边
7227 U04:去
1941 U04:然后
8283 U04:上
11106 U04:上到
9738 U04:上去
11013 U04:十字路口
9615 U04:十字路口处
5709 U04:十字路口那儿
3828 U04:书柜处
2949 U04:顺着
1281 U04:四楼
8763 U04:速度
9717 U04:它
6090 U04:体育馆
2985 U04:天桥
7071 U04:停
6138 U04:退
1809 U04:往
72 U04:五
5916 U04:西
7089 U04:下来
816 U04:向
4182 U04:向前
7932 U04:向着
4782 U04:行驶
10452 U04:迅速
10953 U04:沿
1194 U04:沿着
6426 U04:一
6657 U04:一点
1353 U04:一路
3042 U04:一小段楼梯
2820 U04:一直
10320 U04:移动到
3939 U04:饮水机
1026 U04:右
3468 U04:右拐
7719 U04:右转
3690 U04:玉带河的河边
5856 U04:玉带路
4914 U04:原处
2226 U04:原地
8520 U04:远
5088 U04:约
4389 U04:再
2202 U04:在
4680 U04:正北方向
780 U04:之后
3240 U04:直到
1602 U04:直接
5211 U04:直行
1062 U04:转
2289 U04:转身
10563 U04:转弯
2385 U04:桌子的尽头
1665 U04:桌子旁边
12 U04:走
4263 U04:走出
603 U04:走到
8028 U04:走过去
2256 U04:左
369 U04:左转
8922 U05:0.5/迈/的
8808 U05:0.5/米每秒/的
12069 U05:1/米/再
12723 U05:10/米/后
6273 U05:10/米/左转
435 U05:2/米/左转
5241 U05:30/米/后
1998 U05:5/米/然后
7149 U05:A205门口/停/下来
3525 U05:B座/后/右拐
8406 U05:D栋405/走到/A座502
7896 U05:_B-1/朝/卧室
8145 U05:_B-1/朝着/厕所
8109 U05:_B-1/朝着/门口
5601 U05:_B-1/出/了
4494 U05:_B-1/穿过/大门
8301 U05:_B-1/穿过/前面那个门
8364 U05:_B-1/从/D栋405
7947 U05:_B-1/从/厕所
5835 U05:_B-1/从/机电楼
8226 U05:_B-1/从/门口
4683 U05:_B-1/从/起点
11967 U05:_B-1/从/原点
2082 U05:_B-1/从/这里
606 U05:_B-1/从/桌子
7248 U05:_B-1/到/203房间
11493 U05:_B-1/到/电脑的桌子那儿
12528 U05:_B-1/到/楼道的尽头
7836 U05:_B-1/到/左边拐弯的地方
6015 U05:_B-1/到达/收费站那儿
9471 U05:_B-1/抵达/墙角
5118 U05:_B-1/过/传达室
2952 U05:_B-1/后/转
11070 U05:_B-1/后/转身
12423 U05:_B-1/后退/5
2166 U05:_B-1/后退/两
11727 U05:_B-1/继续/过去
1605 U05:_B-1/进入/房间
819 U05:_B-1/进入/机电院大门
11553 U05:_B-1/靠/着
12294 U05:_B-1/快/一点
7032 U05:_B-1/快点/去
6984 U05:_B-1/快速/前进
10932 U05:_B-1/马上/右
6816 U05:_B-1/慢/点
6741 U05:_B-1/慢慢/的
12360 U05:_B-1/慢慢/地
1854 U05:_B-1/你/赶紧
10053 U05:_B-1/你/马上
8961 U05:_B-1/你/能
12570 U05:_B-1/跑到/床边
9087 U05:_B-1/前方/移动
7797 U05:_B-1/前方十字路口/左
1944 U05:_B-1/前进/5
516 U05:_B-1/前进/几
11337 U05:_B-1/前进到/门口
8658 U05:_B-1/请/慢行
2799 U05:_B-1/然后/右转
3711 U05:_B-1/然后/走向
3123 U05:_B-1/上/楼梯
5013 U05:_B-1/稍/向
12402 U05:_B-1/稍微/快
6888 U05:_B-1/稍微/慢
1383 U05:_B-1/顺着/楼道
9564 U05:_B-1/顺着/这条路
7299 U05:_B-1/往/后
75 U05:_B-1/往/前
11262 U05:_B-1/往/椅子的方向
10767 U05:_B-1/往/右
7617 U05:_B-1/下/楼梯
10437 U05:_B-1/先/右
3771 U05:_B-1/先/走到
10578 U05:_B-1/先/左
5331 U05:_B-1/现在/出发
9357 U05:_B-1/现在/马上
2229 U05:_B-1/现在/你
3390 U05:_B-1/向/大门方向
6156 U05:_B-1/向/后
10410 U05:_B-1/向/后退
4599 U05:_B-1/向/右
2628 U05:_B-1/向/左
345 U05:_B-1/向前/走
11202 U05:_B-1/向前到/窗户下面
8184 U05:_B-1/向着/大厅
8052 U05:_B-1/向着/电梯口
6381 U05:_B-1/斜/穿过
9174 U05:_B-1/迅速/后退
4809 U05:_B-1/沿/大路
999 U05:_B-1/沿着/楼道
12660 U05:_B-1/沿着/楼道移动
11121 U05:_B-1/沿着/楼梯
5406 U05:_B-1/沿着/路
6531 U05:_B-1/沿着/桥的中线
3831 U05:_B-1/沿着/桌子的边沿
3573 U05:_B-1/一直/向前
6642 U05:_B-1/移动到/楼梯的底端
8721 U05:_B-1/以/0.5
10272 U05:_B-1/由/原点
11850 U05:_B-1/右拐/之后
5301 U05:_B-1/右前方/转弯
2517 U05:_B-1/右转/沿着
7383 U05:_B-1/再/靠
12450 U05:_B-1/再/往
3969 U05:_B-1/再/走过
9699 U05:_B-1/找到/楼梯
4917 U05:_B-1/转身/然后
8523 U05:_B-1/走/的
8445 U05:_B-1/走/远
7092 U05:_B-1/走到/A205门口
7734 U05:_B-1/走到/床的跟前
3243 U05:_B-1/走到/楼道口
1197 U05:_B-1/走到/楼梯处
7185 U05:_B-1/走到/前面的路口处
7701 U05:_B-1/走到/走廊尽头
12126 U05:_B-1/走过/这扇门
9969 U05:_B-1/走进/这扇门
7581 U05:_B-1/走近/前面的第二个桌子旁边
7551 U05:_B-1/走近/前面的那个桌子旁边
4185 U05:_B-1/左/转
12246 U05:_B-1/左/转身
4368 U05:_B-1/左/转弯
7875 U05:_B-2/_B-1/朝
8091 U05:_B-2/_B-1/朝着
5571 U05:_B-2/_B-1/出
4476 U05:_B-2/_B-1/穿过
567 U05:_B-2/_B-1/从
7230 U05:_B-2/_B-1/到
5994 U05:_B-2/_B-1/到达
9450 U05:_B-2/_B-1/抵达
5091 U05:_B-2/_B-1/过
2925 U05:_B-2/_B-1/后
2145 U05:_B-2/_B-1/后退
11706 U05:_B-2/_B-1/继续
783 U05:_B-2/_B-1/进入
11532 U05:_B-2/_B-1/靠
12282 U05:_B-2/_B-1/快
7008 U05:_B-2/_B-1/快点
6957 U05:_B-2/_B-1/快速
10908 U05:_B-2/_B-1/马上
6795 U05:_B-2/_B-1/慢
6711 U05:_B-2/_B-1/慢慢
1812 U05:_B-2/_B-1/你
12549 U05:_B-2/_B-1/跑到
9063 U05:_B-2/_B-1/前方
7770 U05:_B-2/_B-1/前方十字路口
483 U05:_B-2/_B-1/前进
11319 U05:_B-2/_B-1/前进到
8637 U05:_B-2/_B-1/请
2766 U05:_B-2/_B-1/然后
3105 U05:_B-2/_B-1/上
4977 U05:_B-2/_B-1/稍
6858 U05:_B-2/_B-1/稍微
1356 U05:_B-2/_B-1/顺着
15 U05:_B-2/_B-1/往
7599 U05:_B-2/_B-1/下
3753 U05:_B-2/_B-1/先
2205 U05:_B-2/_B-1/现在
2610 U05:_B-2/_B-1/向
315 U05:_B-2/_B-1/向前
11181 U05:_B-2/_B-1/向前到
8031 U05:_B-2/_B-1/向着
6357 U05:_B-2/_B-1/斜
9153 U05:_B-2/_B-1/迅速
4785 U05:_B-2/_B-1/沿
975 U05:_B-2/_B-1/沿着
3549 U05:_B-2/_B-1/一直
6621 U05:_B-2/_B-1/移动到
8682 U05:_B-2/_B-1/以
10251 U05:_B-2/_B-1/由
11835 U05:_B-2/_B-1/右拐
5283 U05:_B-2/_B-1/右前方
2481 U05:_B-2/_B-1/右转
3942 U05:_B-2/_B-1/再
9681 U05:_B-2/_B-1/找到
4896 U05:_B-2/_B-1/转身
8424 U05:_B-2/_B-1/走
1173 U05:_B-2/_B-1/走到
12111 U05:_B-2/_B-1/走过
9945 U05:_B-2/_B-1/走进
7530 U05:_B-2/_B-1/走近
4170 U05:_B-2/_B-1/左
9921 U05:b205/并/停
3354 U05:v/直到/A505的门口
11790 U05:板凳的位置/并/左转
3672 U05:并/出去/机电院大门
2721 U05:并/从/门口
9933 U05:并/停/下来
10998 U05:并/沿/楼道
1284 U05:并/沿着/楼梯
4335 U05:并/走出/大门
11805 U05:并/左转/直到
9045 U05:不能/快/一点
9285 U05:步/马上/右拐
7995 U05:厕所/向着/门口
7917 U05:朝/卧室/往
8160 U05:朝着/厕所/走过去
8127 U05:朝着/门口/走过去
5637 U05:出/了/大门
9420 U05:出发/往/门口
5919 U05:出发/沿着/玉带路
10347 U05:出发/一直/向前
744 U05:出发/走到/门口
5361 U05:出发/走到/桌子旁边
11949 U05:出口/继续/出去
11424 U05:出去/到/路中央
4518 U05:穿过/大门/一路
6429 U05:穿过/门/多
8319 U05:穿过/前面那个门/上
5181 U05:传达室/约/30
11238 U05:窗户下面/左/转弯
12606 U05:床边/后/往
8385 U05:从/D栋405/走到
7971 U05:从/厕所/向着
5859 U05:从/机电楼/出发
2745 U05:从/门口/出去
8244 U05:从/门口/离开到
4713 U05:从/起点/向
11982 U05:从/原点/向
2103 U05:从/这里/走到
654 U05:从/桌子/出发
5502 U05:打印机跟前/向/左转
10725 U05:大路/前进/直到
4860 U05:大路/行驶/390
2595 U05:大路/走到/柜子旁边
5685 U05:大门/往/右拐
4542 U05:大门/一路/向前
4314 U05:大门处/并/走出
3444 U05:大门方向/走/经过
4104 U05:大门口/右/拐
7350 U05:倒/5/米
7266 U05:到/203房间/去
4080 U05:到/大门口/右
11511 U05:到/电脑的桌子那儿/停
10032 U05:到/你的座位/去
7854 U05:到/左边拐弯的地方/右
11931 U05:到达/出口/继续
6039 U05:到达/收费站那儿/继续
8871 U05:的/速度/前进
6786 U05:的/往/前
8568 U05:的/再/远
9900 U05:抵达/b205/并
9492 U05:抵达/墙角/后
12390 U05:地/向/前
6849 U05:点/往/前
11523 U05:电脑的桌子那儿/停/下来
4458 U05:丁字路口/再/右
6480 U05:多/走/一
12504 U05:房间/后/往
1668 U05:房间/后/直接
1899 U05:赶紧/往/前
4155 U05:拐/出去/机电楼大门
10827 U05:拐/一点/然后
5148 U05:过/传达室/约
11769 U05:过去/板凳的位置/并
7335 U05:后/倒/5
12744 U05:后/停/下来
6192 U05:后/退/几
12510 U05:后/往/右
7671 U05:后/往/左
1710 U05:后/直接/走到
2988 U05:后/转/继续
11082 U05:后/转身/然后
12432 U05:后退/5/米
9219 U05:后退/几/步
2187 U05:后退/两/步
10155 U05:后退/两/米
5889 U05:机电楼/出发/沿着
909 U05:机电院大门/之后/向
9249 U05:几/步/马上
11748 U05:继续/过去/板凳的位置
3045 U05:继续/顺着/天桥
9609 U05:继续/往/前
11676 U05:交叉路口/再/向
10656 U05:接/下来/再
1632 U05:进入/房间/后
864 U05:进入/机电院大门/之后
1143 U05:尽头/右/转
3498 U05:经过/B座/后
6600 U05:径直/走到/对面
7458 U05:靠/门把手/近
11577 U05:靠/着/墙边
12309 U05:快/一点/往
11463 U05:快点/去/河上的桥
7056 U05:快点/去/门口
10176 U05:两/米/然后
5664 U05:了/大门/往
11031 U05:楼道/前进/直到
1461 U05:楼道/一路/向
2883 U05:楼道/一直/走到
1065 U05:楼道/走到/尽头
3321 U05:楼道口/v/直到
12711 U05:楼道移动/10/米
7653 U05:楼梯/后/往
1335 U05:楼梯/爬上/四楼
9741 U05:楼梯/然后/沿着
11160 U05:楼梯/上到/4楼
3165 U05:楼梯/之后/一直
1254 U05:楼梯处/并/沿着
9825 U05:路/一路/向
6108 U05:路/一直/走到
5451 U05:路/走到/打印机跟前
9402 U05:马上/出发/往
10095 U05:马上/往/后退
10956 U05:马上/右/转
8934 U05:迈/的/速度
6837 U05:慢/点/往
6942 U05:慢/一点/前进
6771 U05:慢慢/的/往
12378 U05:慢慢/地/向
6456 U05:门/多/走
7497 U05:门把手/近/一点
3651 U05:门口/并/出去
8265 U05:门口/离开到/窗户旁边
11376 U05:门口/之后/出去
12735 U05:米/后/停
5262 U05:米/后/直行
2034 U05:米/然后/右
10200 U05:米/然后/再
12087 U05:米/再/往
6300 U05:米/左转/90
8844 U05:米每秒/的/速度
1563 U05:南/到达/c404门口
9018 U05:能/不能/快
1884 U05:你/赶紧/往
10071 U05:你/马上/往
8991 U05:你/能/不能
2292 U05:你/在/原地
12591 U05:跑到/床边/后
4743 U05:起点/向/正北方向
11913 U05:前/到达/出口
12201 U05:前/一直/到达
8625 U05:前/再/远
10551 U05:前/走/5
12333 U05:前/走/几
195 U05:前/走/五
6681 U05:前/走/一点
9630 U05:前/走/直到
9111 U05:前方/移动/10
7815 U05:前方十字路口/左/转
1968 U05:前进/5/米
543 U05:前进/几/步
10743 U05:前进/直到/黑板前面
11046 U05:前进/直到/十字路口
11355 U05:前进到/门口/之后
7218 U05:前面的路口处/往/右拐
8334 U05:前面那个门/上/楼梯
11625 U05:墙边/一直/走到
9504 U05:墙角/后/往
6579 U05:桥的中线/径直/走到
10893 U05:然后/出门/去
4959 U05:然后/回到/原处
11097 U05:然后/向前/走
4245 U05:然后/向前/走到
10509 U05:然后/迅速/向
9762 U05:然后/沿着/它
2058 U05:然后/右/转
2823 U05:然后/右转/沿着
10227 U05:然后/再/回头
12030 U05:然后/走/1
2457 U05:然后/走到/桌子的尽头
3735 U05:然后/走向/玉带河的河边
3144 U05:上/楼梯/之后
5037 U05:稍/向/右
12411 U05:稍微/快/一点
6918 U05:稍微/慢/一点
5802 U05:十字路口那儿/继续/右拐
6060 U05:收费站那儿/继续/前进
3918 U05:书柜处/左/拐
10707 U05:顺着/大路/前进
1419 U05:顺着/楼道/一路
3066 U05:顺着/天桥/走到
9582 U05:顺着/这条路/继续
3087 U05:天桥/走到/一小段楼梯
6204 U05:退/几/步
7317 U05:往/后/倒
10125 U05:往/后退/一点
12486 U05:往/门把手的方向/走
9435 U05:往/门口/去
11895 U05:往/前/到达
9327 U05:往/前/一点
12180 U05:往/前/一直
8610 U05:往/前/再
135 U05:往/前/走
5982 U05:往/西/走
11280 U05:往/椅子的方向/走
10782 U05:往/右/拐
12108 U05:往/右/转
5712 U05:往/右拐/一直
7683 U05:往/左/拐
12627 U05:往/左/拐弯
7929 U05:卧室/往/前
9882 U05:西/抵达/b205
7635 U05:下/楼梯/后
10674 U05:下来/再/顺着
10455 U05:先/右/转
3786 U05:先/走到/桌子旁边
10593 U05:先/左/转弯
5349 U05:现在/出发/走到
9378 U05:现在/马上/出发
2259 U05:现在/你/在
3417 U05:向/大门方向/走
6174 U05:向/后/退
10422 U05:向/后退/一点
1536 U05:向/南/到达
10539 U05:向/前/走
9861 U05:向/西/抵达
4614 U05:向/右/转
4764 U05:向/正北方向/出发
2649 U05:向/左/转
5526 U05:向/左转/直到
10383 U05:向前/移动到/c400
6228 U05:向前/走/10
372 U05:向前/走/2
4575 U05:向前/走到/厕所旁边
4266 U05:向前/走到/大门处
3612 U05:向前/走到/门口
11223 U05:向前到/窗户下面/左
8202 U05:向着/大厅/前进
8073 U05:向着/电梯口/走过去
8016 U05:向着/门口/走
6405 U05:斜/穿过/门
4884 U05:行驶/390/米
9198 U05:迅速/后退/几
10527 U05:迅速/向/前
4836 U05:沿/大路/行驶
11016 U05:沿/楼道/前进
2574 U05:沿着/大路/走到
2859 U05:沿着/楼道/一直
1029 U05:沿着/楼道/走到
12687 U05:沿着/楼道移动/10
1311 U05:沿着/楼梯/爬上
11139 U05:沿着/楼梯/上到
9810 U05:沿着/路/一路
6093 U05:沿着/路/一直
5427 U05:沿着/路/走到
6555 U05:沿着/桥的中线/径直
9783 U05:沿着/它/上去
5943 U05:沿着/玉带路/往
3852 U05:沿着/桌子的边沿/走到
10863 U05:一点/然后/出门
12318 U05:一点/往/前
1500 U05:一路/向/南
9843 U05:一路/向/西
4560 U05:一路/向前/走到
12222 U05:一直/到达/空调的前面
3201 U05:一直/进入/A座
10365 U05:一直/向前/移动到
3597 U05:一直/向前/走到
2907 U05:一直/走到/第一个交叉口
11640 U05:一直/走到/交叉路口
5754 U05:一直/走到/十字路口那儿
6123 U05:一直/走到/体育馆
9132 U05:移动/10/厘米
11298 U05:椅子的方向/走/两
8904 U05:以/0.5/迈
8766 U05:以/0.5/米每秒
4059 U05:饮水机/到/大门口
10296 U05:由/原点/出发
4131 U05:右/拐/出去
10800 U05:右/拐/一点
10971 U05:右/转/并
4629 U05:右/转/进入
10470 U05:右/转/然后
5736 U05:右拐/一直/走到
11865 U05:右拐/之后/往
2550 U05:右转/沿着/大路
2838 U05:右转/沿着/楼道
5964 U05:玉带路/往/西
2355 U05:原地/左/转身
10323 U05:原点/出发/一直
11991 U05:原点/向/左
5214 U05:约/30/米
7416 U05:再/靠/门把手
10689 U05:再/顺着/大路
12468 U05:再/往/门把手的方向
12102 U05:再/往/右
11691 U05:再/向/右拐
4470 U05:再/右/转
8583 U05:再/远/一点
4002 U05:再/走过/饮水机
2325 U05:在/原地/左
9720 U05:找到/楼梯/然后
2124 U05:这里/走到/A501
10014 U05:这扇门/到/你的座位
12153 U05:这扇门/继续/往
9600 U05:这条路/继续/往
11397 U05:之后/出去/到
11880 U05:之后/往/前
948 U05:之后/向/左转
3183 U05:之后/一直/进入
9669 U05:直到/十字路口处/右转
1746 U05:直接/走到/桌子旁边
2700 U05:转/并/从
10983 U05:转/并/沿
3018 U05:转/继续/顺着
4647 U05:转/进入/厕所
5067 U05:转/进入/机电楼大厅
4224 U05:转/然后/向前
10488 U05:转/然后/迅速
12012 U05:转/然后/走
12270 U05:转身/进入/房间
4938 U05:转身/然后/回到
11091 U05:转身/然后/向前
2427 U05:转身/然后/走到
10632 U05:转弯/接/下来
4416 U05:转弯/走到/丁字路口
702 U05:桌子/出发/走到
3876 U05:桌子的边沿/走到/书柜处
5385 U05:桌子旁边/右/转
11604 U05:着/墙边/一直
12048 U05:走/1/米
6249 U05:走/10/米
399 U05:走/2/米
10560 U05:走/5/米
8544 U05:走/的/再
12342 U05:走/几/步
3471 U05:走/经过/B座
11310 U05:走/两/米
255 U05:走/五/米
6501 U05:走/一/米
8493 U05:走/远/点
8466 U05:走/远/一点
9648 U05:走/直到/十字路口处
7119 U05:走到/A205门口/停
7752 U05:走到/床的跟前/右转
5475 U05:走到/打印机跟前/向
4290 U05:走到/大门处/并
4437 U05:走到/丁字路口/再
11658 U05:走到/交叉路口/再
1104 U05:走到/尽头/右
3279 U05:走到/楼道口/v
1224 U05:走到/楼梯处/并
3630 U05:走到/门口/并
7203 U05:走到/前面的路口处/往
5775 U05:走到/十字路口那儿/继续
3897 U05:走到/书柜处/左
1776 U05:走到/桌子旁边/即可
5373 U05:走到/桌子旁边/右
3801 U05:走到/桌子旁边/右拐
4032 U05:走过/饮水机/到
12141 U05:走过/这扇门/继续
9993 U05:走进/这扇门/到
9531 U05:左/拐/一点
2676 U05:左/转/并
4200 U05:左/转/然后
12258 U05:左/转身/进入
2388 U05:左/转身/然后
10611 U05:左/转弯/接
4392 U05:左/转弯/走到
7866 U05:左边拐弯的地方/右/转
6330 U05:左转/90/度
5550 U05:左转/直到/门口处
11820 U05:左转/直到/书柜处
8907 U06:0.5/迈/的
8769 U06:0.5/米每秒/的
12051 U06:1/米/再
9135 U06:10/厘米/_B+1
11103 U06:10/米/_B+1
12714 U06:10/米/后
6252 U06:10/米/左转
402 U06:2/米/左转
7269 U06:203房间/去/_B+1
5217 U06:30/米/后
4887 U06:390/米/_B+1
7353 U06:5/米/_B+1
1971 U06:5/米/然后
6333 U06:90/度/_B+1
7122 U06:A205门口/停/下来
3501 U06:B座/后/右拐
8388 U06:D栋405/走到/A座502
7878 U06:_B-1/朝/卧室
8136 U06:_B-1/朝着/厕所
8094 U06:_B-1/朝着/门口
5574 U06:_B-1/出/了
4479 U06:_B-1/穿过/大门
8286 U06:_B-1/穿过/前面那个门
8349 U06:_B-1/从/D栋405
7935 U06:_B-1/从/厕所
5823 U06:_B-1/从/机电楼
8214 U06:_B-1/从/门口
4665 U06:_B-1/从/起点
11958 U06:_B-1/从/原点
2067 U06:_B-1/从/这里
570 U06:_B-1/从/桌子
7233 U06:_B-1/到/203房间
11481 U06:_B-1/到/电脑的桌子那儿
12516 U06:_B-1/到/楼道的尽头
7824 U06:_B-1/到/左边拐弯的地方
5997 U06:_B-1/到达/收费站那儿
9453 U06:_B-1/抵达/墙角
5094 U06:_B-1/过/传达室
2928 U06:_B-1/后/转
11061 U06:_B-1/后/转身
12414 U06:_B-1/后退/5
2148 U06:_B-1/后退/两
11709 U06:_B-1/继续/过去
1587 U06:_B-1/进入/房间
786 U06:_B-1/进入/机电院大门
11535 U06:_B-1/靠/着
12285 U06:_B-1/快/一点
7011 U06:_B-1/快点/去
6960 U06:_B-1/快速/前进
10911 U06:_B-1/马上/右
6798 U06:_B-1/慢/点
6714 U06:_B-1/慢慢/的
12348 U06:_B-1/慢慢/地
1815 U06:_B-1/你/赶紧
10041 U06:_B-1/你/马上
8943 U06:_B-1/你/能
12552 U06:_B-1/跑到/床边
9066 U06:_B-1/前方/移动
7773 U06:_B-1/前方十字路口/左
1929 U06:_B-1/前进/5
486 U06:_B-1/前进/几
11322 U06:_B-1/前进到/门口
8640 U06:_B-1/请/慢行
2769 U06:_B-1/然后/右转
3693 U06:_B-1/然后/走向
3108 U06:_B-1/上/楼梯
4980 U06:_B-1/稍/向
12393 U06:_B-1/稍微/快
6861 U06:_B-1/稍微/慢
1359 U06:_B-1/顺着/楼道
9552 U06:_B-1/顺着/这条路
7284 U06:_B-1/往/后
18 U06:_B-1/往/前
11247 U06:_B-1/往/椅子的方向
10758 U06:_B-1/往/右
7602 U06:_B-1/下/楼梯
10425 U06:_B-1/先/右
3756 U06:_B-1/先/走到
10566 U06:_B-1/先/左
5316 U06:_B-1/现在/出发
9345 U06:_B-1/现在/马上
2208 U06:_B-1/现在/你
3375 U06:_B-1/向/大门方向
6141 U06:_B-1/向/后
10398 U06:_B-1/向/后退
4590 U06:_B-1/向/右
2613 U06:_B-1/向/左
318 U06:_B-1/向前/走
11184 U06:_B-1/向前到/窗户下面
8172 U06:_B-1/向着/大厅
8034 U06:_B-1/向着/电梯口
6360 U06:_B-1/斜/穿过
9156 U06:_B-1/迅速/后退
4788 U06:_B-1/沿/大路
978 U06:_B-1/沿着/楼道
12645 U06:_B-1/沿着/楼道移动
11109 U06:_B-1/沿着/楼梯
5391 U06:_B-1/沿着/路
6516 U06:_B-1/沿着/桥的中线
3816 U06:_B-1/沿着/桌子的边沿
3552 U06:_B-1/一直/向前
6624 U06:_B-1/移动到/楼梯的底端
8685 U06:_B-1/以/0.5
10254 U06:_B-1/由/原点
11838 U06:_B-1/右拐/之后
5286 U06:_B-1/右前方/转弯
2484 U06:_B-1/右转/沿着
7362 U06:_B-1/再/靠
12438 U06:_B-1/再/往
3945 U06:_B-1/再/走过
9684 U06:_B-1/找到/楼梯
4899 U06:_B-1/转身/然后
8508 U06:_B-1/走/的
8427 U06:_B-1/走/远
7074 U06:_B-1/走到/A205门口
7722 U06:_B-1/走到/床的跟前
3222 U06:_B-1/走到/楼道口
1176 U06:_B-1/走到/楼梯处
7173 U06:_B-1/走到/前面的路口处
7689 U06:_B-1/走到/走廊尽头
12114 U06:_B-1/走过/这扇门
9948 U06:_B-1/走进/这扇门
7569 U06:_B-1/走近/前面的第二个桌子旁边
7533 U06:_B-1/走近/前面的那个桌子旁边
4173 U06:_B-1/左/转
12237 U06:_B-1/左/转身
4353 U06:_B-1/左/转弯
9903 U06:b205/并/停
3324 U06:v/直到/A505的门口
11772 U06:板凳的位置/并/左转
3654 U06:并/出去/机电院大门
2703 U06:并/从/门口
9924 U06:并/停/下来
10986 U06:并/沿/楼道
1257 U06:并/沿着/楼梯
4317 U06:并/走出/大门
11793 U06:并/左转/直到
9021 U06:不能/快/一点
9252 U06:步/马上/右拐
7974 U06:厕所/向着/门口
8163 U06:厕所/走过去/_B+1
7899 U06:朝/卧室/往
8148 U06:朝着/厕所/走过去
8112 U06:朝着/门口/走过去
5604 U06:出/了/大门
9405 U06:出发/往/门口
5892 U06:出发/沿着/玉带路
10326 U06:出发/一直/向前
705 U06:出发/走到/门口
5352 U06:出发/走到/桌子旁边
11934 U06:出口/继续/出去
10896 U06:出门/去/_B+1
11400 U06:出去/到/路中央
4158 U06:出去/机电楼大门/_B+1
3675 U06:出去/机电院大门/_B+1
4497 U06:穿过/大门/一路
6408 U06:穿过/门/多
8304 U06:穿过/前面那个门/上
5151 U06:传达室/约/30
11226 U06:窗户下面/左/转弯
12594 U06:床边/后/往
7755 U06:床的跟前/右转/_B+1
8367 U06:从/D栋405/走到
7950 U06:从/厕所/向着
5838 U06:从/机电楼/出发
2724 U06:从/门口/出去
8229 U06:从/门口/离开到
4686 U06:从/起点/向
11970 U06:从/原点/向
2085 U06:从/这里/走到
609 U06:从/桌子/出发
5478 U06:打印机跟前/向/左转
10710 U06:大路/前进/直到
4839 U06:大路/行驶/390
2577 U06:大路/走到/柜子旁边
5667 U06:大门/往/右拐
4521 U06:大门/一路/向前
4293 U06:大门处/并/走出
3420 U06:大门方向/走/经过
4083 U06:大门口/右/拐
8205 U06:大厅/前进/_B+1
7338 U06:倒/5/米
7251 U06:到/203房间/去
4062 U06:到/大门口/右
11496 U06:到/电脑的桌子那儿/停
12531 U06:到/楼道的尽头/_B+1
11427 U06:到/路中央/_B+1
10017 U06:到/你的座位/去
7839 U06:到/左边拐弯的地方/右
1566 U06:到达/c404门口/_B+1
11916 U06:到达/出口/继续
12225 U06:到达/空调的前面/_B+1
6018 U06:到达/收费站那儿/继续
8847 U06:的/速度/前进
6774 U06:的/往/前
8547 U06:的/再/远
9885 U06:抵达/b205/并
9474 U06:抵达/墙角/后
12381 U06:地/向/前
6840 U06:点/往/前
11514 U06:电脑的桌子那儿/停/下来
8076 U06:电梯口/走过去/_B+1
4440 U06:丁字路口/再/右
6459 U06:多/走/一
12498 U06:房间/后/往
1635 U06:房间/后/直接
1887 U06:赶紧/往/前
4134 U06:拐/出去/机电楼大门
9534 U06:拐/一点/_B+1
10803 U06:拐/一点/然后
5121 U06:过/传达室/约
11751 U06:过去/板凳的位置/并
7320 U06:后/倒/5
12738 U06:后/停/下来
6177 U06:后/退/几
12507 U06:后/往/右
7656 U06:后/往/左
3528 U06:后/右拐/_B+1
1671 U06:后/直接/走到
5265 U06:后/直行/_B+1
2955 U06:后/转/继续
11073 U06:后/转身/然后
12426 U06:后退/5/米
9201 U06:后退/几/步
2169 U06:后退/两/步
10146 U06:后退/两/米
10128 U06:后退/一点/_B+1
4962 U06:回到/原处/_B+1
5862 U06:机电楼/出发/沿着
867 U06:机电院大门/之后/向
546 U06:几/步/_B+1
9222 U06:几/步/马上
11952 U06:继续/出去/_B+1
11730 U06:继续/过去/板凳的位置
6063 U06:继续/前进/_B+1
3021 U06:继续/顺着/天桥
9603 U06:继续/往/前
5805 U06:继续/右拐/_B+1
11661 U06:交叉路口/再/向
10635 U06:接/下来/再
3204 U06:进入/A座/_B+1
4650 U06:进入/厕所/_B+1
12273 U06:进入/房间/_B+1
1608 U06:进入/房间/后
5070 U06:进入/机电楼大厅/_B+1
822 U06:进入/机电院大门/之后
7500 U06:近/一点/_B+1
1107 U06:尽头/右/转
3474 U06:经过/B座/后
6582 U06:径直/走到/对面
7419 U06:靠/门把手/近
11556 U06:靠/着/墙边
9048 U06:快/一点/_B+1
12297 U06:快/一点/往
11451 U06:快点/去/河上的桥
7035 U06:快点/去/门口
6987 U06:快速/前进/_B+1
8268 U06:离开到/窗户旁边/_B+1
2190 U06:两/步/_B+1
11313 U06:两/米/_B+1
10158 U06:两/米/然后
5640 U06:了/大门/往
11019 U06:楼道/前进/直到
1422 U06:楼道/一路/向
2862 U06:楼道/一直/走到
1032 U06:楼道/走到/尽头
3282 U06:楼道口/v/直到
12690 U06:楼道移动/10/米
7638 U06:楼梯/后/往
1314 U06:楼梯/爬上/四楼
9723 U06:楼梯/然后/沿着
11142 U06:楼梯/上到/4楼
3147 U06:楼梯/之后/一直
1227 U06:楼梯处/并/沿着
9813 U06:路/一路/向
6096 U06:路/一直/走到
5430 U06:路/走到/打印机跟前
9381 U06:马上/出发/往
10074 U06:马上/往/后退
10935 U06:马上/右/转
9288 U06:马上/右拐/_B+1
8925 U06:迈/的/速度
6819 U06:慢/点/往
6921 U06:慢/一点/前进
6744 U06:慢慢/的/往
12363 U06:慢慢/地/向
6432 U06:门/多/走
7461 U06:门把手/近/一点
12489 U06:门把手的方向/走/_B+1
3633 U06:门口/并/出去
2748 U06:门口/出去/_B+1
8247 U06:门口/离开到/窗户旁边
9438 U06:门口/去/_B+1
11358 U06:门口/之后/出去
8019 U06:门口/走/_B+1
8130 U06:门口/走过去/_B+1
12726 U06:米/后/停
5244 U06:米/后/直行
2001 U06:米/然后/右
10179 U06:米/然后/再
12072 U06:米/再/往
6276 U06:米/左转/90
438 U06:米/左转/_B+1
8811 U06:米每秒/的/速度
1539 U06:南/到达/c404门口
8994 U06:能/不能/快
1857 U06:你/赶紧/往
10056 U06:你/马上/往
8964 U06:你/能/不能
2262 U06:你/在/原地
10035 U06:你的座位/去/_B+1
1338 U06:爬上/四楼/_B+1
12573 U06:跑到/床边/后
4716 U06:起点/向/正北方向
11898 U06:前/到达/出口
9330 U06:前/一点/_B+1
12183 U06:前/一直/到达
8613 U06:前/再/远
10542 U06:前/走/5
1908 U06:前/走/_B+1
12324 U06:前/走/几
138 U06:前/走/五
6666 U06:前/走/一点
9618 U06:前/走/直到
9090 U06:前方/移动/10
7800 U06:前方十字路口/左/转
1947 U06:前进/5/米
519 U06:前进/几/步
10728 U06:前进/直到/黑板前面
11034 U06:前进/直到/十字路口
11340 U06:前进到/门口/之后
7206 U06:前面的路口处/往/右拐
8322 U06:前面那个门/上/楼梯
11607 U06:墙边/一直/走到
9495 U06:墙角/后/往
6558 U06:桥的中线/径直/走到
8661 U06:请/慢行/_B+1
11466 U06:去/河上的桥/_B+1
7059 U06:去/门口/_B+1
10866 U06:然后/出门/去
4941 U06:然后/回到/原处
11094 U06:然后/向前/走
4227 U06:然后/向前/走到
10491 U06:然后/迅速/向
9744 U06:然后/沿着/它
2037 U06:然后/右/转
2802 U06:然后/右转/沿着
10203 U06:然后/再/回头
12015 U06:然后/走/1
2430 U06:然后/走到/桌子的尽头
3714 U06:然后/走向/玉带河的河边
8337 U06:上/楼梯/_B+1
3126 U06:上/楼梯/之后
11163 U06:上到/4楼/_B+1
5016 U06:稍/向/右
12405 U06:稍微/快/一点
6891 U06:稍微/慢/一点
9672 U06:十字路口处/右转/_B+1
5778 U06:十字路口那儿/继续/右拐
6042 U06:收费站那儿/继续/前进
3900 U06:书柜处/左/拐
10692 U06:顺着/大路/前进
1386 U06:顺着/楼道/一路
3048 U06:顺着/天桥/走到
9567 U06:顺着/这条路/继续
8874 U06:速度/前进/_B+1
9786 U06:它/上去/_B+1
3069 U06:天桥/走到/一小段楼梯
7152 U06:停/下来/_B+1
6195 U06:退/几/步
7302 U06:往/后/倒
10098 U06:往/后退/一点
12471 U06:往/门把手的方向/走
9423 U06:往/门口/去
11883 U06:往/前/到达
9309 U06:往/前/一点
12162 U06:往/前/一直
8595 U06:往/前/再
78 U06:往/前/走
5967 U06:往/西/走
11265 U06:往/椅子的方向/走
10770 U06:往/右/拐
12105 U06:往/右/转
7221 U06:往/右拐/_B+1
5688 U06:往/右拐/一直
7674 U06:往/左/拐
12615 U06:往/左/拐弯
7920 U06:卧室/往/前
258 U06:五/米/_B+1
9864 U06:西/抵达/b205
5985 U06:西/走/_B+1
7620 U06:下/楼梯/后
10659 U06:下来/再/顺着
10440 U06:先/右/转
3774 U06:先/走到/桌子旁边
10581 U06:先/左/转弯
5334 U06:现在/出发/走到
9360 U06:现在/马上/出发
2232 U06:现在/你/在
3393 U06:向/大门方向/走
6159 U06:向/后/退
10413 U06:向/后退/一点
1503 U06:向/南/到达
10530 U06:向/前/走
9846 U06:向/西/抵达
4602 U06:向/右/转
11694 U06:向/右拐/_B+1
4746 U06:向/正北方向/出发
2631 U06:向/左/转
951 U06:向/左转/_B+1
5505 U06:向/左转/直到
10368 U06:向前/移动到/c400
6216 U06:向前/走/10
348 U06:向前/走/2
4563 U06:向前/走到/厕所旁边
4248 U06:向前/走到/大门处
3600 U06:向前/走到/门口
11205 U06:向前到/窗户下面/左
8187 U06:向着/大厅/前进
8055 U06:向着/电梯口/走过去
7998 U06:向着/门口/走
6384 U06:斜/穿过/门
4863 U06:行驶/390/米
9177 U06:迅速/后退/几
10512 U06:迅速/向/前
4812 U06:沿/大路/行驶
11001 U06:沿/楼道/前进
2553 U06:沿着/大路/走到
2841 U06:沿着/楼道/一直
1002 U06:沿着/楼道/走到
12663 U06:沿着/楼道移动/10
1287 U06:沿着/楼梯/爬上
11124 U06:沿着/楼梯/上到
9801 U06:沿着/路/一路
6081 U06:沿着/路/一直
5409 U06:沿着/路/走到
6534 U06:沿着/桥的中线/径直
9765 U06:沿着/它/上去
5922 U06:沿着/玉带路/往
3834 U06:沿着/桌子的边沿/走到
6504 U06:一/米/_B+1
6945 U06:一点/前进/_B+1
10830 U06:一点/然后/出门
12312 U06:一点/往/前
1464 U06:一路/向/南
9828 U06:一路/向/西
4545 U06:一路/向前/走到
12204 U06:一直/到达/空调的前面
3186 U06:一直/进入/A座
10350 U06:一直/向前/移动到
3576 U06:一直/向前/走到
2886 U06:一直/走到/第一个交叉口
11628 U06:一直/走到/交叉路口
5739 U06:一直/走到/十字路口那儿
6111 U06:一直/走到/体育馆
9114 U06:移动/10/厘米
10386 U06:移动到/c400/_B+1
6645 U06:移动到/楼梯的底端/_B+1
11283 U06:椅子的方向/走/两
8892 U06:以/0.5/迈
8724 U06:以/0.5/米每秒
4035 U06:饮水机/到/大门口
10275 U06:由/原点/出发
4107 U06:右/拐/出去
10785 U06:右/拐/一点
1146 U06:右/转/_B+1
10959 U06:右/转/并
4617 U06:右/转/进入
10458 U06:右/转/然后
5715 U06:右拐/一直/走到
11853 U06:右拐/之后/往
5304 U06:右前方/转弯/_B+1
2520 U06:右转/沿着/大路
2826 U06:右转/沿着/楼道
5946 U06:玉带路/往/西
2328 U06:原地/左/转身
10299 U06:原点/出发/一直
11985 U06:原点/向/左
8496 U06:远/点/_B+1
8469 U06:远/一点/_B+1
5184 U06:约/30/米
10230 U06:再/回头/_B+1
7386 U06:再/靠/门把手
10677 U06:再/顺着/大路
12453 U06:再/往/门把手的方向
12090 U06:再/往/右
11679 U06:再/向/右拐
4461 U06:再/右/转
8571 U06:再/远/一点
3972 U06:再/走过/饮水机
2295 U06:在/原地/左
9702 U06:找到/楼梯/然后
2106 U06:这里/走到/A501
9996 U06:这扇门/到/你的座位
12144 U06:这扇门/继续/往
9585 U06:这条路/继续/往
4767 U06:正北方向/出发/_B+1
11379 U06:之后/出去/到
11868 U06:之后/往/前
912 U06:之后/向/左转
3168 U06:之后/一直/进入
3357 U06:直到/A505的门口/_B+1
10746 U06:直到/黑板前面/_B+1
5553 U06:直到/门口处/_B+1
11049 U06:直到/十字路口/_B+1
9651 U06:直到/十字路口处/右转
11823 U06:直到/书柜处/_B+1
1713 U06:直接/走到/桌子旁边
2679 U06:转/并/从
10974 U06:转/并/沿
2991 U06:转/继续/顺着
4632 U06:转/进入/厕所
5055 U06:转/进入/机电楼大厅
4203 U06:转/然后/向前
10473 U06:转/然后/迅速
12000 U06:转/然后/走
12261 U06:转身/进入/房间
4920 U06:转身/然后/回到
11085 U06:转身/然后/向前
2391 U06:转身/然后/走到
10614 U06:转弯/接/下来
4395 U06:转弯/走到/丁字路口
657 U06:桌子/出发/走到
3855 U06:桌子的边沿/走到/书柜处
1779 U06:桌子旁边/即可/_B+1
5376 U06:桌子旁边/右/转
3804 U06:桌子旁边/右拐/_B+1
11580 U06:着/墙边/一直
12033 U06:走/1/米
6231 U06:走/10/米
375 U06:走/2/米
10554 U06:走/5/米
8526 U06:走/的/再
12336 U06:走/几/步
3447 U06:走/经过/B座
11301 U06:走/两/米
198 U06:走/五/米
6483 U06:走/一/米
6684 U06:走/一点/_B+1
8484 U06:走/远/点
8448 U06:走/远/一点
9633 U06:走/直到/十字路口处
4338 U06:走出/大门/_B+1
7095 U06:走到/A205门口/停
2127 U06:走到/A501/_B+1
8409 U06:走到/A座502/_B+1
4578 U06:走到/厕所旁边/_B+1
7737 U06:走到/床的跟前/右转
5454 U06:走到/打印机跟前/向
4269 U06:走到/大门处/并
2910 U06:走到/第一个交叉口/_B+1
4419 U06:走到/丁字路口/再
6603 U06:走到/对面/_B+1
2598 U06:走到/柜子旁边/_B+1
11643 U06:走到/交叉路口/再
1068 U06:走到/尽头/右
3246 U06:走到/楼道口/v
1200 U06:走到/楼梯处/并
747 U06:走到/门口/_B+1
3615 U06:走到/门口/并
7188 U06:走到/前面的路口处/往
5757 U06:走到/十字路口那儿/继续
3879 U06:走到/书柜处/左
6126 U06:走到/体育馆/_B+1
3090 U06:走到/一小段楼梯/_B+1
2460 U06:走到/桌子的尽头/_B+1
1749 U06:走到/桌子旁边/即可
5364 U06:走到/桌子旁边/右
3789 U06:走到/桌子旁边/右拐
7704 U06:走到/走廊尽头/_B+1
4005 U06:走过/饮水机/到
12129 U06:走过/这扇门/继续
9972 U06:走进/这扇门/到
7584 U06:走近/前面的第二个桌子旁边/_B+1
7554 U06:走近/前面的那个桌子旁边/_B+1
3738 U06:走向/玉带河的河边/_B+1
3921 U06:左/拐/_B+1
9513 U06:左/拐/一点
12630 U06:左/拐弯/_B+1
7818 U06:左/转/_B+1
2652 U06:左/转/并
4188 U06:左/转/然后
12249 U06:左/转身/进入
2358 U06:左/转身/然后
11241 U06:左/转弯/_B+1
10596 U06:左/转弯/接
4371 U06:左/转弯/走到
7857 U06:左边拐弯的地方/右/转
6303 U06:左转/90/度
5529 U06:左转/直到/门口处
11808 U06:左转/直到/书柜处
8895 U07:0.5/迈/的
8727 U07:0.5/米每秒/的
12036 U07:1/米/再
9117 U07:10/厘米/_B+1
11100 U07:10/米/_B+1
12693 U07:10/米/后
6234 U07:10/米/左转
378 U07:2/米/左转
7254 U07:203房间/去/_B+1
5187 U07:30/米/后
4866 U07:390/米/_B+1
11166 U07:4楼/_B+1/_B+2
7341 U07:5/米/_B+1
1950 U07:5/米/然后
6306 U07:90/度/_B+1
7098 U07:A205门口/停/下来
2130 U07:A501/_B+1/_B+2
3360 U07:A505的门口/_B+1/_B+2
3207 U07:A座/_B+1/_B+2
8412 U07:A座502/_B+1/_B+2
3477 U07:B座/后/右拐
8370 U07:D栋405/走到/A座502
9888 U07:b205/并/停
10389 U07:c400/_B+1/_B+2
1569 U07:c404门口/_B+1/_B+2
3285 U07:v/直到/A505的门口
11754 U07:板凳的位置/并/左转
3636 U07:并/出去/机电院大门
2682 U07:并/从/门口
9906 U07:并/停/下来
10977 U07:并/沿/楼道
1230 U07:并/沿着/楼梯
4296 U07:并/走出/大门
11775 U07:并/左转/直到
8997 U07:不能/快/一点
549 U07:步/_B+1/_B+2
9225 U07:步/马上/右拐
4653 U07:厕所/_B+1/_B+2
7953 U07:厕所/向着/门口
8151 U07:厕所/走过去/_B+1
4581 U07:厕所旁边/_B+1/_B+2
7881 U07:朝/卧室/往
8139 U07:朝着/厕所/走过去
8097 U07:朝着/门口/走过去
5577 U07:出/了/大门
4770 U07:出发/_B+1/_B+2
9384 U07:出发/往/门口
5865 U07:出发/沿着/玉带路
10302 U07:出发/一直/向前
660 U07:出发/走到/门口
5337 U07:出发/走到/桌子旁边
11919 U07:出口/继续/出去
10869 U07:出门/去/_B+1
2751 U07:出去/_B+1/_B+2
11382 U07:出去/到/路中央
4137 U07:出去/机电楼大门/_B+1
3657 U07:出去/机电院大门/_B+1
4482 U07:穿过/大门/一路
6387 U07:穿过/门/多
8289 U07:穿过/前面那个门/上
5124 U07:传达室/约/30
8271 U07:窗户旁边/_B+1/_B+2
11208 U07:窗户下面/左/转弯
12576 U07:床边/后/往
7740 U07:床的跟前/右转/_B+1
8352 U07:从/D栋405/走到
7938 U07:从/厕所/向着
5826 U07:从/机电楼/出发
2706 U07:从/门口/出去
8217 U07:从/门口/离开到
4668 U07:从/起点/向
11961 U07:从/原点/向
2070 U07:从/这里/走到
573 U07:从/桌子/出发
5457 U07:打印机跟前/向/左转
10695 U07:大路/前进/直到
4815 U07:大路/行驶/390
2556 U07:大路/走到/柜子旁边
4341 U07:大门/_B+1/_B+2
5643 U07:大门/往/右拐
4500 U07:大门/一路/向前
4272 U07:大门处/并/走出
3396 U07:大门方向/走/经过
4065 U07:大门口/右/拐
8190 U07:大厅/前进/_B+1
7323 U07:倒/5/米
7236 U07:到/203房间/去
4038 U07:到/大门口/右
11484 U07:到/电脑的桌子那儿/停
12519 U07:到/楼道的尽头/_B+1
11403 U07:到/路中央/_B+1
9999 U07:到/你的座位/去
7827 U07:到/左边拐弯的地方/右
1542 U07:到达/c404门口/_B+1
11901 U07:到达/出口/继续
12207 U07:到达/空调的前面/_B+1
6000 U07:到达/收费站那儿/继续
8814 U07:的/速度/前进
6747 U07:的/往/前
8529 U07:的/再/远
9867 U07:抵达/b205/并
9456 U07:抵达/墙角/后
12366 U07:地/向/前
2913 U07:第一个交叉口/_B+1/_B+2
8499 U07:点/_B+1/_B+2
6822 U07:点/往/前
11499 U07:电脑的桌子那儿/停/下来
8058 U07:电梯口/走过去/_B+1
4422 U07:丁字路口/再/右
6336 U07:度/_B+1/_B+2
6606 U07:对面/_B+1/_B+2
6435 U07:多/走/一
12276 U07:房间/_B+1/_B+2
12495 U07:房间/后/往
1611 U07:房间/后/直接
1860 U07:赶紧/往/前
3924 U07:拐/_B+1/_B+2
4110 U07:拐/出去/机电楼大门
9516 U07:拐/一点/_B+1
10788 U07:拐/一点/然后
12633 U07:拐弯/_B+1/_B+2
2601 U07:柜子旁边/_B+1/_B+2
5097 U07:过/传达室/约
11733 U07:过去/板凳的位置/并
11469 U07:河上的桥/_B+1/_B+2
10749 U07:黑板前面/_B+1/_B+2
7305 U07:后/倒/5
12729 U07:后/停/下来
6162 U07:后/退/几
12501 U07:后/往/右
7641 U07:后/往/左
3504 U07:后/右拐/_B+1
1638 U07:后/直接/走到
5247 U07:后/直行/_B+1
2931 U07:后/转/继续
11064 U07:后/转身/然后
12417 U07:后退/5/米
9180 U07:后退/几/步
2151 U07:后退/两/步
10143 U07:后退/两/米
10101 U07:后退/一点/_B+1
4944 U07:回到/原处/_B+1
10233 U07:回头/_B+1/_B+2
5841 U07:机电楼/出发/沿着
4161 U07:机电楼大门/_B+1/_B+2
5073 U07:机电楼大厅/_B+1/_B+2
3678 U07:机电院大门/_B+1/_B+2
825 U07:机电院大门/之后/向
1782 U07:即可/_B+1/_B+2
522 U07:几/步/_B+1
9204 U07:几/步/马上
11937 U07:继续/出去/_B+1
11712 U07:继续/过去/板凳的位置
6045 U07:继续/前进/_B+1
2994 U07:继续/顺着/天桥
9588 U07:继续/往/前
5781 U07:继续/右拐/_B+1
11646 U07:交叉路口/再/向
10617 U07:接/下来/再
3189 U07:进入/A座/_B+1
4635 U07:进入/厕所/_B+1
12264 U07:进入/房间/_B+1
1590 U07:进入/房间/后
5058 U07:进入/机电楼大厅/_B+1
789 U07:进入/机电院大门/之后
7464 U07:近/一点/_B+1
1071 U07:尽头/右/转
3450 U07:经过/B座/后
6561 U07:径直/走到/对面
7389 U07:靠/门把手/近
11538 U07:靠/着/墙边
12228 U07:空调的前面/_B+1/_B+2
9024 U07:快/一点/_B+1
12288 U07:快/一点/往
11445 U07:快点/去/河上的桥
7014 U07:快点/去/门口
6963 U07:快速/前进/_B+1
9138 U07:厘米/_B+1/_B+2
8250 U07:离开到/窗户旁边/_B+1
2172 U07:两/步/_B+1
11304 U07:两/米/_B+1
10149 U07:两/米/然后
5607 U07:了/大门/往
11004 U07:楼道/前进/直到
1389 U07:楼道/一路/向
2844 U07:楼道/一直/走到
1005 U07:楼道/走到/尽头
12534 U07:楼道的尽头/_B+1/_B+2
3249 U07:楼道口/v/直到
12666 U07:楼道移动/10/米
8340 U07:楼梯/_B+1/_B+2
7623 U07:楼梯/后/往
1290 U07:楼梯/爬上/四楼
9705 U07:楼梯/然后/沿着
11127 U07:楼梯/上到/4楼
3129 U07:楼梯/之后/一直
1203 U07:楼梯处/并/沿着
6648 U07:楼梯的底端/_B+1/_B+2
9804 U07:路/一路/向
6084 U07:路/一直/走到
5412 U07:路/走到/打印机跟前
11430 U07:路中央/_B+1/_B+2
9363 U07:马上/出发/往
10059 U07:马上/往/后退
10914 U07:马上/右/转
9255 U07:马上/右拐/_B+1
8910 U07:迈/的/速度
6801 U07:慢/点/往
6894 U07:慢/一点/前进
6717 U07:慢慢/的/往
12351 U07:慢慢/地/向
8664 U07:慢行/_B+1/_B+2
6411 U07:门/多/走
7422 U07:门把手/近/一点
12474 U07:门把手的方向/走/_B+1
750 U07:门口/_B+1/_B+2
3618 U07:门口/并/出去
2727 U07:门口/出去/_B+1
8232 U07:门口/离开到/窗户旁边
9426 U07:门口/去/_B+1
11343 U07:门口/之后/出去
8001 U07:门口/走/_B+1
8115 U07:门口/走过去/_B+1
5556 U07:门口处/_B+1/_B+2
261 U07:米/_B+1/_B+2
12717 U07:米/后/停
5220 U07:米/后/直行
1974 U07:米/然后/右
10161 U07:米/然后/再
12054 U07:米/再/往
6255 U07:米/左转/90
405 U07:米/左转/_B+1
8772 U07:米每秒/的/速度
1506 U07:南/到达/c404门口
8967 U07:能/不能/快
1818 U07:你/赶紧/往
10044 U07:你/马上/往
8946 U07:你/能/不能
2235 U07:你/在/原地
10020 U07:你的座位/去/_B+1
1317 U07:爬上/四楼/_B+1
12555 U07:跑到/床边/后
4689 U07:起点/向/正北方向
11886 U07:前/到达/出口
9312 U07:前/一点/_B+1
12165 U07:前/一直/到达
8598 U07:前/再/远
10533 U07:前/走/5
1902 U07:前/走/_B+1
12321 U07:前/走/几
81 U07:前/走/五
6660 U07:前/走/一点
9612 U07:前/走/直到
9069 U07:前方/移动/10
7776 U07:前方十字路口/左/转
1932 U07:前进/5/米
6066 U07:前进/_B+1/_B+2
489 U07:前进/几/步
10713 U07:前进/直到/黑板前面
11022 U07:前进/直到/十字路口
11325 U07:前进到/门口/之后
7587 U07:前面的第二个桌子旁边/_B+1/_B+2
7191 U07:前面的路口处/往/右拐
7557 U07:前面的那个桌子旁边/_B+1/_B+2
8307 U07:前面那个门/上/楼梯
11583 U07:墙边/一直/走到
9477 U07:墙角/后/往
6537 U07:桥的中线/径直/走到
8643 U07:请/慢行/_B+1
7272 U07:去/_B+1/_B+2
11454 U07:去/河上的桥/_B+1
7038 U07:去/门口/_B+1
10833 U07:然后/出门/去
4923 U07:然后/回到/原处
11088 U07:然后/向前/走
4206 U07:然后/向前/走到
10476 U07:然后/迅速/向
9726 U07:然后/沿着/它
2004 U07:然后/右/转
2772 U07:然后/右转/沿着
10182 U07:然后/再/回头
12003 U07:然后/走/1
2394 U07:然后/走到/桌子的尽头
3696 U07:然后/走向/玉带河的河边
8325 U07:上/楼梯/_B+1
3111 U07:上/楼梯/之后
11145 U07:上到/4楼/_B+1
9789 U07:上去/_B+1/_B+2
4983 U07:稍/向/右
12396 U07:稍微/快/一点
6864 U07:稍微/慢/一点
11052 U07:十字路口/_B+1/_B+2
9654 U07:十字路口处/右转/_B+1
5760 U07:十字路口那儿/继续/右拐
6021 U07:收费站那儿/继续/前进
11826 U07:书柜处/_B+1/_B+2
3882 U07:书柜处/左/拐
10680 U07:顺着/大路/前进
1362 U07:顺着/楼道/一路
3024 U07:顺着/天桥/走到
9555 U07:顺着/这条路/继续
1341 U07:四楼/_B+1/_B+2
8850 U07:速度/前进/_B+1
9768 U07:它/上去/_B+1
6129 U07:体育馆/_B+1/_B+2
3051 U07:天桥/走到/一小段楼梯
7125 U07:停/下来/_B+1
6180 U07:退/几/步
7287 U07:往/后/倒
10077 U07:往/后退/一点
12456 U07:往/门把手的方向/走
9408 U07:往/门口/去
11871 U07:往/前/到达
9303 U07:往/前/一点
12156 U07:往/前/一直
8589 U07:往/前/再
21 U07:往/前/走
5949 U07:往/西/走
11250 U07:往/椅子的方向/走
10761 U07:往/右/拐
12093 U07:往/右/转
7209 U07:往/右拐/_B+1
5670 U07:往/右拐/一直
7659 U07:往/左/拐
12609 U07:往/左/拐弯
7902 U07:卧室/往/前
201 U07:五/米/_B+1
9849 U07:西/抵达/b205
5970 U07:西/走/_B+1
7605 U07:下/楼梯/后
7155 U07:下来/_B+1/_B+2
10638 U07:下来/再/顺着
10428 U07:先/右/转
3759 U07:先/走到/桌子旁边
10569 U07:先/左/转弯
5319 U07:现在/出发/走到
9348 U07:现在/马上/出发
2211 U07:现在/你/在
3378 U07:向/大门方向/走
6144 U07:向/后/退
10401 U07:向/后退/一点
1467 U07:向/南/到达
10515 U07:向/前/走
9831 U07:向/西/抵达
4593 U07:向/右/转
11682 U07:向/右拐/_B+1
4719 U07:向/正北方向/出发
2616 U07:向/左/转
915 U07:向/左转/_B+1
5481 U07:向/左转/直到
10353 U07:向前/移动到/c400
6210 U07:向前/走/10
321 U07:向前/走/2
4548 U07:向前/走到/厕所旁边
4230 U07:向前/走到/大门处
3579 U07:向前/走到/门口
11187 U07:向前到/窗户下面/左
8175 U07:向着/大厅/前进
8037 U07:向着/电梯口/走过去
7977 U07:向着/门口/走
6363 U07:斜/穿过/门
4842 U07:行驶/390/米
9159 U07:迅速/后退/几
10494 U07:迅速/向/前
4791 U07:沿/大路/行驶
10989 U07:沿/楼道/前进
2523 U07:沿着/大路/走到
2829 U07:沿着/楼道/一直
981 U07:沿着/楼道/走到
12648 U07:沿着/楼道移动/10
1260 U07:沿着/楼梯/爬上
11112 U07:沿着/楼梯/上到
9798 U07:沿着/路/一路
6078 U07:沿着/路/一直
5394 U07:沿着/路/走到
6519 U07:沿着/桥的中线/径直
9747 U07:沿着/它/上去
5895 U07:沿着/玉带路/往
3819 U07:沿着/桌子的边沿/走到
6486 U07:一/米/_B+1
6687 U07:一点/_B+1/_B+2
6924 U07:一点/前进/_B+1
10806 U07:一点/然后/出门
12300 U07:一点/往/前
1425 U07:一路/向/南
9816 U07:一路/向/西
4524 U07:一路/向前/走到
3093 U07:一小段楼梯/_B+1/_B+2
12186 U07:一直/到达/空调的前面
3171 U07:一直/进入/A座
10329 U07:一直/向前/移动到
3555 U07:一直/向前/走到
2865 U07:一直/走到/第一个交叉口
11610 U07:一直/走到/交叉路口
5718 U07:一直/走到/十字路口那儿
6099 U07:一直/走到/体育馆
9093 U07:移动/10/厘米
10371 U07:移动到/c400/_B+1
6627 U07:移动到/楼梯的底端/_B+1
11268 U07:椅子的方向/走/两
8886 U07:以/0.5/迈
8688 U07:以/0.5/米每秒
4008 U07:饮水机/到/大门口
10257 U07:由/原点/出发
4086 U07:右/拐/出去
10773 U07:右/拐/一点
1110 U07:右/转/_B+1
10938 U07:右/转/并
4605 U07:右/转/进入
10443 U07:右/转/然后
3531 U07:右拐/_B+1/_B+2
5691 U07:右拐/一直/走到
11841 U07:右拐/之后/往
5289 U07:右前方/转弯/_B+1
7758 U07:右转/_B+1/_B+2
2487 U07:右转/沿着/大路
2805 U07:右转/沿着/楼道
3741 U07:玉带河的河边/_B+1/_B+2
5925 U07:玉带路/往/西
4965 U07:原处/_B+1/_B+2
2298 U07:原地/左/转身
10278 U07:原点/出发/一直
11973 U07:原点/向/左
8487 U07:远/点/_B+1
8451 U07:远/一点/_B+1
5154 U07:约/30/米
10206 U07:再/回头/_B+1
7365 U07:再/靠/门把手
10662 U07:再/顺着/大路
12441 U07:再/往/门把手的方向
12075 U07:再/往/右
11664 U07:再/向/右拐
4443 U07:再/右/转
8550 U07:再/远/一点
3948 U07:再/走过/饮水机
2265 U07:在/原地/左
9687 U07:找到/楼梯/然后
2088 U07:这里/走到/A501
9975 U07:这扇门/到/你的座位
12132 U07:这扇门/继续/往
9570 U07:这条路/继续/往
4749 U07:正北方向/出发/_B+1
11361 U07:之后/出去/到
11856 U07:之后/往/前
870 U07:之后/向/左转
3150 U07:之后/一直/进入
3327 U07:直到/A505的门口/_B+1
10731 U07:直到/黑板前面/_B+1
5532 U07:直到/门口处/_B+1
11037 U07:直到/十字路口/_B+1
9636 U07:直到/十字路口处/右转
11811 U07:直到/书柜处/_B+1
1674 U07:直接/走到/桌子旁边
5268 U07:直行/_B+1/_B+2
1149 U07:转/_B+1/_B+2
2655 U07:转/并/从
10962 U07:转/并/沿
2958 U07:转/继续/顺着
4620 U07:转/进入/厕所
5049 U07:转/进入/机电楼大厅
4191 U07:转/然后/向前
10461 U07:转/然后/迅速
11994 U07:转/然后/走
12252 U07:转身/进入/房间
4902 U07:转身/然后/回到
11076 U07:转身/然后/向前
2361 U07:转身/然后/走到
5307 U07:转弯/_B+1/_B+2
10599 U07:转弯/接/下来
4374 U07:转弯/走到/丁字路口
612 U07:桌子/出发/走到
3837 U07:桌子的边沿/走到/书柜处
2463 U07:桌子的尽头/_B+1/_B+2
1752 U07:桌子旁边/即可/_B+1
5367 U07:桌子旁边/右/转
3792 U07:桌子旁边/右拐/_B+1
11559 U07:着/墙边/一直
12018 U07:走/1/米
6219 U07:走/10/米
351 U07:走/2/米
10545 U07:走/5/米
1911 U07:走/_B+1/_B+2
8511 U07:走/的/再
12327 U07:走/几/步
3423 U07:走/经过/B座
11286 U07:走/两/米
141 U07:走/五/米
6462 U07:走/一/米
6669 U07:走/一点/_B+1
8481 U07:走/远/点
8430 U07:走/远/一点
9621 U07:走/直到/十字路口处
4320 U07:走出/大门/_B+1
7077 U07:走到/A205门口/停
2109 U07:走到/A501/_B+1
8391 U07:走到/A座502/_B+1
4566 U07:走到/厕所旁边/_B+1
7725 U07:走到/床的跟前/右转
5433 U07:走到/打印机跟前/向
4251 U07:走到/大门处/并
2889 U07:走到/第一个交叉口/_B+1
4398 U07:走到/丁字路口/再
6585 U07:走到/对面/_B+1
2580 U07:走到/柜子旁边/_B+1
11631 U07:走到/交叉路口/再
1035 U07:走到/尽头/右
3225 U07:走到/楼道口/v
1179 U07:走到/楼梯处/并
708 U07:走到/门口/_B+1
3603 U07:走到/门口/并
7176 U07:走到/前面的路口处/往
5742 U07:走到/十字路口那儿/继续
3858 U07:走到/书柜处/左
6114 U07:走到/体育馆/_B+1
3072 U07:走到/一小段楼梯/_B+1
2433 U07:走到/桌子的尽头/_B+1
1716 U07:走到/桌子旁边/即可
5355 U07:走到/桌子旁边/右
3777 U07:走到/桌子旁边/右拐
7692 U07:走到/走廊尽头/_B+1
3975 U07:走过/饮水机/到
12117 U07:走过/这扇门/继续
8079 U07:走过去/_B+1/_B+2
9951 U07:走进/这扇门/到
7572 U07:走近/前面的第二个桌子旁边/_B+1
7536 U07:走近/前面的那个桌子旁边/_B+1
7707 U07:走廊尽头/_B+1/_B+2
3717 U07:走向/玉带河的河边/_B+1
3903 U07:左/拐/_B+1
9507 U07:左/拐/一点
12618 U07:左/拐弯/_B+1
7803 U07:左/转/_B+1
2634 U07:左/转/并
4176 U07:左/转/然后
12240 U07:左/转身/进入
2331 U07:左/转身/然后
11229 U07:左/转弯/_B+1
10584 U07:左/转弯/接
4356 U07:左/转弯/走到
7842 U07:左边拐弯的地方/右/转
6279 U07:左转/90/度
441 U07:左转/_B+1/_B+2
5508 U07:左转/直到/门口处
11796 U07:左转/直到/书柜处
8913 U08:0.5/迈
8775 U08:0.5/米每秒
12057 U08:1/米
9141 U08:10/厘米
6258 U08:10/米
408 U08:2/米
7275 U08:203房间/去
5223 U08:30/米
4890 U08:390/米
1977 U08:5/米
6339 U08:90/度
7128 U08:A205门口/停
3507 U08:B座/后
8394 U08:D栋405/走到
7884 U08:_B-1/朝
8100 U08:_B-1/朝着
5580 U08:_B-1/出
4485 U08:_B-1/穿过
576 U08:_B-1/从
7239 U08:_B-1/到
6003 U08:_B-1/到达
9459 U08:_B-1/抵达
5100 U08:_B-1/过
2934 U08:_B-1/后
2154 U08:_B-1/后退
11715 U08:_B-1/继续
792 U08:_B-1/进入
11541 U08:_B-1/靠
12291 U08:_B-1/快
7017 U08:_B-1/快点
6966 U08:_B-1/快速
10917 U08:_B-1/马上
6804 U08:_B-1/慢
6720 U08:_B-1/慢慢
1821 U08:_B-1/你
12558 U08:_B-1/跑到
9072 U08:_B-1/前方
7779 U08:_B-1/前方十字路口
492 U08:_B-1/前进
11328 U08:_B-1/前进到
8646 U08:_B-1/请
2775 U08:_B-1/然后
3114 U08:_B-1/上
4986 U08:_B-1/稍
6867 U08:_B-1/稍微
1365 U08:_B-1/顺着
24 U08:_B-1/往
7608 U08:_B-1/下
3762 U08:_B-1/先
2214 U08:_B-1/现在
2619 U08:_B-1/向
324 U08:_B-1/向前
11190 U08:_B-1/向前到
8040 U08:_B-1/向着
6366 U08:_B-1/斜
9162 U08:_B-1/迅速
4794 U08:_B-1/沿
984 U08:_B-1/沿着
3558 U08:_B-1/一直
6630 U08:_B-1/移动到
8691 U08:_B-1/以
10260 U08:_B-1/由
11844 U08:_B-1/右拐
5292 U08:_B-1/右前方
2490 U08:_B-1/右转
3951 U08:_B-1/再
9690 U08:_B-1/找到
4905 U08:_B-1/转身
8433 U08:_B-1/走
1182 U08:_B-1/走到
12120 U08:_B-1/走过
9954 U08:_B-1/走进
7539 U08:_B-1/走近
4179 U08:_B-1/左
9909 U08:b205/并
3330 U08:v/直到
11778 U08:板凳的位置/并
3660 U08:并/出去
2709 U08:并/从
9927 U08:并/停
10992 U08:并/沿
1263 U08:并/沿着
4323 U08:并/走出
11799 U08:并/左转
9027 U08:不能/快
9258 U08:步/马上
7980 U08:厕所/向着
8166 U08:厕所/走过去
7905 U08:朝/卧室
8154 U08:朝着/厕所
8118 U08:朝着/门口
5610 U08:出/了
9411 U08:出发/往
5898 U08:出发/沿着
10332 U08:出发/一直
711 U08:出发/走到
11940 U08:出口/继续
10899 U08:出门/去
11406 U08:出去/到
4164 U08:出去/机电楼大门
3681 U08:出去/机电院大门
4503 U08:穿过/大门
6414 U08:穿过/门
8310 U08:穿过/前面那个门
5157 U08:传达室/约
11232 U08:窗户下面/左
12597 U08:床边/后
7761 U08:床的跟前/右转
8373 U08:从/D栋405
7956 U08:从/厕所
5844 U08:从/机电楼
2730 U08:从/门口
4692 U08:从/起点
11976 U08:从/原点
2091 U08:从/这里
615 U08:从/桌子
5484 U08:打印机跟前/向
10716 U08:大路/前进
4845 U08:大路/行驶
2583 U08:大路/走到
5673 U08:大门/往
4527 U08:大门/一路
4299 U08:大门处/并
3426 U08:大门方向/走
4089 U08:大门口/右
8208 U08:大厅/前进
7344 U08:倒/5
7257 U08:到/203房间
4068 U08:到/大门口
11502 U08:到/电脑的桌子那儿
12537 U08:到/楼道的尽头
11433 U08:到/路中央
10023 U08:到/你的座位
7845 U08:到/左边拐弯的地方
1572 U08:到达/c404门口
11922 U08:到达/出口
12231 U08:到达/空调的前面
6024 U08:到达/收费站那儿
8853 U08:的/速度
6777 U08:的/往
8553 U08:的/再
9891 U08:抵达/b205
9480 U08:抵达/墙角
12384 U08:地/向
6843 U08:点/往
11517 U08:电脑的桌子那儿/停
8082 U08:电梯口/走过去
4446 U08:丁字路口/再
6465 U08:多/走
1641 U08:房间/后
1890 U08:赶紧/往
4140 U08:拐/出去
9537 U08:拐/一点
5127 U08:过/传达室
11757 U08:过去/板凳的位置
7326 U08:后/倒
12741 U08:后/停
6183 U08:后/退
7662 U08:后/往
3534 U08:后/右拐
1677 U08:后/直接
5271 U08:后/直行
2961 U08:后/转
11079 U08:后/转身
12429 U08:后退/5
9207 U08:后退/几
2175 U08:后退/两
10131 U08:后退/一点
4968 U08:回到/原处
5868 U08:机电楼/出发
873 U08:机电院大门/之后
552 U08:几/步
11955 U08:继续/出去
11736 U08:继续/过去
6069 U08:继续/前进
3027 U08:继续/顺着
9606 U08:继续/往
5808 U08:继续/右拐
11667 U08:交叉路口/再
10641 U08:接/下来
3210 U08:进入/A座
4656 U08:进入/厕所
1614 U08:进入/房间
5076 U08:进入/机电楼大厅
828 U08:进入/机电院大门
7503 U08:近/一点
1113 U08:尽头/右
3480 U08:经过/B座
6588 U08:径直/走到
7425 U08:靠/门把手
11562 U08:靠/着
9051 U08:快/一点
7041 U08:快点/去
6990 U08:快速/前进
8274 U08:离开到/窗户旁边
2193 U08:两/步
10164 U08:两/米
5646 U08:了/大门
11025 U08:楼道/前进
1428 U08:楼道/一路
2868 U08:楼道/一直
1038 U08:楼道/走到
3288 U08:楼道口/v
12696 U08:楼道移动/10
7644 U08:楼梯/后
1320 U08:楼梯/爬上
9729 U08:楼梯/然后
11148 U08:楼梯/上到
3153 U08:楼梯/之后
1233 U08:楼梯处/并
9819 U08:路/一路
6102 U08:路/一直
5436 U08:路/走到
9387 U08:马上/出发
10080 U08:马上/往
10941 U08:马上/右
9291 U08:马上/右拐
8928 U08:迈/的
6825 U08:慢/点
6927 U08:慢/一点
6750 U08:慢慢/的
12369 U08:慢慢/地
6438 U08:门/多
7467 U08:门把手/近
12492 U08:门把手的方向/走
3639 U08:门口/并
2754 U08:门口/出去
8253 U08:门口/离开到
9441 U08:门口/去
11364 U08:门口/之后
8022 U08:门口/走
8133 U08:门口/走过去
5250 U08:米/后
2007 U08:米/然后
12078 U08:米/再
444 U08:米/左转
8817 U08:米每秒/的
1545 U08:南/到达
9000 U08:能/不能
1863 U08:你/赶紧
10062 U08:你/马上
8970 U08:你/能
2268 U08:你/在
10038 U08:你的座位/去
1344 U08:爬上/四楼
12579 U08:跑到/床边
4722 U08:起点/向
11904 U08:前/到达
9333 U08:前/一点
12189 U08:前/一直
8616 U08:前/再
144 U08:前/走
9096 U08:前方/移动
7806 U08:前方十字路口/左
1953 U08:前进/5
525 U08:前进/几
10734 U08:前进/直到
11346 U08:前进到/门口
7212 U08:前面的路口处/往
8328 U08:前面那个门/上
11613 U08:墙边/一直
9498 U08:墙角/后
6564 U08:桥的中线/径直
8667 U08:请/慢行
11472 U08:去/河上的桥
7062 U08:去/门口
10872 U08:然后/出门
4947 U08:然后/回到
4233 U08:然后/向前
10497 U08:然后/迅速
9750 U08:然后/沿着
2040 U08:然后/右
2808 U08:然后/右转
10209 U08:然后/再
12021 U08:然后/走
2436 U08:然后/走到
3720 U08:然后/走向
3132 U08:上/楼梯
11169 U08:上到/4楼
5019 U08:稍/向
12408 U08:稍微/快
6897 U08:稍微/慢
9675 U08:十字路口处/右转
5784 U08:十字路口那儿/继续
6048 U08:收费站那儿/继续
3906 U08:书柜处/左
10698 U08:顺着/大路
1392 U08:顺着/楼道
3054 U08:顺着/天桥
9573 U08:顺着/这条路
8877 U08:速度/前进
9792 U08:它/上去
3075 U08:天桥/走到
7158 U08:停/下来
6198 U08:退/几
7308 U08:往/后
10104 U08:往/后退
12477 U08:往/门把手的方向
9429 U08:往/门口
84 U08:往/前
5973 U08:往/西
11271 U08:往/椅子的方向
10776 U08:往/右
5694 U08:往/右拐
7677 U08:往/左
7923 U08:卧室/往
264 U08:五/米
9870 U08:西/抵达
5988 U08:西/走
7626 U08:下/楼梯
10665 U08:下来/再
10446 U08:先/右
3780 U08:先/走到
10587 U08:先/左
5340 U08:现在/出发
9366 U08:现在/马上
2238 U08:现在/你
3399 U08:向/大门方向
6165 U08:向/后
10416 U08:向/后退
1509 U08:向/南
10536 U08:向/前
9852 U08:向/西
4608 U08:向/右
11697 U08:向/右拐
4752 U08:向/正北方向
2637 U08:向/左
954 U08:向/左转
10374 U08:向前/移动到
354 U08:向前/走
3606 U08:向前/走到
11211 U08:向前到/窗户下面
8193 U08:向着/大厅
8061 U08:向着/电梯口
8004 U08:向着/门口
6390 U08:斜/穿过
4869 U08:行驶/390
9183 U08:迅速/后退
10518 U08:迅速/向
4818 U08:沿/大路
11007 U08:沿/楼道
2559 U08:沿着/大路
1008 U08:沿着/楼道
12669 U08:沿着/楼道移动
1293 U08:沿着/楼梯
5415 U08:沿着/路
6540 U08:沿着/桥的中线
9771 U08:沿着/它
5928 U08:沿着/玉带路
3840 U08:沿着/桌子的边沿
6507 U08:一/米
6948 U08:一点/前进
10836 U08:一点/然后
12315 U08:一点/往
1470 U08:一路/向
4551 U08:一路/向前
12210 U08:一直/到达
3192 U08:一直/进入
3582 U08:一直/向前
2892 U08:一直/走到
9120 U08:移动/10
10392 U08:移动到/c400
6651 U08:移动到/楼梯的底端
11289 U08:椅子的方向/走
8730 U08:以/0.5
4041 U08:饮水机/到
10281 U08:由/原点
4113 U08:右/拐
1152 U08:右/转
5721 U08:右拐/一直
11859 U08:右拐/之后
5310 U08:右前方/转弯
2526 U08:右转/沿着
5952 U08:玉带路/往
2334 U08:原地/左
10305 U08:原点/出发
11988 U08:原点/向
8502 U08:远/点
8472 U08:远/一点
5190 U08:约/30
10236 U08:再/回头
7392 U08:再/靠
10683 U08:再/顺着
12096 U08:再/往
11685 U08:再/向
4464 U08:再/右
8574 U08:再/远
3978 U08:再/走过
2301 U08:在/原地
9708 U08:找到/楼梯
2112 U08:这里/走到
10002 U08:这扇门/到
12147 U08:这扇门/继续
9591 U08:这条路/继续
4773 U08:正北方向/出发
11385 U08:之后/出去
11874 U08:之后/往
918 U08:之后/向
3174 U08:之后/一直
3363 U08:直到/A505的门口
10752 U08:直到/黑板前面
5559 U08:直到/门口处
11055 U08:直到/十字路口
9657 U08:直到/十字路口处
11829 U08:直到/书柜处
1719 U08:直接/走到
2685 U08:转/并
2997 U08:转/继续
4638 U08:转/进入
4209 U08:转/然后
12267 U08:转身/进入
2397 U08:转身/然后
10620 U08:转弯/接
4401 U08:转弯/走到
663 U08:桌子/出发
3861 U08:桌子的边沿/走到
1785 U08:桌子旁边/即可
5379 U08:桌子旁边/右
3807 U08:桌子旁边/右拐
11586 U08:着/墙边
12039 U08:走/1
6237 U08:走/10
381 U08:走/2
10557 U08:走/5
8532 U08:走/的
12339 U08:走/几
3453 U08:走/经过
11307 U08:走/两
204 U08:走/五
6489 U08:走/一
6690 U08:走/一点
8454 U08:走/远
9639 U08:走/直到
4344 U08:走出/大门
7101 U08:走到/A205门口
2133 U08:走到/A501
8415 U08:走到/A座502
4584 U08:走到/厕所旁边
7743 U08:走到/床的跟前
5460 U08:走到/打印机跟前
4275 U08:走到/大门处
2916 U08:走到/第一个交叉口
4425 U08:走到/丁字路口
6609 U08:走到/对面
2604 U08:走到/柜子旁边
11649 U08:走到/交叉路口
1074 U08:走到/尽头
3252 U08:走到/楼道口
1206 U08:走到/楼梯处
753 U08:走到/门口
7194 U08:走到/前面的路口处
5763 U08:走到/十字路口那儿
3885 U08:走到/书柜处
6132 U08:走到/体育馆
3096 U08:走到/一小段楼梯
2466 U08:走到/桌子的尽头
1755 U08:走到/桌子旁边
7710 U08:走到/走廊尽头
4011 U08:走过/饮水机
12135 U08:走过/这扇门
9978 U08:走进/这扇门
7590 U08:走近/前面的第二个桌子旁边
7560 U08:走近/前面的那个桌子旁边
3744 U08:走向/玉带河的河边
3927 U08:左/拐
12636 U08:左/拐弯
2658 U08:左/转
2364 U08:左/转身
4377 U08:左/转弯
7860 U08:左边拐弯的地方/右
6309 U08:左转/90
5535 U08:左转/直到
8898 U09:0.5/迈
8733 U09:0.5/米每秒
12042 U09:1/米
9123 U09:10/厘米
6240 U09:10/米
384 U09:2/米
7260 U09:203房间/去
5193 U09:30/米
4872 U09:390/米
11172 U09:4楼/_B+1
1956 U09:5/米
6312 U09:90/度
7104 U09:A205门口/停
2136 U09:A501/_B+1
3366 U09:A505的门口/_B+1
3213 U09:A座/_B+1
8418 U09:A座502/_B+1
3483 U09:B座/后
8376 U09:D栋405/走到
9894 U09:b205/并
10395 U09:c400/_B+1
1575 U09:c404门口/_B+1
3291 U09:v/直到
11760 U09:板凳的位置/并
3642 U09:并/出去
2688 U09:并/从
9912 U09:并/停
10980 U09:并/沿
1236 U09:并/沿着
4302 U09:并/走出
11781 U09:并/左转
9003 U09:不能/快
555 U09:步/_B+1
9228 U09:步/马上
4659 U09:厕所/_B+1
7959 U09:厕所/向着
8157 U09:厕所/走过去
4587 U09:厕所旁边/_B+1
7887 U09:朝/卧室
8142 U09:朝着/厕所
8103 U09:朝着/门口
5583 U09:出/了
4776 U09:出发/_B+1
9390 U09:出发/往
5871 U09:出发/沿着
10308 U09:出发/一直
666 U09:出发/走到
11925 U09:出口/继续
10875 U09:出门/去
2757 U09:出去/_B+1
11388 U09:出去/到
4143 U09:出去/机电楼大门
3663 U09:出去/机电院大门
4488 U09:穿过/大门
6393 U09:穿过/门
8292 U09:穿过/前面那个门
5130 U09:传达室/约
8277 U09:窗户旁边/_B+1
11214 U09:窗户下面/左
12582 U09:床边/后
7746 U09:床的跟前/右转
8355 U09:从/D栋405
7941 U09:从/厕所
5829 U09:从/机电楼
2712 U09:从/门口
4671 U09:从/起点
11964 U09:从/原点
2073 U09:从/这里
579 U09:从/桌子
5463 U09:打印机跟前/向
10701 U09:大路/前进
4821 U09:大路/行驶
2562 U09:大路/走到
4347 U09:大门/_B+1
5649 U09:大门/往
4506 U09:大门/一路
4278 U09:大门处/并
3402 U09:大门方向/走
4071 U09:大门口/右
8196 U09:大厅/前进
7329 U09:倒/5
7242 U09:到/203房间
4044 U09:到/大门口
11487 U09:到/电脑的桌子那儿
12522 U09:到/楼道的尽头
11409 U09:到/路中央
10005 U09:到/你的座位
7830 U09:到/左边拐弯的地方
1548 U09:到达/c404门口
11907 U09:到达/出口
12213 U09:到达/空调的前面
6006 U09:到达/收费站那儿
8820 U09:的/速度
6753 U09:的/往
8535 U09:的/再
9873 U09:抵达/b205
9462 U09:抵达/墙角
12372 U09:地/向
2919 U09:第一个交叉口/_B+1
8505 U09:点/_B+1
6828 U09:点/往
11505 U09:电脑的桌子那儿/停
8064 U09:电梯口/走过去
4428 U09:丁字路口/再
6342 U09:度/_B+1
6612 U09:对面/_B+1
6441 U09:多/走
12279 U09:房间/_B+1
1617 U09:房间/后
1866 U09:赶紧/往
3930 U09:拐/_B+1
4116 U09:拐/出去
9519 U09:拐/一点
12639 U09:拐弯/_B+1
2607 U09:柜子旁边/_B+1
5103 U09:过/传达室
11739 U09:过去/板凳的位置
11475 U09:河上的桥/_B+1
10755 U09:黑板前面/_B+1
7311 U09:后/倒
12732 U09:后/停
6168 U09:后/退
7647 U09:后/往
3510 U09:后/右拐
1644 U09:后/直接
5253 U09:后/直行
2937 U09:后/转
11067 U09:后/转身
12420 U09:后退/5
9186 U09:后退/几
2157 U09:后退/两
10107 U09:后退/一点
4950 U09:回到/原处
10239 U09:回头/_B+1
5847 U09:机电楼/出发
4167 U09:机电楼大门/_B+1
5079 U09:机电楼大厅/_B+1
3684 U09:机电院大门/_B+1
831 U09:机电院大门/之后
1788 U09:即可/_B+1
528 U09:几/步
11943 U09:继续/出去
11718 U09:继续/过去
6051 U09:继续/前进
3000 U09:继续/顺着
9594 U09:继续/往
5787 U09:继续/右拐
11652 U09:交叉路口/再
10623 U09:接/下来
3195 U09:进入/A座
4641 U09:进入/厕所
1593 U09:进入/房间
5061 U09:进入/机电楼大厅
795 U09:进入/机电院大门
7470 U09:近/一点
1077 U09:尽头/右
3456 U09:经过/B座
6567 U09:径直/走到
7395 U09:靠/门把手
11544 U09:靠/着
12234 U09:空调的前面/_B+1
9030 U09:快/一点
7020 U09:快点/去
6969 U09:快速/前进
9144 U09:厘米/_B+1
8256 U09:离开到/窗户旁边
2178 U09:两/步
10152 U09:两/米
5613 U09:了/大门
11010 U09:楼道/前进
1395 U09:楼道/一路
2847 U09:楼道/一直
1011 U09:楼道/走到
12540 U09:楼道的尽头/_B+1
3255 U09:楼道口/v
12672 U09:楼道移动/10
8343 U09:楼梯/_B+1
7629 U09:楼梯/后
1296 U09:楼梯/爬上
9711 U09:楼梯/然后
11130 U09:楼梯/上到
3135 U09:楼梯/之后
1209 U09:楼梯处/并
6654 U09:楼梯的底端/_B+1
9807 U09:路/一路
6087 U09:路/一直
5418 U09:路/走到
11436 U09:路中央/_B+1
9369 U09:马上/出发
10065 U09:马上/往
10920 U09:马上/右
9261 U09:马上/右拐
8916 U09:迈/的
6807 U09:慢/点
6900 U09:慢/一点
6723 U09:慢慢/的
12354 U09:慢慢/地
8670 U09:慢行/_B+1
6417 U09:门/多
7428 U09:门把手/近
12480 U09:门把手的方向/走
756 U09:门口/_B+1
3621 U09:门口/并
2733 U09:门口/出去
8235 U09:门口/离开到
9432 U09:门口/去
11349 U09:门口/之后
8007 U09:门口/走
8121 U09:门口/走过去
5562 U09:门口处/_B+1
267 U09:米/_B+1
5226 U09:米/后
1980 U09:米/然后
12060 U09:米/再
411 U09:米/左转
8778 U09:米每秒/的
1512 U09:南/到达
8973 U09:能/不能
1824 U09:你/赶紧
10047 U09:你/马上
8949 U09:你/能
2241 U09:你/在
10026 U09:你的座位/去
1323 U09:爬上/四楼
12561 U09:跑到/床边
4695 U09:起点/向
11889 U09:前/到达
9315 U09:前/一点
12168 U09:前/一直
8601 U09:前/再
87 U09:前/走
9075 U09:前方/移动
7782 U09:前方十字路口/左
1935 U09:前进/5
6072 U09:前进/_B+1
495 U09:前进/几
10719 U09:前进/直到
11331 U09:前进到/门口
7593 U09:前面的第二个桌子旁边/_B+1
7197 U09:前面的路口处/往
7563 U09:前面的那个桌子旁边/_B+1
8313 U09:前面那个门/上
11589 U09:墙边/一直
9483 U09:墙角/后
6543 U09:桥的中线/径直
8649 U09:请/慢行
7278 U09:去/_B+1
11457 U09:去/河上的桥
7044 U09:去/门口
10839 U09:然后/出门
4926 U09:然后/回到
4212 U09:然后/向前
10479 U09:然后/迅速
9732 U09:然后/沿着
2010 U09:然后/右
2778 U09:然后/右转
10185 U09:然后/再
12006 U09:然后/走
2400 U09:然后/走到
3699 U09:然后/走向
3117 U09:上/楼梯
11151 U09:上到/4楼
9795 U09:上去/_B+1
4989 U09:稍/向
12399 U09:稍微/快
6870 U09:稍微/慢
11058 U09:十字路口/_B+1
9660 U09:十字路口处/右转
5766 U09:十字路口那儿/继续
6027 U09:收费站那儿/继续
11832 U09:书柜处/_B+1
3888 U09:书柜处/左
10686 U09:顺着/大路
1368 U09:顺着/楼道
3030 U09:顺着/天桥
9558 U09:顺着/这条路
1347 U09:四楼/_B+1
8856 U09:速度/前进
9774 U09:它/上去
6135 U09:体育馆/_B+1
3057 U09:天桥/走到
7131 U09:停/下来
6186 U09:退/几
7290 U09:往/后
10083 U09:往/后退
12459 U09:往/门把手的方向
9414 U09:往/门口
27 U09:往/前
5955 U09:往/西
11253 U09:往/椅子的方向
10764 U09:往/右
5676 U09:往/右拐
7665 U09:往/左
7908 U09:卧室/往
207 U09:五/米
9855 U09:西/抵达
5976 U09:西/走
7611 U09:下/楼梯
7161 U09:下来/_B+1
10644 U09:下来/再
10431 U09:先/右
3765 U09:先/走到
10572 U09:先/左
5322 U09:现在/出发
9351 U09:现在/马上
2217 U09:现在/你
3381 U09:向/大门方向
6147 U09:向/后
10404 U09:向/后退
1473 U09:向/南
10521 U09:向/前
9834 U09:向/西
4596 U09:向/右
11688 U09:向/右拐
4725 U09:向/正北方向
2622 U09:向/左
921 U09:向/左转
10356 U09:向前/移动到
327 U09:向前/走
3585 U09:向前/走到
11193 U09:向前到/窗户下面
8178 U09:向着/大厅
8043 U09:向着/电梯口
7983 U09:向着/门口
6369 U09:斜/穿过
4848 U09:行驶/390
9165 U09:迅速/后退
10500 U09:迅速/向
4797 U09:沿/大路
10995 U09:沿/楼道
2529 U09:沿着/大路
987 U09:沿着/楼道
12651 U09:沿着/楼道移动
1266 U09:沿着/楼梯
5397 U09:沿着/路
6522 U09:沿着/桥的中线
9753 U09:沿着/它
5901 U09:沿着/玉带路
3822 U09:沿着/桌子的边沿
6492 U09:一/米
6693 U09:一点/_B+1
6930 U09:一点/前进
10809 U09:一点/然后
12303 U09:一点/往
1431 U09:一路/向
4530 U09:一路/向前
3099 U09:一小段楼梯/_B+1
12192 U09:一直/到达
3177 U09:一直/进入
3561 U09:一直/向前
2871 U09:一直/走到
9099 U09:移动/10
10377 U09:移动到/c400
6633 U09:移动到/楼梯的底端
11274 U09:椅子的方向/走
8694 U09:以/0.5
4014 U09:饮水机/到
10263 U09:由/原点
4092 U09:右/拐
1116 U09:右/转
3537 U09:右拐/_B+1
5697 U09:右拐/一直
11847 U09:右拐/之后
5295 U09:右前方/转弯
7764 U09:右转/_B+1
2493 U09:右转/沿着
3747 U09:玉带河的河边/_B+1
5931 U09:玉带路/往
4971 U09:原处/_B+1
2304 U09:原地/左
10284 U09:原点/出发
11979 U09:原点/向
8490 U09:远/点
8457 U09:远/一点
5160 U09:约/30
10212 U09:再/回头
7368 U09:再/靠
10668 U09:再/顺着
12081 U09:再/往
11670 U09:再/向
4449 U09:再/右
8556 U09:再/远
3954 U09:再/走过
2271 U09:在/原地
9693 U09:找到/楼梯
2094 U09:这里/走到
9981 U09:这扇门/到
12138 U09:这扇门/继续
9576 U09:这条路/继续
4755 U09:正北方向/出发
11367 U09:之后/出去
11862 U09:之后/往
876 U09:之后/向
3156 U09:之后/一直
3333 U09:直到/A505的门口
10737 U09:直到/黑板前面
5538 U09:直到/门口处
11040 U09:直到/十字路口
9642 U09:直到/十字路口处
11814 U09:直到/书柜处
1680 U09:直接/走到
5274 U09:直行/_B+1
1155 U09:转/_B+1
2661 U09:转/并
2964 U09:转/继续
4623 U09:转/进入
4194 U09:转/然后
12255 U09:转身/进入
2367 U09:转身/然后
5313 U09:转弯/_B+1
10602 U09:转弯/接
4380 U09:转弯/走到
618 U09:桌子/出发
3843 U09:桌子的边沿/走到
2469 U09:桌子的尽头/_B+1
1758 U09:桌子旁边/即可
5370 U09:桌子旁边/右
3795 U09:桌子旁边/右拐
11565 U09:着/墙边
12024 U09:走/1
6222 U09:走/10
357 U09:走/2
10548 U09:走/5
1914 U09:走/_B+1
8514 U09:走/的
12330 U09:走/几
3429 U09:走/经过
11292 U09:走/两
147 U09:走/五
6468 U09:走/一
6672 U09:走/一点
8436 U09:走/远
9624 U09:走/直到
4326 U09:走出/大门
7080 U09:走到/A205门口
2115 U09:走到/A501
8397 U09:走到/A座502
4569 U09:走到/厕所旁边
7728 U09:走到/床的跟前
5439 U09:走到/打印机跟前
4254 U09:走到/大门处
2895 U09:走到/第一个交叉口
4404 U09:走到/丁字路口
6591 U09:走到/对面
2586 U09:走到/柜子旁边
11634 U09:走到/交叉路口
1041 U09:走到/尽头
3228 U09:走到/楼道口
1185 U09:走到/楼梯处
714 U09:走到/门口
7179 U09:走到/前面的路口处
5745 U09:走到/十字路口那儿
3864 U09:走到/书柜处
6117 U09:走到/体育馆
3078 U09:走到/一小段楼梯
2439 U09:走到/桌子的尽头
1722 U09:走到/桌子旁边
7695 U09:走到/走廊尽头
3981 U09:走过/饮水机
12123 U09:走过/这扇门
8085 U09:走过去/_B+1
9957 U09:走进/这扇门
7575 U09:走近/前面的第二个桌子旁边
7542 U09:走近/前面的那个桌子旁边
7713 U09:走廊尽头/_B+1
3723 U09:走向/玉带河的河边
3909 U09:左/拐
12621 U09:左/拐弯
2640 U09:左/转
2337 U09:左/转身
4359 U09:左/转弯
7848 U09:左边拐弯的地方/右
6282 U09:左转/90
447 U09:左转/_B+1
5511 U09:左转/直到
957 U10:Conj
210 U10:Direction
10878 U10:Distance
2043 U10:DistanceUnit
270 U10:DurativeVerb
2442 U10:MomentaryVerb
450 U10:Num
1515 U10:Other
717 U10:Place
150 U10:Prep
5040 U10:Speed
8859 U10:SpeedUnit
90 U10:_B-1
30 U10:_B-2
924 U11:Conj
153 U11:Direction
10842 U11:Distance
453 U11:DistanceUnit
213 U11:DurativeVerb
2403 U11:MomentaryVerb
273 U11:Num
1476 U11:Other
669 U11:Place
93 U11:Prep
5022 U11:Speed
8823 U11:SpeedUnit
33 U11:_B-1
879 U12:Conj
96 U12:Direction
7506 U12:Distance
276 U12:DistanceUnit
156 U12:DurativeVerb
456 U12:MomentaryVerb
216 U12:Num
1434 U12:Other
621 U12:Place
36 U12:Prep
4992 U12:Speed
8781 U12:SpeedUnit
834 U13:Conj
39 U13:Direction
7473 U13:Distance
219 U13:DistanceUnit
99 U13:DurativeVerb
414 U13:MomentaryVerb
159 U13:Num
1398 U13:Other
582 U13:Place
882 U13:Prep
6873 U13:Speed
8736 U13:SpeedUnit
279 U13:_B+1
798 U14:Conj
1044 U14:Direction
7431 U14:Distance
162 U14:DistanceUnit
42 U14:DurativeVerb
387 U14:MomentaryVerb
102 U14:Num
1371 U14:Other
672 U14:Place
837 U14:Prep
8976 U14:Speed
8697 U14:SpeedUnit
222 U14:_B+1
282 U14:_B+2
10242 U15:Conj/Conj/MomentaryVerb
4257 U15:Conj/Direction/DurativeVerb
2061 U15:Conj/Direction/MomentaryVerb
7434 U15:Conj/DurativeVerb/Direction
10902 U15:Conj/DurativeVerb/DurativeVerb
6495 U15:Conj/DurativeVerb/Num
2472 U15:Conj/DurativeVerb/Place
11412 U15:Conj/DurativeVerb/Prep
11817 U15:Conj/MomentaryVerb/DurativeVerb
9936 U15:Conj/MomentaryVerb/Other
2832 U15:Conj/MomentaryVerb/Prep
1725 U15:Conj/Other/DurativeVerb
10524 U15:Conj/Other/Prep
7680 U15:Conj/Prep/Direction
960 U15:Conj/Prep/MomentaryVerb
1299 U15:Conj/Prep/Place
10812 U15:Direction/DurativeVerb/Distance
3459 U15:Direction/DurativeVerb/DurativeVerb
225 U15:Direction/DurativeVerb/Num
1578 U15:Direction/DurativeVerb/Place
2406 U15:Direction/MomentaryVerb/Conj
9540 U15:Direction/MomentaryVerb/Distance
4146 U15:Direction/MomentaryVerb/DurativeVerb
3003 U15:Direction/MomentaryVerb/Other
7509 U15:Direction/Other/Distance
12216 U15:Direction/Other/DurativeVerb
8628 U15:Direction/Other/Other
10881 U15:Distance/Conj/DurativeVerb
10215 U15:DistanceUnit/Conj/Conj
2046 U15:DistanceUnit/Conj/Direction
5277 U15:DistanceUnit/Conj/MomentaryVerb
12099 U15:DistanceUnit/Conj/Prep
6315 U15:DistanceUnit/MomentaryVerb/Num
9294 U15:DistanceUnit/Speed/MomentaryVerb
7476 U15:DurativeVerb/Direction/Other
10845 U15:DurativeVerb/Distance/Conj
759 U15:DurativeVerb/DurativeVerb/Place
285 U15:DurativeVerb/Num/DistanceUnit
10359 U15:DurativeVerb/Other/Direction
8475 U15:DurativeVerb/Other/Distance
8559 U15:DurativeVerb/Other/Other
5652 U15:DurativeVerb/Other/Place
885 U15:DurativeVerb/Place/Conj
1119 U15:DurativeVerb/Place/Direction
4047 U15:DurativeVerb/Place/DurativeVerb
3294 U15:DurativeVerb/Place/MomentaryVerb
1791 U15:DurativeVerb/Place/Other
5487 U15:DurativeVerb/Place/Prep
12171 U15:DurativeVerb/Prep/Direction
5934 U15:DurativeVerb/Prep/Place
4236 U15:MomentaryVerb/Conj/Direction
2445 U15:MomentaryVerb/Conj/DurativeVerb
10503 U15:MomentaryVerb/Conj/Other
2715 U15:MomentaryVerb/Conj/Prep
3369 U15:MomentaryVerb/DurativeVerb/Place
6345 U15:MomentaryVerb/Num/DistanceUnit
5748 U15:MomentaryVerb/Other/DurativeVerb
10647 U15:MomentaryVerb/Other/Other
3033 U15:MomentaryVerb/Other/Prep
2565 U15:MomentaryVerb/Prep/Place
2013 U15:Num/DistanceUnit/Conj
459 U15:Num/DistanceUnit/MomentaryVerb
9264 U15:Num/DistanceUnit/Speed
8826 U15:Num/SpeedUnit/Other
3609 U15:Other/Direction/DurativeVerb
5358 U15:Other/DurativeVerb/DurativeVerb
1761 U15:Other/DurativeVerb/Place
5229 U15:Other/Num/DistanceUnit
8586 U15:Other/Other/Distance
8880 U15:Other/Other/DurativeVerb
8577 U15:Other/Other/Other
1893 U15:Other/Other/Prep
9033 U15:Other/Other/Speed
11616 U15:Other/Place/Other
5679 U15:Other/Place/Prep
1518 U15:Other/Prep/Direction
10110 U15:Other/Prep/DurativeVerb
2307 U15:Other/Prep/Place
9393 U15:Other/Speed/DurativeVerb
6933 U15:Other/Speed/Other
4467 U15:Place/Conj/Direction
3666 U15:Place/Conj/DurativeVerb
3540 U15:Place/Conj/MomentaryVerb
1683 U15:Place/Conj/Other
927 U15:Place/Conj/Prep
1158 U15:Place/Direction/MomentaryVerb
720 U15:Place/DurativeVerb/DurativeVerb
4875 U15:Place/DurativeVerb/Num
10335 U15:Place/DurativeVerb/Other
1080 U15:Place/DurativeVerb/Place
5904 U15:Place/DurativeVerb/Prep
3336 U15:Place/MomentaryVerb/DurativeVerb
7164 U15:Place/MomentaryVerb/Other
12720 U15:Place/Num/DistanceUnit
4554 U15:Place/Other/Direction
2898 U15:Place/Other/DurativeVerb
5811 U15:Place/Other/MomentaryVerb
5196 U15:Place/Other/Num
1479 U15:Place/Other/Prep
4758 U15:Place/Prep/Direction
5514 U15:Place/Prep/MomentaryVerb
8010 U15:Place/Prep/Place
9336 U15:Prep/Direction/Distance
165 U15:Prep/Direction/DurativeVerb
2664 U15:Prep/Direction/MomentaryVerb
8619 U15:Prep/Direction/Other
10134 U15:Prep/DurativeVerb/Distance
5541 U15:Prep/MomentaryVerb/DurativeVerb
5724 U15:Prep/MomentaryVerb/Other
8784 U15:Prep/Num/SpeedUnit
2340 U15:Prep/Place/Direction
675 U15:Prep/Place/DurativeVerb
12699 U15:Prep/Place/Num
1437 U15:Prep/Place/Other
4728 U15:Prep/Place/Prep
10965 U15:Speed/Direction/MomentaryVerb
9210 U15:Speed/DurativeVerb/Num
7065 U15:Speed/DurativeVerb/Place
9417 U15:Speed/DurativeVerb/Prep
6951 U15:Speed/Other/DurativeVerb
6780 U15:Speed/Other/Prep
5043 U15:Speed/Prep/Direction
8862 U15:SpeedUnit/Other/Other
10449 U15:_B-1/Conj/Direction
3726 U15:_B-1/Conj/DurativeVerb
2811 U15:_B-1/Conj/MomentaryVerb
12462 U15:_B-1/Conj/Prep
360 U15:_B-1/Direction/DurativeVerb
2967 U15:_B-1/Direction/MomentaryVerb
531 U15:_B-1/DurativeVerb/Num
5616 U15:_B-1/DurativeVerb/Other
840 U15:_B-1/DurativeVerb/Place
4929 U15:_B-1/MomentaryVerb/Conj
2532 U15:_B-1/MomentaryVerb/Prep
3588 U15:_B-1/Other/Direction
5343 U15:_B-1/Other/DurativeVerb
1869 U15:_B-1/Other/Other
6903 U15:_B-1/Other/Speed
7809 U15:_B-1/Place/Direction
105 U15:_B-1/Prep/Direction
10419 U15:_B-1/Prep/DurativeVerb
8739 U15:_B-1/Prep/Num
624 U15:_B-1/Prep/Place
10944 U15:_B-1/Speed/Direction
6993 U15:_B-1/Speed/DurativeVerb
6756 U15:_B-1/Speed/Other
5025 U15:_B-1/Speed/Prep
2781 U15:_B-2/_B-1/Conj
330 U15:_B-2/_B-1/Direction
498 U15:_B-2/_B-1/DurativeVerb
2496 U15:_B-2/_B-1/MomentaryVerb
1827 U15:_B-2/_B-1/Other
7785 U15:_B-2/_B-1/Place
45 U15:_B-2/_B-1/Prep
4995 U15:_B-2/_B-1/Speed
10218 U16:Conj/Conj/MomentaryVerb
4239 U16:Conj/Direction/DurativeVerb
2049 U16:Conj/Direction/MomentaryVerb
7398 U16:Conj/DurativeVerb/Direction
10884 U16:Conj/DurativeVerb/DurativeVerb
6471 U16:Conj/DurativeVerb/Num
2448 U16:Conj/DurativeVerb/Place
11391 U16:Conj/DurativeVerb/Prep
11802 U16:Conj/MomentaryVerb/DurativeVerb
9930 U16:Conj/MomentaryVerb/Other
2814 U16:Conj/MomentaryVerb/Prep
3543 U16:Conj/MomentaryVerb/_B+1
1686 U16:Conj/Other/DurativeVerb
10506 U16:Conj/Other/Prep
7668 U16:Conj/Prep/Direction
930 U16:Conj/Prep/MomentaryVerb
1269 U16:Conj/Prep/Place
9339 U16:Direction/Distance/_B+1
10791 U16:Direction/DurativeVerb/Distance
3432 U16:Direction/DurativeVerb/DurativeVerb
168 U16:Direction/DurativeVerb/Num
1551 U16:Direction/DurativeVerb/Place
1917 U16:Direction/DurativeVerb/_B+1
2370 U16:Direction/MomentaryVerb/Conj
9522 U16:Direction/MomentaryVerb/Distance
4119 U16:Direction/MomentaryVerb/DurativeVerb
2970 U16:Direction/MomentaryVerb/Other
1161 U16:Direction/MomentaryVerb/_B+1
7479 U16:Direction/Other/Distance
12195 U16:Direction/Other/DurativeVerb
8622 U16:Direction/Other/Other
10848 U16:Distance/Conj/DurativeVerb
10188 U16:DistanceUnit/Conj/Conj
2016 U16:DistanceUnit/Conj/Direction
5256 U16:DistanceUnit/Conj/MomentaryVerb
12084 U16:DistanceUnit/Conj/Prep
6285 U16:DistanceUnit/MomentaryVerb/Num
462 U16:DistanceUnit/MomentaryVerb/_B+1
9267 U16:DistanceUnit/Speed/MomentaryVerb
7437 U16:DurativeVerb/Direction/Other
10815 U16:DurativeVerb/Distance/Conj
10137 U16:DurativeVerb/Distance/_B+1
723 U16:DurativeVerb/DurativeVerb/Place
10905 U16:DurativeVerb/DurativeVerb/_B+1
228 U16:DurativeVerb/Num/DistanceUnit
6696 U16:DurativeVerb/Num/_B+1
10338 U16:DurativeVerb/Other/Direction
8460 U16:DurativeVerb/Other/Distance
8538 U16:DurativeVerb/Other/Other
5619 U16:DurativeVerb/Other/Place
843 U16:DurativeVerb/Place/Conj
1083 U16:DurativeVerb/Place/Direction
4017 U16:DurativeVerb/Place/DurativeVerb
3258 U16:DurativeVerb/Place/MomentaryVerb
1764 U16:DurativeVerb/Place/Other
5466 U16:DurativeVerb/Place/Prep
762 U16:DurativeVerb/Place/_B+1
12159 U16:DurativeVerb/Prep/Direction
5907 U16:DurativeVerb/Prep/Place
4215 U16:MomentaryVerb/Conj/Direction
2409 U16:MomentaryVerb/Conj/DurativeVerb
10482 U16:MomentaryVerb/Conj/Other
2691 U16:MomentaryVerb/Conj/Prep
9543 U16:MomentaryVerb/Distance/_B+1
3339 U16:MomentaryVerb/DurativeVerb/Place
6318 U16:MomentaryVerb/Num/DistanceUnit
5727 U16:MomentaryVerb/Other/DurativeVerb
10626 U16:MomentaryVerb/Other/Other
3006 U16:MomentaryVerb/Other/Prep
7167 U16:MomentaryVerb/Other/_B+1
2535 U16:MomentaryVerb/Prep/Place
1983 U16:Num/DistanceUnit/Conj
417 U16:Num/DistanceUnit/MomentaryVerb
9231 U16:Num/DistanceUnit/Speed
288 U16:Num/DistanceUnit/_B+1
8787 U16:Num/SpeedUnit/Other
3591 U16:Other/Direction/DurativeVerb
7512 U16:Other/Distance/_B+1
5346 U16:Other/DurativeVerb/DurativeVerb
1728 U16:Other/DurativeVerb/Place
6075 U16:Other/DurativeVerb/_B+1
5814 U16:Other/MomentaryVerb/_B+1
5199 U16:Other/Num/DistanceUnit
8580 U16:Other/Other/Distance
8865 U16:Other/Other/DurativeVerb
8562 U16:Other/Other/Other
1872 U16:Other/Other/Prep
9006 U16:Other/Other/Speed
11592 U16:Other/Place/Other
5655 U16:Other/Place/Prep
1482 U16:Other/Prep/Direction
10086 U16:Other/Prep/DurativeVerb
2274 U16:Other/Prep/Place
9372 U16:Other/Speed/DurativeVerb
6906 U16:Other/Speed/Other
4452 U16:Place/Conj/Direction
3645 U16:Place/Conj/DurativeVerb
3513 U16:Place/Conj/MomentaryVerb
1647 U16:Place/Conj/Other
888 U16:Place/Conj/Prep
1122 U16:Place/Direction/MomentaryVerb
678 U16:Place/DurativeVerb/DurativeVerb
4851 U16:Place/DurativeVerb/Num
10311 U16:Place/DurativeVerb/Other
1047 U16:Place/DurativeVerb/Place
5874 U16:Place/DurativeVerb/Prep
2760 U16:Place/DurativeVerb/_B+1
3297 U16:Place/MomentaryVerb/DurativeVerb
7134 U16:Place/MomentaryVerb/Other
3810 U16:Place/MomentaryVerb/_B+1
12702 U16:Place/Num/DistanceUnit
4533 U16:Place/Other/Direction
2874 U16:Place/Other/DurativeVerb
5790 U16:Place/Other/MomentaryVerb
5163 U16:Place/Other/Num
1440 U16:Place/Other/Prep
1794 U16:Place/Other/_B+1
4731 U16:Place/Prep/Direction
5490 U16:Place/Prep/MomentaryVerb
7986 U16:Place/Prep/Place
9318 U16:Prep/Direction/Distance
108 U16:Prep/Direction/DurativeVerb
2643 U16:Prep/Direction/MomentaryVerb
8604 U16:Prep/Direction/Other
10113 U16:Prep/DurativeVerb/Distance
5517 U16:Prep/MomentaryVerb/DurativeVerb
5700 U16:Prep/MomentaryVerb/Other
963 U16:Prep/MomentaryVerb/_B+1
8742 U16:Prep/Num/SpeedUnit
2310 U16:Prep/Place/Direction
627 U16:Prep/Place/DurativeVerb
12675 U16:Prep/Place/Num
1401 U16:Prep/Place/Other
4698 U16:Prep/Place/Prep
11439 U16:Prep/Place/_B+1
10947 U16:Speed/Direction/MomentaryVerb
9189 U16:Speed/DurativeVerb/Num
7047 U16:Speed/DurativeVerb/Place
9396 U16:Speed/DurativeVerb/Prep
6996 U16:Speed/DurativeVerb/_B+1
9297 U16:Speed/MomentaryVerb/_B+1
6936 U16:Speed/Other/DurativeVerb
6759 U16:Speed/Other/Prep
9054 U16:Speed/Other/_B+1
5028 U16:Speed/Prep/Direction
8829 U16:SpeedUnit/Other/Other
10434 U16:_B-1/Conj/Direction
3702 U16:_B-1/Conj/DurativeVerb
2784 U16:_B-1/Conj/MomentaryVerb
12444 U16:_B-1/Conj/Prep
333 U16:_B-1/Direction/DurativeVerb
2940 U16:_B-1/Direction/MomentaryVerb
501 U16:_B-1/DurativeVerb/Num
5586 U16:_B-1/DurativeVerb/Other
801 U16:_B-1/DurativeVerb/Place
4908 U16:_B-1/MomentaryVerb/Conj
2499 U16:_B-1/MomentaryVerb/Prep
3564 U16:_B-1/Other/Direction
5325 U16:_B-1/Other/DurativeVerb
1830 U16:_B-1/Other/Other
6876 U16:_B-1/Other/Speed
7788 U16:_B-1/Place/Direction
48 U16:_B-1/Prep/Direction
10407 U16:_B-1/Prep/DurativeVerb
8700 U16:_B-1/Prep/Num
585 U16:_B-1/Prep/Place
10923 U16:_B-1/Speed/Direction
6972 U16:_B-1/Speed/DurativeVerb
6726 U16:_B-1/Speed/Other
4998 U16:_B-1/Speed/Prep
10191 U17:Conj/Conj/MomentaryVerb
4218 U17:Conj/Direction/DurativeVerb
2019 U17:Conj/Direction/MomentaryVerb
7371 U17:Conj/DurativeVerb/Direction
10851 U17:Conj/DurativeVerb/DurativeVerb
6444 U17:Conj/DurativeVerb/Num
2412 U17:Conj/DurativeVerb/Place
11370 U17:Conj/DurativeVerb/Prep
11784 U17:Conj/MomentaryVerb/DurativeVerb
9915 U17:Conj/MomentaryVerb/Other
2787 U17:Conj/MomentaryVerb/Prep
3516 U17:Conj/MomentaryVerb/_B+1
1650 U17:Conj/Other/DurativeVerb
10485 U17:Conj/Other/Prep
7650 U17:Conj/Prep/Direction
891 U17:Conj/Prep/MomentaryVerb
1239 U17:Conj/Prep/Place
9321 U17:Direction/Distance/_B+1
10779 U17:Direction/DurativeVerb/Distance
3405 U17:Direction/DurativeVerb/DurativeVerb
111 U17:Direction/DurativeVerb/Num
1521 U17:Direction/DurativeVerb/Place
1905 U17:Direction/DurativeVerb/_B+1
2343 U17:Direction/MomentaryVerb/Conj
9510 U17:Direction/MomentaryVerb/Distance
4095 U17:Direction/MomentaryVerb/DurativeVerb
2943 U17:Direction/MomentaryVerb/Other
1125 U17:Direction/MomentaryVerb/_B+1
7440 U17:Direction/Other/Distance
12174 U17:Direction/Other/DurativeVerb
8607 U17:Direction/Other/Other
10818 U17:Distance/Conj/DurativeVerb
7515 U17:Distance/_B+1/_B+2
10167 U17:DistanceUnit/Conj/Conj
1986 U17:DistanceUnit/Conj/Direction
5232 U17:DistanceUnit/Conj/MomentaryVerb
12063 U17:DistanceUnit/Conj/Prep
6261 U17:DistanceUnit/MomentaryVerb/Num
420 U17:DistanceUnit/MomentaryVerb/_B+1
9234 U17:DistanceUnit/Speed/MomentaryVerb
291 U17:DistanceUnit/_B+1/_B+2
7401 U17:DurativeVerb/Direction/Other
10794 U17:DurativeVerb/Distance/Conj
10116 U17:DurativeVerb/Distance/_B+1
681 U17:DurativeVerb/DurativeVerb/Place
10887 U17:DurativeVerb/DurativeVerb/_B+1
171 U17:DurativeVerb/Num/DistanceUnit
6675 U17:DurativeVerb/Num/_B+1
10314 U17:DurativeVerb/Other/Direction
8439 U17:DurativeVerb/Other/Distance
8517 U17:DurativeVerb/Other/Other
5589 U17:DurativeVerb/Other/Place
804 U17:DurativeVerb/Place/Conj
1050 U17:DurativeVerb/Place/Direction
3984 U17:DurativeVerb/Place/DurativeVerb
3231 U17:DurativeVerb/Place/MomentaryVerb
1731 U17:DurativeVerb/Place/Other
5442 U17:DurativeVerb/Place/Prep
726 U17:DurativeVerb/Place/_B+1
12150 U17:DurativeVerb/Prep/Direction
5877 U17:DurativeVerb/Prep/Place
1920 U17:DurativeVerb/_B+1/_B+2
4197 U17:MomentaryVerb/Conj/Direction
2373 U17:MomentaryVerb/Conj/DurativeVerb
10464 U17:MomentaryVerb/Conj/Other
2667 U17:MomentaryVerb/Conj/Prep
9525 U17:MomentaryVerb/Distance/_B+1
3300 U17:MomentaryVerb/DurativeVerb/Place
6288 U17:MomentaryVerb/Num/DistanceUnit
5703 U17:MomentaryVerb/Other/DurativeVerb
10605 U17:MomentaryVerb/Other/Other
2973 U17:MomentaryVerb/Other/Prep
7137 U17:MomentaryVerb/Other/_B+1
2502 U17:MomentaryVerb/Prep/Place
465 U17:MomentaryVerb/_B+1/_B+2
1959 U17:Num/DistanceUnit/Conj
390 U17:Num/DistanceUnit/MomentaryVerb
9213 U17:Num/DistanceUnit/Speed
231 U17:Num/DistanceUnit/_B+1
8745 U17:Num/SpeedUnit/Other
6699 U17:Num/_B+1/_B+2
3567 U17:Other/Direction/DurativeVerb
7482 U17:Other/Distance/_B+1
5328 U17:Other/DurativeVerb/DurativeVerb
1689 U17:Other/DurativeVerb/Place
6054 U17:Other/DurativeVerb/_B+1
5793 U17:Other/MomentaryVerb/_B+1
5166 U17:Other/Num/DistanceUnit
8565 U17:Other/Other/Distance
8832 U17:Other/Other/DurativeVerb
8541 U17:Other/Other/Other
1833 U17:Other/Other/Prep
8979 U17:Other/Other/Speed
11568 U17:Other/Place/Other
5622 U17:Other/Place/Prep
1443 U17:Other/Prep/Direction
10068 U17:Other/Prep/DurativeVerb
2244 U17:Other/Prep/Place
9354 U17:Other/Speed/DurativeVerb
6879 U17:Other/Speed/Other
1797 U17:Other/_B+1/_B+2
4431 U17:Place/Conj/Direction
3624 U17:Place/Conj/DurativeVerb
3486 U17:Place/Conj/MomentaryVerb
1620 U17:Place/Conj/Other
846 U17:Place/Conj/Prep
1086 U17:Place/Direction/MomentaryVerb
630 U17:Place/DurativeVerb/DurativeVerb
4824 U17:Place/DurativeVerb/Num
10287 U17:Place/DurativeVerb/Other
1014 U17:Place/DurativeVerb/Place
5850 U17:Place/DurativeVerb/Prep
2736 U17:Place/DurativeVerb/_B+1
3261 U17:Place/MomentaryVerb/DurativeVerb
7107 U17:Place/MomentaryVerb/Other
3798 U17:Place/MomentaryVerb/_B+1
12678 U17:Place/Num/DistanceUnit
4509 U17:Place/Other/Direction
2850 U17:Place/Other/DurativeVerb
5769 U17:Place/Other/MomentaryVerb
5133 U17:Place/Other/Num
1404 U17:Place/Other/Prep
1767 U17:Place/Other/_B+1
4701 U17:Place/Prep/Direction
5469 U17:Place/Prep/MomentaryVerb
7962 U17:Place/Prep/Place
765 U17:Place/_B+1/_B+2
9306 U17:Prep/Direction/Distance
51 U17:Prep/Direction/DurativeVerb
2625 U17:Prep/Direction/MomentaryVerb
8592 U17:Prep/Direction/Other
10089 U17:Prep/DurativeVerb/Distance
5493 U17:Prep/MomentaryVerb/DurativeVerb
5682 U17:Prep/MomentaryVerb/Other
933 U17:Prep/MomentaryVerb/_B+1
8703 U17:Prep/Num/SpeedUnit
2277 U17:Prep/Place/Direction
588 U17:Prep/Place/DurativeVerb
12654 U17:Prep/Place/Num
1374 U17:Prep/Place/Other
4674 U17:Prep/Place/Prep
11415 U17:Prep/Place/_B+1
10926 U17:Speed/Direction/MomentaryVerb
9168 U17:Speed/DurativeVerb/Num
7023 U17:Speed/DurativeVerb/Place
9375 U17:Speed/DurativeVerb/Prep
6975 U17:Speed/DurativeVerb/_B+1
9270 U17:Speed/MomentaryVerb/_B+1
6909 U17:Speed/Other/DurativeVerb
6729 U17:Speed/Other/Prep
9036 U17:Speed/Other/_B+1
5001 U17:Speed/Prep/Direction
8790 U17:SpeedUnit/Other/Other
10221 U18:Conj/Conj
2052 U18:Conj/Direction
2451 U18:Conj/DurativeVerb
2817 U18:Conj/MomentaryVerb
1692 U18:Conj/Other
936 U18:Conj/Prep
9342 U18:Direction/Distance
174 U18:Direction/DurativeVerb
1164 U18:Direction/MomentaryVerb
7485 U18:Direction/Other
10854 U18:Distance/Conj
2022 U18:DistanceUnit/Conj
468 U18:DistanceUnit/MomentaryVerb
9273 U18:DistanceUnit/Speed
7443 U18:DurativeVerb/Direction
10140 U18:DurativeVerb/Distance
729 U18:DurativeVerb/DurativeVerb
234 U18:DurativeVerb/Num
5625 U18:DurativeVerb/Other
768 U18:DurativeVerb/Place
5910 U18:DurativeVerb/Prep
2415 U18:MomentaryVerb/Conj
9546 U18:MomentaryVerb/Distance
3342 U18:MomentaryVerb/DurativeVerb
6321 U18:MomentaryVerb/Num
3009 U18:MomentaryVerb/Other
2538 U18:MomentaryVerb/Prep
294 U18:Num/DistanceUnit
8793 U18:Num/SpeedUnit
3594 U18:Other/Direction
7518 U18:Other/Distance
1734 U18:Other/DurativeVerb
5817 U18:Other/MomentaryVerb
5202 U18:Other/Num
1875 U18:Other/Other
5658 U18:Other/Place
1485 U18:Other/Prep
6912 U18:Other/Speed
894 U18:Place/Conj
1128 U18:Place/Direction
684 U18:Place/DurativeVerb
3303 U18:Place/MomentaryVerb
12705 U18:Place/Num
1446 U18:Place/Other
4734 U18:Place/Prep
114 U18:Prep/Direction
10119 U18:Prep/DurativeVerb
966 U18:Prep/MomentaryVerb
8748 U18:Prep/Num
633 U18:Prep/Place
10950 U18:Speed/Direction
6999 U18:Speed/DurativeVerb
9300 U18:Speed/MomentaryVerb
6762 U18:Speed/Other
5031 U18:Speed/Prep
8835 U18:SpeedUnit/Other
2790 U18:_B-1/Conj
336 U18:_B-1/Direction
504 U18:_B-1/DurativeVerb
2505 U18:_B-1/MomentaryVerb
1836 U18:_B-1/Other
7791 U18:_B-1/Place
54 U18:_B-1/Prep
5004 U18:_B-1/Speed
10194 U19:Conj/Conj
2025 U19:Conj/Direction
2418 U19:Conj/DurativeVerb
2793 U19:Conj/MomentaryVerb
1653 U19:Conj/Other
897 U19:Conj/Prep
9324 U19:Direction/Distance
117 U19:Direction/DurativeVerb
1131 U19:Direction/MomentaryVerb
7446 U19:Direction/Other
10821 U19:Distance/Conj
7521 U19:Distance/_B+1
1989 U19:DistanceUnit/Conj
423 U19:DistanceUnit/MomentaryVerb
9237 U19:DistanceUnit/Speed
297 U19:DistanceUnit/_B+1
7404 U19:DurativeVerb/Direction
10122 U19:DurativeVerb/Distance
687 U19:DurativeVerb/DurativeVerb
177 U19:DurativeVerb/Num
5592 U19:DurativeVerb/Other
732 U19:DurativeVerb/Place
5880 U19:DurativeVerb/Prep
1923 U19:DurativeVerb/_B+1
2376 U19:MomentaryVerb/Conj
9528 U19:MomentaryVerb/Distance
3306 U19:MomentaryVerb/DurativeVerb
6291 U19:MomentaryVerb/Num
2976 U19:MomentaryVerb/Other
2508 U19:MomentaryVerb/Prep
471 U19:MomentaryVerb/_B+1
237 U19:Num/DistanceUnit
8751 U19:Num/SpeedUnit
6702 U19:Num/_B+1
3570 U19:Other/Direction
7488 U19:Other/Distance
1695 U19:Other/DurativeVerb
5796 U19:Other/MomentaryVerb
5169 U19:Other/Num
1839 U19:Other/Other
5628 U19:Other/Place
1449 U19:Other/Prep
6882 U19:Other/Speed
1800 U19:Other/_B+1
849 U19:Place/Conj
1089 U19:Place/Direction
636 U19:Place/DurativeVerb
3264 U19:Place/MomentaryVerb
12681 U19:Place/Num
1407 U19:Place/Other
4704 U19:Place/Prep
771 U19:Place/_B+1
57 U19:Prep/Direction
10092 U19:Prep/DurativeVerb
939 U19:Prep/MomentaryVerb
8706 U19:Prep/Num
591 U19:Prep/Place
10929 U19:Speed/Direction
6978 U19:Speed/DurativeVerb
9276 U19:Speed/MomentaryVerb
6732 U19:Speed/Other
5007 U19:Speed/Prep
8796 U19:SpeedUnit/Other

-0.1662137881442326
0.4351024334052314
-0.2688886452610116
-0.1662137881442326
0.4351024334052314
-0.2688886452610116
-0.0708274644046061
0.1363174984107320
-0.0654900340061268
-0.0239045319734497
0.0558671781448179
-0.0319626461713692
-0.1724215804389493
0.0311729179852270
0.1412486624537177
-0.0087377566963392
0.0161534320677712
-0.0074156753714339
-0.0046254786730186
0.0088594425851348
-0.0042339639121175
-0.0102185632744577
0.0260384783058955
-0.0158199150314378
-0.0087377566963392
0.0161534320677712
-0.0074156753714339
-0.0211888120318100
0.0463503134018998
-0.0251615013700904
-0.1662137881442326
0.4351024334052314
-0.2688886452610116
-0.1662137881442326
0.4351024334052314
-0.2688886452610116
-0.2503752132460753
0.4767718972207394
-0.2263966839746895
0.0710980376449061
0.0784092562339767
-0.1495072938788959
-0.1970617378141233
0.2562542156412173
-0.0591924778271312
-0.0839703295279364
0.1574514973713334
-0.0734811678434014
-0.0194841813076043
0.0320151026584402
-0.0125309213508390
-0.0337711068965990
0.0770929061894407
-0.0433217992928420
-0.0839703295279364
0.1574514973713334
-0.0734811678434014
-0.0964428730567287
0.1707833489062147
-0.0743404758494937
0.0825759953264123
-0.0895038988567365
0.0069279035303056
0.0327123511377332
0.1151264298062627
-0.1478387809440025
-0.0408413294026565
0.0954208302290856
-0.0545795008264329
0.0360380855282685
0.0787110134817108
-0.1147490990099843
-0.0057252027892718
0.0142692683542656
-0.0085440655649934
-0.0163359267283838
0.0368991555194672
-0.0205632287910825
-0.0216875570557953
0.0432625883243831
-0.0215750312685902
-0.0057252027892718
0.0142692683542656
-0.0085440655649934
-0.0358923004490026
0.0817690168729554
-0.0458767164239556
-0.0266365860094492
0.0569144016805133
-0.0302778156710675
0.0825759953264123
-0.0895038988567365
0.0069279035303056
-0.1421662528153429
-0.3174327998580617
0.4595990526733718
-0.2043289648084156
0.4246193500423295
-0.2202903852339452
-0.0434712945729573
0.0626161537753780
-0.0191448592024790
-0.1379107947439683
0.0981750191543627
0.0397357755895985
-0.0449574717573211
0.1067303842151128
-0.0617729124577910
-0.0659750330375560
0.1540070470446330
-0.0880320140070850
-0.0400217262439211
0.0927631407525089
-0.0527414145085910
-0.1029695890089767
0.2398007314850410
-0.1368311424760838
-0.0895354770703039
0.2072910633385779
-0.1177555862682809
-0.0501191231435346
0.0853461385341470
-0.0352270153906173
-0.0197552438511503
0.0393539059301277
-0.0195986620789776
-0.0369611813597834
0.0775016830173397
-0.0405405016575608
-0.0019361180959915
0.0047449557245896
-0.0028088376285972
-0.0653431830682159
0.0386129785328569
0.0267302045353611
-0.0097933177070778
0.0173393097917313
-0.0075459920846563
-0.0019361180959915
0.0047449557245896
-0.0028088376285972
-0.0019361180959915
0.0047449557245896
-0.0028088376285972
-0.0118008243679356
0.0222488100087540
-0.0104479856408206
-0.0019361180959915
0.0047449557245896
-0.0028088376285972
-0.1996793604855902
0.4011623124896120
-0.2014829520040581
-0.1433693199210742
0.2856545817437239
-0.1422852618226858
-0.3849931290059631
0.6974724807380089
-0.3124793517320901
-0.0927505788313565
0.0957785689410792
-0.0030279901097250
-0.0842147332953614
0.0808047161996961
0.0034100170956667
-0.0269477168309094
0.0529634712567280
-0.0260157544258255
-0.0196896481332200
0.0469733299304075
-0.0272836817971886
-0.0374201457608771
0.0871739807673447
-0.0497538350064694
-0.0497490143062535
0.1045758546758679
-0.0548268403696205
-0.0395204215160837
0.0902122063847220
-0.0506917848686423
0.0308280921223872
0.0301363217997324
-0.0609644139221103
-0.1175985144805811
0.1659702188033622
-0.0483717043227798
-0.0083101164417190
0.0103981826510737
-0.0020880662093519
-0.0856364850299399
0.1291621056583229
-0.0435256206283786
0.1943014839574277
0.2399318310333795
-0.4342333149908450
-0.0083101164417190
0.0103981826510737
-0.0020880662093519
-0.0083101164417190
0.0103981826510737
-0.0020880662093519
-0.0083101164417190
0.0103981826510737
-0.0020880662093519
-0.0083101164417190
0.0103981826510737
-0.0020880662093519
-0.0083101164417190
0.0103981826510737
-0.0020880662093519
-0.0517258792663034
0.1082731707111017
-0.0565472914448107
0.5777217204723500
-0.3612876743344599
-0.2164340461379144
-0.1660794037459338
0.2673543938266647
-0.1012749900807332
-0.1305425485505012
0.1889638132163781
-0.0584212646658743
0.1943014839574277
0.2399318310333795
-0.4342333149908450
-0.0786461896814117
0.1019203431034476
-0.0232741534220341
-0.1193398055090921
0.1669340459966349
-0.0475942404875417
-0.0835087319991200
0.1049674480629304
-0.0214587160638079
-0.1400158785647027
0.1927119896684012
-0.0526961111036990
-0.1305425485505012
0.1889638132163781
-0.0584212646658743
0.0403421561059915
0.0172941885339775
-0.0576363446399728
-0.0075463265483756
0.0103804489447357
-0.0028341223963598
-0.0716562951887399
0.1143202362115090
-0.0426639410227656
-0.0424524429267357
0.3305416303071965
-0.2880891873804886
-0.0424524429267357
0.3305416303071965
-0.2880891873804886
-0.0075463265483756
0.0103804489447357
-0.0028341223963598
-0.0075463265483756
0.0103804489447357
-0.0028341223963598
-0.0334226578074827
0.0463521107393616
-0.0129294529318807
-0.0075463265483756
0.0103804489447357
-0.0028341223963598
-0.0334226578074827
0.0463521107393616
-0.0129294529318807
-0.0544929202057111
0.3809424812306789
-0.3264495610249995
-0.1182499731130961
0.1965096410252630
-0.0782596679121693
-0.1115658643987003
0.1727808860798182
-0.0612150216811174
-0.0424524429267357
0.3305416303071965
-0.2880891873804886
-0.0424524429267357
0.3305416303071965
-0.2880891873804886
-0.0819729170920635
0.1225502587825888
-0.0405773416905279
-0.0660339638098389
0.0918143696787791
-0.0257804058689449
-0.0660339638098389
0.0918143696787791
-0.0257804058689449
-0.1115658643987003
0.1727808860798182
-0.0612150216811174
-0.0660339638098389
0.0918143696787791
-0.0257804058689449
-0.4633237763816286
-0.1646754023290478
-0.2933813591152422
-0.0360361713346071
1.6602181109113379
-0.0741534073141129
-0.2982592448921929
-0.0500749794176885
-0.2803137701270230
-0.0183499799885491
0.0429766898573207
-0.0246267098687706
-0.0025548986858438
0.0045038533951966
-0.0019489547093530
-0.0050226613162043
0.0088563785287430
-0.0038337172125398
-0.0050226613162043
0.0088563785287430
-0.0038337172125398
-0.0025548986858438
0.0045038533951966
-0.0019489547093530
-0.0050226613162043
0.0088563785287430
-0.0038337172125398
-0.0086937014903967
0.0160715638683186
-0.0073778623779222
-0.0236260588651893
0.0411795842894187
-0.0175535254242316
-0.0102331253604031
0.0191637049653673
-0.0089305796049651
-0.0236260588651893
0.0411795842894187
-0.0175535254242316
-0.0153551662604906
0.0354976358547003
-0.0201424695942087
-0.0027963016240644
0.0063279161429724
-0.0035316145189076
-0.0054676456146548
0.0126683045670749
-0.0072006589524196
-0.0027963016240644
0.0063279161429724
-0.0035316145189076
-0.0027963016240644
0.0063279161429724
-0.0035316145189076
-0.0069122993557680
0.0185590398821733
-0.0116467405264045
-0.0027963016240644
0.0063279161429724
-0.0035316145189076
-0.0129137768295083
0.0287830521315144
-0.0158692753020060
0.0906789907512682
-0.0200407799490103
-0.0706382108022542
-0.0085842229468284
0.0125707823775561
-0.0039865594307284
0.0534517558916596
0.0054005604434680
-0.0588523163351310
-0.0085842229468284
0.0125707823775561
-0.0039865594307284
-0.0085842229468284
0.0125707823775561
-0.0039865594307284
-0.0085842229468284
0.0125707823775561
-0.0039865594307284
-0.0085842229468284
0.0125707823775561
-0.0039865594307284
-0.0085842229468284
0.0125707823775561
-0.0039865594307284
0.2276005266449679
-0.1143002313951075
-0.1133002952498766
-0.0165779845926278
0.0243279110681513
-0.0077499264755252
-0.0038494714373405
0.0048163026897172
-0.0009668312523761
-0.0191472592205947
0.0327556738585214
-0.0136084146379268
-0.0038494714373405
0.0048163026897172
-0.0009668312523761
-0.0038494714373405
0.0048163026897172
-0.0009668312523761
-0.0038494714373405
0.0048163026897172
-0.0009668312523761
-0.0038494714373405
0.0048163026897172
-0.0009668312523761
-0.0070340480928753
0.0108939729740604
-0.0038599248811847
0.0247117684849064
0.1655871566739368
-0.1902989251588768
-0.0070340480928753
0.0108939729740604
-0.0038599248811847
-0.0038494714373405
0.0048163026897172
-0.0009668312523761
-0.0070340480928753
0.0108939729740604
-0.0038599248811847
-0.0062368881645306
0.0089775335155849
-0.0027406453510536
-0.0439138319072713
0.0766100290936758
-0.0326961971863969
-0.0245937326428860
0.0551519324454472
-0.0305581998025604
-0.0062368881645306
0.0089775335155849
-0.0027406453510536
-0.0062368881645306
0.0089775335155849
-0.0027406453510536
-0.0117879599039537
0.0224924317643600
-0.0107044718604064
-0.0115709311779228
0.0215194052435229
-0.0099484740655987
-0.0117879599039537
0.0224924317643600
-0.0107044718604064
-0.0606607260760932
0.1069809791911501
-0.0463202531150528
-0.0537409847343792
0.0892909623562542
-0.0355499776218680
-0.2082359715973262
0.3926736750091223
-0.1844377034118292
-0.0115709311779228
0.0215194052435229
-0.0099484740655987
-0.0062368881645306
0.0089775335155849
-0.0027406453510536
-0.1092804291704342
0.1711121243901493
-0.0618316952197268
-0.0115709311779228
0.0215194052435229
-0.0099484740655987
-0.1092804291704342
0.1711121243901493
-0.0618316952197268
-0.0293855149351351
0.0517148603700208
-0.0223293454349011
-0.0084521760038319
0.0185854115250379
-0.0101332355212076
-0.0100793412216514
0.0217660485174528
-0.0116867072958028
-0.0031177591047786
0.0062309875718667
-0.0031132284670885
-0.0015997866174474
0.0031320788818394
-0.0015322922643925
-0.0015997866174474
0.0031320788818394
-0.0015322922643925
-0.0031177591047786
0.0062309875718667
-0.0031132284670885
-0.0015997866174474
0.0031320788818394
-0.0015322922643925
-0.0603659402545988
0.1156656125602434
-0.0552996723056459
-0.0077931658304095
0.0156248385496998
-0.0078316727192907
-0.0603659402545988
0.1156656125602434
-0.0552996723056459
-0.0325043203121477
0.0420065748734419
-0.0095022545613060
-0.0246016285278351
0.0339088958669757
-0.0093072673391419
-0.0338079241210975
0.0450978837833847
-0.0112899596622883
-0.0093335704278672
0.0113439866897305
-0.0020104162618637
-0.0093335704278672
0.0113439866897305
-0.0020104162618637
-0.0189507988441905
0.0233764565827094
-0.0044256577385204
-0.0093335704278672
0.0113439866897305
-0.0020104162618637
-0.0246016285278351
0.0339088958669757
-0.0093072673391419
-0.0407572103867713
0.0562651378741447
-0.0155079274873724
0.0343215365100974
-0.0182710348891961
-0.0160505016209132
-0.0203401332829538
0.0310296964107313
-0.0106895631277794
-0.0247863101427658
0.0372395074982086
-0.0124531973554453
-0.0045266735366885
0.0062558817499167
-0.0017292082132290
-0.0130418700753497
0.0180313054818397
-0.0049894354064917
-0.0174880469351618
0.0242411165693170
-0.0067530696341576
-0.0203401332829538
0.0310296964107313
-0.0106895631277794
-0.0174880469351618
0.0242411165693170
-0.0067530696341576
-0.0236630425052850
0.0426099814656312
-0.0189469389603520
-0.0018705134739686
0.0035360951680621
-0.0016655816940945
-0.0118141418325531
0.0231851432365532
-0.0113710014040017
-0.0187794337366779
0.0334851449768421
-0.0147057112401679
-0.0018705134739686
0.0035360951680621
-0.0016655816940945
-0.0018705134739686
0.0035360951680621
-0.0016655816940945
-0.0187794337366779
0.0334851449768421
-0.0147057112401679
-0.0018705134739686
0.0035360951680621
-0.0016655816940945
-0.3605357286957659
0.6500098771831838
-0.2894741484874546
-0.0557163198866150
0.1092781947801091
-0.0535618748934941
-0.0630215460032140
0.1304257080671086
-0.0674041620639125
-0.1211062988476683
0.2432248911794001
-0.1221185923317477
-0.3254398361131194
-0.1625296292575021
0.4879694653706140
-0.0279196980357749
-0.0104641907294256
0.0383838887652016
-0.1188320734802695
-0.0023301101581871
0.1211621836384574
-0.1411158748851915
0.0756398843153777
0.0654759905698138
-0.0279196980357749
-0.0104641907294256
0.0383838887652016
-0.0279196980357749
-0.0104641907294256
0.0383838887652016
-0.0279196980357749
-0.0104641907294256
0.0383838887652016
-0.0279196980357749
-0.0104641907294256
0.0383838887652016
-0.0279196980357749
-0.0104641907294256
0.0383838887652016
0.9918027502362115
-1.7000753822852170
0.7082726320489767
0.1001577307362869
-0.4792779309724355
0.3791202002361486
0.0853543683503950
-0.4103727585549565
0.3250183902045494
-0.0732974863049078
-0.0475774766696767
0.1208749629745789
0.0130677512224571
-0.6913131812401221
0.6782454300176554
0.2087569676394037
-0.5015921282072233
0.2928351605678041
-0.0300079665160860
0.0599461581820142
-0.0299381916659389
-0.0018247608618640
0.0068265853848252
-0.0050018245229599
-0.0131675750655964
0.0386769220183822
-0.0255093469527857
-0.1712370043269567
0.0330770688872994
0.1381599354396491
-0.0507845806652795
0.0117369617005065
0.0390476189647705
-0.0018247608618640
0.0068265853848252
-0.0050018245229599
-0.0018247608618640
0.0068265853848252
-0.0050018245229599
-0.0018247608618640
0.0068265853848252
-0.0050018245229599
-0.0018247608618640
0.0068265853848252
-0.0050018245229599
-0.0042968577880851
0.0150958900530973
-0.0107990322650117
-0.3262144876088436
0.6156133759225807
-0.2893988883137816
-0.3081835856679646
0.1948440346634843
0.1133395510044332
-0.0646844575997897
0.1248148165156091
-0.0601303589158331
-0.0061887277073021
0.0195465028060330
-0.0133577750987409
-0.0108387185674461
0.0337468965566240
-0.0229081779891933
-0.0869531279073545
0.1633465533682801
-0.0763934254609418
-0.0153970225850827
0.0397816049010155
-0.0243845823159468
-0.0064786593061423
0.0075257299815847
-0.0010470706754410
-0.0363455713457322
0.0523256552403406
-0.0159800838946075
-0.0675297464959334
0.1269692411563695
-0.0594394946604437
-0.0298131237493912
0.0546401819995619
-0.0248270582501713
-0.0064786593061423
0.0075257299815847
-0.0010470706754410
-0.0064786593061423
0.0075257299815847
-0.0010470706754410
-0.0064786593061423
0.0075257299815847
-0.0010470706754410
-0.0125562864471726
0.0179150902360064
-0.0053588037888335
-0.0085259456682088
0.0120282792101348
-0.0035023335419251
0.0907705359337680
0.1704712969021722
-0.2612418328359629
-0.0223261436266797
0.0259022048899517
-0.0035760612632827
-0.0444456663819068
0.0614363722295727
-0.0169907058476776
-0.1055699497611234
0.1465929504764258
-0.0410230007153172
-0.0546971368169363
0.0761967651908719
-0.0214996283739458
-0.2071418873530055
0.3582823205591703
-0.1511404332061888
0.0924673154548457
0.0687448417041479
-0.1612121571589904
0.5817735985915750
-0.3033964954712772
-0.2783771031202998
0.0637780272684442
0.0797425973637842
-0.1435206246322278
0.0270671998383099
-0.0239592219379442
-0.0031079779003637
0.0270671998383099
-0.0239592219379442
-0.0031079779003637
-0.2535560286822403
0.2776147859177094
-0.0240587572354668
0.0623553212138105
-0.0380309952515922
-0.0243243259622161
-0.2535560286822403
0.2776147859177094
-0.0240587572354668
0.1745735296144131
-0.1227351037438659
-0.0518384258705587
0.2416516995052661
-0.1750166624038657
-0.0666350371014104
0.3360677675557047
-0.2290179095489993
-0.1070498580067138
0.9250460569405985
-0.8608667153633930
-0.0641793415772265
0.3360677675557047
-0.2290179095489993
-0.1070498580067138
-0.0139809611425824
0.0233629396197299
-0.0093819784771480
-0.0041209332700171
0.0064557796684670
-0.0023348463984499
-0.0048442968536165
0.0093219502847077
-0.0044776534310915
-0.0046476889093335
0.0089592588721908
-0.0043115699628582
-0.0015558526309141
0.0030447962293556
-0.0014889435984421
-0.0015558526309141
0.0030447962293556
-0.0014889435984421
-0.0046476889093335
0.0089592588721908
-0.0043115699628582
-0.0015558526309141
0.0030447962293556
-0.0014889435984421
-0.0901816574445629
0.1819147818467483
-0.0917331244022003
-0.0454201913008094
0.0825834524078850
-0.0371632611070761
-0.0370006597318316
0.0772291624911417
-0.0402285027593192
0.0080457916118958
-0.0903203550359966
0.0822745634241017
0.0950993486556805
-0.0293639626600237
-0.0657353859956576
-0.0612840787466154
-0.0375864365327661
0.0988705152793798
0.0026190025109148
-0.0105136243397775
0.0078946218288603
0.0390716725888264
-0.0090021850113682
-0.0300694875774596
0.0390716725888264
-0.0090021850113682
-0.0300694875774596
0.0390716725888264
-0.0090021850113682
-0.0300694875774596
0.0390716725888264
-0.0090021850113682
-0.0300694875774596
0.0390716725888264
-0.0090021850113682
-0.0300694875774596
0.0255107541148677
-0.0994322844390895
0.0739215303242054
0.0832965230654447
0.0776887822262468
-0.1609853052917052
0.3591280910258151
-0.3335373639959316
-0.0255907270298924
0.1130924619594967
-0.2665818313149294
0.1534893693554252
0.3168329614622247
-0.0754080002047888
-0.2414249612574421
0.1130924619594967
-0.2665818313149294
0.1534893693554252
-0.0131394243222521
0.0272601488738417
-0.0141207245515911
-0.0070939959718058
0.0132301917700015
-0.0061361957981977
-0.0225138693254345
0.0436302969083831
-0.0211164275829527
-0.0819524505167211
-0.0157327745976931
0.0976852251144093
-0.0070939959718058
0.0132301917700015
-0.0061361957981977
-0.0070939959718058
0.0132301917700015
-0.0061361957981977
-0.0070939959718058
0.0132301917700015
-0.0061361957981977
-0.0070939959718058
0.0132301917700015
-0.0061361957981977
-0.0070939959718058
0.0132301917700015
-0.0061361957981977
-0.1867271279820695
0.3587515162750726
-0.1720243882930360
-0.0943366107681106
0.1197552626235200
-0.0254186518554269
-0.0787862536010801
0.1591889889436328
-0.0804027353425666
-0.0321499488657228
0.0670671087447644
-0.0349171598790538
-0.0136001222127835
0.0264101560470787
-0.0128100338343024
-0.0787862536010801
0.1591889889436328
-0.0804027353425666
-0.0500674677878784
0.1040096731701251
-0.0539422053822664
-0.0039278154115271
0.0048504862248893
-0.0009226708133631
-0.0116810178947844
0.0219438659603966
-0.0102628480656141
-0.0575766910451602
0.0953834149801679
-0.0378067239350165
-0.0039278154115271
0.0048504862248893
-0.0009226708133631
-0.0039278154115271
0.0048504862248893
-0.0009226708133631
-0.0039278154115271
0.0048504862248893
-0.0009226708133631
-0.0039278154115271
0.0048504862248893
-0.0009226708133631
-0.0079157481493927
0.0132437577776046
-0.0053280096282109
-0.1549613060386220
0.2735499451121461
-0.1185886390735452
-0.0326787213520890
0.0492334080426488
-0.0165546866905717
-0.0077806602656774
0.0095855047844114
-0.0018048445187403
-0.0130878067764931
0.0163117276176528
-0.0032239208411650
-0.0524957575521332
0.0859801282933394
-0.0334843707412225
-0.0210299775756216
0.0386472826070650
-0.0176173050314448
-0.0228992288834450
0.0444463488043300
-0.0215471199208858
-0.0549501012002101
0.1368827587392638
-0.0819326575390682
-0.0055510717394231
0.0135148982487751
-0.0079638265093528
-0.0055510717394231
0.0135148982487751
-0.0079638265093528
-0.0099503295458493
0.0266437336977562
-0.0166934041519053
-0.3703016576493596
0.0053597769123276
0.3649418807370110
-0.0100644086350725
0.0268257371901421
-0.0167613285550753
-0.0174043099786820
0.0375347634362316
-0.0201304534575553
-0.0252199784164582
0.0623123313572948
-0.0370923529408366
-0.0363588612688602
0.0806636631235765
-0.0443048018547137
-0.0104945956928466
0.0324813054107814
-0.0219867097179372
-0.0137704152732428
0.0298886487604587
-0.0161182334872151
-0.0014621026667648
0.0029822909226108
-0.0015201882558458
-0.0014621026667648
0.0029822909226108
-0.0015201882558458
-0.0137704152732428
0.0298886487604587
-0.0161182334872151
-0.0040491021899318
0.0189112882217392
-0.0148621860318071
-0.3459233057708724
-0.0413674992476386
0.3872908050185139
-0.0736667393100371
-0.0744286476036108
0.1480953869136488
-0.0179426065563756
-0.0067436925005706
0.0246862990569471
-0.0179426065563756
-0.0067436925005706
0.0246862990569471
-0.0179426065563756
-0.0067436925005706
0.0246862990569471
-0.0179426065563756
-0.0067436925005706
0.0246862990569471
-0.0337970460874441
-0.0449711629143887
0.0787682090018344
-0.0179426065563756
-0.0067436925005706
0.0246862990569471
-0.1339636056784567
-0.1527677096776006
0.2867313153560483
-0.0323441730596504
0.0756154994331741
-0.0432713263735216
-0.0096215107222735
0.0272317633933813
-0.0176102526711075
-0.0019664903680826
0.0049133006562846
-0.0029468102882005
0.0116933384059853
0.0388795857425219
-0.0505729241485065
-0.0019664903680826
0.0049133006562846
-0.0029468102882005
-0.0019664903680826
0.0049133006562846
-0.0029468102882005
-0.0019664903680826
0.0049133006562846
-0.0029468102882005
-0.0019664903680826
0.0049133006562846
-0.0029468102882005
-0.0019664903680826
0.0049133006562846
-0.0029468102882005
-0.1384065629092873
0.2160814764921985
-0.0776749135829202
-0.0325715593707324
0.0596709367005682
-0.0270993773298425
-0.0146633199011743
0.0307686689518624
-0.0161053490506890
0.0003363967416856
0.0080700423863105
-0.0084064391279964
0.0124945657497143
-0.0081157891018709
-0.0043787766478423
0.0911001103558110
0.0442831987085275
-0.1353833090643417
0.1883559275567359
-0.0272671174438298
-0.1610888101129113
0.0124945657497143
-0.0081157891018709
-0.0043787766478423
0.0124945657497143
-0.0081157891018709
-0.0043787766478423
0.0124945657497143
-0.0081157891018709
-0.0043787766478423
0.0124945657497143
-0.0081157891018709
-0.0043787766478423
0.0124945657497143
-0.0081157891018709
-0.0043787766478423
0.2209597276837265
-0.1398250131037600
-0.0811347145799704
